{"learner":{"attributes":{"scikit_learn":"{\"_estimator_type\": \"classifier\"}"},"feature_names":[],"feature_types":[],"gradient_booster":{"model":{"cats":{"enc":[],"feature_segments":[],"sorted_idx":[]},"gbtree_model_param":{"num_parallel_tree":"1","num_trees":"400"},"iteration_indptr":[0,1,2,3,4,5,6,7,8,9,10,11,12,13,14,15,16,17,18,19,20,21,22,23,24,25,26,27,28,29,30,31,32,33,34,35,36,37,38,39,40,41,42,43,44,45,46,47,48,49,50,51,52,53,54,55,56,57,58,59,60,61,62,63,64,65,66,67,68,69,70,71,72,73,74,75,76,77,78,79,80,81,82,83,84,85,86,87,88,89,90,91,92,93,94,95,96,97,98,99,100,101,102,103,104,105,106,107,108,109,110,111,112,113,114,115,116,117,118,119,120,121,122,123,124,125,126,127,128,129,130,131,132,133,134,135,136,137,138,139,140,141,142,143,144,145,146,147,148,149,150,151,152,153,154,155,156,157,158,159,160,161,162,163,164,165,166,167,168,169,170,171,172,173,174,175,176,177,178,179,180,181,182,183,184,185,186,187,188,189,190,191,192,193,194,195,196,197,198,199,200,201,202,203,204,205,206,207,208,209,210,211,212,213,214,215,216,217,218,219,220,221,222,223,224,225,226,227,228,229,230,231,232,233,234,235,236,237,238,239,240,241,242,243,244,245,246,247,248,249,250,251,252,253,254,255,256,257,258,259,260,261,262,263,264,265,266,267,268,269,270,271,272,273,274,275,276,277,278,279,280,281,282,283,284,285,286,287,288,289,290,291,292,293,294,295,296,297,298,299,300,301,302,303,304,305,306,307,308,309,310,311,312,313,314,315,316,317,318,319,320,321,322,323,324,325,326,327,328,329,330,331,332,333,334,335,336,337,338,339,340,341,342,343,344,345,346,347,348,349,350,351,352,353,354,355,356,357,358,359,360,361,362,363,364,365,366,367,368,369,370,371,372,373,374,375,376,377,378,379,380,381,382,383,384,385,386,387,388,389,390,391,392,393,394,395,396,397,398,399,400],"tree_info":[0,0,0,0,0,0,0,0,0,0,0,0,0,0,0,0,0,0,0,0,0,0,0,0,0,0,0,0,0,0,0,0,0,0,0,0,0,0,0,0,0,0,0,0,0,0,0,0,0,0,0,0,0,0,0,0,0,0,0,0,0,0,0,0,0,0,0,0,0,0,0,0,0,0,0,0,0,0,0,0,0,0,0,0,0,0,0,0,0,0,0,0,0,0,0,0,0,0,0,0,0,0,0,0,0,0,0,0,0,0,0,0,0,0,0,0,0,0,0,0,0,0,0,0,0,0,0,0,0,0,0,0,0,0,0,0,0,0,0,0,0,0,0,0,0,0,0,0,0,0,0,0,0,0,0,0,0,0,0,0,0,0,0,0,0,0,0,0,0,0,0,0,0,0,0,0,0,0,0,0,0,0,0,0,0,0,0,0,0,0,0,0,0,0,0,0,0,0,0,0,0,0,0,0,0,0,0,0,0,0,0,0,0,0,0,0,0,0,0,0,0,0,0,0,0,0,0,0,0,0,0,0,0,0,0,0,0,0,0,0,0,0,0,0,0,0,0,0,0,0,0,0,0,0,0,0,0,0,0,0,0,0,0,0,0,0,0,0,0,0,0,0,0,0,0,0,0,0,0,0,0,0,0,0,0,0,0,0,0,0,0,0,0,0,0,0,0,0,0,0,0,0,0,0,0,0,0,0,0,0,0,0,0,0,0,0,0,0,0,0,0,0,0,0,0,0,0,0,0,0,0,0,0,0,0,0,0,0,0,0,0,0,0,0,0,0,0,0,0,0,0,0,0,0,0,0,0,0,0,0,0,0,0,0,0,0,0,0,0,0,0,0,0,0,0,0,0,0,0,0,0,0,0,0,0,0,0,0,0,0,0,0,0,0,0,0,0,0,0,0],"trees":[{"base_weights":[1.0524086E-2,9.416145E-1,-5.239793E-1,1.4040567E0,1.1066296E-1,-7.857222E-1,6.9354343E-1,9.781763E-1,1.6895938E0,-5.263639E-1,6.2798613E-1,9.219614E-2,-9.290755E-1,2.2127546E-1,1.8130736E0,1.4182495E0,2.626866E-1,1.5350342E0,1.8948965E0,-7.672308E-1,2.1146928E-1,1.806046E-1,1.193182E0,-2.1731557E-1,6.972899E-1,-1.0839567E0,-1.8751669E-1,-6.40796E-1,9.643584E-1,-6.666667E-2,1.8567665E0,-7.333334E-2,7.244515E-2,-3.6020942E-2,3.502377E-2,7.907831E-2,-2.644715E-3,9.552324E-2,-5.555556E-2,1.9810451E-2,-4.7268912E-2,-4.5215186E-2,2.6159873E-2,1.0574105E-3,8.31728E-2,-1.5973434E-2,6.783048E-2,-2.3854082E-2,2.9613081E-2,2.4151413E-2,7.993766E-2,-5.6777965E-2,2.0004554E-2,-1.961773E-2,3.589168E-2,1.7177274E-2,-5.12707E-2,1.99864E-2,8.472797E-2,9.474003E-2,-1.4351445E-3],"categories":[],"categories_nodes":[],"categories_segments":[],"categories_sizes":[],"default_left":[0,0,0,0,0,0,0,0,0,0,0,0,0,0,0,0,0,0,0,0,0,0,0,0,0,0,0,0,0,0,0,0,0,0,0,0,0,0,0,0,0,0,0,0,0,0,0,0,0,0,0,0,0,0,0,0,0,0,0,0,0],"id":0,"left_children":[1,3,5,7,9,11,13,15,17,19,21,23,25,27,29,31,33,35,37,39,41,43,45,47,49,51,53,55,57,-1,59,-1,-1,-1,-1,-1,-1,-1,-1,-1,-1,-1,-1,-1,-1,-1,-1,-1,-1,-1,-1,-1,-1,-1,-1,-1,-1,-1,-1,-1,-1],"loss_changes":[2.6340916E3,7.4159485E2,1.0721143E3,1.4914355E2,2.2813037E2,3.4845093E2,3.1445258E2,1.5708847E2,2.0603271E1,5.5313522E1,9.6356186E1,7.308969E1,2.7310083E2,2.6964285E2,2.6745605E1,2.9487E1,8.300024E1,3.1707397E1,1.6816406E1,4.8909363E1,2.731017E1,5.0649544E1,4.210376E1,5.4628593E1,2.472969E1,1.5118457E2,7.675006E1,7.418482E1,9.247911E1,0E0,1.2571045E1,0E0,0E0,0E0,0E0,0E0,0E0,0E0,0E0,0E0,0E0,0E0,0E0,0E0,0E0,0E0,0E0,0E0,0E0,0E0,0E0,0E0,0E0,0E0,0E0,0E0,0E0,0E0,0E0,0E0,0E0],"parents":[2147483647,0,0,1,1,2,2,3,3,4,4,5,5,6,6,7,7,8,8,9,9,10,10,11,11,12,12,13,13,14,14,15,15,16,16,17,17,18,18,19,19,20,20,21,21,22,22,23,23,24,24,25,25,26,26,27,27,28,28,30,30],"right_children":[2,4,6,8,10,12,14,16,18,20,22,24,26,28,30,32,34,36,38,40,42,44,46,48,50,52,54,56,58,-1,60,-1,-1,-1,-1,-1,-1,-1,-1,-1,-1,-1,-1,-1,-1,-1,-1,-1,-1,-1,-1,-1,-1,-1,-1,-1,-1,-1,-1,-1,-1],"split_conditions":[-4.08E-1,6.73E-1,5.31E-1,1.2502296E-1,4.43E-1,3.8E-1,-5.57E-1,4.25E-1,1.9334981E-1,-6.96E-1,4.35E-1,5.3068E-2,4.65E-1,6.8025E-2,4.6775E-2,5.7346243E-2,2.25E-1,1.595E0,8.89E-3,-1.411E0,3.3949074E1,6.4456903E2,8.2702E-2,-4.42E-1,1.43159E-1,-3.6E-1,7.7707E-2,7.87E-1,2.7734027E2,-6.666667E-2,-2.13E-1,-7.333334E-2,7.244515E-2,-3.6020942E-2,3.502377E-2,7.907831E-2,-2.644715E-3,9.552324E-2,-5.555556E-2,1.9810451E-2,-4.7268912E-2,-4.5215186E-2,2.6159873E-2,1.0574105E-3,8.31728E-2,-1.5973434E-2,6.783048E-2,-2.3854082E-2,2.9613081E-2,2.4151413E-2,7.993766E-2,-5.6777965E-2,2.0004554E-2,-1.961773E-2,3.589168E-2,1.7177274E-2,-5.12707E-2,1.99864E-2,8.472797E-2,9.474003E-2,-1.4351445E-3],"split_indices":[24,25,65,55,65,25,64,25,55,64,12,61,12,53,69,31,65,58,38,32,99,75,29,64,69,64,61,42,75,0,16,0,0,0,0,0,0,0,0,0,0,0,0,0,0,0,0,0,0,0,0,0,0,0,0,0,0,0,0,0,0],"split_type":[0,0,0,0,0,0,0,0,0,0,0,0,0,0,0,0,0,0,0,0,0,0,0,0,0,0,0,0,0,0,0,0,0,0,0,0,0,0,0,0,0,0,0,0,0,0,0,0,0,0,0,0,0,0,0,0,0,0,0,0,0],"sum_hessian":[5.2908457E3,1.9292986E3,3.3615474E3,1.2390508E3,6.9024774E2,2.7670435E3,5.945039E2,4.9908624E2,7.3996454E2,3.0932742E2,3.8092035E2,3.8845303E2,2.3785903E3,4.1896384E2,1.7554005E2,3.0841098E2,1.9067526E2,4.269884E2,3.1297614E2,2.3316911E2,7.61583E1,2.1335692E2,1.6756342E2,2.574206E2,1.3103244E2,1.9672507E3,4.1133972E2,1.9401695E2,2.2494688E2,2E0,1.7354005E2,2.75E0,3.0566098E2,5.8549656E1,1.3212561E2,4.1483624E2,1.2152163E1,3.1172614E2,1.25E0,3.0799654E1,2.0236946E2,1.621583E1,5.9942474E1,1.9355727E2,1.9799654E1,1.6245329E1,1.5131808E2,1.9519862E2,6.2221973E1,1.0711012E2,2.392232E1,1.901372E3,6.587881E1,3.359066E2,7.5433136E1,5.4540314E1,1.3947664E2,1.2772812E2,9.721877E1,1.7010373E2,3.4363322E0],"tree_param":{"num_deleted":"0","num_feature":"110","num_nodes":"61","size_leaf_vector":"1"}},{"base_weights":[-8.5732E-3,9.363342E-1,-5.267522E-1,2.453858E-1,1.3376781E0,-7.5700736E-1,7.172932E-1,5.9168106E-3,1.3544773E0,1.0426549E0,1.6841239E0,-9.1583914E-1,1.6286816E-1,9.6369326E-2,1.6421607E0,5.07479E-1,-5.295401E-1,-4.0503487E-1,1.4917085E0,6.648168E-1,1.4424185E0,-9.062715E-1,1.7043059E0,2.5884725E-2,-1.0015923E0,1.0526309E0,-6.485239E-2,8.8473964E-1,-6.27797E-1,5.13332E-1,1.7962136E0,4.281691E-2,-6.2174057E-3,-3.5407655E-2,2.9296756E-2,-6.2567204E-2,7.054038E-2,-4.1124774E-3,7.9692714E-2,4.1077055E-2,-3.2068245E-2,-1.17711825E-2,7.479685E-2,-7.341012E-2,2.6724292E-2,8.816641E-2,6.472821E-2,-8.900434E-3,6.1609514E-2,-5.5971604E-2,-1.4155509E-2,-3.7194844E-2,6.6719435E-2,-1.1435745E-2,4.917469E-2,1.0446047E-2,8.4806435E-2,-5.5509534E-2,7.3362007E-3,-5.2404743E-2,6.07233E-2,9.1559164E-2,-2.5273291E-2],"categories":[],"categories_nodes":[],"categories_segments":[],"categories_sizes":[],"default_left":[0,0,0,0,0,0,0,0,0,0,0,1,0,0,0,0,0,0,0,0,0,0,0,0,0,0,0,0,0,0,0,0,0,0,0,0,0,0,0,0,0,0,0,0,0,0,0,0,0,0,0,0,0,0,0,0,0,0,0,0,0,0,0],"id":1,"left_children":[1,3,5,7,9,11,13,15,17,19,21,23,25,27,29,31,33,35,37,39,41,43,45,47,49,51,53,55,57,59,61,-1,-1,-1,-1,-1,-1,-1,-1,-1,-1,-1,-1,-1,-1,-1,-1,-1,-1,-1,-1,-1,-1,-1,-1,-1,-1,-1,-1,-1,-1,-1,-1],"loss_changes":[2.5818057E3,5.175498E2,9.760223E2,1.8256386E2,1.1896411E2,4.200653E2,3.05568E2,1.5237056E2,3.0077301E1,9.578894E1,2.9858765E1,1.9796045E2,8.598479E1,1.8301144E2,3.6254944E1,6.467622E1,5.5087723E1,1.6545639E1,1.8369843E1,6.831572E1,2.8222412E1,4.703061E0,1.0721924E1,5.077286E1,1.8988403E2,4.4761284E1,5.83854E1,8.377697E1,6.261844E1,3.091059E1,1.6034302E1,0E0,0E0,0E0,0E0,0E0,0E0,0E0,0E0,0E0,0E0,0E0,0E0,0E0,0E0,0E0,0E0,0E0,0E0,0E0,0E0,0E0,0E0,0E0,0E0,0E0,0E0,0E0,0E0,0E0,0E0,0E0,0E0],"parents":[2147483647,0,0,1,1,2,2,3,3,4,4,5,5,6,6,7,7,8,8,9,9,10,10,11,11,12,12,13,13,14,14,15,15,16,16,17,17,18,18,19,19,20,20,21,21,22,22,23,23,24,24,25,25,26,26,27,27,28,28,29,29,30,30],"right_children":[2,4,6,8,10,12,14,16,18,20,22,24,26,28,30,32,34,36,38,40,42,44,46,48,50,52,54,56,58,60,62,-1,-1,-1,-1,-1,-1,-1,-1,-1,-1,-1,-1,-1,-1,-1,-1,-1,-1,-1,-1,-1,-1,-1,-1,-1,-1,-1,-1,-1,-1,-1,-1],"split_conditions":[-4.73E-1,-6.7E-1,5.76E-1,1.7690283E2,2.0092209E-1,-4.66E-1,-6.92E-1,-6.22E-1,3.4516564E-1,-4.41E-1,4.54E-1,6E-2,-3.49E-1,1.279E0,1.8693363E1,-6.16E-1,-6.29E-1,1.62526E-1,-1.55E0,5.39E-1,5.5E-2,1.75E-1,6.71E-1,2.69181E-1,3.09E-1,7.2664045E-2,4.194766E1,5.1592356E-1,2.92E-1,-9.85E-1,-1.98E-1,4.281691E-2,-6.2174057E-3,-3.5407655E-2,2.9296756E-2,-6.2567204E-2,7.054038E-2,-4.1124774E-3,7.9692714E-2,4.1077055E-2,-3.2068245E-2,-1.17711825E-2,7.479685E-2,-7.341012E-2,2.6724292E-2,8.816641E-2,6.472821E-2,-8.900434E-3,6.1609514E-2,-5.5971604E-2,-1.4155509E-2,-3.7194844E-2,6.6719435E-2,-1.1435745E-2,4.917469E-2,1.0446047E-2,8.4806435E-2,-5.5509534E-2,7.3362007E-3,-5.2404743E-2,6.07233E-2,9.1559164E-2,-2.5273291E-2],"split_indices":[56,40,65,67,31,40,64,96,76,40,49,11,16,89,67,24,72,61,40,57,11,13,57,85,41,47,67,76,41,72,16,0,0,0,0,0,0,0,0,0,0,0,0,0,0,0,0,0,0,0,0,0,0,0,0,0,0,0,0,0,0,0,0],"split_type":[0,0,0,0,0,0,0,0,0,0,0,0,0,0,0,0,0,0,0,0,0,0,0,0,0,0,0,0,0,0,0,0,0,0,0,0,0,0,0,0,0,0,0,0,0,0,0,0,0,0,0,0,0,0,0,0,0,0,0,0,0,0,0],"sum_hessian":[5.2709526E3,1.8665192E3,3.4044336E3,6.8641223E2,1.1801069E3,2.873062E3,5.313715E2,5.653502E2,1.21062004E2,6.3951996E2,5.4058704E2,2.4500283E3,4.2303363E2,3.185873E2,2.1278423E2,2.9194125E2,2.7340897E2,8.6177635E0,1.1244424E2,3.3014508E2,3.0937488E2,3.8397958E0,5.367472E2,2.0453745E2,2.245491E3,8.546753E1,3.375661E2,1.5242581E2,1.6616148E2,2.6072105E1,1.8671213E2,1.8786017E2,1.04081085E2,2.3598721E2,3.7421772E1,6.090186E0,2.5275774E0,6.8644843E0,1.0557976E2,2.951072E2,3.503786E1,9.458075E0,2.999168E2,2.74869E0,1.0911059E0,4.6627768E2,7.0469536E1,1.7569362E2,2.884383E1,1.9286162E3,3.1687466E2,1.1364658E1,7.410287E1,2.926111E2,4.4954964E1,8.384635E1,6.857946E1,1.02123E2,6.403849E1,7.92601E0,1.8146095E1,1.841192E2,2.5929275E0],"tree_param":{"num_deleted":"0","num_feature":"110","num_nodes":"63","size_leaf_vector":"1"}},{"base_weights":[-1.5647048E-2,8.6193293E-1,-5.1605874E-1,3.3925477E-1,1.342202E0,-6.685432E-1,7.7658707E-1,1.1909124E-1,1.4089144E0,1.0630169E0,1.657068E0,-8.75298E-1,-2.895659E-2,-2.9791227E-1,1.3708125E0,5.9345275E-1,-3.3116552E-1,-2.4384664E-1,1.5398273E0,1.1656433E0,6.669173E-2,-5.257843E-2,1.6666487E0,-9.8018515E-1,6.053754E-1,-3.2441264E-1,6.0304785E-1,-6.432833E-1,6.440046E-1,8.58763E-2,1.5043545E0,4.5443244E-2,4.7819348E-4,3.7561727E-3,-4.020692E-2,-6.470815E-2,6.5828405E-2,-4.198847E-3,8.108208E-2,6.650143E-2,2.1260178E-2,-2.1430058E-2,5.490282E-2,8.5527025E-2,6.552675E-2,-5.645109E-2,-2.1566378E-2,-1.7195236E-2,6.3663505E-2,-2.6746554E-2,2.4070647E-2,4.107469E-2,-1.2817623E-2,5.9558034E-2,-4.1792195E-2,5.6581665E-2,-3.5067733E-2,6.285194E-2,-3.2423634E-2,7.7807836E-2,-2.5062919E-2],"categories":[],"categories_nodes":[],"categories_segments":[],"categories_sizes":[],"default_left":[0,0,0,0,0,0,0,0,0,0,0,0,0,0,0,0,0,0,0,0,0,0,0,0,0,0,0,1,0,0,0,0,0,0,0,0,0,0,0,0,0,0,0,0,0,0,0,0,0,0,0,0,0,0,0,0,0,0,0,0,0],"id":2,"left_children":[1,3,5,7,9,11,13,15,17,19,21,23,25,27,29,31,33,35,37,39,41,-1,43,45,47,49,51,53,55,57,59,-1,-1,-1,-1,-1,-1,-1,-1,-1,-1,-1,-1,-1,-1,-1,-1,-1,-1,-1,-1,-1,-1,-1,-1,-1,-1,-1,-1,-1,-1],"loss_changes":[2.2971257E3,4.763838E2,6.5713776E2,2.1436263E2,8.523047E1,3.9408154E2,2.2513544E2,1.6178508E2,3.399933E1,5.3839417E1,1.3775269E1,3.5036755E2,1.3633963E2,4.1453598E1,3.8789703E1,6.7906845E1,7.477004E1,2.1811857E1,1.928421E1,5.761615E1,2.6167286E1,0E0,4.9802246E0,1.7135547E2,9.528984E1,8.465107E1,4.3879875E1,3.3779312E1,2.3325932E1,2.0091639E1,2.211969E1,0E0,0E0,0E0,0E0,0E0,0E0,0E0,0E0,0E0,0E0,0E0,0E0,0E0,0E0,0E0,0E0,0E0,0E0,0E0,0E0,0E0,0E0,0E0,0E0,0E0,0E0,0E0,0E0,0E0,0E0],"parents":[2147483647,0,0,1,1,2,2,3,3,4,4,5,5,6,6,7,7,8,8,9,9,10,10,11,11,12,12,13,13,14,14,15,15,16,16,17,17,18,18,19,19,20,20,22,22,23,23,24,24,25,25,26,26,27,27,28,28,29,29,30,30],"right_children":[2,4,6,8,10,12,14,16,18,20,22,24,26,28,30,32,34,36,38,40,42,-1,44,46,48,50,52,54,56,58,60,-1,-1,-1,-1,-1,-1,-1,-1,-1,-1,-1,-1,-1,-1,-1,-1,-1,-1,-1,-1,-1,-1,-1,-1,-1,-1,-1,-1,-1,-1],"split_conditions":[-4.65E-1,-5.92E-1,-5.67E-1,4.183915E-1,1.9634408E-1,2.72E-1,2.14E-1,-6.47E-1,3.4498602E-1,-3.43E-1,3.69E-1,2.2349731E2,4.3E-1,-3.32E-1,-9.18E-1,-6.07E-1,7.32E-1,-6.73E-1,-1.55E0,3.94E-1,2.0556684E-1,-5.257843E-2,7.26E-1,-5.38E-1,5.2596605E-1,-8.94E-1,-2.72E-1,1E-1,1.17046185E-1,8.32E-1,-1.67E-1,4.5443244E-2,4.7819348E-4,3.7561727E-3,-4.020692E-2,-6.470815E-2,6.5828405E-2,-4.198847E-3,8.108208E-2,6.650143E-2,2.1260178E-2,-2.1430058E-2,5.490282E-2,8.5527025E-2,6.552675E-2,-5.645109E-2,-2.1566378E-2,-1.7195236E-2,6.3663505E-2,-2.6746554E-2,2.4070647E-2,4.107469E-2,-1.2817623E-2,5.9558034E-2,-4.1792195E-2,5.6581665E-2,-3.5067733E-2,6.285194E-2,-3.2423634E-2,7.7807836E-2,-2.5062919E-2],"split_indices":[56,40,72,63,31,41,41,96,71,24,49,83,12,72,40,24,25,40,40,57,63,0,57,40,71,72,104,13,23,25,104,0,0,0,0,0,0,0,0,0,0,0,0,0,0,0,0,0,0,0,0,0,0,0,0,0,0,0,0,0,0],"split_type":[0,0,0,0,0,0,0,0,0,0,0,0,0,0,0,0,0,0,0,0,0,0,0,0,0,0,0,0,0,0,0,0,0,0,0,0,0,0,0,0,0,0,0,0,0,0,0,0,0,0,0,0,0,0,0,0,0,0,0,0,0],"sum_hessian":[5.228817E3,1.8985598E3,3.330257E3,9.099571E2,9.886027E2,2.9792935E3,3.509637E2,7.5555566E2,1.5440147E2,5.2631055E2,4.622922E2,2.251196E3,7.280973E2,1.2515418E2,2.2580952E2,3.677743E2,3.8778134E2,1.1268989E1,1.4313248E2,4.7700656E2,4.930397E1,1.2460717E0,4.610461E2,2.1025918E3,1.4860426E2,4.9648294E2,2.3161436E2,9.1808105E1,3.3346073E1,2.141342E1,2.043961E2,2.3842336E2,1.2935095E2,2.0904796E2,1.7873338E2,6.837375E0,4.4316134E0,6.86445E0,1.3626804E2,3.8969415E2,8.731243E1,3.370313E1,1.5600841E1,4.0707053E2,5.3975582E1,1.653222E3,4.493698E2,6.157403E1,8.703023E1,3.9391147E2,1.02571465E2,1.847085E2,4.6905865E1,8.228902E0,8.357921E1,2.4591637E1,8.754437E0,7.978033E0,1.3435387E1,1.9946822E2,4.9278913E0],"tree_param":{"num_deleted":"0","num_feature":"110","num_nodes":"61","size_leaf_vector":"1"}},{"base_weights":[1.6061708E-3,8.6434835E-1,-4.743326E-1,1.2507709E0,1.9335857E-1,-6.994024E-1,5.7951665E-1,8.6360496E-1,1.4950888E0,-3.349502E-1,5.846671E-1,-3.008882E-1,-9.5875627E-1,1.1286761E-1,1.559238E0,1.2479402E0,2.6044226E-1,-6.972897E-2,1.5049675E0,1.260151E-1,-6.865422E-1,3.5577205E-1,1.4004233E0,-4.7894007E-1,4.902905E-1,-1.0443354E0,-1.1702983E-1,-3.335415E-1,1.3391895E0,-7.27196E-2,1.6104351E0,-7.808504E-2,6.4438865E-2,-2.4441255E-2,3.095018E-2,5.5532143E-3,7.596263E-2,-1.9261198E-2,3.3984397E-2,-4.4498842E-2,-2.1269058E-3,8.2774265E-3,6.879287E-2,3.7986927E-2,8.110039E-2,-3.0498004E-2,2.069671E-2,4.6563424E-2,1.5485602E-3,-6.00654E-2,-3.4052435E-2,1.7471164E-2,-4.443555E-2,3.0224655E-2,-3.7220147E-2,8.103955E-2,-1.6650927E-3,8.442546E-2,2.8250579E-2],"categories":[],"categories_nodes":[],"categories_segments":[],"categories_sizes":[],"default_left":[0,0,0,0,0,0,0,0,0,0,0,0,0,0,0,0,0,0,0,0,0,0,0,0,0,0,0,0,0,0,0,0,0,0,0,0,0,0,0,0,0,0,0,0,0,0,0,0,0,0,0,0,0,0,0,0,0,0,0],"id":3,"left_children":[1,3,5,7,9,11,13,15,17,19,21,23,25,27,29,31,33,-1,35,37,39,41,43,45,47,49,51,53,55,-1,57,-1,-1,-1,-1,-1,-1,-1,-1,-1,-1,-1,-1,-1,-1,-1,-1,-1,-1,-1,-1,-1,-1,-1,-1,-1,-1,-1,-1],"loss_changes":[2.1604463E3,4.8478296E2,8.046929E2,1.1097302E2,1.417626E2,2.8855188E2,2.7289813E2,1.066694E2,2.2831299E1,4.7414738E1,7.302652E1,1.5564185E2,1.2179016E2,2.2252382E2,3.2062775E1,3.432837E1,4.8902466E1,0E0,1.4253296E1,3.6267384E1,2.16865E1,5.9698315E1,1.0967926E1,1.0565935E2,4.112005E1,8.678015E1,5.6937057E1,1.1537811E2,4.197354E1,0E0,1.4544556E1,0E0,0E0,0E0,0E0,0E0,0E0,0E0,0E0,0E0,0E0,0E0,0E0,0E0,0E0,0E0,0E0,0E0,0E0,0E0,0E0,0E0,0E0,0E0,0E0,0E0,0E0,0E0,0E0],"parents":[2147483647,0,0,1,1,2,2,3,3,4,4,5,5,6,6,7,7,8,8,9,9,10,10,11,11,12,12,13,13,14,14,15,15,16,16,18,18,19,19,20,20,21,21,22,22,23,23,24,24,25,25,26,26,27,27,28,28,30,30],"right_children":[2,4,6,8,10,12,14,16,18,20,22,24,26,28,30,32,34,-1,36,38,40,42,44,46,48,50,52,54,56,-1,58,-1,-1,-1,-1,-1,-1,-1,-1,-1,-1,-1,-1,-1,-1,-1,-1,-1,-1,-1,-1,-1,-1,-1,-1,-1,-1,-1,-1],"split_conditions":[-4.2E-1,6.73E-1,5.31E-1,1.2502296E-1,4.28E-1,6.12E-1,-6.09E-1,4.25E-1,7.51E-1,-9.69E-1,3.694809E2,9.439088E-2,2E-1,3.3630826E2,9.1450706E-2,3.7124E-2,2.28E-1,-6.972897E-2,5.5E-2,1.02671E-1,-6.84E-1,-8.32E-1,1.15E-1,-5.97E-1,7.04E-1,8.483427E1,1.07E0,-3.71E-1,1.336E0,-7.27196E-2,-2.61E-1,-7.808504E-2,6.4438865E-2,-2.4441255E-2,3.095018E-2,5.5532143E-3,7.596263E-2,-1.9261198E-2,3.3984397E-2,-4.4498842E-2,-2.1269058E-3,8.2774265E-3,6.879287E-2,3.7986927E-2,8.110039E-2,-3.0498004E-2,2.069671E-2,4.6563424E-2,1.5485602E-3,-6.00654E-2,-3.4052435E-2,1.7471164E-2,-4.443555E-2,3.0224655E-2,-3.7220147E-2,8.103955E-2,-1.6650927E-3,8.442546E-2,2.8250579E-2],"split_indices":[24,25,65,55,65,25,64,25,58,88,83,55,11,75,63,37,65,0,11,61,64,72,11,72,42,91,42,16,89,0,16,0,0,0,0,0,0,0,0,0,0,0,0,0,0,0,0,0,0,0,0,0,0,0,0,0,0,0,0],"split_type":[0,0,0,0,0,0,0,0,0,0,0,0,0,0,0,0,0,0,0,0,0,0,0,0,0,0,0,0,0,0,0,0,0,0,0,0,0,0,0,0,0,0,0,0,0,0,0,0,0,0,0,0,0,0,0,0,0,0,0],"sum_hessian":[5.2595234E3,1.8696187E3,3.389905E3,1.1858336E3,6.837849E2,2.7936118E3,5.962932E2,4.605475E2,7.252862E2,2.9102023E2,3.927647E2,1.102188E3,1.6914238E3,4.0466382E2,1.9162936E2,2.80649E2,1.7989848E2,1.9934373E0,7.232927E2,1.26201515E2,1.6481871E2,3.0782693E2,8.493778E1,9.0003345E2,2.0215457E2,1.5351074E3,1.5631639E2,2.9720312E2,1.0746069E2,2.7432773E0,1.888861E2,3.4871423E0,2.7716187E2,5.81086E1,1.2178989E2,7.426382E0,7.158664E2,6.577332E1,6.042819E1,1.2496238E2,3.985633E1,2.6042557E2,4.740136E1,2.2965225E1,6.1972557E1,7.851393E2,1.1489417E2,1.0261227E2,9.9542305E1,1.0703239E3,4.6478348E2,9.7767E1,5.8549397E1,9.0381805E1,2.0682133E2,8.901591E1,1.8444786E1,1.7518764E2,1.3698453E1],"tree_param":{"num_deleted":"0","num_feature":"110","num_nodes":"59","size_leaf_vector":"1"}},{"base_weights":[5.215767E-3,7.6302487E-1,-4.6864113E-1,-2.8866684E-2,1.0703688E0,-6.677325E-1,6.9389236E-1,-2.6425198E-1,1.130317E0,7.904379E-1,1.4486953E0,-7.466559E-1,5.5797243E-1,7.319584E-2,1.5198312E0,2.1491794E-1,-6.938203E-1,-7.6566476E-1,1.2817903E0,4.36462E-1,1.2229569E0,-1.1652284E0,1.4756793E0,-9.1443855E-1,-2.0349857E-1,1.6027923E-1,1.0951302E0,8.417674E-1,-5.6770986E-1,4.908376E-1,1.6342235E0,-7.539996E-3,2.6300406E-2,5.0146636E-3,-4.640186E-2,6.665855E-2,-7.881101E-2,6.933673E-2,-1.2646407E-2,-5.111499E-3,3.9102893E-2,-7.1278713E-3,6.6155694E-2,-8.029631E-2,3.0052034E-2,5.8592595E-2,7.730268E-2,-5.3282052E-2,-2.3081189E-2,-2.7418807E-2,5.7787867E-3,-5.4533114E-3,7.7732526E-2,5.9695926E-2,-6.6167206E-2,1.47796E-2,7.7185005E-2,-4.2823832E-2,1.936655E-2,-1.9489087E-2,6.939815E-2,8.273352E-2,-1.2021032E-2],"categories":[],"categories_nodes":[],"categories_segments":[],"categories_sizes":[],"default_left":[0,0,0,0,0,0,0,0,0,0,0,0,0,0,0,0,0,0,0,0,0,0,0,0,0,0,0,0,0,0,0,0,0,0,0,0,0,0,0,0,0,0,0,0,0,0,0,0,0,0,0,0,0,0,0,0,0,0,0,0,0,0,0],"id":4,"left_children":[1,3,5,7,9,11,13,15,17,19,21,23,25,27,29,31,33,35,37,39,41,43,45,47,49,51,53,55,57,59,61,-1,-1,-1,-1,-1,-1,-1,-1,-1,-1,-1,-1,-1,-1,-1,-1,-1,-1,-1,-1,-1,-1,-1,-1,-1,-1,-1,-1,-1,-1,-1,-1],"loss_changes":[1.87152E3,4.880442E2,7.4265E2,1.5353447E2,1.5183728E2,2.6531287E2,2.4050859E2,9.640251E1,2.825898E1,1.269115E2,4.4963623E1,2.3430591E2,3.5334484E1,1.3299464E2,2.2896606E1,2.5315151E1,4.5998306E1,1.5120535E1,1.45767975E1,8.559366E1,5.1351624E1,6.276346E0,1.11727295E1,1.3408313E2,6.702797E1,3.6480927E1,1.843383E1,4.65963E1,4.0952892E1,1.7583477E1,7.3265076E0,0E0,0E0,0E0,0E0,0E0,0E0,0E0,0E0,0E0,0E0,0E0,0E0,0E0,0E0,0E0,0E0,0E0,0E0,0E0,0E0,0E0,0E0,0E0,0E0,0E0,0E0,0E0,0E0,0E0,0E0,0E0,0E0],"parents":[2147483647,0,0,1,1,2,2,3,3,4,4,5,5,6,6,7,7,8,8,9,9,10,10,11,11,12,12,13,13,14,14,15,15,16,16,17,17,18,18,19,19,20,20,21,21,22,22,23,23,24,24,25,25,26,26,27,27,28,28,29,29,30,30],"right_children":[2,4,6,8,10,12,14,16,18,20,22,24,26,28,30,32,34,36,38,40,42,44,46,48,50,52,54,56,58,60,62,-1,-1,-1,-1,-1,-1,-1,-1,-1,-1,-1,-1,-1,-1,-1,-1,-1,-1,-1,-1,-1,-1,-1,-1,-1,-1,-1,-1,-1,-1,-1,-1],"split_conditions":[-4.42E-1,-7.56E-1,5.84E-1,4.3131185E-1,2.0310313E-1,-3.89E-1,-6.92E-1,-4.54E-1,3.4277982E-1,-4.63E-1,4.51E-1,4.45E-1,2.48E-1,1.26E0,7.4547E-2,-1.181E0,5.65E-1,1.4905062E-1,2.085E0,2.47E-1,7.2788864E-2,4.4826868E-1,-6.36E-1,2.59E-1,-7.08E-1,1.95E-1,3.096E0,5.1459545E-1,-6.54E-1,-3.68E-1,5.03222E-1,-7.539996E-3,2.6300406E-2,5.0146636E-3,-4.640186E-2,6.665855E-2,-7.881101E-2,6.933673E-2,-1.2646407E-2,-5.111499E-3,3.9102893E-2,-7.1278713E-3,6.6155694E-2,-8.029631E-2,3.0052034E-2,5.8592595E-2,7.730268E-2,-5.3282052E-2,-2.3081189E-2,-2.7418807E-2,5.7787867E-3,-5.4533114E-3,7.7732526E-2,5.9695926E-2,-6.6167206E-2,1.47796E-2,7.7185005E-2,-4.2823832E-2,1.936655E-2,-1.9489087E-2,6.939815E-2,8.273352E-2,-1.2021032E-2],"split_indices":[56,40,65,63,31,64,64,104,71,40,49,12,65,89,69,64,25,103,42,41,23,71,40,41,40,13,82,71,40,64,77,0,0,0,0,0,0,0,0,0,0,0,0,0,0,0,0,0,0,0,0,0,0,0,0,0,0,0,0,0,0,0,0],"split_type":[0,0,0,0,0,0,0,0,0,0,0,0,0,0,0,0,0,0,0,0,0,0,0,0,0,0,0,0,0,0,0,0,0,0,0,0,0,0,0,0,0,0,0,0,0,0,0,0,0,0,0,0,0,0,0,0,0,0,0,0,0,0,0],"sum_hessian":[5.209801E3,2.0041235E3,3.2056772E3,5.606019E2,1.4435215E3,2.7373193E3,4.68358E2,4.6662128E2,9.398067E1,8.3142444E2,6.1209705E2,2.5720925E3,1.6522673E2,2.6802484E2,2.0033316E2,2.2081207E2,2.4580922E2,6.6528296E0,8.732784E1,4.5833212E2,3.7309235E2,5.823205E0,6.0627386E2,1.9645535E3,6.0753906E2,9.5683975E1,6.954276E1,1.2173151E2,1.4629333E2,2.0572042E1,1.7976111E2,1.0173159E2,1.1908048E2,5.611678E1,1.8969244E2,1.6738455E0,4.978984E0,8.1828804E1,5.4990396E0,1.7939977E2,2.7893234E2,2.54664E1,3.4762595E2,4.7330523E0,1.0901525E0,1.1733849E2,4.8893536E2,1.4717559E3,4.9279755E2,2.916187E2,3.1592032E2,8.096588E1,1.4718094E1,6.7300064E1,2.242696E0,6.926071E1,5.2470795E1,1.124086E2,3.3884735E1,1.066691E1,9.905131E0,1.7793767E2,1.8234409E0],"tree_param":{"num_deleted":"0","num_feature":"110","num_nodes":"63","size_leaf_vector":"1"}},{"base_weights":[1.747569E-3,7.610437E-1,-4.484917E-1,1.8949762E-1,1.1238298E0,-6.354051E-1,6.2486833E-1,-1.7640755E-1,7.1445554E-1,8.488425E-1,1.4115506E0,-7.259311E-1,6.162373E-1,5.735539E-2,1.4141767E0,1.6272275E-1,-6.556304E-1,1.2770371E-1,1.150704E0,4.504172E-1,1.228661E0,9.638189E-1,1.4901971E0,-8.8524806E-1,-2.2216438E-1,2.9263958E-1,1.2569419E0,-2.3127073E-1,1.2748932E0,3.118298E-1,1.5461636E0,-4.382239E-3,3.7699025E-2,-4.8092563E-2,-4.9332264E-3,-2.4549706E-2,3.7503008E-2,2.2708409E-2,6.712716E-2,4.020241E-2,-1.1447549E-2,-6.795656E-3,6.502681E-2,-7.1770228E-3,5.5441525E-2,6.5027796E-2,7.867501E-2,-3.1433832E-2,-5.5002093E-2,-2.7695894E-2,6.3844635E-3,2.6823502E-4,5.9879404E-2,1.996213E-2,7.7358894E-2,4.1082423E-2,-2.5237698E-2,7.8526095E-2,-8.6078225E-3,-7.911954E-2,4.115726E-2,7.913492E-2,-8.720296E-3],"categories":[],"categories_nodes":[],"categories_segments":[],"categories_sizes":[],"default_left":[0,0,0,0,0,0,0,0,0,0,0,0,0,0,0,0,0,0,0,0,0,0,0,0,0,0,0,0,0,0,0,0,0,0,0,0,0,0,0,0,0,0,0,0,0,0,0,0,0,0,0,0,0,0,0,0,0,0,0,0,0,0,0],"id":5,"left_children":[1,3,5,7,9,11,13,15,17,19,21,23,25,27,29,31,33,35,37,39,41,43,45,47,49,51,53,55,57,59,61,-1,-1,-1,-1,-1,-1,-1,-1,-1,-1,-1,-1,-1,-1,-1,-1,-1,-1,-1,-1,-1,-1,-1,-1,-1,-1,-1,-1,-1,-1,-1,-1],"loss_changes":[1.7857667E3,4.0296484E2,6.582806E2,1.4538016E2,9.289429E1,3.1694775E2,2.1799664E2,7.2656105E1,7.940634E1,9.184607E1,1.8974976E1,2.0890723E2,3.8805946E1,1.00185844E2,2.9138885E1,3.8882053E1,3.149044E1,5.1833755E1,2.3192886E1,7.215506E1,3.0778778E1,1.4521103E1,5.713623E0,1.0837427E2,7.288078E1,3.2968544E1,1.509053E1,6.682588E1,2.3638512E1,2.3600548E1,1.1689331E1,0E0,0E0,0E0,0E0,0E0,0E0,0E0,0E0,0E0,0E0,0E0,0E0,0E0,0E0,0E0,0E0,0E0,0E0,0E0,0E0,0E0,0E0,0E0,0E0,0E0,0E0,0E0,0E0,0E0,0E0,0E0,0E0],"parents":[2147483647,0,0,1,1,2,2,3,3,4,4,5,5,6,6,7,7,8,8,9,9,10,10,11,11,12,12,13,13,14,14,15,15,16,16,17,17,18,18,19,19,20,20,21,21,22,22,23,23,24,24,25,25,26,26,27,27,28,28,29,29,30,30],"right_children":[2,4,6,8,10,12,14,16,18,20,22,24,26,28,30,32,34,36,38,40,42,44,46,48,50,52,54,56,58,60,62,-1,-1,-1,-1,-1,-1,-1,-1,-1,-1,-1,-1,-1,-1,-1,-1,-1,-1,-1,-1,-1,-1,-1,-1,-1,-1,-1,-1,-1,-1,-1,-1],"split_conditions":[-4.57E-1,-6.62E-1,5.84E-1,1.9869618E-1,1.5131581E-1,-3.89E-1,-6.92E-1,-3.48E-1,-9.41E-1,-4.41E-1,8.9616E-2,4.45E-1,3.14E-1,5.841844E-1,1.3667032E-1,-8.28E-1,-1.016E0,3.630775E-1,2.5770074E-1,-3.19E-1,6.9734275E-2,5.6849E-2,1.7740707E-1,-2.56E-1,-6.73E-1,1.75E-1,-8.89E-1,1.502E0,2.24E0,-1.815E-3,-1.98E-1,-4.382239E-3,3.7699025E-2,-4.8092563E-2,-4.9332264E-3,-2.4549706E-2,3.7503008E-2,2.2708409E-2,6.712716E-2,4.020241E-2,-1.1447549E-2,-6.795656E-3,6.502681E-2,-7.1770228E-3,5.5441525E-2,6.5027796E-2,7.867501E-2,-3.1433832E-2,-5.5002093E-2,-2.7695894E-2,6.3844635E-3,2.6823502E-4,5.9879404E-2,1.996213E-2,7.7358894E-2,4.1082423E-2,-2.5237698E-2,7.8526095E-2,-8.6078225E-3,-7.911954E-2,4.115726E-2,7.913492E-2,-8.720296E-3],"split_indices":[56,40,65,47,47,64,64,104,40,40,53,12,65,79,63,64,72,79,79,104,23,61,55,104,40,13,72,90,81,70,16,0,0,0,0,0,0,0,0,0,0,0,0,0,0,0,0,0,0,0,0,0,0,0,0,0,0,0,0,0,0,0,0],"split_type":[0,0,0,0,0,0,0,0,0,0,0,0,0,0,0,0,0,0,0,0,0,0,0,0,0,0,0,0,0,0,0,0,0,0,0,0,0,0,0,0,0,0,0,0,0,0,0,0,0,0,0,0,0,0,0,0,0,0,0,0,0,0,0],"sum_hessian":[5.221605E3,1.9434409E3,3.2781638E3,7.5519775E2,1.1882432E3,2.792321E3,4.858429E2,4.4540582E2,3.0979193E2,6.0958563E2,5.786575E2,2.6043774E3,1.8794356E2,2.832551E2,2.025878E2,2.612138E2,1.84192E2,1.3265901E2,1.7713293E2,2.985724E2,3.1101324E2,8.8437965E1,4.902195E2,1.9780569E3,6.2632056E2,1.2584192E2,6.2101646E1,2.2962975E2,5.362534E1,2.2022192E1,1.8056561E2,1.8410605E2,7.7107765E1,1.1837969E2,6.581232E1,6.663089E1,6.6028114E1,3.8977978E1,1.3815497E2,1.9624014E2,1.02332245E2,1.551752E1,2.9549573E2,1.0241375E1,7.8196594E1,1.54686E2,3.355335E2,9.031593E2,1.0748976E3,3.211769E2,3.0514365E2,9.6282936E1,2.955898E1,1.6301977E1,4.579967E1,4.693275E1,1.82697E2,4.4457462E1,9.167875E0,4.235734E0,1.7786457E1,1.7688965E2,3.6759598E0],"tree_param":{"num_deleted":"0","num_feature":"110","num_nodes":"63","size_leaf_vector":"1"}},{"base_weights":[7.831001E-3,7.463262E-1,-4.124772E-1,1.8509027E-2,1.0086684E0,-6.017403E-1,6.265434E-1,-2.0996302E-1,1.028305E0,7.3148453E-1,1.3423749E0,-8.304779E-1,-1.1700512E-1,-1.9731423E-1,1.0937959E0,1.9141893E-1,-6.661631E-1,-1.1798277E0,1.1778758E0,2.896569E-1,1.1196538E0,-1.1145604E0,1.3642353E0,-9.234303E-1,-3.0577716E-1,-3.083944E-1,7.7305317E-1,6.7438644E-1,-7.2498E-1,1.3237938E0,1.940723E-1,3.1938665E-2,-6.6348277E-3,-5.206874E-2,-1.21425465E-2,2.4632879E-2,-8.107337E-2,-4.757105E-2,6.4014874E-2,3.277741E-2,-1.5143409E-2,6.0570445E-2,-7.2215437E-3,2.2078777E-2,-7.67288E-2,6.083712E-2,7.4354224E-2,-3.230342E-2,-5.6929428E-2,2.0249603E-2,-2.4080103E-2,-2.843515E-2,4.311556E-3,5.3573098E-2,-4.1578747E-3,7.4579357E-3,6.852834E-2,-4.9680337E-2,2.1705719E-2,1.1623407E-3,6.8585075E-2,4.5219287E-2,-1.9883974E-2],"categories":[],"categories_nodes":[],"categories_segments":[],"categories_sizes":[],"default_left":[0,0,0,0,0,0,0,0,0,0,0,0,0,0,0,0,0,0,0,0,0,0,0,0,0,0,0,0,0,0,0,0,0,0,0,0,0,0,0,0,0,0,0,0,0,0,0,0,0,0,0,0,0,0,0,0,0,0,0,0,0,0,0],"id":6,"left_children":[1,3,5,7,9,11,13,15,17,19,21,23,25,27,29,31,33,35,37,39,41,43,45,47,49,51,53,55,57,59,61,-1,-1,-1,-1,-1,-1,-1,-1,-1,-1,-1,-1,-1,-1,-1,-1,-1,-1,-1,-1,-1,-1,-1,-1,-1,-1,-1,-1,-1,-1,-1,-1],"loss_changes":[1.5985966E3,3.5665503E2,6.458128E2,1.1463627E2,1.2602417E2,3.0780316E2,1.9509003E2,7.433702E1,3.1667946E1,1.2868991E2,3.491797E1,9.172656E1,1.5209435E2,8.514709E1,6.662024E1,3.1456566E1,2.9910248E1,5.4636707E0,2.0052292E1,7.676336E1,4.65802E1,4.6215367E0,9.366211E0,9.487268E1,3.5861805E1,7.548968E1,4.047078E1,2.5361956E1,3.6279606E1,1.599411E1,2.8508038E1,0E0,0E0,0E0,0E0,0E0,0E0,0E0,0E0,0E0,0E0,0E0,0E0,0E0,0E0,0E0,0E0,0E0,0E0,0E0,0E0,0E0,0E0,0E0,0E0,0E0,0E0,0E0,0E0,0E0,0E0,0E0,0E0],"parents":[2147483647,0,0,1,1,2,2,3,3,4,4,5,5,6,6,7,7,8,8,9,9,10,10,11,11,12,12,13,13,14,14,15,15,16,16,17,17,18,18,19,19,20,20,21,21,22,22,23,23,24,24,25,25,26,26,27,27,28,28,29,29,30,30],"right_children":[2,4,6,8,10,12,14,16,18,20,22,24,26,28,30,32,34,36,38,40,42,44,46,48,50,52,54,56,58,60,62,-1,-1,-1,-1,-1,-1,-1,-1,-1,-1,-1,-1,-1,-1,-1,-1,-1,-1,-1,-1,-1,-1,-1,-1,-1,-1,-1,-1,-1,-1,-1,-1],"split_conditions":[-4.65E-1,-7.69E-1,5.76E-1,4.183915E-1,1.9869538E-1,-5.95E-1,-7.35E-1,-6.13E-1,-1.55E0,-4.94E-1,4.57E-1,4.65E-1,1.0509019E-1,-3.86E-1,-2.55E-1,-7.75E-1,3.85E-1,-9.39E-1,7.9457E-2,-3.23E-1,-3.29E-1,7.1E-1,2.6944146E-1,-2.34E-1,-3.36E-1,-4.41E-1,-2.03E-1,-5.24E-1,4.0001E-1,7.786961E-2,1.038E0,3.1938665E-2,-6.6348277E-3,-5.206874E-2,-1.21425465E-2,2.4632879E-2,-8.107337E-2,-4.757105E-2,6.4014874E-2,3.277741E-2,-1.5143409E-2,6.0570445E-2,-7.2215437E-3,2.2078777E-2,-7.67288E-2,6.083712E-2,7.4354224E-2,-3.230342E-2,-5.6929428E-2,2.0249603E-2,-2.4080103E-2,-2.843515E-2,4.311556E-3,5.3573098E-2,-4.1578747E-3,7.4579357E-3,6.852834E-2,-4.9680337E-2,2.1705719E-2,1.1623407E-3,6.8585075E-2,4.5219287E-2,-1.9883974E-2],"split_indices":[56,40,65,63,31,40,40,96,40,40,49,12,52,16,16,24,65,16,21,104,24,25,31,16,48,40,48,88,11,15,97,0,0,0,0,0,0,0,0,0,0,0,0,0,0,0,0,0,0,0,0,0,0,0,0,0,0,0,0,0,0,0,0],"split_type":[0,0,0,0,0,0,0,0,0,0,0,0,0,0,0,0,0,0,0,0,0,0,0,0,0,0,0,0,0,0,0,0,0,0,0,0,0,0,0,0,0,0,0,0,0,0,0,0,0,0,0,0,0,0,0,0,0,0,0,0,0,0,0],"sum_hessian":[5.1481997E3,1.867016E3,3.2811836E3,4.9494855E2,1.3720674E3,2.7759504E3,5.0523322E2,4.0427182E2,9.067671E1,7.5125256E2,6.208148E2,1.885503E3,8.904474E2,1.8305286E2,3.2218036E2,2.1536554E2,1.889063E2,5.3154807E0,8.536123E1,3.5215915E2,3.990934E2,5.034113E0,6.157807E2,1.6011027E3,2.8440042E2,7.333982E2,1.5704915E2,6.891976E1,1.14133095E2,2.562129E2,6.596747E1,9.007306E1,1.2529248E2,9.9368675E1,8.953761E1,1.0862697E0,4.229211E0,3.537112E0,8.182412E1,2.1765082E2,1.3450832E2,3.7212405E2,2.6969383E1,1.0590514E0,3.9750617E0,2.8477905E2,3.3100168E2,7.0119293E2,8.999097E2,5.614239E1,2.2825804E2,4.4163766E2,2.9176056E2,1.1627372E2,4.077543E1,3.9975113E1,2.8944653E1,9.277478E1,2.1358315E1,9.155472E0,2.4705742E2,2.974024E1,3.622723E1],"tree_param":{"num_deleted":"0","num_feature":"110","num_nodes":"63","size_leaf_vector":"1"}},{"base_weights":[-1.2312896E-2,7.0910716E-1,-4.0598714E-1,1.1230149E0,1.8573509E-1,-5.856955E-1,5.993207E-1,8.0712116E-1,1.332672E0,1.6925953E-2,1.1291875E0,-7.996377E-1,-1.3440022E-1,1.3410203E-1,1.368002E0,1.1037526E0,2.2996771E-1,-8.0162156E-1,1.3448396E0,6.9843376E-1,-1.5509674E-1,-1.3502249E-1,1.2379185E0,-9.1833913E-1,-2.2915417E-1,-4.2477003E-1,6.0416347E-1,-3.306928E-1,1.2091724E0,2.656992E-1,1.4889082E0,-8.409873E-2,5.6780633E-2,-8.087444E-4,7.231784E-2,-6.961059E-2,2.197775E-2,5.453394E-2,6.992168E-2,-2.9771402E-2,4.6306845E-2,-4.696808E-2,1.3641204E-3,-8.229231E-2,6.889602E-2,7.583452E-2,4.058555E-2,-5.203396E-2,-2.7316649E-2,-4.5745514E-2,-3.1626176E-3,-2.6902536E-2,3.2160573E-2,4.6247598E-2,-1.2227215E-3,5.600977E-3,-4.920899E-2,6.92757E-2,-3.5721622E-2,5.3339012E-2,-3.9657008E-2,7.5804815E-2,2.0689932E-3],"categories":[],"categories_nodes":[],"categories_segments":[],"categories_sizes":[],"default_left":[0,0,0,0,0,0,0,0,0,0,0,0,0,0,0,0,0,0,1,0,0,0,0,0,0,0,0,0,0,0,0,0,0,0,0,0,0,0,0,0,0,0,0,0,0,0,0,0,0,0,0,0,0,0,0,0,0,0,0,0,0,0,0],"id":7,"left_children":[1,3,5,7,9,11,13,15,17,19,21,23,25,27,29,31,33,35,37,39,41,43,45,47,49,51,53,55,57,59,61,-1,-1,-1,-1,-1,-1,-1,-1,-1,-1,-1,-1,-1,-1,-1,-1,-1,-1,-1,-1,-1,-1,-1,-1,-1,-1,-1,-1,-1,-1,-1,-1],"loss_changes":[1.4554185E3,3.9171698E2,5.9931964E2,6.5819824E1,1.27416435E2,2.715031E2,1.7979099E2,6.916437E1,1.6804565E1,7.979642E1,1.6858139E1,1.2900867E2,1.945354E2,1.5761884E2,2.4879059E1,2.5657104E1,4.1614853E1,3.5875947E0,6.681885E0,4.0965843E1,7.777214E1,2.6309824E1,1.2065109E1,7.130383E1,3.7484863E1,7.908656E1,5.1659065E1,6.388801E1,3.3277527E1,1.7778301E1,6.65448E0,0E0,0E0,0E0,0E0,0E0,0E0,0E0,0E0,0E0,0E0,0E0,0E0,0E0,0E0,0E0,0E0,0E0,0E0,0E0,0E0,0E0,0E0,0E0,0E0,0E0,0E0,0E0,0E0,0E0,0E0,0E0,0E0],"parents":[2147483647,0,0,1,1,2,2,3,3,4,4,5,5,6,6,7,7,8,8,9,9,10,10,11,11,12,12,13,13,14,14,15,15,16,16,17,17,18,18,19,19,20,20,21,21,22,22,23,23,24,24,25,25,26,26,27,27,28,28,29,29,30,30],"right_children":[2,4,6,8,10,12,14,16,18,20,22,24,26,28,30,32,34,36,38,40,42,44,46,48,50,52,54,56,58,60,62,-1,-1,-1,-1,-1,-1,-1,-1,-1,-1,-1,-1,-1,-1,-1,-1,-1,-1,-1,-1,-1,-1,-1,-1,-1,-1,-1,-1,-1,-1,-1,-1],"split_conditions":[-4.2E-1,5.95E-1,5.84E-1,1.2502296E-1,4.183915E-1,-5.95E-1,-7.04E-1,4.21E-1,7.54E-1,-1.085E0,2.1843E-1,4.65E-1,7.1031E-2,3.3630826E2,1.2905265E-1,3.9E-1,-5.02E-1,9.564294E1,7.5E-2,8.8497E-2,2.48E-1,1.62526E-1,1.437E0,2.44E-1,1.3E-1,-5.42E-1,1E0,-2.5E-1,2.053E0,6.57E-1,-1.98E-1,-8.409873E-2,5.6780633E-2,-8.087444E-4,7.231784E-2,-6.961059E-2,2.197775E-2,5.453394E-2,6.992168E-2,-2.9771402E-2,4.6306845E-2,-4.696808E-2,1.3641204E-3,-8.229231E-2,6.889602E-2,7.583452E-2,4.058555E-2,-5.203396E-2,-2.7316649E-2,-4.5745514E-2,-3.1626176E-3,-2.6902536E-2,3.2160573E-2,4.6247598E-2,-1.2227215E-3,5.600977E-3,-4.920899E-2,6.92757E-2,-3.5721622E-2,5.3339012E-2,-3.9657008E-2,7.5804815E-2,2.0689932E-3],"split_indices":[24,25,65,55,63,40,64,25,58,56,77,12,37,75,63,6,72,2,11,61,65,61,89,41,41,72,1,16,73,65,16,0,0,0,0,0,0,0,0,0,0,0,0,0,0,0,0,0,0,0,0,0,0,0,0,0,0,0,0,0,0,0,0],"split_type":[0,0,0,0,0,0,0,0,0,0,0,0,0,0,0,0,0,0,0,0,0,0,0,0,0,0,0,0,0,0,0,0,0,0,0,0,0,0,0,0,0,0,0,0,0,0,0,0,0,0,0,0,0,0,0,0,0,0,0,0,0,0,0],"sum_hessian":[5.122618E3,1.8082124E3,3.3144055E3,1.0090564E3,7.99156E2,2.8121282E3,5.0227734E2,4.0447577E2,6.045806E2,6.7873065E2,1.2042534E2,1.9072164E3,9.0491174E2,3.1363483E2,1.8864253E2,2.6656216E2,1.3791362E2,3.059389E0,6.0152124E2,1.3617635E2,5.425543E2,9.518019E0,1.1090732E2,1.5782233E3,3.289932E2,6.4984644E2,2.5506534E2,2.194503E2,9.4184525E1,1.8962126E1,1.696804E2,2.4285161E0,2.6413364E2,1.1552354E2,2.2390083E1,1.990541E0,1.0688481E0,1.08470116E2,4.9305112E2,2.01372E1,1.16039154E2,1.0158198E2,4.4097235E2,4.7183914E0,4.799627E0,6.5504105E1,4.5403214E1,1.1862942E3,3.9192908E2,6.3207962E1,2.6578525E2,5.879761E2,6.187036E1,1.6857092E2,8.6494415E1,1.313168E2,8.81335E1,8.6531685E1,7.652839E0,1.0790733E1,8.171392E0,1.6650565E2,3.174749E0],"tree_param":{"num_deleted":"0","num_feature":"110","num_nodes":"63","size_leaf_vector":"1"}},{"base_weights":[1.1674848E-2,6.974451E-1,-3.7399945E-1,1.2653434E-2,9.5911086E-1,1.8273877E-1,-6.3467157E-1,-7.2332484E-1,3.5911772E-1,7.4555963E-1,1.3045279E0,-1.5640692E-1,1.1779332E0,-7.383847E-1,2.468256E-1,-1.324167E0,-2.504438E-1,1.2772141E-1,1.1190417E0,4.9652275E-1,1.1324062E0,-3.4334308E-1,1.3254712E0,1.2099387E-1,-7.925737E-1,-3.201419E-1,1.2550961E0,-9.1925865E-1,-4.0379137E-1,-4.450964E-1,6.4728516E-1,-8.568188E-2,-2.447957E-2,-2.2989921E-2,6.396716E-2,2.5784997E-2,-1.1878267E-2,6.0563028E-2,-4.0245663E-2,3.797516E-2,3.334858E-3,-3.981491E-2,5.8724593E-2,3.4985874E-2,-6.824987E-2,4.7644682E-2,6.880192E-2,-9.8396465E-3,3.533948E-2,7.454126E-2,-4.334549E-2,-7.751041E-2,3.9773945E-2,6.817573E-2,2.9551918E-2,-4.863255E-2,2.5513196E-2,-3.178347E-2,1.239439E-2,4.4038277E-2,-3.3699684E-2,-1.5362041E-2,4.9242638E-2],"categories":[],"categories_nodes":[],"categories_segments":[],"categories_sizes":[],"default_left":[0,0,0,0,0,0,0,0,0,0,0,0,0,0,0,0,0,0,0,0,0,0,0,0,0,0,0,0,0,0,0,0,0,0,0,0,0,0,0,0,0,0,0,0,0,0,0,0,0,0,0,0,0,0,0,0,0,0,0,0,0,0,0],"id":8,"left_children":[1,3,5,7,9,11,13,15,17,19,21,23,25,27,29,31,33,35,37,39,41,43,45,47,49,51,53,55,57,59,61,-1,-1,-1,-1,-1,-1,-1,-1,-1,-1,-1,-1,-1,-1,-1,-1,-1,-1,-1,-1,-1,-1,-1,-1,-1,-1,-1,-1,-1,-1,-1,-1],"loss_changes":[1.3532109E3,3.2999323E2,4.7536725E2,1.3035114E2,9.7318726E1,3.5291974E2,2.0411505E2,4.615975E1,6.097203E1,7.899078E1,1.797821E1,1.3780624E2,3.112085E1,1.204303E2,6.5561615E1,2.2509125E1,3.0308462E1,3.804134E1,1.5346008E1,5.6935364E1,2.712259E1,8.591874E0,8.13855E0,1.0145859E2,4.1534378E1,2.0190315E1,1.7404205E1,9.932922E1,1.06266335E2,2.6982082E1,4.8512527E1,0E0,0E0,0E0,0E0,0E0,0E0,0E0,0E0,0E0,0E0,0E0,0E0,0E0,0E0,0E0,0E0,0E0,0E0,0E0,0E0,0E0,0E0,0E0,0E0,0E0,0E0,0E0,0E0,0E0,0E0,0E0,0E0],"parents":[2147483647,0,0,1,1,2,2,3,3,4,4,5,5,6,6,7,7,8,8,9,9,10,10,11,11,12,12,13,13,14,14,15,15,16,16,17,17,18,18,19,19,20,20,21,21,22,22,23,23,24,24,25,25,26,26,27,27,28,28,29,29,30,30],"right_children":[2,4,6,8,10,12,14,16,18,20,22,24,26,28,30,32,34,36,38,40,42,44,46,48,50,52,54,56,58,60,62,-1,-1,-1,-1,-1,-1,-1,-1,-1,-1,-1,-1,-1,-1,-1,-1,-1,-1,-1,-1,-1,-1,-1,-1,-1,-1,-1,-1,-1,-1,-1,-1],"split_conditions":[-4.65E-1,-7.56E-1,-2.92E-1,9.7179E-2,2.1623819E-1,-7.38E-1,1.95E-1,2.48E-1,4.3131185E-1,-4.37E-1,5.05E-1,-2.64E-1,-1.054E0,-7.61E-1,-7.92E-1,-5.3E-1,-5.87E-1,-1.241E0,2.142E0,-3.19E-1,6.574435E0,-3.61E-1,1.20309E-1,-6.05E-1,4.52E-1,1.282E0,-2.3E-1,5.54811E-1,2.36E-1,8.345229E0,6.8992E-2,-8.568188E-2,-2.447957E-2,-2.2989921E-2,6.396716E-2,2.5784997E-2,-1.1878267E-2,6.0563028E-2,-4.0245663E-2,3.797516E-2,3.334858E-3,-3.981491E-2,5.8724593E-2,3.4985874E-2,-6.824987E-2,4.7644682E-2,6.880192E-2,-9.8396465E-3,3.533948E-2,7.454126E-2,-4.334549E-2,-7.751041E-2,3.9773945E-2,6.817573E-2,2.9551918E-2,-4.863255E-2,2.5513196E-2,-3.178347E-2,1.239439E-2,4.4038277E-2,-3.3699684E-2,-1.5362041E-2,4.9242638E-2],"split_indices":[56,40,16,37,31,72,11,41,63,40,49,104,40,64,40,56,72,32,17,104,99,16,37,40,42,74,104,79,41,9,109,0,0,0,0,0,0,0,0,0,0,0,0,0,0,0,0,0,0,0,0,0,0,0,0,0,0,0,0,0,0,0,0],"split_type":[0,0,0,0,0,0,0,0,0,0,0,0,0,0,0,0,0,0,0,0,0,0,0,0,0,0,0,0,0,0,0,0,0,0,0,0,0,0,0,0,0,0,0,0,0,0,0,0,0,0,0,0,0,0,0,0,0,0,0,0,0,0,0],"sum_hessian":[5.1144336E3,1.8406868E3,3.2737468E3,5.0918192E2,1.3315049E3,1.044093E3,2.2296538E3,1.6262894E2,3.4655298E2,8.247615E2,5.0674335E2,7.793472E2,2.6474573E2,1.9950831E3,2.345706E2,7.083097E1,9.1797966E1,2.6655518E2,7.9997795E1,5.0314175E2,3.2161975E2,6.1663136E0,5.0057703E2,5.4326575E2,2.3608148E2,1.2814276E1,2.5193144E2,1.293888E3,7.0119525E2,8.59511E1,1.4861949E2,4.757561E1,2.325536E1,8.136274E1,1.0435228E1,1.2906299E2,1.3749219E2,7.6692215E1,3.3055751E0,3.1167963E2,1.9146211E2,6.4854007E0,3.1513434E2,3.2071147E0,2.959199E0,6.2192085E1,4.3838495E2,3.5263162E2,1.9063416E2,6.8425355E0,2.2923894E2,5.909265E0,6.905011E0,2.1566689E2,3.6264557E1,1.2476096E3,4.6278305E1,5.171939E2,1.8400137E2,1.2234757E1,7.371635E1,3.885125E1,1.0976825E2],"tree_param":{"num_deleted":"0","num_feature":"110","num_nodes":"63","size_leaf_vector":"1"}},{"base_weights":[6.759554E-3,6.190149E-1,-3.9202347E-1,1.0470574E0,1.3878156E-1,-5.7583773E-1,3.6445034E-1,1.2129221E0,6.499587E-1,5.238913E-1,-2.7204534E-1,-7.6925915E-1,-1.6264087E-1,8.0000955E-1,-3.6366057E-1,8.7702584E-1,1.2926115E0,1.0158999E0,-4.6412904E-2,2.4220021E-1,9.566338E-1,-4.279552E-1,6.8855023E-1,-8.662175E-1,-2.6287267E-1,-4.800121E-1,3.995849E-1,-1.21584475E-1,1.109057E0,-6.0626966E-1,8.446476E-1,-2.606097E-3,4.9573243E-2,-8.211468E-3,6.516967E-2,5.2786123E-2,-2.0090666E-2,-2.3711657E-2,6.2671795E-2,-5.317857E-3,2.9582525E-2,2.6182262E-2,6.4777814E-2,1.1918585E-2,-3.2910716E-2,-1.8683096E-2,5.6427874E-2,-4.752268E-2,-1.0885349E-2,-3.086344E-2,5.830508E-3,-4.0821575E-2,-7.080149E-3,8.449789E-3,6.1406013E-2,-2.7857143E-2,3.99873E-2,3.772184E-2,7.20497E-2,-4.523987E-2,1.0516747E-3,6.8377465E-2,-5.721263E-3],"categories":[],"categories_nodes":[],"categories_segments":[],"categories_sizes":[],"default_left":[0,0,0,0,0,0,0,1,0,0,0,0,0,0,0,0,0,0,0,0,0,0,0,0,0,0,0,0,0,0,0,0,0,0,0,0,0,0,0,0,0,0,0,0,0,0,0,0,0,0,0,0,0,0,0,0,0,0,0,0,0,0,0],"id":9,"left_children":[1,3,5,7,9,11,13,15,17,19,21,23,25,27,29,31,33,35,37,39,41,43,45,47,49,51,53,55,57,59,61,-1,-1,-1,-1,-1,-1,-1,-1,-1,-1,-1,-1,-1,-1,-1,-1,-1,-1,-1,-1,-1,-1,-1,-1,-1,-1,-1,-1,-1,-1,-1,-1],"loss_changes":[1.2362809E3,4.1039447E2,4.2658066E2,6.875244E1,1.4923651E2,1.9706134E2,1.9058307E2,1.8770264E1,7.986713E1,5.9102448E1,6.868007E1,8.22724E1,1.4079085E2,1.0715602E2,6.655186E1,1.554351E1,9.621155E0,1.2018875E1,6.112914E1,3.6137173E1,2.7435577E1,6.0525948E1,3.0402E1,7.680994E1,3.6580246E1,5.727565E1,5.421396E1,3.8674175E1,3.204773E1,3.526126E1,1.9257114E1,0E0,0E0,0E0,0E0,0E0,0E0,0E0,0E0,0E0,0E0,0E0,0E0,0E0,0E0,0E0,0E0,0E0,0E0,0E0,0E0,0E0,0E0,0E0,0E0,0E0,0E0,0E0,0E0,0E0,0E0,0E0,0E0],"parents":[2147483647,0,0,1,1,2,2,3,3,4,4,5,5,6,6,7,7,8,8,9,9,10,10,11,11,12,12,13,13,14,14,15,15,16,16,17,17,18,18,19,19,20,20,21,21,22,22,23,23,24,24,25,25,26,26,27,27,28,28,29,29,30,30],"right_children":[2,4,6,8,10,12,14,16,18,20,22,24,26,28,30,32,34,36,38,40,42,44,46,48,50,52,54,56,58,60,62,-1,-1,-1,-1,-1,-1,-1,-1,-1,-1,-1,-1,-1,-1,-1,-1,-1,-1,-1,-1,-1,-1,-1,-1,-1,-1,-1,-1,-1,-1,-1,-1],"split_conditions":[-3.87E-1,5.65E-1,4.92E-1,-4.94E-1,-4.54E-1,-5.95E-1,-2.68E-1,7.5E-2,8.34E-1,1.9394262E-1,3.2389554E-1,1.7E-1,1.0200037E-1,-8.52E-1,5.009076E-1,7.87E-1,5.688195E0,1.626E0,5.59E-1,-7.59E-1,-8.59E-1,1.8505542E-1,-9.6E-1,-6.65E-1,-8.15E-1,2.11E-1,2.3517725E-1,1.75E-1,-8.83E-1,-6.26E-1,-4.21E-1,-2.606097E-3,4.9573243E-2,-8.211468E-3,6.516967E-2,5.2786123E-2,-2.0090666E-2,-2.3711657E-2,6.2671795E-2,-5.317857E-3,2.9582525E-2,2.6182262E-2,6.4777814E-2,1.1918585E-2,-3.2910716E-2,-1.8683096E-2,5.6427874E-2,-4.752268E-2,-1.0885349E-2,-3.086344E-2,5.830508E-3,-4.0821575E-2,-7.080149E-3,8.449789E-3,6.1406013E-2,-2.7857143E-2,3.99873E-2,3.772184E-2,7.20497E-2,-4.523987E-2,1.0516747E-3,6.8377465E-2,-5.721263E-3],"split_indices":[24,25,65,24,104,40,16,11,26,47,63,11,31,40,79,58,27,105,65,40,40,71,40,72,40,65,63,11,72,40,32,0,0,0,0,0,0,0,0,0,0,0,0,0,0,0,0,0,0,0,0,0,0,0,0,0,0,0,0,0,0,0,0],"split_type":[0,0,0,0,0,0,0,0,0,0,0,0,0,0,0,0,0,0,0,0,0,0,0,0,0,0,0,0,0,0,0,0,0,0,0,0,0,0,0,0,0,0,0,0,0,0,0,0,0,0,0,0,0,0,0,0,0,0,0,0,0,0,0],"sum_hessian":[5.061472E3,1.9961743E3,3.0652976E3,1.0548147E3,9.413596E2,2.4662632E3,5.990343E2,7.4258765E2,3.1222705E2,4.8574567E2,4.5561398E2,1.6793035E3,7.8695984E2,3.7475525E2,2.2427904E2,1.446947E2,5.9789294E2,2.0437155E2,1.078555E2,2.951677E2,1.9057797E2,3.924687E2,6.3145306E1,1.4088408E3,2.7046268E2,5.0310687E2,2.8385294E2,9.426352E1,2.8049173E2,1.871921E2,3.7086945E1,1.5926832E1,1.2876787E2,4.287883E0,5.936051E2,1.990361E2,5.3354454E0,8.1625275E1,2.6230228E1,1.4812091E2,1.470468E2,8.479438E1,1.0578359E2,1.0078383E2,2.9168484E2,1.8539724E1,4.460558E1,1.2464692E3,1.623715E2,1.3953004E2,1.3093265E2,2.5158679E2,2.515201E2,2.2299525E2,6.085769E1,6.427353E1,2.9989986E1,1.3719463E2,1.432971E2,1.2653358E2,6.065851E1,2.3725513E1,1.3361432E1],"tree_param":{"num_deleted":"0","num_feature":"110","num_nodes":"63","size_leaf_vector":"1"}},{"base_weights":[7.3072882E-3,6.4006567E-1,-3.3261248E-1,9.770328E-1,6.7918524E-2,-4.5360392E-1,6.726266E-1,6.335833E-1,1.195006E0,-1.5393335E-1,6.277753E-1,-6.737575E-1,2.7696827E-1,2.2434962E-1,1.3777955E0,9.868074E-1,4.963103E-2,1.2397581E0,3.3832005E-1,-3.0100814E-1,4.8825344E-1,2.1048006E-1,9.985753E-1,-7.342822E-1,3.032185E-2,-2.550601E-1,7.629624E-1,2.4563432E-2,9.8555005E-1,1.4488912E0,-8.6249256E-1,-7.009198E-2,5.0721467E-2,-4.9336508E-2,1.4899025E-2,6.24471E-2,-2.223169E-2,-7.9867E-2,2.4153791E-2,-3.465382E-2,4.4072846E-7,-5.5935353E-2,3.4466065E-2,-1.2388709E-2,5.2927155E-2,6.274692E-2,2.7098088E-2,-2.819409E-3,-4.0050745E-2,-1.7557476E-2,2.7135048E-2,-4.5258924E-2,3.805142E-3,2.0057568E-2,5.8304E-2,-2.9793916E-2,1.7918577E-2,-4.0862124E-2,5.8040675E-2,-1.0439434E-2,7.346678E-2,3.1327434E-2,-7.327527E-2],"categories":[],"categories_nodes":[],"categories_segments":[],"categories_sizes":[],"default_left":[0,0,0,0,0,0,0,0,0,0,0,1,0,0,0,0,0,0,0,0,0,0,0,0,0,0,0,0,0,0,0,0,0,0,0,0,0,0,0,0,0,0,0,0,0,0,0,0,0,0,0,0,0,0,0,0,0,0,0,0,0,0,0],"id":10,"left_children":[1,3,5,7,9,11,13,15,17,19,21,23,25,27,29,31,33,35,37,39,41,43,45,47,49,51,53,55,57,59,61,-1,-1,-1,-1,-1,-1,-1,-1,-1,-1,-1,-1,-1,-1,-1,-1,-1,-1,-1,-1,-1,-1,-1,-1,-1,-1,-1,-1,-1,-1,-1,-1],"loss_changes":[1.0780057E3,3.376159E2,3.968582E2,8.175903E1,8.086485E1,4.683499E2,1.105428E2,8.866019E1,2.5388428E1,4.42106E1,2.8376595E1,9.5351685E1,1.7465674E2,3.276094E1,2.292572E1,1.9099457E1,4.228502E1,1.0445862E1,1.0521006E1,4.4872574E1,2.8983994E1,3.4536076E1,1.0739792E1,9.314441E1,3.4989937E1,6.957972E1,5.099997E1,3.5792454E1,1.5101707E1,4.789734E0,5.2397575E0,0E0,0E0,0E0,0E0,0E0,0E0,0E0,0E0,0E0,0E0,0E0,0E0,0E0,0E0,0E0,0E0,0E0,0E0,0E0,0E0,0E0,0E0,0E0,0E0,0E0,0E0,0E0,0E0,0E0,0E0,0E0,0E0],"parents":[2147483647,0,0,1,1,2,2,3,3,4,4,5,5,6,6,7,7,8,8,9,9,10,10,11,11,12,12,13,13,14,14,15,15,16,16,17,17,18,18,19,19,20,20,21,21,22,22,23,23,24,24,25,25,26,26,27,27,28,28,29,29,30,30],"right_children":[2,4,6,8,10,12,14,16,18,20,22,24,26,28,30,32,34,36,38,40,42,44,46,48,50,52,54,56,58,60,62,-1,-1,-1,-1,-1,-1,-1,-1,-1,-1,-1,-1,-1,-1,-1,-1,-1,-1,-1,-1,-1,-1,-1,-1,-1,-1,-1,-1,-1,-1,-1,-1],"split_conditions":[-4.2E-1,6.73E-1,-4.42E-1,1.5503637E1,1.9394262E-1,1.26226E-1,9.782747E-2,4.25E-1,-5.77E-1,4.7E-1,-9.15E-1,1.95E-1,-7.35E-1,-2.47E-1,-2.13E-1,5.7346243E-2,2.58E-1,9.941E-3,8.8087E-2,1.68137E-1,6.0221E-2,4.183915E-1,-6.31E-1,3.37E-1,6.45933E1,6.6183E-2,1.4E-1,5.439023E0,8.3005E-2,-1.89E0,-5.95E-1,-7.009198E-2,5.0721467E-2,-4.9336508E-2,1.4899025E-2,6.24471E-2,-2.223169E-2,-7.9867E-2,2.4153791E-2,-3.465382E-2,4.4072846E-7,-5.5935353E-2,3.4466065E-2,-1.2388709E-2,5.2927155E-2,6.274692E-2,2.7098088E-2,-2.819409E-3,-4.0050745E-2,-1.7557476E-2,2.7135048E-2,-4.5258924E-2,3.805142E-3,2.0057568E-2,5.8304E-2,-2.9793916E-2,1.7918577E-2,-4.0862124E-2,5.8040675E-2,-1.0439434E-2,7.346678E-2,3.1327434E-2,-7.327527E-2],"split_indices":[24,25,64,59,47,69,63,25,56,12,40,13,40,64,16,31,41,38,101,85,61,63,104,25,2,37,11,51,93,72,40,0,0,0,0,0,0,0,0,0,0,0,0,0,0,0,0,0,0,0,0,0,0,0,0,0,0,0,0,0,0,0,0],"split_type":[0,0,0,0,0,0,0,0,0,0,0,0,0,0,0,0,0,0,0,0,0,0,0,0,0,0,0,0,0,0,0,0,0,0,0,0,0,0,0,0,0,0,0,0,0,0,0,0,0,0,0,0,0,0,0,0,0,0,0,0,0,0,0],"sum_hessian":[5.00996E3,1.7505117E3,3.2594485E3,1.1012316E3,6.492801E2,2.9097744E3,3.496741E2,4.290716E2,6.7216E2,4.6553122E2,1.8374886E2,2.2360361E3,6.7373834E2,2.1458208E2,1.3509204E2,2.6692358E2,1.6214801E2,6.383654E2,3.379458E1,3.7921417E2,8.6317055E1,8.719169E1,9.655717E1,2.0589958E3,1.7704018E2,3.2186304E2,3.518753E2,1.7078879E2,4.3793297E1,1.3127914E2,3.8128915E0,2.4826462E0,2.6444092E2,3.0770346E1,1.3137767E2,6.351608E2,3.2045665E0,1.6532156E0,3.214136E1,1.6413255E2,2.1508163E2,9.0916395E0,7.722541E1,5.7064495E1,3.0127192E1,6.0718678E1,3.5838493E1,1.8469044E2,1.8743054E3,1.01664566E2,7.537561E1,1.0803741E2,2.138256E2,1.864898E2,1.653855E2,5.946934E1,1.1131944E2,3.5557039E0,4.0237595E1,1.4871285E0,1.2979202E2,1.0877762E0,2.7251153E0],"tree_param":{"num_deleted":"0","num_feature":"110","num_nodes":"63","size_leaf_vector":"1"}},{"base_weights":[-3.409206E-4,6.149522E-1,-3.2600158E-1,9.9076587E-1,1.4392808E-1,-4.9833527E-1,4.3174753E-1,6.6179836E-1,1.2107786E0,-4.603592E-1,3.9427733E-1,-6.1928785E-1,7.936827E-2,1.06565915E-1,1.2328707E0,9.233625E-1,1.04288645E-1,1.2515644E0,4.2032477E-1,-4.631146E-2,-9.256197E-1,2.4397103E-1,1.2289653E0,-7.6167864E-1,-1.9777714E-1,-1.7644644E-1,7.234232E-1,-2.5703496E-1,9.901412E-1,1.3366927E0,3.537223E-2,-6.650583E-2,4.750309E-2,-5.2384745E-2,1.947182E-2,6.6739075E-2,5.0618857E-2,1.9730842E-3,7.073773E-2,-2.5000483E-2,2.6147386E-2,4.5128178E-2,-5.0389584E-2,1.9652179E-2,-2.4715692E-2,-1.0175092E-2,6.3993685E-2,-2.5284452E-2,-4.8402052E-2,-1.8257562E-2,3.312213E-2,-4.4100594E-2,5.245839E-3,-1.3589521E-2,4.826718E-2,3.183427E-2,-3.0158544E-2,6.509219E-2,-1.7169252E-2,-2.4199566E-2,6.8130195E-2,6.1200943E-2,-5.8264624E-2],"categories":[],"categories_nodes":[],"categories_segments":[],"categories_sizes":[],"default_left":[0,0,0,0,0,0,0,0,0,0,0,0,0,0,0,0,0,0,0,0,0,0,0,0,0,0,0,0,0,0,0,0,0,0,0,0,0,0,0,0,0,0,0,0,0,0,0,0,0,0,0,0,0,0,0,0,0,0,0,0,0,0,0],"id":11,"left_children":[1,3,5,7,9,11,13,15,17,19,21,23,25,27,29,31,33,35,37,39,41,43,45,47,49,51,53,55,57,59,61,-1,-1,-1,-1,-1,-1,-1,-1,-1,-1,-1,-1,-1,-1,-1,-1,-1,-1,-1,-1,-1,-1,-1,-1,-1,-1,-1,-1,-1,-1,-1,-1],"loss_changes":[9.9254816E2,3.0332825E2,4.2318893E2,6.820166E1,1.1545534E2,1.8447351E2,1.5635599E2,5.5942444E1,1.7853271E1,4.3044426E1,6.736116E1,1.3084375E2,7.55569E1,1.3787308E2,2.15029E1,1.6993683E1,4.1089817E1,9.429321E0,1.1108694E1,3.1099081E1,1.6723434E1,5.0629402E1,6.2438126E0,8.567474E1,7.978481E1,6.530094E1,3.1644325E1,9.450953E1,5.244229E1,8.183105E0,2.2628622E1,0E0,0E0,0E0,0E0,0E0,0E0,0E0,0E0,0E0,0E0,0E0,0E0,0E0,0E0,0E0,0E0,0E0,0E0,0E0,0E0,0E0,0E0,0E0,0E0,0E0,0E0,0E0,0E0,0E0,0E0,0E0,0E0],"parents":[2147483647,0,0,1,1,2,2,3,3,4,4,5,5,6,6,7,7,8,8,9,9,10,10,11,11,12,12,13,13,14,14,15,15,16,16,17,17,18,18,19,19,20,20,21,21,22,22,23,23,24,24,25,25,26,26,27,27,28,28,29,29,30,30],"right_children":[2,4,6,8,10,12,14,16,18,20,22,24,26,28,30,32,34,36,38,40,42,44,46,48,50,52,54,56,58,60,62,-1,-1,-1,-1,-1,-1,-1,-1,-1,-1,-1,-1,-1,-1,-1,-1,-1,-1,-1,-1,-1,-1,-1,-1,-1,-1,-1,-1,-1,-1,-1,-1],"split_conditions":[-4.2E-1,5.92E-1,5.09E-1,1.2432942E-1,3.28E-1,-4.83E-1,-7.38E-1,4.29E-1,-5.77E-1,-8.84E-1,6.6089094E-1,4.45E-1,1.156963E-1,2.894633E2,-2.17E-1,5.7346243E-2,2.57E-1,-3.53E-1,-6.19E-1,2.7806494E1,-7.285E-3,-2.24E-1,-1.972E0,-2.28E-1,2.5582394E-1,1.64E-1,9.439088E-2,-4.1E-1,1.391E0,4.9853E-2,-2.087E-3,-6.650583E-2,4.750309E-2,-5.2384745E-2,1.947182E-2,6.6739075E-2,5.0618857E-2,1.9730842E-3,7.073773E-2,-2.5000483E-2,2.6147386E-2,4.5128178E-2,-5.0389584E-2,1.9652179E-2,-2.4715692E-2,-1.0175092E-2,6.3993685E-2,-2.5284452E-2,-4.8402052E-2,-1.8257562E-2,3.312213E-2,-4.4100594E-2,5.245839E-3,-1.3589521E-2,4.826718E-2,3.183427E-2,-3.0158544E-2,6.509219E-2,-1.7169252E-2,-2.4199566E-2,6.8130195E-2,6.1200943E-2,-5.8264624E-2],"split_indices":[24,25,65,55,65,40,72,25,56,88,79,12,31,75,16,31,41,104,72,35,62,16,104,16,63,65,55,16,89,69,70,0,0,0,0,0,0,0,0,0,0,0,0,0,0,0,0,0,0,0,0,0,0,0,0,0,0,0,0,0,0,0,0],"split_type":[0,0,0,0,0,0,0,0,0,0,0,0,0,0,0,0,0,0,0,0,0,0,0,0,0,0,0,0,0,0,0,0,0,0,0,0,0,0,0,0,0,0,0,0,0,0,0,0,0,0,0,0,0,0,0,0,0,0,0,0,0,0,0],"sum_hessian":[4.9514087E3,1.7133569E3,3.2380518E3,9.5238153E2,7.609754E2,2.6383567E3,5.99695E2,3.8328857E2,5.6909296E2,2.2266733E2,5.383081E2,2.1815403E3,4.568165E2,4.2735968E2,1.7233531E2,2.60442E2,1.22846565E2,5.4061505E2,2.8477938E1,1.1839977E2,1.04267555E2,4.5725946E2,8.1048645E1,1.6300762E3,5.514639E2,3.2747244E2,1.2934404E2,3.032699E2,1.2408978E2,1.584791E2,1.3856214E1,2.4779644E0,2.5796402E2,2.384394E1,9.9002625E1,3.9767633E2,1.4293869E2,2.1343235E1,7.1347017E0,6.5955246E1,5.2444527E1,4.055512E0,1.0021204E2,3.8083075E2,7.64287E1,2.6786613E0,7.836998E1,7.2909485E2,9.009814E2,4.621235E2,8.934046E1,9.275043E1,2.3472203E2,2.526896E1,1.0407508E2,8.44308E1,2.1883911E2,1.00599174E2,2.3490604E1,1.9756967E0,1.565034E2,6.953181E0,6.9030333E0],"tree_param":{"num_deleted":"0","num_feature":"110","num_nodes":"63","size_leaf_vector":"1"}},{"base_weights":[-5.8949003E-3,5.1506823E-1,-3.7276313E-1,8.9573246E-1,8.840243E-2,-5.1401156E-1,3.4929168E-1,5.9150034E-1,1.1583066E0,2.45827E-1,-6.572552E-1,-2.784133E-1,-7.8086054E-1,-1.6430367E-2,1.2631612E0,9.1085654E-1,1.624429E-1,-6.589652E-1,1.1699164E0,2.1036174E-3,6.428852E-1,-7.946136E-1,3.8953868E-1,-3.81996E-1,3.3805156E-1,4.52706E-1,-8.526647E-1,-3.934481E-1,9.4432807E-1,-6.1450858E-2,1.3090743E0,1.7200278E-2,5.3103346E-2,-1.3556272E-2,2.861452E-2,-8.315374E-2,4.1405287E-2,6.363677E-2,5.022918E-2,-6.7826393E-3,3.998688E-2,-3.2412175E-3,4.2942587E-2,-5.720445E-2,-1.4672986E-2,-7.068698E-2,4.5429934E-2,-2.2093145E-2,3.1860124E-2,6.484075E-3,4.816716E-2,-7.425288E-2,3.2081258E-2,-5.803157E-2,-2.962317E-2,-3.3241943E-2,2.448734E-2,5.799982E-2,-4.376335E-2,6.671627E-2,-2.8080603E-3],"categories":[],"categories_nodes":[],"categories_segments":[],"categories_sizes":[],"default_left":[0,0,0,0,0,0,0,0,0,0,1,0,0,0,0,0,0,0,0,0,0,0,0,0,0,0,0,0,0,0,0,0,0,0,0,0,0,0,0,0,0,0,0,0,0,0,0,0,0,0,0,0,0,0,0,0,0,0,0,0,0],"id":12,"left_children":[1,3,5,7,9,11,13,15,17,19,21,23,25,27,29,31,33,35,37,39,41,43,45,47,49,51,53,55,57,-1,59,-1,-1,-1,-1,-1,-1,-1,-1,-1,-1,-1,-1,-1,-1,-1,-1,-1,-1,-1,-1,-1,-1,-1,-1,-1,-1,-1,-1,-1,-1],"loss_changes":[9.432858E2,3.311562E2,2.9554187E2,8.54057E1,1.1316994E2,1.5208905E2,1.5858394E2,6.8540146E1,1.2953247E1,7.699313E1,2.4478828E1,8.238662E1,1.0095471E2,1.2346056E2,1.7125748E1,2.4248886E1,3.838199E1,7.805506E0,8.480835E0,5.438985E1,4.630786E1,2.574678E1,2.0163166E1,6.760361E1,2.4089014E1,2.4055489E1,8.531915E1,5.899073E1,3.8712975E1,0E0,4.681961E0,0E0,0E0,0E0,0E0,0E0,0E0,0E0,0E0,0E0,0E0,0E0,0E0,0E0,0E0,0E0,0E0,0E0,0E0,0E0,0E0,0E0,0E0,0E0,0E0,0E0,0E0,0E0,0E0,0E0,0E0],"parents":[2147483647,0,0,1,1,2,2,3,3,4,4,5,5,6,6,7,7,8,8,9,9,10,10,11,11,12,12,13,13,14,14,15,15,16,16,17,17,18,18,19,19,20,20,21,21,22,22,23,23,24,24,25,25,26,26,27,27,28,28,30,30],"right_children":[2,4,6,8,10,12,14,16,18,20,22,24,26,28,30,32,34,36,38,40,42,44,46,48,50,52,54,56,58,-1,60,-1,-1,-1,-1,-1,-1,-1,-1,-1,-1,-1,-1,-1,-1,-1,-1,-1,-1,-1,-1,-1,-1,-1,-1,-1,-1,-1,-1,-1,-1],"split_conditions":[-3.71E-1,5.85E-1,5.25E-1,1.2432942E-1,-2.72E-1,1E0,-5.8E-1,3.88E-1,-1.0917E-2,4.3E-1,4.9E-1,5E-1,2.99E-1,5.2596605E-1,4.467E-2,-8.69E-1,3.2E-1,2.601351E-1,-6.34E-1,-7.76E-1,7.6957E-2,2.7312177E-1,6.0719E-2,-3.6E-1,2.07183E-1,1.21E-1,5.9E1,2.88E-1,9.62E-1,-6.1450858E-2,2.053E0,1.7200278E-2,5.3103346E-2,-1.3556272E-2,2.861452E-2,-8.315374E-2,4.1405287E-2,6.363677E-2,5.022918E-2,-6.7826393E-3,3.998688E-2,-3.2412175E-3,4.2942587E-2,-5.720445E-2,-1.4672986E-2,-7.068698E-2,4.5429934E-2,-2.2093145E-2,3.1860124E-2,6.484075E-3,4.816716E-2,-7.425288E-2,3.2081258E-2,-5.803157E-2,-2.962317E-2,-3.3241943E-2,2.448734E-2,5.799982E-2,-4.376335E-2,6.671627E-2,-2.8080603E-3],"split_indices":[24,25,65,55,104,1,64,25,22,12,12,12,25,71,69,64,41,47,24,72,61,87,61,64,85,65,0,41,25,0,73,0,0,0,0,0,0,0,0,0,0,0,0,0,0,0,0,0,0,0,0,0,0,0,0,0,0,0,0,0,0],"split_type":[0,0,0,0,0,0,0,0,0,0,0,0,0,0,0,0,0,0,0,0,0,0,0,0,0,0,0,0,0,0,0,0,0,0,0,0,0,0,0,0,0,0,0,0,0,0,0,0,0,0,0,0,0,0,0,0,0,0,0,0,0],"sum_hessian":[4.933439E3,2.0384208E3,2.8950183E3,1.0767039E3,9.617169E2,2.421594E3,4.734244E2,5.00292E2,5.7641187E2,7.9462463E2,1.6709227E2,1.28719E3,1.1344039E3,3.3881558E2,1.3460881E2,2.861682E2,2.141238E2,3.3051045E0,5.7310675E2,4.930095E2,3.0161517E2,1.4792299E2,1.9169281E1,1.1023464E3,1.8484357E2,6.210807E1,1.0722959E3,2.4375322E2,9.506237E1,1.9688838E0,1.3263992E2,6.095135E1,2.2521686E2,1.0421528E2,1.0990851E2,1.9022793E0,1.4028252E0,3.492272E2,2.2387955E2,4.2111093E2,7.1898575E1,7.068486E1,2.309303E2,8.6393974E1,6.1529007E1,3.8992286E0,1.5270053E1,1.0417229E3,6.0623486E1,1.3954834E2,4.5295223E1,4.9077673E0,5.7200306E1,4.8948972E2,5.8280615E2,1.86647E2,5.710621E1,8.5313095E1,9.749274E0,1.3025343E2,2.3864825E0],"tree_param":{"num_deleted":"0","num_feature":"110","num_nodes":"61","size_leaf_vector":"1"}},{"base_weights":[9.9389525E-3,6.920693E-1,-2.4084318E-1,2.682995E-1,1.0181885E0,-3.5384512E-1,7.1218264E-1,-1.4258808E-1,5.9255534E-1,6.4281565E-1,1.1447575E0,-5.076405E-1,2.6721242E-1,3.300503E-1,1.2964274E0,-4.3234092E-1,3.4319794E-1,9.890416E-1,2.7283064E-1,8.4034026E-1,-6.6923004E-1,1.2124889E0,5.8074003E-1,-1.15843445E-1,-6.482996E-1,-2.6614597E-1,7.2895324E-1,1.3608244E-1,1.049362E0,5.438207E-1,1.3549461E0,-5.5322047E-2,-8.245691E-3,2.997317E-2,-2.149741E-2,2.6543299E-2,6.07876E-2,3.567417E-2,-9.71901E-3,-6.9063395E-2,4.5429505E-2,3.0042214E-2,-6.215561E-2,6.1576474E-2,3.0668974E-2,-9.896578E-2,4.6669822E-2,3.695112E-2,-1.4178145E-2,-3.5306E-2,2.0887895E-2,3.109242E-2,-2.8060904E-2,1.2646148E-3,4.6166092E-2,-6.277419E-3,4.1501787E-2,-3.6035344E-2,5.8519185E-2,-6.3483365E-2,4.7568504E-2,-8.250929E-3,6.879542E-2],"categories":[],"categories_nodes":[],"categories_segments":[],"categories_sizes":[],"default_left":[0,0,0,0,0,0,0,1,0,0,0,0,0,0,0,0,0,0,0,0,0,0,0,0,1,1,0,0,0,0,0,0,0,0,0,0,0,0,0,0,0,0,0,0,0,0,0,0,0,0,0,0,0,0,0,0,0,0,0,0,0,0,0],"id":13,"left_children":[1,3,5,7,9,11,13,15,17,19,21,23,25,27,29,31,33,35,37,39,41,43,45,47,49,51,53,55,57,59,61,-1,-1,-1,-1,-1,-1,-1,-1,-1,-1,-1,-1,-1,-1,-1,-1,-1,-1,-1,-1,-1,-1,-1,-1,-1,-1,-1,-1,-1,-1,-1,-1],"loss_changes":[8.455942E2,1.8336328E2,3.8949307E2,7.725688E1,3.4923157E1,3.0883032E2,8.518324E1,3.622348E1,4.0794655E1,5.0201607E1,2.0689209E1,1.4270032E2,1.5833298E2,3.2390076E1,5.926193E0,2.883781E1,1.9340084E1,1.4336105E1,3.7342743E1,2.6563995E1,1.9419973E1,4.9375E0,5.778566E1,9.8511406E1,1.1778839E2,7.861229E1,4.7085358E1,3.3656086E1,1.1420124E1,1.0509516E1,4.6783447E0,0E0,0E0,0E0,0E0,0E0,0E0,0E0,0E0,0E0,0E0,0E0,0E0,0E0,0E0,0E0,0E0,0E0,0E0,0E0,0E0,0E0,0E0,0E0,0E0,0E0,0E0,0E0,0E0,0E0,0E0,0E0,0E0],"parents":[2147483647,0,0,1,1,2,2,3,3,4,4,5,5,6,6,7,7,8,8,9,9,10,10,11,11,12,12,13,13,14,14,15,15,16,16,17,17,18,18,19,19,20,20,21,21,22,22,23,23,24,24,25,25,26,26,27,27,28,28,29,29,30,30],"right_children":[2,4,6,8,10,12,14,16,18,20,22,24,26,28,30,32,34,36,38,40,42,44,46,48,50,52,54,56,58,60,62,-1,-1,-1,-1,-1,-1,-1,-1,-1,-1,-1,-1,-1,-1,-1,-1,-1,-1,-1,-1,-1,-1,-1,-1,-1,-1,-1,-1,-1,-1,-1,-1],"split_conditions":[-5.77E-1,-6.34E-1,-4.27E-1,1.01889E-1,1.2502296E-1,1.33023E-1,3.94E-1,4.5E-1,-1.751E0,3.64E-1,7.21E-1,-3.43E-1,-7.35E-1,-2.47E-1,-1.08E0,2.2973184E-1,-4.7E-1,1.17990005E2,-6.62E-1,5.910524E-2,-1.612E0,6.87E-1,1.6511966E-1,3.65E-1,2.1E-1,5.5E-2,6.55271E1,2.947842E-1,5.7E-1,-3.16E-1,4.4268858E-2,-5.5322047E-2,-8.245691E-3,2.997317E-2,-2.149741E-2,2.6543299E-2,6.07876E-2,3.567417E-2,-9.71901E-3,-6.9063395E-2,4.5429505E-2,3.0042214E-2,-6.215561E-2,6.1576474E-2,3.0668974E-2,-9.896578E-2,4.6669822E-2,3.695112E-2,-1.4178145E-2,-3.5306E-2,2.0887895E-2,3.109242E-2,-2.8060904E-2,1.2646148E-3,4.6166092E-2,-6.277419E-3,4.1501787E-2,-3.6035344E-2,5.8519185E-2,-6.3483365E-2,4.7568504E-2,-8.250929E-3,6.879542E-2],"split_indices":[56,40,64,53,55,69,65,12,80,57,25,24,40,64,72,79,24,67,96,103,88,57,23,25,13,11,67,87,6,56,47,0,0,0,0,0,0,0,0,0,0,0,0,0,0,0,0,0,0,0,0,0,0,0,0,0,0,0,0,0,0,0,0],"split_type":[0,0,0,0,0,0,0,0,0,0,0,0,0,0,0,0,0,0,0,0,0,0,0,0,0,0,0,0,0,0,0,0,0,0,0,0,0,0,0,0,0,0,0,0,0,0,0,0,0,0,0,0,0,0,0,0,0,0,0,0,0,0,0],"sum_hessian":[4.941111E3,1.3277784E3,3.6133325E3,5.7823016E2,7.495483E2,3.230871E3,3.824613E2,2.5529192E2,3.2293823E2,1.9053801E2,5.5901025E2,2.5897434E3,6.4112775E2,2.3217157E2,1.5028972E2,1.5997998E2,9.5311935E1,1.4322878E2,1.7970946E2,1.6591893E2,2.4619083E1,4.9805084E2,6.0959396E1,6.846149E2,1.9051284E3,2.9768936E2,3.434384E2,1.8379817E2,4.8373394E1,1.1585264E1,1.3870445E2,4.454887E1,1.1543111E2,7.175336E1,2.3558578E1,4.8517593E1,9.4711174E1,9.221202E1,8.749744E1,4.3718514E0,1.6154707E2,7.647409E0,1.6971674E1,4.8168652E2,1.6364332E1,6.8221846E0,5.413721E1,1.11728516E2,5.728864E2,1.8074352E3,9.769322E1,7.397138E1,2.23718E2,7.457805E1,2.6886032E2,1.3407062E2,4.9727554E1,2.7785828E0,4.559481E1,1.7376788E0,9.847585E0,1.7934102E0,1.3691104E2],"tree_param":{"num_deleted":"0","num_feature":"110","num_nodes":"63","size_leaf_vector":"1"}},{"base_weights":[-5.4314747E-3,5.2266407E-1,-3.2203916E-1,6.214723E-2,8.323386E-1,-4.7058454E-1,3.8509676E-1,-9.563616E-2,8.99546E-1,6.295404E-1,1.1310794E0,6.9315386E-1,-5.351841E-1,-2.814449E-2,1.1079333E0,3.1232253E-1,-3.23775E-1,-7.22514E-1,1.0304639E0,3.6951736E-1,9.761728E-1,2.9759818E-1,1.1770663E0,-6.3328356E-1,9.372629E-1,-7.3483723E-1,-2.6291123E-1,-3.632139E-1,4.020208E-1,1.2108871E0,1.9989515E-2,-6.9313394E-3,3.8021736E-2,-2.5804931E-2,8.559144E-3,-7.795637E-2,3.5709724E-2,-1.7768394E-2,5.663703E-2,-3.220984E-3,3.0651672E-2,-7.937783E-3,5.2673798E-2,4.13397E-2,-3.161728E-2,-1.8826222E-2,5.9222188E-2,-8.1844695E-2,2.4246281E-2,-2.018095E-3,5.7842135E-2,1.9212564E-2,-3.947156E-2,-1.8306099E-2,3.0182928E-2,-3.5144147E-2,1.828508E-2,-3.3070996E-2,2.8379021E-2,3.1496245E-2,6.7625426E-2,-4.936687E-2,6.838842E-2],"categories":[],"categories_nodes":[],"categories_segments":[],"categories_sizes":[],"default_left":[0,0,0,0,0,0,0,0,0,0,0,0,0,0,0,0,0,1,0,0,0,0,0,0,0,0,0,0,0,0,0,0,0,0,0,0,0,0,0,0,0,0,0,0,0,0,0,0,0,0,0,0,0,0,0,0,0,0,0,0,0,0,0],"id":14,"left_children":[1,3,5,7,9,11,13,15,17,19,21,23,25,27,29,31,33,35,37,39,41,43,45,47,49,51,53,55,57,59,61,-1,-1,-1,-1,-1,-1,-1,-1,-1,-1,-1,-1,-1,-1,-1,-1,-1,-1,-1,-1,-1,-1,-1,-1,-1,-1,-1,-1,-1,-1,-1,-1],"loss_changes":[8.1159155E2,2.5940973E2,3.1894754E2,9.688336E1,6.518933E1,1.889372E2,1.5755795E2,5.7559223E1,2.543068E1,5.824182E1,1.6460388E1,4.3447735E1,1.2901794E2,4.8649536E1,2.1464523E1,4.4951347E1,3.7825344E1,1.2255348E1,1.5707298E1,3.946649E1,2.4563324E1,1.2467514E1,5.2060547E0,2.4549244E1,2.4128387E1,8.405298E1,9.029977E1,4.7222805E1,2.6401413E1,1.35668335E1,2.5248333E1,0E0,0E0,0E0,0E0,0E0,0E0,0E0,0E0,0E0,0E0,0E0,0E0,0E0,0E0,0E0,0E0,0E0,0E0,0E0,0E0,0E0,0E0,0E0,0E0,0E0,0E0,0E0,0E0,0E0,0E0,0E0,0E0],"parents":[2147483647,0,0,1,1,2,2,3,3,4,4,5,5,6,6,7,7,8,8,9,9,10,10,11,11,12,12,13,13,14,14,15,15,16,16,17,17,18,18,19,19,20,20,21,21,22,22,23,23,24,24,25,25,26,26,27,27,28,28,29,29,30,30],"right_children":[2,4,6,8,10,12,14,16,18,20,22,24,26,28,30,32,34,36,38,40,42,44,46,48,50,52,54,56,58,60,62,-1,-1,-1,-1,-1,-1,-1,-1,-1,-1,-1,-1,-1,-1,-1,-1,-1,-1,-1,-1,-1,-1,-1,-1,-1,-1,-1,-1,-1,-1,-1,-1],"split_conditions":[-4.42E-1,-6.62E-1,-5.3E-1,4.183915E-1,8.9616E-2,-2.478E0,3.51E-1,-1.222E0,3.4498602E-1,-4.16E-1,1.4589764E-1,-8.62E-1,6.3E1,-3.89E-1,-2.32E-1,-8.62E-1,-8.36E-1,1.65E-1,-1.55E0,2.42E-1,9.846325E-2,1E0,4.54E-1,3.51338E-1,2.58665E-1,1.2275656E-1,2.1E-1,4.4E-1,8.3005E-2,-9.37E-1,-5.67E-1,-6.9313394E-3,3.8021736E-2,-2.5804931E-2,8.559144E-3,-7.795637E-2,3.5709724E-2,-1.7768394E-2,5.663703E-2,-3.220984E-3,3.0651672E-2,-7.937783E-3,5.2673798E-2,4.13397E-2,-3.161728E-2,-1.8826222E-2,5.9222188E-2,-8.1844695E-2,2.4246281E-2,-2.018095E-3,5.7842135E-2,1.9212564E-2,-3.947156E-2,-1.8306099E-2,3.0182928E-2,-3.5144147E-2,1.828508E-2,-3.3070996E-2,2.8379021E-2,3.1496245E-2,6.7625426E-2,-4.936687E-2,6.838842E-2],"split_indices":[56,40,64,63,53,80,65,32,71,40,47,40,0,64,16,40,64,13,40,41,95,1,49,85,85,71,13,12,93,72,72,0,0,0,0,0,0,0,0,0,0,0,0,0,0,0,0,0,0,0,0,0,0,0,0,0,0,0,0,0,0,0,0],"split_type":[0,0,0,0,0,0,0,0,0,0,0,0,0,0,0,0,0,0,0,0,0,0,0,0,0,0,0,0,0,0,0,0,0,0,0,0,0,0,0,0,0,0,0,0,0,0,0,0,0,0,0,0,0,0,0,0,0,0,0,0,0,0,0],"sum_hessian":[4.8520356E3,1.8183733E3,3.0336624E3,7.316048E2,1.0867684E3,2.507298E3,5.2636414E2,6.1635626E2,1.1524857E2,6.4918256E2,4.375859E2,1.313496E2,2.3759485E3,3.3551395E2,1.9085022E2,2.2092622E2,3.9543002E2,8.269644E0,1.0697893E2,3.7211215E2,2.7707037E2,2.3271797E1,4.143141E2,2.0167788E1,1.1118181E2,1.369799E3,1.00614966E3,1.8869167E2,1.4682228E2,1.7424788E2,1.660234E1,1.10458755E2,1.1046746E2,2.8474515E2,1.1068489E2,5.172452E0,3.0971916E0,7.18252E0,9.979641E1,1.3402312E2,2.3808904E2,1.7601383E1,2.59469E2,1.4902353E1,8.369444E0,1.7216467E0,4.1259247E2,1.0384069E1,9.783718E0,2.05416E1,9.064021E1,6.3435417E1,1.3063635E3,8.9958435E2,1.06565346E2,1.2873695E2,5.995471E1,1.9375078E1,1.27447205E2,3.521914E1,1.3902873E2,9.654226E0,6.9481144E0],"tree_param":{"num_deleted":"0","num_feature":"110","num_nodes":"63","size_leaf_vector":"1"}},{"base_weights":[1.644372E-2,5.974422E-1,-2.5097102E-1,1.0151716E0,2.3103695E-1,2.4346195E-1,-4.6533635E-1,5.3435095E-2,1.0440158E0,5.773801E-1,-7.844226E-2,-5.9132953E-3,1.0180244E0,-6.179957E-1,1.3407376E-1,5.1393676E-1,-1.3111438E0,6.9644636E-1,1.1145314E0,2.2674455E-1,8.377821E-1,3.2695648E-1,-3.1693417E-1,-1.6559544E-1,9.471387E-1,-3.361856E-1,1.1937282E0,-7.3452276E-1,-2.8052177E-2,-6.109063E-2,1.0121709E0,5.7521593E-2,-1.230577E-2,-1.0299697E-1,2.2771722E-2,-2.4920514E-2,4.0571168E-2,-6.928378E-2,5.6106072E-2,-4.198709E-2,1.9510143E-2,1.650398E-2,5.3786285E-2,-1.7573463E-3,4.311796E-2,8.282616E-3,-3.155358E-2,-1.4383458E-2,3.0614844E-2,5.174327E-2,-4.873394E-2,-6.6089526E-2,2.1492047E-2,2.6296442E-2,6.808458E-2,-3.863297E-2,2.3915928E-2,1.3803615E-2,-2.7514819E-2,6.9500133E-3,-1.9858792E-2,-7.467475E-2,5.9505265E-2],"categories":[],"categories_nodes":[],"categories_segments":[],"categories_sizes":[],"default_left":[0,0,0,0,0,0,0,0,0,0,0,0,0,0,0,0,0,0,0,0,0,0,0,0,0,0,0,0,0,0,0,0,0,0,0,0,0,0,0,0,0,0,0,0,0,0,0,0,0,0,0,0,0,0,0,0,0,0,0,0,0,0,0],"id":15,"left_children":[1,3,5,7,9,11,13,15,17,19,21,23,25,27,29,31,33,35,37,39,41,43,45,47,49,51,53,55,57,59,61,-1,-1,-1,-1,-1,-1,-1,-1,-1,-1,-1,-1,-1,-1,-1,-1,-1,-1,-1,-1,-1,-1,-1,-1,-1,-1,-1,-1,-1,-1,-1,-1],"loss_changes":[7.5235645E2,2.3337775E2,3.5159155E2,1.9720337E1,8.7336845E1,1.9385446E2,2.1178885E2,1.4380618E1,1.618628E1,3.4910675E1,4.1771248E1,1.1584178E2,5.855931E1,1.267536E2,8.0683815E1,8.520378E0,8.590992E0,1.6807175E1,1.2441772E1,2.9126354E1,2.624942E1,3.107265E1,4.131617E1,6.2082893E1,1.9425064E1,2.2350786E1,2.3575867E1,7.159668E1,4.8628685E1,2.6002192E1,3.9943504E1,0E0,0E0,0E0,0E0,0E0,0E0,0E0,0E0,0E0,0E0,0E0,0E0,0E0,0E0,0E0,0E0,0E0,0E0,0E0,0E0,0E0,0E0,0E0,0E0,0E0,0E0,0E0,0E0,0E0,0E0,0E0,0E0],"parents":[2147483647,0,0,1,1,2,2,3,3,4,4,5,5,6,6,7,7,8,8,9,9,10,10,11,11,12,12,13,13,14,14,15,15,16,16,17,17,18,18,19,19,20,20,21,21,22,22,23,23,24,24,25,25,26,26,27,27,28,28,29,29,30,30],"right_children":[2,4,6,8,10,12,14,16,18,20,22,24,26,28,30,32,34,36,38,40,42,44,46,48,50,52,54,56,58,60,62,-1,-1,-1,-1,-1,-1,-1,-1,-1,-1,-1,-1,-1,-1,-1,-1,-1,-1,-1,-1,-1,-1,-1,-1,-1,-1,-1,-1,-1,-1,-1,-1],"split_conditions":[-4.46E-1,5.14E-1,-2.93E-1,-4.784E-3,-5.27E-1,-7.38E-1,4.7E-1,-3.02E-1,9.9941306E-2,4.1E-1,7.21E-1,2.5148308E2,2.19E-1,-4.8E-1,1.8611446E2,5.89E-1,1.5131581E-1,-1.018E0,5.2473E-2,2.2349998E1,1.07942E-1,1E-1,-9.53E-1,-4.46E-1,1.773E0,-5.57E-1,-7E-1,-3.99E-1,-2.57E-1,-1.8E-1,-9.3E-1,5.7521593E-2,-1.230577E-2,-1.0299697E-1,2.2771722E-2,-2.4920514E-2,4.0571168E-2,-6.928378E-2,5.6106072E-2,-4.198709E-2,1.9510143E-2,1.650398E-2,5.3786285E-2,-1.7573463E-3,4.311796E-2,8.282616E-3,-3.155358E-2,-1.4383458E-2,3.0614844E-2,5.174327E-2,-4.873394E-2,-6.6089526E-2,2.1492047E-2,2.6296442E-2,6.808458E-2,-3.863297E-2,2.3915928E-2,1.3803615E-2,-2.7514819E-2,6.9500133E-3,-1.9858792E-2,-7.467475E-2,5.9505265E-2],"split_indices":[24,25,16,54,104,72,12,104,55,12,25,83,65,40,75,105,47,64,93,27,29,11,88,40,26,64,64,72,56,104,40,0,0,0,0,0,0,0,0,0,0,0,0,0,0,0,0,0,0,0,0,0,0,0,0,0,0,0,0,0,0,0,0],"split_type":[0,0,0,0,0,0,0,0,0,0,0,0,0,0,0,0,0,0,0,0,0,0,0,0,0,0,0,0,0,0,0,0,0,0,0,0,0,0,0,0,0,0,0,0,0,0,0,0,0,0,0,0,0,0,0,0,0,0,0,0,0,0,0],"sum_hessian":[4.840464E3,1.5252961E3,3.3151677E3,7.1190283E2,8.133933E2,1.00258124E3,2.3125864E3,2.0812498E1,6.9109033E2,3.834276E2,4.299657E2,7.5915796E2,2.4342331E2,1.8431399E3,4.6944666E2,1.6027203E1,4.7852945E0,1.1839608E2,5.726943E2,1.6420013E2,2.1922746E2,1.5911842E2,2.7084726E2,6.509232E2,1.0823476E2,2.785118E1,2.1557213E2,1.538923E3,3.0421692E2,3.848426E2,8.460404E1,8.443059E0,7.584145E0,3.2441442E0,1.5411503E0,1.0100055E1,1.0829603E2,1.1837976E0,5.715105E2,2.127217E1,1.4292798E2,7.071961E1,1.4850786E2,9.547867E1,6.363976E1,1.0697778E2,1.6386949E2,5.6317505E2,8.774818E1,1.0395113E2,4.2836213E0,1.1862643E1,1.5988536E1,4.415384E1,1.7141829E2,1.4923601E3,4.6562847E1,1.9255533E2,1.116616E2,2.4159412E2,1.4324849E2,5.119397E0,7.948464E1],"tree_param":{"num_deleted":"0","num_feature":"110","num_nodes":"63","size_leaf_vector":"1"}},{"base_weights":[1.048834E-2,5.2421564E-1,-2.766701E-1,1.6961686E-1,8.8186026E-1,-3.8523927E-1,6.632631E-1,2.7282823E-2,9.7282404E-1,5.4384377E-2,9.611421E-1,-5.456877E-1,7.108502E-2,-1.2875564E-1,1.1443042E0,3.6366037E-1,-2.8886992E-1,-5.8441573E-1,1.083269E0,-9.437552E-1,5.1498044E-1,5.2759504E-1,1.0416936E0,-6.357307E-1,1.6990949E-1,-1.1090817E-1,8.4180224E-1,-3.2104903E-1,1.0564512E0,-3.2322577E-1,1.2958412E0,1.7705692E-3,3.294381E-2,-2.473732E-3,-4.047513E-2,-6.299867E-2,5.239671E-2,-2.9572168E-2,5.8515783E-2,6.2206693E-2,-6.1961915E-2,4.240423E-2,-2.3224449E-2,3.409722E-2,-1.7696057E-2,4.331335E-2,5.8725487E-2,-4.172127E-2,-1.8231018E-2,-2.7079582E-2,3.206983E-2,-1.3821979E-2,2.2053042E-2,4.7582444E-2,-4.6403654E-2,1.3132751E-2,-3.4386087E-2,-1.0673619E-2,8.092259E-2,-7.370972E-2,3.1052073E-2,-1.4900586E-3,6.925265E-2],"categories":[],"categories_nodes":[],"categories_segments":[],"categories_sizes":[],"default_left":[0,0,0,0,0,0,0,0,0,0,0,0,0,0,0,0,0,0,0,0,0,0,0,0,0,0,0,0,0,0,0,0,0,0,0,0,0,0,0,0,0,0,0,0,0,0,0,0,0,0,0,0,0,0,0,0,0,0,0,0,0,0,0],"id":16,"left_children":[1,3,5,7,9,11,13,15,17,19,21,23,25,27,29,31,33,35,37,39,41,43,45,47,49,51,53,55,57,59,61,-1,-1,-1,-1,-1,-1,-1,-1,-1,-1,-1,-1,-1,-1,-1,-1,-1,-1,-1,-1,-1,-1,-1,-1,-1,-1,-1,-1,-1,-1,-1,-1],"loss_changes":[7.0291656E2,2.1651495E2,3.1215778E2,9.819004E1,5.5732483E1,2.0069464E2,1.2086583E2,7.782479E1,2.2870323E1,3.515397E1,2.6547607E1,1.3076569E2,1.0021822E2,2.7830544E1,4.4279083E1,3.433163E1,4.6984283E1,1.1479183E1,1.8343323E1,1.7162828E1,1.7439596E1,1.7058693E1,1.420459E1,9.673035E1,7.6639534E1,5.2964622E1,2.7416153E1,2.2558002E1,1.2529629E1,2.1847553E1,2.120642E1,0E0,0E0,0E0,0E0,0E0,0E0,0E0,0E0,0E0,0E0,0E0,0E0,0E0,0E0,0E0,0E0,0E0,0E0,0E0,0E0,0E0,0E0,0E0,0E0,0E0,0E0,0E0,0E0,0E0,0E0,0E0,0E0],"parents":[2147483647,0,0,1,1,2,2,3,3,4,4,5,5,6,6,7,7,8,8,9,9,10,10,11,11,12,12,13,13,14,14,15,15,16,16,17,17,18,18,19,19,20,20,21,21,22,22,23,23,24,24,25,25,26,26,27,27,28,28,29,29,30,30],"right_children":[2,4,6,8,10,12,14,16,18,20,22,24,26,28,30,32,34,36,38,40,42,44,46,48,50,52,54,56,58,60,62,-1,-1,-1,-1,-1,-1,-1,-1,-1,-1,-1,-1,-1,-1,-1,-1,-1,-1,-1,-1,-1,-1,-1,-1,-1,-1,-1,-1,-1,-1,-1,-1],"split_conditions":[-4.61E-1,-5.92E-1,-5.67E-1,4.3131185E-1,9.101249E-2,4.45E-1,2.79E-1,-4.46E-1,-1.399E0,1.9E-1,8E-2,-4.41E-1,1.54415E-1,-2.84E-1,1.76E-1,-8.06E-1,5.62E-1,3.34205E-1,8.2831E-2,-7.053E-3,5.2552E-2,6.01E-1,-4.41E-1,9.520588E-2,6.652665E-2,2.57E-1,1.557E0,-5E-1,8E-1,1.6E-1,-1.055E0,1.7705692E-3,3.294381E-2,-2.473732E-3,-4.047513E-2,-6.299867E-2,5.239671E-2,-2.9572168E-2,5.8515783E-2,6.2206693E-2,-6.1961915E-2,4.240423E-2,-2.3224449E-2,3.409722E-2,-1.7696057E-2,4.331335E-2,5.8725487E-2,-4.172127E-2,-1.8231018E-2,-2.7079582E-2,3.206983E-2,-1.3821979E-2,2.2053042E-2,4.7582444E-2,-4.6403654E-2,1.3132751E-2,-3.4386087E-2,-1.0673619E-2,8.092259E-2,-7.370972E-2,3.1052073E-2,-1.4900586E-3,6.925265E-2],"split_indices":[56,40,72,63,55,12,65,104,40,41,11,40,69,64,41,40,57,101,21,86,61,25,40,47,47,41,17,88,6,13,64,0,0,0,0,0,0,0,0,0,0,0,0,0,0,0,0,0,0,0,0,0,0,0,0,0,0,0,0,0,0,0,0],"split_type":[0,0,0,0,0,0,0,0,0,0,0,0,0,0,0,0,0,0,0,0,0,0,0,0,0,0,0,0,0,0,0,0,0,0,0,0,0,0,0,0,0,0,0,0,0,0,0,0,0,0,0,0,0,0,0,0,0,0,0,0,0,0,0],"sum_hessian":[4.7628706E3,1.7074364E3,3.055434E3,8.581094E2,8.49327E2,2.7395825E3,3.1585175E2,7.298149E2,1.2829443E2,7.440788E1,7.749191E2,2.0267574E3,7.1282495E2,1.1962515E2,1.962266E2,3.5352457E2,3.7629034E2,8.212284E0,1.2008215E2,2.3163084E1,5.1244797E1,1.2260105E2,6.523181E2,1.8003344E3,2.2642308E2,5.773489E2,1.3547609E2,1.0355331E2,1.6071844E1,1.825984E1,1.7796677E2,1.6792719E2,1.8559738E2,2.585157E2,1.1777466E2,5.9697785E0,2.242505E0,5.6468334E0,1.1443532E2,2.3740494E0,2.0789036E1,3.8340015E1,1.2904779E1,1.0452552E2,1.8075533E1,2.8431323E2,3.6800488E2,1.0377198E3,7.6261456E2,9.0183014E1,1.3624007E2,4.4453525E2,1.3281363E2,1.2799447E2,7.4816155E0,4.0062202E1,6.34911E1,5.1207976E0,1.0951047E1,7.976306E0,1.0283534E1,1.1263446E1,1.6670331E2],"tree_param":{"num_deleted":"0","num_feature":"110","num_nodes":"63","size_leaf_vector":"1"}},{"base_weights":[1.590037E-2,4.4373566E-1,-2.805345E-1,2.0797989E-1,9.167543E-1,-3.978861E-1,4.0349317E-1,-7.395423E-2,5.050563E-1,8.8048086E-2,1.0394409E0,-5.0044215E-1,6.199723E-1,-1.3624816E-1,8.830625E-1,1.6270868E-1,-4.3394583E-1,-4.382306E-2,8.170103E-1,2.3141165E-1,-1.4292742E0,8.146385E-2,1.0626521E0,-6.29075E-1,-4.8695244E-2,2.1602203E-1,1.2184129E0,-3.1555143E-1,1.0734606E0,1.6404603E-1,1.0508771E0,4.1922275E-3,5.773579E-2,3.8519435E-2,-2.696888E-2,-1.1634294E-2,4.545979E-2,1.9124018E-2,4.6938237E-2,3.5656862E-2,-1.4817767E-2,-9.488087E-2,3.3897217E-2,4.448419E-2,-6.2065866E-2,3.9788138E-2,5.6728274E-2,-3.60876E-2,-1.0931216E-2,1.3190651E-2,-2.5310332E-2,-2.6387218E-2,2.660197E-2,6.357768E-2,-7.506086E-3,6.8922886E-3,-3.1428277E-2,7.248477E-2,-2.7651835E-2,-4.770228E-2,3.9758485E-2,-3.216542E-2,5.510077E-2],"categories":[],"categories_nodes":[],"categories_segments":[],"categories_sizes":[],"default_left":[0,0,0,0,0,0,0,0,0,0,0,0,0,0,0,0,0,0,0,0,0,0,1,0,0,0,0,0,0,0,0,0,0,0,0,0,0,0,0,0,0,0,0,0,0,0,0,0,0,0,0,0,0,0,0,0,0,0,0,0,0,0,0],"id":17,"left_children":[1,3,5,7,9,11,13,15,17,19,21,23,25,27,29,31,33,35,37,39,41,43,45,47,49,51,53,55,57,59,61,-1,-1,-1,-1,-1,-1,-1,-1,-1,-1,-1,-1,-1,-1,-1,-1,-1,-1,-1,-1,-1,-1,-1,-1,-1,-1,-1,-1,-1,-1,-1,-1],"loss_changes":[5.9930334E2,2.1548792E2,2.2423105E2,1.0825233E2,6.528479E1,2.4908017E2,1.0605473E2,5.662247E1,1.07778625E2,1.8605907E1,1.236554E1,1.25808655E2,5.2577553E1,4.2291786E1,2.599231E1,3.129208E1,3.3881226E1,4.14255E1,2.0870392E1,1.9945522E1,8.581636E0,1.6425219E1,9.5894165E0,6.3957703E1,6.8911896E1,3.1239153E1,6.5813293E0,2.4102608E1,1.6219547E1,3.0550087E1,1.5924744E1,0E0,0E0,0E0,0E0,0E0,0E0,0E0,0E0,0E0,0E0,0E0,0E0,0E0,0E0,0E0,0E0,0E0,0E0,0E0,0E0,0E0,0E0,0E0,0E0,0E0,0E0,0E0,0E0,0E0,0E0,0E0,0E0],"parents":[2147483647,0,0,1,1,2,2,3,3,4,4,5,5,6,6,7,7,8,8,9,9,10,10,11,11,12,12,13,13,14,14,15,15,16,16,17,17,18,18,19,19,20,20,21,21,22,22,23,23,24,24,25,25,26,26,27,27,28,28,29,29,30,30],"right_children":[2,4,6,8,10,12,14,16,18,20,22,24,26,28,30,32,34,36,38,40,42,44,46,48,50,52,54,56,58,60,62,-1,-1,-1,-1,-1,-1,-1,-1,-1,-1,-1,-1,-1,-1,-1,-1,-1,-1,-1,-1,-1,-1,-1,-1,-1,-1,-1,-1,-1,-1,-1,-1],"split_conditions":[-3.71E-1,-4.94E-1,2.711614E-1,1.4211103E-1,7.1047574E-2,-4E-1,-7.62E-1,-4.97E-1,-8.59E-1,1.598905E1,7.510185E0,1.75E-1,3.99E-1,1.43852E-1,1E-1,-6.62E-1,7.5154E-2,5.083806E-1,2.3305789E-1,-1.563E-3,4.541E-3,3.4641016E-2,7.5E-2,2.52E-1,-1.9E-1,9.9425E-2,-1.63E-1,2.215E0,1.498E0,1.055438E-1,3.73E-1,4.1922275E-3,5.773579E-2,3.8519435E-2,-2.696888E-2,-1.1634294E-2,4.545979E-2,1.9124018E-2,4.6938237E-2,3.5656862E-2,-1.4817767E-2,-9.488087E-2,3.3897217E-2,4.448419E-2,-6.2065866E-2,3.9788138E-2,5.6728274E-2,-3.60876E-2,-1.0931216E-2,1.3190651E-2,-2.5310332E-2,-2.6387218E-2,2.660197E-2,6.357768E-2,-7.506086E-3,6.8922886E-3,-3.1428277E-2,7.248477E-2,-2.7651835E-2,-4.770228E-2,3.9758485E-2,-3.216542E-2,5.510077E-2],"split_indices":[24,40,63,47,47,64,40,96,40,3,99,13,65,53,11,80,77,63,79,94,78,5,11,41,48,93,48,66,17,47,58,0,0,0,0,0,0,0,0,0,0,0,0,0,0,0,0,0,0,0,0,0,0,0,0,0,0,0,0,0,0,0,0],"split_type":[0,0,0,0,0,0,0,0,0,0,0,0,0,0,0,0,0,0,0,0,0,0,0,0,0,0,0,0,0,0,0,0,0,0,0,0,0,0,0,0,0,0,0,0,0,0,0,0,0,0,0,0,0,0,0,0,0,0,0,0,0,0,0],"sum_hessian":[4.7234434E3,1.933044E3,2.7903994E3,1.2910269E3,6.42017E2,2.3821387E3,4.0826074E2,6.627803E2,6.2824664E2,8.30126E1,5.590044E2,2.1645537E3,2.1758492E2,1.9241695E2,2.1584378E2,4.0021924E2,2.6256104E2,2.2797928E2,4.0026733E2,7.662063E1,6.391981E0,1.3330619E1,5.4567377E2,1.6845059E3,4.800479E2,1.307136E2,8.687132E1,1.6822217E2,2.4194775E1,4.1218224E1,1.7462556E2,3.717498E2,2.846943E1,2.0627588E1,2.4193346E2,1.9090321E2,3.7076065E1,8.851331E1,3.1175403E2,3.9873962E1,3.6746666E1,5.3110366E0,1.0809445E0,8.477982E0,4.852637E0,1.18384315E2,4.272895E2,1.3735983E3,3.109076E2,2.8547464E2,1.9457326E2,3.877776E1,9.193583E1,8.3692375E1,3.178948E0,6.893306E1,9.928911E1,1.9737806E1,4.456969E0,1.4687085E1,2.6531137E1,4.7772717E0,1.698483E2],"tree_param":{"num_deleted":"0","num_feature":"110","num_nodes":"63","size_leaf_vector":"1"}},{"base_weights":[7.114133E-3,4.7918522E-1,-2.3911618E-1,1.7588575E-1,8.138121E-1,-3.7333712E-1,3.439477E-1,-4.402155E-2,6.293074E-1,6.099147E-1,1.0835787E0,-5.3492635E-1,-4.5354575E-2,6.6238594E-1,-3.2785863E-1,-1.8475403E-1,6.666051E-1,2.0602034E-1,9.6259695E-1,6.4161617E-1,-9.956371E-2,8.404439E-1,1.1866853E0,-6.104206E-1,-1.2858479E-1,-2.6700997E-1,6.15996E-1,-2.5353745E-1,8.7896657E-1,3.03784E-1,-7.329182E-1,-2.0752441E-2,8.027556E-3,4.1111834E-2,-5.806942E-2,-7.3421705E-3,4.1912153E-2,-1.7570604E-2,5.1112056E-2,-6.327724E-2,3.3655796E-2,4.674303E-2,-2.6060004E-2,1.1919124E-2,6.0463775E-2,-3.6066998E-2,-1.0582297E-2,1.6155003E-2,-1.9080935E-2,-2.2425314E-2,6.3218283E-3,-8.614832E-2,3.430551E-2,-3.7183415E-2,3.7093636E-2,3.0406049E-2,6.208647E-2,-2.4030093E-2,3.528363E-2,-4.874372E-2,-3.9492953E-3],"categories":[],"categories_nodes":[],"categories_segments":[],"categories_sizes":[],"default_left":[0,0,0,0,0,0,0,0,0,0,0,0,0,0,0,0,0,0,0,0,0,0,0,0,0,0,0,0,0,0,0,0,0,0,0,0,0,0,0,0,0,0,0,0,0,0,0,0,0,0,0,0,0,0,0,0,0,0,0,0,0],"id":18,"left_children":[1,3,5,7,9,11,13,15,17,19,21,23,25,27,29,31,33,35,37,39,-1,41,43,45,47,49,51,53,55,57,59,-1,-1,-1,-1,-1,-1,-1,-1,-1,-1,-1,-1,-1,-1,-1,-1,-1,-1,-1,-1,-1,-1,-1,-1,-1,-1,-1,-1,-1,-1],"loss_changes":[5.504248E2,1.6460284E2,2.436788E2,8.505629E1,4.1774536E1,1.3407379E2,1.2490908E2,5.7645966E1,3.9101807E1,3.76987E1,7.295746E0,5.191815E1,1.22748314E2,7.873068E1,4.83497E1,3.830751E1,2.8066101E1,2.7783764E1,1.2552673E1,2.711139E1,0E0,1.3592804E1,4.6361694E0,6.3061707E1,3.0620895E1,4.483095E1,3.5656166E1,3.7856018E1,3.0715256E1,2.373058E1,1.8103035E1,0E0,0E0,0E0,0E0,0E0,0E0,0E0,0E0,0E0,0E0,0E0,0E0,0E0,0E0,0E0,0E0,0E0,0E0,0E0,0E0,0E0,0E0,0E0,0E0,0E0,0E0,0E0,0E0,0E0,0E0],"parents":[2147483647,0,0,1,1,2,2,3,3,4,4,5,5,6,6,7,7,8,8,9,9,10,10,11,11,12,12,13,13,14,14,15,15,16,16,17,17,18,18,19,19,21,21,22,22,23,23,24,24,25,25,26,26,27,27,28,28,29,29,30,30],"right_children":[2,4,6,8,10,12,14,16,18,20,22,24,26,28,30,32,34,36,38,40,-1,42,44,46,48,50,52,54,56,58,60,-1,-1,-1,-1,-1,-1,-1,-1,-1,-1,-1,-1,-1,-1,-1,-1,-1,-1,-1,-1,-1,-1,-1,-1,-1,-1,-1,-1,-1,-1],"split_conditions":[-4.2E-1,-5.87E-1,5.03E-1,1.9150743E-1,1.4030886E-1,-5.95E-1,-2.53E-1,-7.7E-1,-8.59E-1,2.072E0,1.7378993E-1,1.7E-1,1.459054E1,-9.41E-1,7.96E-1,1.94737E-1,-3.26E-1,1.4989127E2,4.9E1,3.5997E-2,-9.956371E-2,1.361E0,3.7E-1,-8.2E-1,1.67E0,1.3E-1,4.5146E-2,1.85E-1,-8.14E-1,5.3875E-2,1.6530372E-1,-2.0752441E-2,8.027556E-3,4.1111834E-2,-5.806942E-2,-7.3421705E-3,4.1912153E-2,-1.7570604E-2,5.1112056E-2,-6.327724E-2,3.3655796E-2,4.674303E-2,-2.6060004E-2,1.1919124E-2,6.0463775E-2,-3.6066998E-2,-1.0582297E-2,1.6155003E-2,-1.9080935E-2,-2.2425314E-2,6.3218283E-3,-8.614832E-2,3.430551E-2,-3.7183415E-2,3.7093636E-2,3.0406049E-2,6.208647E-2,-2.4030093E-2,3.528363E-2,-4.874372E-2,-3.9492953E-3],"split_indices":[24,40,65,47,47,40,16,72,40,34,55,11,35,40,42,85,96,67,0,37,0,58,6,72,98,11,101,11,72,45,15,0,0,0,0,0,0,0,0,0,0,0,0,0,0,0,0,0,0,0,0,0,0,0,0,0,0,0,0,0,0],"split_type":[0,0,0,0,0,0,0,0,0,0,0,0,0,0,0,0,0,0,0,0,0,0,0,0,0,0,0,0,0,0,0,0,0,0,0,0,0,0,0,0,0,0,0,0,0,0,0,0,0,0,0,0,0,0,0,0,0,0,0,0,0],"sum_hessian":[4.733331E3,1.6222393E3,3.111092E3,8.517525E2,7.704867E2,2.5292256E3,5.8186646E2,5.741806E2,2.775719E2,4.4067368E2,3.2981302E2,1.6940006E3,8.3522504E2,3.9476205E2,1.8710437E2,4.7988434E2,9.429626E1,1.2298969E2,1.5458221E2,4.36112E2,4.5616894E0,1.0093959E2,2.2887343E2,1.4281603E3,2.6584024E2,6.260104E2,2.0921468E2,7.546187E1,3.193002E2,7.320299E1,1.1390139E2,2.8776373E2,1.921206E2,8.7404976E1,6.891279E0,7.942679E1,4.35629E1,6.4995794E0,1.4808264E2,6.449488E0,4.296625E2,9.468738E1,6.252212E0,5.594093E0,2.2327934E2,1.1167319E3,3.1142834E2,9.5352264E1,1.7048798E2,4.2829742E2,1.9771292E2,5.4029255E0,2.0381175E2,5.073388E1,2.4727993E1,1.8434274E2,1.3495746E2,2.473351E1,4.8469475E1,8.278134E1,3.1120047E1],"tree_param":{"num_deleted":"0","num_feature":"110","num_nodes":"61","size_leaf_vector":"1"}},{"base_weights":[8.669048E-3,3.7433133E-1,-2.880633E-1,8.5052615E-1,1.4703043E-1,-4.2861933E-1,3.0087492E-1,1.010721E0,5.595964E-1,-6.6490537E-3,6.6820556E-1,-2.044717E-1,-6.799729E-1,5.575163E-3,9.431857E-1,3.9506856E-1,1.0650802E0,2.8097752E-1,9.0267885E-1,-8.475395E-2,9.5848864E-1,1.6189614E-1,1.0359958E0,3.7209892E-1,-3.090061E-1,-7.347824E-1,2.9459366E-1,-3.9208558E-1,9.565153E-1,-5.1701717E-2,1.1461316E0,-9.178907E-2,2.8791532E-2,-2.076341E-2,5.4390498E-2,2.3505438E-2,-4.5603555E-2,-6.271791E-2,4.7730576E-2,1.5362884E-2,-1.4098992E-2,3.2738086E-3,5.7714105E-2,-7.454559E-3,4.1905947E-2,5.2914273E-2,-4.070687E-2,-2.53962E-3,4.2422377E-2,-2.245265E-2,1.1718084E-2,-3.8987443E-2,2.7594915E-2,-3.9844364E-3,7.1952514E-2,-3.294599E-2,-3.403655E-3,6.1053973E-2,-1.6043136E-2,3.0477775E-2,-5.5017896E-2,6.164987E-2,-3.2431006E-2],"categories":[],"categories_nodes":[],"categories_segments":[],"categories_sizes":[],"default_left":[0,0,0,0,0,0,0,0,0,0,0,0,0,0,0,0,0,0,0,0,0,0,0,0,0,1,0,0,0,0,0,0,0,0,0,0,0,0,0,0,0,0,0,0,0,0,0,0,0,0,0,0,0,0,0,0,0,0,0,0,0,0,0],"id":19,"left_children":[1,3,5,7,9,11,13,15,17,19,21,23,25,27,29,31,33,35,37,39,41,43,45,47,49,51,53,55,57,59,61,-1,-1,-1,-1,-1,-1,-1,-1,-1,-1,-1,-1,-1,-1,-1,-1,-1,-1,-1,-1,-1,-1,-1,-1,-1,-1,-1,-1,-1,-1,-1,-1],"loss_changes":[5.0657993E2,2.2625317E2,2.1347682E2,3.0918488E1,1.1349045E2,1.17113525E2,9.429625E1,1.4117584E1,2.2891106E1,8.264255E1,5.991893E1,6.650645E1,5.25961E1,1.295504E2,3.167392E1,1.5910812E1,1.3863281E1,3.090599E1,1.3302246E1,7.8496284E1,1.4275612E1,2.8926003E1,8.5616E0,3.419093E1,7.1105644E1,5.41615E1,2.2785803E1,2.0841557E1,3.4530373E1,1.9730167E1,2.1081665E1,0E0,0E0,0E0,0E0,0E0,0E0,0E0,0E0,0E0,0E0,0E0,0E0,0E0,0E0,0E0,0E0,0E0,0E0,0E0,0E0,0E0,0E0,0E0,0E0,0E0,0E0,0E0,0E0,0E0,0E0,0E0,0E0],"parents":[2147483647,0,0,1,1,2,2,3,3,4,4,5,5,6,6,7,7,8,8,9,9,10,10,11,11,12,12,13,13,14,14,15,15,16,16,17,17,18,18,19,19,20,20,21,21,22,22,23,23,24,24,25,25,26,26,27,27,28,28,29,29,30,30],"right_children":[2,4,6,8,10,12,14,16,18,20,22,24,26,28,30,32,34,36,38,40,42,44,46,48,50,52,54,56,58,60,62,-1,-1,-1,-1,-1,-1,-1,-1,-1,-1,-1,-1,-1,-1,-1,-1,-1,-1,-1,-1,-1,-1,-1,-1,-1,-1,-1,-1,-1,-1,-1,-1],"split_conditions":[-3.45E-1,4.32E-1,4.87E-1,-4.7E-1,1.9394262E-1,1E0,-7.2E-1,8.680066E0,-4E-1,-5.29E-1,-8.56E-1,8.991086E-2,1.06599E-1,2.7734027E2,-9.9E-1,6.56E-1,5.5E-2,-1.35E-1,3.0471E-2,-1.551E0,-7.23E-1,4.183915E-1,1.776E0,-8.26E-1,1.7E-1,2.05E-1,-2.48E-1,2.4289137E1,1.336E0,-4.79E-1,-2.17E-1,-9.178907E-2,2.8791532E-2,-2.076341E-2,5.4390498E-2,2.3505438E-2,-4.5603555E-2,-6.271791E-2,4.7730576E-2,1.5362884E-2,-1.4098992E-2,3.2738086E-3,5.7714105E-2,-7.454559E-3,4.1905947E-2,5.2914273E-2,-4.070687E-2,-2.53962E-3,4.2422377E-2,-2.245265E-2,1.1718084E-2,-3.8987443E-2,2.7594915E-2,-3.9844364E-3,7.1952514E-2,-3.294599E-2,-3.403655E-3,6.1053973E-2,-1.6043136E-2,3.0477775E-2,-5.5017896E-2,6.164987E-2,-3.2431006E-2],"split_indices":[24,25,65,24,47,1,64,27,40,72,40,63,53,75,72,106,11,48,61,80,64,63,42,72,11,13,96,19,89,96,16,0,0,0,0,0,0,0,0,0,0,0,0,0,0,0,0,0,0,0,0,0,0,0,0,0,0,0,0,0,0,0,0],"split_type":[0,0,0,0,0,0,0,0,0,0,0,0,0,0,0,0,0,0,0,0,0,0,0,0,0,0,0,0,0,0,0,0,0,0,0,0,0,0,0,0,0,0,0,0,0,0,0,0,0,0,0,0,0,0,0,0,0,0,0,0,0,0,0],"sum_hessian":[4.666781E3,2.0904565E3,2.5763242E3,6.7454486E2,1.4159117E3,2.0801482E3,4.9617615E2,4.3341776E2,2.4112712E2,1.0942394E3,3.2167233E2,1.1005408E3,9.7960736E2,3.4059683E2,1.5557932E2,3.583472E1,3.9758304E2,1.3406847E2,1.0705866E2,1.0131604E3,8.107901E1,1.3595435E2,1.8571799E2,1.6851555E2,9.3202527E2,9.276807E2,5.1926643E1,2.4057973E2,1.0001708E2,2.6485683E1,1.2909364E2,1.999716E0,3.3835007E1,5.751164E0,3.9183188E2,1.1624619E2,1.7822277E1,1.9726031E0,1.0508606E2,3.3893195E2,6.7422845E2,1.4819912E1,6.6259094E1,9.366046E1,4.2293877E1,1.8393007E2,1.7879184E0,8.97399E1,7.877565E1,7.4117053E2,1.9085472E2,8.967359E2,3.094483E1,3.983078E1,1.2095863E1,1.3136389E2,1.09215836E2,8.289281E1,1.7124273E1,1.6499945E1,9.985739E0,1.2343252E2,5.6611195E0],"tree_param":{"num_deleted":"0","num_feature":"110","num_nodes":"63","size_leaf_vector":"1"}},{"base_weights":[5.319275E-3,-2.4407993E-1,4.5654818E-1,-3.905221E-1,3.9571217E-1,-1.0274622E-1,6.9039285E-1,-1.7646095E-1,-6.49953E-1,3.9703313E-2,9.342867E-1,-5.785623E-1,1.7591831E-1,4.8931256E-1,9.834023E-1,1.6321784E-1,-3.628514E-1,-9.0311456E-1,-4.086465E-1,3.812663E-1,-6.206045E-1,1.2310416E0,4.9894863E-1,-7.6718557E-1,3.0667707E-1,-2.4540807E-1,4.6892282E-1,6.106217E-1,-1.4101586E-1,-8.750237E-1,1.0075281E0,-1.4045094E-2,1.830621E-2,-2.1598171E-2,3.0211275E-2,-2.5694108E-2,-5.412959E-2,-2.9343838E-2,2.3306531E-3,3.5390244E-3,3.339874E-2,-4.5584835E-2,2.1244144E-2,-4.1429263E-2,6.318868E-2,-8.966299E-4,5.791684E-2,1.193294E-2,-4.6304E-2,-3.97081E-2,4.3951463E-2,2.7728273E-2,-2.8261349E-2,3.0235356E-2,-1.7504288E-2,1.6454663E-2,4.1128892E-2,-2.3044484E-2,2.6873782E-2,3.9141845E-2,-7.1581036E-2,5.092583E-2,-1.7253444E-2],"categories":[],"categories_nodes":[],"categories_segments":[],"categories_sizes":[],"default_left":[0,0,0,0,0,0,0,0,0,0,0,0,0,0,0,0,0,0,0,0,0,0,0,0,0,0,0,0,0,0,1,0,0,0,0,0,0,0,0,0,0,0,0,0,0,0,0,0,0,0,0,0,0,0,0,0,0,0,0,0,0,0,0],"id":20,"left_children":[1,3,5,7,9,11,13,15,17,19,21,23,25,27,29,31,33,35,37,39,41,43,45,47,49,51,53,55,57,59,61,-1,-1,-1,-1,-1,-1,-1,-1,-1,-1,-1,-1,-1,-1,-1,-1,-1,-1,-1,-1,-1,-1,-1,-1,-1,-1,-1,-1,-1,-1,-1,-1],"loss_changes":[5.199008E2,2.7892383E2,2.1515222E2,1.3437115E2,1.063159E2,6.4505775E1,6.7851074E1,8.415364E1,6.649014E1,7.5787834E1,2.7897293E1,3.023005E1,3.802578E1,5.2829193E1,2.1999634E1,4.2573368E1,5.7602936E1,3.669751E1,4.564235E1,1.9661419E1,3.52594E1,9.848618E0,3.1084015E1,2.3933533E1,2.1028543E1,3.270868E1,2.0392998E1,3.42574E1,2.4584946E1,7.1845007E0,7.2691956E0,0E0,0E0,0E0,0E0,0E0,0E0,0E0,0E0,0E0,0E0,0E0,0E0,0E0,0E0,0E0,0E0,0E0,0E0,0E0,0E0,0E0,0E0,0E0,0E0,0E0,0E0,0E0,0E0,0E0,0E0,0E0,0E0],"parents":[2147483647,0,0,1,1,2,2,3,3,4,4,5,5,6,6,7,7,8,8,9,9,10,10,11,11,12,12,13,13,14,14,15,15,16,16,17,17,18,18,19,19,20,20,21,21,22,22,23,23,24,24,25,25,26,26,27,27,28,28,29,29,30,30],"right_children":[2,4,6,8,10,12,14,16,18,20,22,24,26,28,30,32,34,36,38,40,42,44,46,48,50,52,54,56,58,60,62,-1,-1,-1,-1,-1,-1,-1,-1,-1,-1,-1,-1,-1,-1,-1,-1,-1,-1,-1,-1,-1,-1,-1,-1,-1,-1,-1,-1,-1,-1,-1,-1],"split_conditions":[2.0772247E1,-5.3E-1,-8.56E-1,1E0,3.12E-1,2.61E-1,2.1917613E-1,-3.14E-1,7.157075E0,-2.16E-1,1.535E0,2.688888E-1,4.61E-1,1.375E0,7.89E-1,-8.09E-1,2.3E-1,3.89E-1,-6.6E-1,9.482215E-2,3.0841783E-1,-6.43E-1,1.45858E-1,7.3854895E-3,6.26E-1,7.91E-1,-3.85E-1,-5.87E-1,2.9262185E-1,6.46E-1,9.090909E1,-1.4045094E-2,1.830621E-2,-2.1598171E-2,3.0211275E-2,-2.5694108E-2,-5.412959E-2,-2.9343838E-2,2.3306531E-3,3.5390244E-3,3.339874E-2,-4.5584835E-2,2.1244144E-2,-4.1429263E-2,6.318868E-2,-8.966299E-4,5.791684E-2,1.193294E-2,-4.6304E-2,-3.97081E-2,4.3951463E-2,2.7728273E-2,-2.8261349E-2,3.0235356E-2,-1.7504288E-2,1.6454663E-2,4.1128892E-2,-2.3044484E-2,2.6873782E-2,3.9141845E-2,-7.1581036E-2,5.092583E-2,-1.7253444E-2],"split_indices":[35,64,40,1,65,41,31,104,51,56,74,20,65,58,50,40,13,73,40,31,87,48,63,5,73,25,56,40,95,25,10,0,0,0,0,0,0,0,0,0,0,0,0,0,0,0,0,0,0,0,0,0,0,0,0,0,0,0,0,0,0,0,0],"split_type":[0,0,0,0,0,0,0,0,0,0,0,0,0,0,0,0,0,0,0,0,0,0,0,0,0,0,0,0,0,0,0,0,0,0,0,0,0,0,0,0,0,0,0,0,0,0,0,0,0,0,0,0,0,0,0,0,0,0,0,0,0,0,0],"sum_hessian":[4.617866E3,2.9743623E3,1.6435038E3,2.4206814E3,5.536808E2,4.8472675E2,1.1587771E3,1.3272356E3,1.0934459E3,3.339841E2,2.1969666E2,1.7863448E2,3.060923E2,6.887715E2,4.7000558E2,4.70294E2,8.569416E2,5.322767E2,5.6116925E2,2.2039903E2,1.1358507E2,1.2955542E2,9.0141235E1,1.4736739E2,3.1267092E1,1.25619675E2,1.804726E2,5.776347E2,1.1113676E2,5.5713444E0,4.6443423E2,1.4736292E2,3.229311E2,8.0030145E2,5.66401E1,1.6919867E2,3.6307803E2,4.0307837E2,1.5809087E2,1.0641052E2,1.1398851E2,8.89476E1,2.4637465E1,1.6463463E0,1.2790908E2,5.1076324E1,3.906491E1,2.0035463E1,1.2733192E2,1.0563036E1,2.0704056E1,3.566804E1,8.995163E1,1.5503143E2,2.544117E1,2.4919582E2,3.284389E2,7.5746765E1,3.5389988E1,1.2981751E0,4.2731695E0,4.6093658E2,3.4976413E0],"tree_param":{"num_deleted":"0","num_feature":"110","num_nodes":"63","size_leaf_vector":"1"}},{"base_weights":[5.385521E-3,-2.3759653E-1,4.4109648E-1,-4.178581E-1,2.0956439E-1,7.2347254E-1,4.8405547E-2,-4.6627292E-1,5.628705E-1,-2.0118624E-2,9.309697E-1,1.0431219E0,5.2893025E-1,-1.7263524E-1,5.74657E-1,-2.8331727E-1,-6.792581E-1,1.0751911E0,1.3931307E-2,4.2826504E-1,-2.9939348E-1,1.0045781E0,-5.575288E-1,-8.6025506E-2,1.0663028E0,2.0550187E-1,8.324287E-1,1.9008811E-1,-4.4524348E-1,9.389388E-2,8.375675E-1,-1.6468273E-2,4.689911E-2,-4.6727266E-2,-2.1956699E-2,-5.9802204E-2,6.148209E-2,1.5023964E-2,-7.416959E-2,4.657499E-2,7.180804E-3,-2.6601572E-2,4.5604385E-3,5.171137E-2,-6.565669E-2,-5.9686404E-2,4.036084E-2,5.389428E-2,-3.809704E-2,3.9179202E-2,-2.049353E-3,3.1205177E-2,5.935514E-2,-7.7346945E-3,2.8921952E-2,-2.6477152E-2,2.6719665E-2,5.929921E-2,-1.3270776E-2,4.4995073E-2,-5.2955683E-2],"categories":[],"categories_nodes":[],"categories_segments":[],"categories_sizes":[],"default_left":[0,0,0,0,0,0,0,0,0,0,0,0,0,0,0,1,0,0,0,0,0,0,0,0,0,0,0,0,0,0,0,0,0,0,0,0,0,0,0,0,0,0,0,0,0,0,0,0,0,0,0,0,0,0,0,0,0,0,0,0,0],"id":21,"left_children":[1,3,5,7,9,11,13,15,17,19,21,23,25,27,29,31,33,35,37,39,41,43,45,-1,47,49,51,53,55,57,59,-1,-1,-1,-1,-1,-1,-1,-1,-1,-1,-1,-1,-1,-1,-1,-1,-1,-1,-1,-1,-1,-1,-1,-1,-1,-1,-1,-1,-1,-1],"loss_changes":[4.8366592E2,2.3649828E2,1.8132907E2,9.952835E1,1.397503E2,5.8608826E1,7.980667E1,7.746097E1,2.7771767E1,8.0349655E1,2.2876007E1,2.4827728E1,5.808142E1,4.7875195E1,2.5569084E1,6.0691803E1,5.5993347E1,1.9393852E1,2.134508E1,3.5145473E1,3.597324E1,1.4719345E1,9.854954E0,0E0,8.371613E0,4.1157413E1,2.1855927E1,2.7950714E1,2.3095001E1,2.8905691E1,1.644696E1,0E0,0E0,0E0,0E0,0E0,0E0,0E0,0E0,0E0,0E0,0E0,0E0,0E0,0E0,0E0,0E0,0E0,0E0,0E0,0E0,0E0,0E0,0E0,0E0,0E0,0E0,0E0,0E0,0E0,0E0],"parents":[2147483647,0,0,1,1,2,2,3,3,4,4,5,5,6,6,7,7,8,8,9,9,10,10,11,11,12,12,13,13,14,14,15,15,16,16,17,17,18,18,19,19,20,20,21,21,22,22,24,24,25,25,26,26,27,27,28,28,29,29,30,30],"right_children":[2,4,6,8,10,12,14,16,18,20,22,24,26,28,30,32,34,36,38,40,42,44,46,-1,48,50,52,54,56,58,60,-1,-1,-1,-1,-1,-1,-1,-1,-1,-1,-1,-1,-1,-1,-1,-1,-1,-1,-1,-1,-1,-1,-1,-1,-1,-1,-1,-1,-1,-1],"split_conditions":[1.4307985E-1,-6.39E-1,7.36E-1,5.388201E-1,3.99E-1,-6.24E-1,4.5E-1,1E0,1.96E0,-3.45E-1,1.221E0,5.4785E-2,3.45E-1,-6.08E-1,4.43E-1,2.25E-1,6.1E1,2.4721444E-1,-2.149E0,3.65E-1,2.136997E-1,1.03764E-1,1.35E-1,-8.6025506E-2,8.654176E1,8.815225E-2,4.8928168E-1,-1.06E0,2.49006E-1,8.5E-1,2.142E0,-1.6468273E-2,4.689911E-2,-4.6727266E-2,-2.1956699E-2,-5.9802204E-2,6.148209E-2,1.5023964E-2,-7.416959E-2,4.657499E-2,7.180804E-3,-2.6601572E-2,4.5604385E-3,5.171137E-2,-6.565669E-2,-5.9686404E-2,4.036084E-2,5.389428E-2,-3.809704E-2,3.9179202E-2,-2.049353E-3,3.1205177E-2,5.935514E-2,-7.7346945E-3,2.8921952E-2,-2.6477152E-2,2.6719665E-2,5.929921E-2,-1.3270776E-2,4.4995073E-2,-5.2955683E-2],"split_indices":[31,64,25,79,65,24,12,1,98,24,34,61,65,96,65,13,0,71,80,25,95,61,11,0,43,39,71,64,69,42,17,0,0,0,0,0,0,0,0,0,0,0,0,0,0,0,0,0,0,0,0,0,0,0,0,0,0,0,0,0,0],"split_type":[0,0,0,0,0,0,0,0,0,0,0,0,0,0,0,0,0,0,0,0,0,0,0,0,0,0,0,0,0,0,0,0,0,0,0,0,0,0,0,0,0,0,0,0,0,0,0,0,0,0,0,0,0,0,0,0,0,0,0,0,0],"sum_hessian":[4.5665015E3,2.931919E3,1.6345826E3,2.0896108E3,8.423081E2,9.5035754E2,6.842251E2,1.9918076E3,9.780333E1,6.396323E2,2.0267578E2,3.5791348E2,5.9244403E2,4.8231207E2,2.0191301E2,1.0726901E3,9.191175E2,5.0093132E1,4.77102E1,2.452857E2,3.9434662E2,1.9343523E2,9.240548E0,2.3680825E0,3.555454E2,2.8761707E2,3.04827E2,2.0708047E2,2.752316E2,7.186196E1,1.3005106E2,1.0344185E3,3.8271675E1,4.4409134E2,4.7502618E2,2.7601771E0,4.7332954E1,4.0717308E1,6.992892E0,8.779655E1,1.5748917E2,2.4692123E2,1.4742537E2,1.9153876E2,1.896479E0,6.38799E0,2.8525586E0,3.5371487E2,1.8305392E0,8.532596E1,2.022911E2,1.9377118E2,1.1105581E2,1.1001219E2,9.706829E1,2.5384705E2,2.1384552E1,1.7220621E1,5.4641342E1,1.2642177E2,3.6292825E0],"tree_param":{"num_deleted":"0","num_feature":"110","num_nodes":"61","size_leaf_vector":"1"}},{"base_weights":[1.0889261E-2,4.2823815E-1,-2.0182171E-1,7.5821525E-1,7.208911E-2,2.846463E-1,-3.4873322E-1,9.089693E-1,3.7438297E-1,-7.090097E-1,1.7840698E-1,7.172031E-2,1.0574344E0,-5.1979005E-1,1.3624331E-3,6.0474974E-1,9.943166E-1,8.4674376E-1,-4.187557E-2,-1.0817126E0,-3.474706E-2,7.1845874E-2,8.260132E-1,3.156821E-1,-5.9453E-1,-2.0065247E-1,1.1644518E0,-5.8863825E-1,3.009656E-1,-1.4658082E-1,6.532149E-1,-6.2164944E-2,3.3313494E-2,2.496268E-2,5.1845558E-2,4.38969E-2,-4.39299E-2,4.1348036E-2,-1.8228732E-2,5.1895548E-2,-6.033467E-2,-7.390487E-2,1.1970467E-2,2.2937741E-2,-1.011004E-2,6.2159657E-2,1.7860329E-2,-3.097097E-2,2.1520836E-2,-3.8829245E-2,1.4049715E-2,-7.431938E-2,5.032847E-2,2.5419872E-3,6.1422348E-2,-3.2369785E-2,8.185404E-3,-4.0200394E-2,2.325769E-2,5.7554107E-2,-1.0432656E-2,3.723867E-2,-7.207951E-2],"categories":[],"categories_nodes":[],"categories_segments":[],"categories_sizes":[],"default_left":[0,0,0,0,0,0,0,1,0,0,0,0,0,0,0,0,0,0,0,0,0,0,0,0,0,0,0,0,0,1,0,0,0,0,0,0,0,0,0,0,0,0,0,0,0,0,0,0,0,0,0,0,0,0,0,0,0,0,0,0,0,0,0],"id":22,"left_children":[1,3,5,7,9,11,13,15,17,19,21,23,25,27,29,31,33,35,37,39,41,43,45,47,49,51,53,55,57,59,61,-1,-1,-1,-1,-1,-1,-1,-1,-1,-1,-1,-1,-1,-1,-1,-1,-1,-1,-1,-1,-1,-1,-1,-1,-1,-1,-1,-1,-1,-1,-1,-1],"loss_changes":[4.0199512E2,1.7960599E2,2.1446936E2,4.557083E1,6.127442E1,1.14496185E2,1.3799347E2,1.41718445E1,4.436402E1,2.2181618E1,4.4721546E1,8.908952E1,2.0474182E1,8.764691E1,7.3129166E1,1.5290707E1,8.819092E0,6.4577484E0,3.416873E1,1.6328323E1,1.3217523E1,5.9291477E1,1.746939E1,4.329027E1,2.3640411E1,2.1113148E1,9.821777E0,6.325296E1,2.2228107E1,5.0023224E1,2.7976818E1,0E0,0E0,0E0,0E0,0E0,0E0,0E0,0E0,0E0,0E0,0E0,0E0,0E0,0E0,0E0,0E0,0E0,0E0,0E0,0E0,0E0,0E0,0E0,0E0,0E0,0E0,0E0,0E0,0E0,0E0,0E0,0E0],"parents":[2147483647,0,0,1,1,2,2,3,3,4,4,5,5,6,6,7,7,8,8,9,9,10,10,11,11,12,12,13,13,14,14,15,15,16,16,17,17,18,18,19,19,20,20,21,21,22,22,23,23,24,24,25,25,26,26,27,27,28,28,29,29,30,30],"right_children":[2,4,6,8,10,12,14,16,18,20,22,24,26,28,30,32,34,36,38,40,42,44,46,48,50,52,54,56,58,60,62,-1,-1,-1,-1,-1,-1,-1,-1,-1,-1,-1,-1,-1,-1,-1,-1,-1,-1,-1,-1,-1,-1,-1,-1,-1,-1,-1,-1,-1,-1,-1,-1],"split_conditions":[-4.2E-1,5.85E-1,-3.24E-1,-5.08E-1,2.2E-1,-6.99E-1,4.4E-1,8E-2,3.43E-1,1.259E-3,-7.96E-1,-2.55E-1,2.02E-1,-3.85E-1,7.211487E1,7.113509E0,4.6E-1,3.19036E-1,-3.49E-1,-6.234E-3,1.2980682E-1,-1.708E0,1E0,-1.108E0,1.7E-1,1.786E0,-1.054E0,-5.54E-1,4.38E-1,7.5E-1,1.498E0,-6.2164944E-2,3.3313494E-2,2.496268E-2,5.1845558E-2,4.38969E-2,-4.39299E-2,4.1348036E-2,-1.8228732E-2,5.1895548E-2,-6.033467E-2,-7.390487E-2,1.1970467E-2,2.2937741E-2,-1.011004E-2,6.2159657E-2,1.7860329E-2,-3.097097E-2,2.1520836E-2,-3.8829245E-2,1.4049715E-2,-7.431938E-2,5.032847E-2,2.5419872E-3,6.1422348E-2,-3.2369785E-2,8.185404E-3,-4.0200394E-2,2.325769E-2,5.7554107E-2,-1.0432656E-2,3.723867E-2,-7.207951E-2],"split_indices":[24,25,16,24,65,72,12,11,25,54,72,104,65,40,67,59,6,101,16,62,23,80,1,40,11,82,40,72,34,7,17,0,0,0,0,0,0,0,0,0,0,0,0,0,0,0,0,0,0,0,0,0,0,0,0,0,0,0,0,0,0,0,0],"split_type":[0,0,0,0,0,0,0,0,0,0,0,0,0,0,0,0,0,0,0,0,0,0,0,0,0,0,0,0,0,0,0,0,0,0,0,0,0,0,0,0,0,0,0,0,0,0,0,0,0,0,0,0,0,0,0,0,0,0,0,0,0,0,0],"sum_hessian":[4.5262896E3,1.527753E3,2.9985364E3,7.924282E2,7.353249E2,6.952889E2,2.3032473E3,5.679801E2,2.244481E2,8.7417206E1,6.4790765E2,5.4595496E2,1.4933392E2,1.5469314E3,7.56316E2,1.2620595E2,4.4177414E2,1.0465444E2,1.1979367E2,5.5908916E1,3.1508293E1,5.5731464E2,9.059304E1,4.000092E2,1.4594576E2,1.1638454E1,1.3769547E2,1.4274724E3,1.194591E2,6.170472E2,1.3926877E2,3.4470792E0,1.22758865E2,3.600623E1,4.057679E2,1.0327832E2,1.3761216E0,3.202007E1,8.77736E1,2.706319E0,5.32026E1,4.328518E0,2.7179775E1,2.3079541E2,3.2651923E2,4.706192E1,4.353112E1,4.3235516E1,3.5677368E2,1.2091576E2,2.5029991E1,5.5239744E0,6.11448E0,7.5803413E0,1.3011513E2,1.3241937E3,1.0327867E2,1.4949987E1,1.0450912E2,2.7367485E1,5.896797E2,1.340541E2,5.21469E0],"tree_param":{"num_deleted":"0","num_feature":"110","num_nodes":"63","size_leaf_vector":"1"}},{"base_weights":[7.1603283E-3,-2.2581525E-1,3.7539667E-1,-4.519855E-1,1.14256136E-1,7.842428E-2,7.72539E-1,-5.6759316E-1,-1.9103157E-3,-6.874993E-4,8.6879987E-1,-4.3963037E-2,7.9942584E-1,5.498683E-1,9.4191974E-1,-6.2305224E-1,2.5482672E-1,-6.257294E-1,2.1472472E-1,-1.1476692E-1,8.330604E-1,-1.3574518E0,9.8643E-1,-2.8222573E-1,2.585808E-1,1.0942852E0,3.939464E-2,1.314993E-1,7.674743E-1,1.2704322E-1,9.892014E-1,-3.3995245E-2,1.2343858E-2,-1.3799443E-2,4.5835994E-2,3.8441455E-3,-5.0841726E-2,7.9182227E-4,6.250117E-2,-1.6974924E-2,8.410308E-3,-5.2043524E-2,4.6850257E-2,-5.6849323E-5,-7.811521E-2,-2.123866E-2,5.623702E-2,-3.8866212E-3,-3.8678102E-2,-3.576381E-2,2.0116132E-2,-5.133283E-3,5.9788514E-2,3.6277536E-2,-3.704293E-2,-4.162589E-2,1.9281445E-2,-4.6569206E-2,4.0871758E-2,2.4669249E-2,-8.406385E-2,4.9983487E-2,-4.4645544E-2],"categories":[],"categories_nodes":[],"categories_segments":[],"categories_sizes":[],"default_left":[0,0,0,0,0,0,0,1,0,0,0,0,0,0,0,0,0,0,0,0,0,0,0,0,0,0,0,0,0,0,0,0,0,0,0,0,0,0,0,0,0,0,0,0,0,0,0,0,0,0,0,0,0,0,0,0,0,0,0,0,0,0,0],"id":23,"left_children":[1,3,5,7,9,11,13,15,17,19,21,23,25,27,29,31,33,35,37,39,41,43,45,47,49,51,53,55,57,59,61,-1,-1,-1,-1,-1,-1,-1,-1,-1,-1,-1,-1,-1,-1,-1,-1,-1,-1,-1,-1,-1,-1,-1,-1,-1,-1,-1,-1,-1,-1,-1,-1],"loss_changes":[3.869012E2,2.1250845E2,2.0605287E2,8.6328186E1,9.576018E1,8.836645E1,2.7678253E1,6.036801E1,4.609334E1,9.132374E1,3.9562454E1,6.1828465E1,3.2522034E1,2.9522346E1,1.6179718E1,6.134543E1,2.9802305E1,2.4236729E1,5.2109467E1,5.376691E1,2.3485329E1,2.1504202E0,2.76503E1,4.814225E1,5.3196045E1,1.28359375E1,2.2838556E1,2.7892233E1,1.8911888E1,1.6964548E1,8.770569E0,0E0,0E0,0E0,0E0,0E0,0E0,0E0,0E0,0E0,0E0,0E0,0E0,0E0,0E0,0E0,0E0,0E0,0E0,0E0,0E0,0E0,0E0,0E0,0E0,0E0,0E0,0E0,0E0,0E0,0E0,0E0,0E0],"parents":[2147483647,0,0,1,1,2,2,3,3,4,4,5,5,6,6,7,7,8,8,9,9,10,10,11,11,12,12,13,13,14,14,15,15,16,16,17,17,18,18,19,19,20,20,21,21,22,22,23,23,24,24,25,25,26,26,27,27,28,28,29,29,30,30],"right_children":[2,4,6,8,10,12,14,16,18,20,22,24,26,28,30,32,34,36,38,40,42,44,46,48,50,52,54,56,58,60,62,-1,-1,-1,-1,-1,-1,-1,-1,-1,-1,-1,-1,-1,-1,-1,-1,-1,-1,-1,-1,-1,-1,-1,-1,-1,-1,-1,-1,-1,-1,-1,-1],"split_conditions":[-5.95E-1,2.59E-1,1.2834111E-1,4.65E-1,-6.65E-1,-5.67E-1,4.2E-1,2E-1,-9.26E-1,4.3131185E-1,-1.068E0,-4.46E-1,-1.97E-1,-5.02E-1,6.7986E-2,2.1917613E-1,6.681515E1,1.721E0,1.4180635E-1,4.05E-1,8.529E-2,-4.431E-3,2.1E-1,-9.43E-1,3.112568E0,1.78E-1,8.0777E-2,2.32E-1,5.2217E-2,-5.65E-1,7.473E-3,-3.3995245E-2,1.2343858E-2,-1.3799443E-2,4.5835994E-2,3.8441455E-3,-5.0841726E-2,7.9182227E-4,6.250117E-2,-1.6974924E-2,8.410308E-3,-5.2043524E-2,4.6850257E-2,-5.6849323E-5,-7.811521E-2,-2.123866E-2,5.623702E-2,-3.8866212E-3,-3.8678102E-2,-3.576381E-2,2.0116132E-2,-5.133283E-3,5.9788514E-2,3.6277536E-2,-3.704293E-2,-4.162589E-2,1.9281445E-2,-4.6569206E-2,4.0871758E-2,2.4669249E-2,-8.406385E-2,4.9983487E-2,-4.4645544E-2],"split_indices":[40,41,31,12,72,72,12,13,40,63,40,40,16,40,37,31,2,74,44,12,21,102,65,80,35,65,63,65,101,56,46,0,0,0,0,0,0,0,0,0,0,0,0,0,0,0,0,0,0,0,0,0,0,0,0,0,0,0,0,0,0,0,0],"split_type":[0,0,0,0,0,0,0,0,0,0,0,0,0,0,0,0,0,0,0,0,0,0,0,0,0,0,0,0,0,0,0,0,0,0,0,0,0,0,0,0,0,0,0,0,0,0,0,0,0,0,0,0,0,0,0,0,0,0,0,0,0,0,0],"sum_hessian":[4.5078716E3,2.7612634E3,1.7466079E3,1.6581521E3,1.1031113E3,1.0000184E3,7.465895E2,1.3190706E3,3.3908154E2,9.581503E2,1.4496101E2,8.557047E2,1.4431366E2,3.243889E2,4.2220062E2,1.2359668E3,8.3103806E1,8.691474E1,2.521668E2,8.4358704E2,1.1456333E2,6.7460566E0,1.3821497E2,4.7874518E2,3.7695956E2,1.0365874E2,4.065492E1,1.1154224E2,2.1284666E2,2.3356117E1,3.9884448E2,1.1603525E3,7.561424E1,4.644197E1,3.6661835E1,3.1367355E1,5.5547386E1,2.1238199E2,3.9784805E1,4.7006836E2,3.7351868E2,5.5470257E0,1.09016304E2,1.017146E0,5.728911E0,1.2152263E1,1.260627E2,3.388674E2,1.398778E2,4.7971874E1,3.2898767E2,8.101006E0,9.555773E1,2.1669144E1,1.8985775E1,2.2795115E1,8.8747116E1,5.5766635E0,2.0726999E2,2.0026226E1,3.3298905E0,3.9710464E2,1.7398413E0],"tree_param":{"num_deleted":"0","num_feature":"110","num_nodes":"63","size_leaf_vector":"1"}},{"base_weights":[-1.0719317E-3,-2.4492846E-1,3.7748587E-1,-4.9987403E-1,4.723912E-2,9.081375E-2,7.8585887E-1,-5.594288E-1,2.580105E-1,-2.0180207E-1,3.8230476E-1,-1.452661E-1,4.5526937E-1,2.6667833E-1,8.651046E-1,-6.2629175E-1,4.2311087E-2,7.9317784E-1,-3.4039304E-1,-1.2839769E-1,-1.1107502E0,-1.0048912E-1,6.4083874E-1,-5.671632E-1,4.074515E-2,2.4612285E-1,8.294858E-1,7.668551E-1,-2.3269288E-1,-9.025606E-1,8.803236E-1,3.2716215E-2,-3.262733E-2,4.2688597E-2,-7.853958E-3,-6.639689E-2,5.032587E-2,-5.2879043E-2,1.697615E-2,-1.3342457E-2,1.9972535E-2,3.2012574E-2,-6.171636E-2,-3.1005232E-2,3.257314E-2,1.1774389E-2,5.2967813E-2,-3.481043E-2,3.0138234E-2,3.5089348E-2,-5.5798576E-3,-2.2441737E-2,2.1057013E-2,4.3826252E-2,-8.074934E-2,4.8561543E-2,1.3909403E-3,2.114228E-2,-5.3036876E-2,2.9095968E-2,-7.8526884E-2,3.789069E-2,5.4883666E-2],"categories":[],"categories_nodes":[],"categories_segments":[],"categories_sizes":[],