{"learner":{"attributes":{"scikit_learn":"{\"_estimator_type\": \"classifier\"}"},"feature_names":[],"feature_types":[],"gradient_booster":{"model":{"cats":{"enc":[],"feature_segments":[],"sorted_idx":[]},"gbtree_model_param":{"num_parallel_tree":"1","num_trees":"400"},"iteration_indptr":[0,1,2,3,4,5,6,7,8,9,10,11,12,13,14,15,16,17,18,19,20,21,22,23,24,25,26,27,28,29,30,31,32,33,34,35,36,37,38,39,40,41,42,43,44,45,46,47,48,49,50,51,52,53,54,55,56,57,58,59,60,61,62,63,64,65,66,67,68,69,70,71,72,73,74,75,76,77,78,79,80,81,82,83,84,85,86,87,88,89,90,91,92,93,94,95,96,97,98,99,100,101,102,103,104,105,106,107,108,109,110,111,112,113,114,115,116,117,118,119,120,121,122,123,124,125,126,127,128,129,130,131,132,133,134,135,136,137,138,139,140,141,142,143,144,145,146,147,148,149,150,151,152,153,154,155,156,157,158,159,160,161,162,163,164,165,166,167,168,169,170,171,172,173,174,175,176,177,178,179,180,181,182,183,184,185,186,187,188,189,190,191,192,193,194,195,196,197,198,199,200,201,202,203,204,205,206,207,208,209,210,211,212,213,214,215,216,217,218,219,220,221,222,223,224,225,226,227,228,229,230,231,232,233,234,235,236,237,238,239,240,241,242,243,244,245,246,247,248,249,250,251,252,253,254,255,256,257,258,259,260,261,262,263,264,265,266,267,268,269,270,271,272,273,274,275,276,277,278,279,280,281,282,283,284,285,286,287,288,289,290,291,292,293,294,295,296,297,298,299,300,301,302,303,304,305,306,307,308,309,310,311,312,313,314,315,316,317,318,319,320,321,322,323,324,325,326,327,328,329,330,331,332,333,334,335,336,337,338,339,340,341,342,343,344,345,346,347,348,349,350,351,352,353,354,355,356,357,358,359,360,361,362,363,364,365,366,367,368,369,370,371,372,373,374,375,376,377,378,379,380,381,382,383,384,385,386,387,388,389,390,391,392,393,394,395,396,397,398,399,400],"tree_info":[0,0,0,0,0,0,0,0,0,0,0,0,0,0,0,0,0,0,0,0,0,0,0,0,0,0,0,0,0,0,0,0,0,0,0,0,0,0,0,0,0,0,0,0,0,0,0,0,0,0,0,0,0,0,0,0,0,0,0,0,0,0,0,0,0,0,0,0,0,0,0,0,0,0,0,0,0,0,0,0,0,0,0,0,0,0,0,0,0,0,0,0,0,0,0,0,0,0,0,0,0,0,0,0,0,0,0,0,0,0,0,0,0,0,0,0,0,0,0,0,0,0,0,0,0,0,0,0,0,0,0,0,0,0,0,0,0,0,0,0,0,0,0,0,0,0,0,0,0,0,0,0,0,0,0,0,0,0,0,0,0,0,0,0,0,0,0,0,0,0,0,0,0,0,0,0,0,0,0,0,0,0,0,0,0,0,0,0,0,0,0,0,0,0,0,0,0,0,0,0,0,0,0,0,0,0,0,0,0,0,0,0,0,0,0,0,0,0,0,0,0,0,0,0,0,0,0,0,0,0,0,0,0,0,0,0,0,0,0,0,0,0,0,0,0,0,0,0,0,0,0,0,0,0,0,0,0,0,0,0,0,0,0,0,0,0,0,0,0,0,0,0,0,0,0,0,0,0,0,0,0,0,0,0,0,0,0,0,0,0,0,0,0,0,0,0,0,0,0,0,0,0,0,0,0,0,0,0,0,0,0,0,0,0,0,0,0,0,0,0,0,0,0,0,0,0,0,0,0,0,0,0,0,0,0,0,0,0,0,0,0,0,0,0,0,0,0,0,0,0,0,0,0,0,0,0,0,0,0,0,0,0,0,0,0,0,0,0,0,0,0,0,0,0,0,0,0,0,0,0,0,0,0,0,0,0,0,0,0,0,0,0,0,0,0,0,0,0,0,0],"trees":[{"base_weights":[1.3527437E-2,-6.545546E-1,1.2274834E0,-1.2263277E0,2.5399005E-1,7.190581E-1,1.6236762E0,-1.3382787E0,5.5424315E-1,-1.1824128E-1,1.1647292E0,-5.5494744E-1,1.055891E0,-2.1386407E-1,1.6610745E0,-1.448785E0,-3.0086246E-1,-1.7009471E-1,1.0573989E0,-1.074931E0,1.0323899E-1,6.894132E-1,1.4912183E0,-1.4722044E0,-1.7699632E-1,1.4519292E0,6.318357E-1,-9.047619E-2,8.9203465E-1,1.7683929E0,1.1074364E0,-7.73843E-2,-2.1895686E-2,5.7270776E-2,-3.2846577E-2,-5.9740413E-2,3.9076947E-2,5.9532136E-2,-7.777778E-2,2.479019E-2,-6.238976E-2,4.6708047E-2,-5.4371953E-3,8.321979E-2,1.5158861E-2,7.71723E-2,-8.186325E-3,4.4076595E-2,-9.098559E-2,6.2063284E-2,-2.2109952E-2,8.114545E-2,4.585067E-2,-3.860232E-2,4.3659076E-2,7.6178074E-2,-7.333334E-2,-7.647059E-2,8.904376E-2,6.0606163E-2,-5.238178E-2],"categories":[],"categories_nodes":[],"categories_segments":[],"categories_sizes":[],"default_left":[0,0,0,0,0,0,0,0,0,0,0,0,0,0,0,0,0,1,0,0,0,0,0,0,0,0,0,0,0,0,0,0,0,0,0,0,0,0,0,0,0,0,0,0,0,0,0,0,0,0,0,0,0,0,0,0,0,0,0,0,0],"id":0,"left_children":[1,3,5,7,9,11,13,15,17,19,21,23,25,27,29,31,33,35,37,39,41,43,45,47,49,51,53,-1,55,57,59,-1,-1,-1,-1,-1,-1,-1,-1,-1,-1,-1,-1,-1,-1,-1,-1,-1,-1,-1,-1,-1,-1,-1,-1,-1,-1,-1,-1,-1,-1],"loss_changes":[4.885784E3,2.0188988E3,4.2959277E2,4.7617236E2,5.0922577E2,4.0326678E2,8.289575E1,2.5684985E2,5.1857452E1,2.2617902E2,6.659973E1,6.7991E1,1.2377948E2,4.545384E1,6.7988525E1,2.0206982E2,1.1266153E2,5.845176E1,3.1031631E1,5.5101242E1,1.5286324E2,6.701839E1,2.2507568E1,4.8482185E1,5.3417526E1,3.3555725E1,1.2276387E2,0E0,2.508989E1,4.3246582E1,4.499794E1,0E0,0E0,0E0,0E0,0E0,0E0,0E0,0E0,0E0,0E0,0E0,0E0,0E0,0E0,0E0,0E0,0E0,0E0,0E0,0E0,0E0,0E0,0E0,0E0,0E0,0E0,0E0,0E0,0E0,0E0],"parents":[2147483647,0,0,1,1,2,2,3,3,4,4,5,5,6,6,7,7,8,8,9,9,10,10,11,11,12,12,13,13,14,14,15,15,16,16,17,17,18,18,19,19,20,20,21,21,22,22,23,23,24,24,25,25,26,26,28,28,29,29,30,30],"right_children":[2,4,6,8,10,12,14,16,18,20,22,24,26,28,30,32,34,36,38,40,42,44,46,48,50,52,54,-1,56,58,60,-1,-1,-1,-1,-1,-1,-1,-1,-1,-1,-1,-1,-1,-1,-1,-1,-1,-1,-1,-1,-1,-1,-1,-1,-1,-1,-1,-1,-1,-1],"split_conditions":[8.860968E1,3.8000324E1,2.382E0,1.391E0,1.195E0,1.6604789E-1,2.6E1,1.8E-1,1.323E0,5.1E1,1.192E0,4.9037834E1,-1.481E0,2.33274E-1,-9.23E-1,5.13E-1,3.5E-1,1.6E-1,1.60755E-1,-5.06E-1,-2.669E0,-1.875E0,2.40122E-1,-2.279E0,1.43534E-1,2.2714E-1,5.4E1,-9.047619E-2,-3.04E-4,1.062E0,1.38574E-1,-7.73843E-2,-2.1895686E-2,5.7270776E-2,-3.2846577E-2,-5.9740413E-2,3.9076947E-2,5.9532136E-2,-7.777778E-2,2.479019E-2,-6.238976E-2,4.6708047E-2,-5.4371953E-3,8.321979E-2,1.5158861E-2,7.71723E-2,-8.186325E-3,4.4076595E-2,-9.098559E-2,6.2063284E-2,-2.2109952E-2,8.114545E-2,4.585067E-2,-3.860232E-2,4.3659076E-2,7.6178074E-2,-7.333334E-2,-7.647059E-2,8.904376E-2,6.0606163E-2,-5.238178E-2],"split_indices":[99,67,97,17,17,63,0,11,49,0,49,107,64,63,64,65,17,13,53,16,72,64,37,72,101,101,0,0,62,105,69,0,0,0,0,0,0,0,0,0,0,0,0,0,0,0,0,0,0,0,0,0,0,0,0,0,0,0,0,0,0],"split_type":[0,0,0,0,0,0,0,0,0,0,0,0,0,0,0,0,0,0,0,0,0,0,0,0,0,0,0,0,0,0,0,0,0,0,0,0,0,0,0,0,0,0,0,0,0,0,0,0,0,0,0,0,0,0,0,0,0,0,0,0,0],"sum_hessian":[6.0222393E3,3.8847744E3,2.137465E3,2.3840647E3,1.5007096E3,9.37372E2,1.2000933E3,2.2432705E3,1.4079424E2,1.0659229E3,4.347868E2,1.9587294E2,7.414991E2,2.3843441E1,1.1762498E3,2.0269606E3,2.1630981E2,5.79836E1,8.281064E1,1.996549E2,8.6626794E2,1.7830899E2,2.564778E2,5.6312294E1,1.3956064E2,3.8216223E2,3.5933682E2,9.5E0,1.434344E1,9.83426E2,1.9282373E2,1.8458376E3,1.8112294E2,4.2295895E1,1.7401392E2,2.779672E1,3.018688E1,7.931064E1,3.5E0,1.9609015E1,1.800459E2,1.7538686E2,6.908811E2,4.9654907E1,1.2865408E2,2.4869667E2,7.781147E0,7.04672E0,4.926557E1,2.1405733E1,1.1815491E2,2.8805487E2,9.410736E1,5.239016E1,3.069467E2,1.159344E1,2.75E0,3.25E0,9.80176E2,1.8430817E2,8.5155735E0],"tree_param":{"num_deleted":"0","num_feature":"110","num_nodes":"61","size_leaf_vector":"1"}},{"base_weights":[-7.75641E-3,-6.0756266E-1,1.161014E0,-1.0873022E0,3.329482E-1,6.946639E-1,1.5651103E0,-1.2315794E0,6.283419E-1,-1.3591133E-2,1.1248748E0,1.2111738E0,-4.3402296E-2,1.1773393E-1,1.5967622E0,-1.327341E0,6.022508E-3,-6.3935894E-1,9.25882E-1,-1.3332151E0,1.1730406E-1,1.1681138E0,-8.590279E-2,-3.8576022E-1,1.289776E0,-1.2868878E0,2.0533766E-1,-8.439861E-2,1.0207175E0,1.731199E0,1.2777858E0,-7.209958E-2,-1.6292617E-2,-3.7943114E-2,4.389865E-2,1.611512E-2,-7.579192E-2,5.426245E-3,5.92398E-2,-4.2441428E-2,-9.492751E-2,3.253766E-2,-8.097827E-3,3.555404E-2,7.031917E-2,6.52918E-2,-7.3998936E-2,7.430201E-2,4.1812602E-2,1.8618492E-2,-9.606905E-2,-4.016132E-2,2.2196371E-2,7.3752865E-2,-6.6755526E-2,4.346921E-2,8.7329924E-2,6.995006E-2,1.5288651E-2],"categories":[],"categories_nodes":[],"categories_segments":[],"categories_sizes":[],"default_left":[0,0,0,0,0,0,0,0,0,0,0,0,0,0,0,0,0,0,0,0,0,0,0,0,0,0,0,0,0,0,0,0,0,0,0,0,0,0,0,0,0,0,0,0,0,0,0,0,0,0,0,0,0,0,0,0,0,0,0],"id":1,"left_children":[1,3,5,7,9,11,13,15,17,19,21,23,25,27,29,31,33,35,37,39,41,43,-1,45,47,49,51,-1,53,55,57,-1,-1,-1,-1,-1,-1,-1,-1,-1,-1,-1,-1,-1,-1,-1,-1,-1,-1,-1,-1,-1,-1,-1,-1,-1,-1,-1,-1],"loss_changes":[4.1931978E3,1.783886E3,3.8119995E2,6.4876953E2,3.666526E2,3.597505E2,4.956543E1,2.8623633E2,7.7438866E1,1.6085031E2,5.1997314E1,7.01781E1,1.2071511E2,4.1379185E1,4.3359375E1,2.5692285E2,1.17013626E2,3.3630302E1,3.4877274E1,2.1399796E1,1.2632486E2,4.2686584E1,0E0,5.1560116E1,4.5871582E1,6.920042E1,7.865225E1,0E0,1.9990257E1,8.366455E0,3.7147522E1,0E0,0E0,0E0,0E0,0E0,0E0,0E0,0E0,0E0,0E0,0E0,0E0,0E0,0E0,0E0,0E0,0E0,0E0,0E0,0E0,0E0,0E0,0E0,0E0,0E0,0E0,0E0,0E0],"parents":[2147483647,0,0,1,1,2,2,3,3,4,4,5,5,6,6,7,7,8,8,9,9,10,10,11,11,12,12,13,13,14,14,15,15,16,16,17,17,18,18,19,19,20,20,21,21,23,23,24,24,25,25,26,26,28,28,29,29,30,30],"right_children":[2,4,6,8,10,12,14,16,18,20,22,24,26,28,30,32,34,36,38,40,42,44,-1,46,48,50,52,-1,54,56,58,-1,-1,-1,-1,-1,-1,-1,-1,-1,-1,-1,-1,-1,-1,-1,-1,-1,-1,-1,-1,-1,-1,-1,-1,-1,-1,-1,-1],"split_conditions":[3.0123112E-1,4.3312798E1,2.439E0,1.192E0,1.18E0,-1.195E0,2.6E1,1.95E-1,1.307E0,4.1E1,1.87553E-1,3.6E1,5.4E1,5.2265327E1,-1.131E0,5.13E-1,2.2092614E-1,8.0809E-2,1.348E0,1.01496E-1,-2.251E0,1.115E0,-8.590279E-2,-2.871E0,2.19921E-1,1.63047E-1,9.73E-1,-8.439861E-2,-1.081E-3,1.38E0,3.52215E-1,-7.209958E-2,-1.6292617E-2,-3.7943114E-2,4.389865E-2,1.611512E-2,-7.579192E-2,5.426245E-3,5.92398E-2,-4.2441428E-2,-9.492751E-2,3.253766E-2,-8.097827E-3,3.555404E-2,7.031917E-2,6.52918E-2,-7.3998936E-2,7.430201E-2,4.1812602E-2,1.8618492E-2,-9.606905E-2,-4.016132E-2,2.2196371E-2,7.3752865E-2,-6.6755526E-2,4.346921E-2,8.7329924E-2,6.995006E-2,1.5288651E-2],"split_indices":[95,67,97,49,17,64,0,11,17,0,29,0,0,67,64,65,95,21,106,109,72,49,0,72,101,101,66,0,70,105,101,0,0,0,0,0,0,0,0,0,0,0,0,0,0,0,0,0,0,0,0,0,0,0,0,0,0,0,0],"split_type":[0,0,0,0,0,0,0,0,0,0,0,0,0,0,0,0,0,0,0,0,0,0,0,0,0,0,0,0,0,0,0,0,0,0,0,0,0,0,0,0,0,0,0,0,0,0,0,0,0,0,0,0,0,0,0,0,0,0,0],"sum_hessian":[5.979426E3,3.951843E3,2.0275829E3,2.6168655E3,1.3349775E3,9.425481E2,1.0850348E3,2.414131E3,2.0273428E2,9.293054E2,4.0567212E2,5.541233E2,3.8842484E2,2.3321178E1,1.0617136E3,2.2406821E3,1.734491E2,3.8319824E1,1.6441446E2,8.303185E1,8.4627356E2,4.0017484E2,5.497265E0,2.5811539E1,5.283117E2,6.405106E1,3.2437375E2,7.4846716E0,1.5836507E1,7.438013E2,3.1791235E2,2.010123E3,2.3055914E2,9.24663E1,8.098279E1,1.8573502E1,1.974632E1,3.9893894E1,1.2452057E2,4.606458E1,3.6967274E1,2.9033658E2,5.5593695E2,1.3849916E2,2.616757E2,1.0062351E1,1.5749188E1,3.6714966E2,1.6116208E2,1.783197E1,4.6219097E1,6.160236E1,2.627714E2,1.358953E1,2.2469776E0,1.406606E1,7.2973517E2,2.8227216E2,3.5640182E1],"tree_param":{"num_deleted":"0","num_feature":"110","num_nodes":"59","size_leaf_vector":"1"}},{"base_weights":[8.017158E-3,-5.6297135E-1,1.179072E0,-1.0666482E0,3.4134772E-1,6.627167E-1,1.4556549E0,-1.2149034E0,4.0209737E-1,4.334822E-2,1.0725397E0,1.499402E-1,1.3207141E0,1.1351376E0,1.5994583E0,-2.3791702E-2,-1.3202982E0,-2.6068577E-1,9.240521E-1,7.5440323E-1,-1.9883797E-1,5.81653E-1,1.2997103E0,-1.6646963E0,3.2649198E-1,3.3123764E-1,1.4125317E0,7.100817E-1,1.3692834E0,-7.770749E-2,1.613559E0,-3.989901E-2,2.2004483E-2,-7.586353E-2,-4.875037E-2,-7.778343E-2,6.1935647E-3,5.1245946E-2,-8.017903E-2,4.163435E-2,-9.103569E-2,-3.1748172E-2,1.1033398E-2,5.6307256E-2,-1.0925812E-2,2.2579303E-2,6.992069E-2,-9.3309335E-2,6.586897E-2,-1.7005706E-2,3.7781946E-2,4.383076E-2,-8.558941E-2,7.478423E-2,3.7423927E-2,-5.469616E-3,5.3417634E-2,7.1165495E-2,-1.33374585E-2,-7.634234E-2,5.809758E-2,6.844642E-2,8.410638E-2],"categories":[],"categories_nodes":[],"categories_segments":[],"categories_sizes":[],"default_left":[0,0,0,0,0,0,0,0,0,0,0,0,0,0,0,0,0,0,0,0,0,0,0,0,0,0,0,0,0,0,0,0,0,0,0,0,0,0,0,0,0,0,0,0,0,0,0,0,0,0,0,0,0,0,0,0,0,0,0,0,0,0,0],"id":2,"left_children":[1,3,5,7,9,11,13,15,17,19,21,23,25,27,29,31,33,35,37,39,41,43,45,47,49,51,53,55,57,59,61,-1,-1,-1,-1,-1,-1,-1,-1,-1,-1,-1,-1,-1,-1,-1,-1,-1,-1,-1,-1,-1,-1,-1,-1,-1,-1,-1,-1,-1,-1,-1,-1],"loss_changes":[3.99651E3,1.8304406E3,2.788164E2,5.6245874E2,3.1329794E2,2.3098059E2,5.6945557E1,2.942827E2,8.235871E1,1.7626877E2,4.5672455E1,1.2427455E2,2.6783997E1,3.866693E1,2.0879639E1,6.916124E1,1.4500903E2,5.2660824E1,3.5556335E1,5.3938446E1,1.398584E2,5.8422157E1,2.3127441E1,2.3132477E1,1.0118226E2,3.1336502E1,1.4020325E1,4.2261093E1,2.2984009E1,1.66322E1,1.2296143E1,0E0,0E0,0E0,0E0,0E0,0E0,0E0,0E0,0E0,0E0,0E0,0E0,0E0,0E0,0E0,0E0,0E0,0E0,0E0,0E0,0E0,0E0,0E0,0E0,0E0,0E0,0E0,0E0,0E0,0E0,0E0,0E0],"parents":[2147483647,0,0,1,1,2,2,3,3,4,4,5,5,6,6,7,7,8,8,9,9,10,10,11,11,12,12,13,13,14,14,15,15,16,16,17,17,18,18,19,19,20,20,21,21,22,22,23,23,24,24,25,25,26,26,27,27,28,28,29,29,30,30],"right_children":[2,4,6,8,10,12,14,16,18,20,22,24,26,28,30,32,34,36,38,40,42,44,46,48,50,52,54,56,58,60,62,-1,-1,-1,-1,-1,-1,-1,-1,-1,-1,-1,-1,-1,-1,-1,-1,-1,-1,-1,-1,-1,-1,-1,-1,-1,-1,-1,-1,-1,-1,-1,-1],"split_conditions":[1.948E0,2.0917557E-1,3.5978592E1,1.137E0,1.188E0,2.546E0,2.329E0,-1.893E0,2.1293755E-1,-2.669E0,1.115E0,1.0029352E-1,2.156149E-1,2.5582394E-1,1.375E0,2.491787E1,1.2611121E1,9.72E-1,2.08823E-1,8.879565E1,5.131722E1,-1.763E0,-5.45E-1,7.123E-3,4.05E-1,1.145E0,1.115E0,2.3256351E-1,-7.96E-1,2.53868E-1,-9.76E-1,-3.989901E-2,2.2004483E-2,-7.586353E-2,-4.875037E-2,-7.778343E-2,6.1935647E-3,5.1245946E-2,-8.017903E-2,4.163435E-2,-9.103569E-2,-3.1748172E-2,1.1033398E-2,5.6307256E-2,-1.0925812E-2,2.2579303E-2,6.992069E-2,-9.3309335E-2,6.586897E-2,-1.7005706E-2,3.7781946E-2,4.383076E-2,-8.558941E-2,7.478423E-2,3.7423927E-2,-5.469616E-3,5.3417634E-2,7.1165495E-2,-1.33374585E-2,-7.634234E-2,5.809758E-2,6.844642E-2,8.410638E-2],"split_indices":[97,63,67,49,17,97,97,80,15,72,49,63,103,63,106,107,35,97,53,19,99,72,48,46,12,26,57,103,72,77,96,0,0,0,0,0,0,0,0,0,0,0,0,0,0,0,0,0,0,0,0,0,0,0,0,0,0,0,0,0,0,0,0],"split_type":[0,0,0,0,0,0,0,0,0,0,0,0,0,0,0,0,0,0,0,0,0,0,0,0,0,0,0,0,0,0,0,0,0,0,0,0,0,0,0,0,0,0,0,0,0,0,0,0,0,0,0,0,0,0,0,0,0,0,0,0,0,0,0],"sum_hessian":[5.9749116E3,4.0168674E3,1.9580441E3,2.579814E3,1.4370535E3,6.841653E2,1.2738788E3,2.34344E3,2.3637401E2,1.02171124E3,4.1534225E2,3.8520413E2,2.9896118E2,3.97284E2,8.7659485E2,1.906012E2,2.1528386E3,1.0435878E2,1.3201523E2,2.5904474E2,7.626665E2,1.3252756E2,2.828147E2,3.340735E1,3.5179678E2,2.57774E1,2.7318378E2,1.4254607E2,2.5473793E2,7.270852E0,8.69324E2,7.1144806E1,1.1945639E2,1.3686777E3,7.841609E2,2.3197304E1,8.1161476E1,1.2752094E2,4.4942904E0,2.5205879E2,6.9859643E0,3.7367453E2,3.8899197E2,7.86209E1,5.3906647E1,3.0063631E1,2.5275105E2,3.1643488E1,1.7638628E0,1.3786095E2,2.1393584E2,2.079672E1,4.980678E0,2.4166956E2,3.1514215E1,4.3573944E1,9.8972115E1,2.4672057E2,8.017372E0,3.2453866E0,4.0254655E0,1.9491034E2,6.7441364E2],"tree_param":{"num_deleted":"0","num_feature":"110","num_nodes":"63","size_leaf_vector":"1"}},{"base_weights":[9.000453E-3,-7.45393E-1,8.192008E-1,-1.0493858E0,1.5951228E-1,3.0304006E-1,1.2850754E0,-1.162845E0,2.924119E-1,-1.3668972E-1,1.0217808E0,9.378503E-1,-2.3423511E-1,1.4556516E0,8.9857906E-1,-1.2597643E0,2.3083996E-2,-2.2091901E-1,1.0224128E0,-8.168788E-1,8.7917134E-2,-6.8609256E-1,1.120222E0,-1.4502026E0,1.007477E0,-5.17487E-1,7.4376345E-1,-1.7413148E-1,1.4793893E0,-6.868068E-1,9.960917E-1,-6.891105E-2,-1.2027135E-2,7.287141E-2,-1.3150902E-2,-5.0706297E-2,4.0359568E-2,5.5890966E-2,-7.199134E-2,-6.8396434E-2,-1.1098429E-3,-5.7241827E-2,1.1382657E-2,-9.040807E-2,6.390246E-2,2.3846693E-2,6.7789756E-2,6.258709E-2,-9.0824865E-2,4.241253E-2,8.377753E-2,-3.4618847E-2,3.8587343E-2,-3.4116127E-2,4.763896E-2,7.486849E-2,-8.657422E-2,-1.716869E-2,7.469469E-2,-8.965768E-2,1.6765554E-2,1.5296759E-2,5.64447E-2],"categories":[],"categories_nodes":[],"categories_segments":[],"categories_sizes":[],"default_left":[0,0,0,0,0,0,0,0,0,0,0,0,0,0,0,0,0,0,0,0,0,0,0,0,0,0,0,0,0,0,0,0,0,0,0,0,0,0,0,0,0,0,0,0,0,0,0,0,0,0,0,0,0,0,0,0,0,0,0,0,0,0,0],"id":3,"left_children":[1,3,5,7,9,11,13,15,17,19,21,23,25,27,29,31,33,35,37,39,41,43,45,47,49,51,53,55,57,59,61,-1,-1,-1,-1,-1,-1,-1,-1,-1,-1,-1,-1,-1,-1,-1,-1,-1,-1,-1,-1,-1,-1,-1,-1,-1,-1,-1,-1,-1,-1,-1,-1],"loss_changes":[3.65599E3,8.5223254E2,6.931388E2,3.5333716E2,1.9929604E2,4.673176E2,9.860986E1,2.4578345E2,6.826849E1,8.8875984E1,3.4308014E1,1.0587598E2,2.0608342E2,4.0875E1,7.283148E1,2.3831152E2,6.707537E1,8.842982E1,1.9262001E1,6.320057E1,7.569003E1,2.7638391E1,2.7994553E1,2.028711E1,6.3549988E1,1.3049086E2,5.0479263E1,4.415626E1,2.7875E1,3.1849358E1,3.9987335E1,0E0,0E0,0E0,0E0,0E0,0E0,0E0,0E0,0E0,0E0,0E0,0E0,0E0,0E0,0E0,0E0,0E0,0E0,0E0,0E0,0E0,0E0,0E0,0E0,0E0,0E0,0E0,0E0,0E0,0E0,0E0,0E0],"parents":[2147483647,0,0,1,1,2,2,3,3,4,4,5,5,6,6,7,7,8,8,9,9,10,10,11,11,12,12,13,13,14,14,15,15,16,16,17,17,18,18,19,19,20,20,21,21,22,22,23,23,24,24,25,25,26,26,27,27,28,28,29,29,30,30],"right_children":[2,4,6,8,10,12,14,16,18,20,22,24,26,28,30,32,34,36,38,40,42,44,46,48,50,52,54,56,58,60,62,-1,-1,-1,-1,-1,-1,-1,-1,-1,-1,-1,-1,-1,-1,-1,-1,-1,-1,-1,-1,-1,-1,-1,-1,-1,-1,-1,-1,-1,-1,-1,-1],"split_conditions":[4.442406E1,2.1823208E-1,1.1272918E2,1.149E0,1.103E0,-1.288E0,-1.131E0,1.95E-1,1.151E0,-1.91E-3,-5.76E-1,3.1E1,1.218E0,2.2E1,4.5E1,5.19E-1,2.9E-1,1.22367E-1,1.12912E-1,2.2966425E-1,8E-2,1.658E0,8.53E-1,5.1E-1,1.526E0,1.85E-1,-3.533E-3,-2.187E0,1.066E0,-3.38E-1,1.507E0,-6.891105E-2,-1.2027135E-2,7.287141E-2,-1.3150902E-2,-5.0706297E-2,4.0359568E-2,5.5890966E-2,-7.199134E-2,-6.8396434E-2,-1.1098429E-3,-5.7241827E-2,1.1382657E-2,-9.040807E-2,6.390246E-2,2.3846693E-2,6.7789756E-2,6.258709E-2,-9.0824865E-2,4.241253E-2,8.377753E-2,-3.4618847E-2,3.8587343E-2,-3.4116127E-2,4.763896E-2,7.486849E-2,-8.657422E-2,-1.716869E-2,7.469469E-2,-8.965768E-2,1.6765554E-2,1.5296759E-2,5.64447E-2],"split_indices":[107,63,99,49,49,64,64,11,105,46,48,0,17,0,0,65,17,21,45,95,11,65,105,6,17,11,102,80,105,104,105,0,0,0,0,0,0,0,0,0,0,0,0,0,0,0,0,0,0,0,0,0,0,0,0,0,0,0,0,0,0,0,0],"split_type":[0,0,0,0,0,0,0,0,0,0,0,0,0,0,0,0,0,0,0,0,0,0,0,0,0,0,0,0,0,0,0,0,0,0,0,0,0,0,0,0,0,0,0,0,0,0,0,0,0,0,0,0,0,0,0,0,0,0,0,0,0,0,0],"sum_hessian":[5.9795635E3,3.0964646E3,2.8830989E3,2.3176997E3,7.787649E2,1.3685165E3,1.5145824E3,2.137123E3,1.8057674E2,5.8027374E2,1.9849113E2,6.269759E2,7.415405E2,1.0488966E3,4.6568582E2,1.9756057E3,1.6151733E2,1.0643198E2,7.414476E1,1.4339276E2,4.3688098E2,1.0492105E1,1.8799902E2,1.7200647E1,6.0977527E2,5.7537036E2,1.6617021E2,1.496685E1,1.0339298E3,2.6633204E1,4.390526E2,1.7695872E3,2.0601855E2,2.6178736E1,1.353386E2,6.0087173E1,4.6344807E1,7.1904625E1,2.2401345E0,8.425037E1,5.914239E1,4.3747433E1,3.9313354E2,6.727979E0,3.764125E0,5.120265E1,1.3679639E2,1.7648748E0,1.5435772E1,4.9424765E2,1.1552762E2,5.070499E2,6.832046E1,2.0952143E1,1.4521806E2,7.2374434E0,7.7294064E0,7.9835215E0,1.0259463E3,1.242738E1,1.4205824E1,7.1383766E1,3.6766885E2],"tree_param":{"num_deleted":"0","num_feature":"110","num_nodes":"63","size_leaf_vector":"1"}},{"base_weights":[1.3714512E-2,-5.1511586E-1,1.0865194E0,-9.926454E-1,2.761137E-1,1.395876E0,6.5161157E-1,-1.1165228E0,4.8113042E-1,4.0735234E-2,9.645227E-1,2.3861268E-1,1.438894E0,1.8075915E-1,1.1548065E0,-1.2206625E0,-1.97897E-2,-1.3452411E0,6.395094E-1,7.5848854E-1,-1.7249006E-1,1.11089215E-1,1.1059686E0,9.318408E-1,-8.8128224E-2,1.174445E0,1.5648162E0,-8.717587E-1,4.0869716E-1,-7.615445E-1,1.2139668E0,7.752567E-3,-6.556395E-2,1.17551E-2,-9.052284E-2,-8.8469855E-2,6.381512E-2,-2.2846197E-3,5.0094463E-2,-8.380171E-2,4.179938E-2,-2.738337E-2,9.963935E-3,-8.851662E-2,1.9310689E-2,5.802944E-2,-5.430593E-2,-7.440739E-2,6.517785E-2,3.5864566E-2,6.885087E-2,3.3118061E-3,7.853561E-2,-7.0526764E-2,2.5977918E-3,-6.374543E-2,2.7651636E-2,-8.583326E-2,3.2900922E-2,6.468313E-2,1.1439967E-2],"categories":[],"categories_nodes":[],"categories_segments":[],"categories_sizes":[],"default_left":[0,0,0,0,0,0,0,0,0,0,0,0,0,0,0,0,0,0,0,0,0,0,0,0,0,0,0,1,0,0,0,0,0,0,0,0,0,0,0,0,0,0,0,0,0,0,0,0,0,0,0,0,0,0,0,0,0,0,0,0,0],"id":4,"left_children":[1,3,5,7,9,11,13,15,17,19,21,23,25,27,29,31,33,35,37,39,41,43,45,47,-1,49,51,53,55,57,59,-1,-1,-1,-1,-1,-1,-1,-1,-1,-1,-1,-1,-1,-1,-1,-1,-1,-1,-1,-1,-1,-1,-1,-1,-1,-1,-1,-1,-1,-1],"loss_changes":[3.3601692E3,1.4992192E3,2.621975E2,4.522561E2,2.4203285E2,5.6502197E1,1.9282367E2,2.606919E2,5.6555748E1,1.706712E2,4.582193E1,6.0078506E1,3.481665E1,1.01615166E2,4.5553223E1,2.6009155E2,9.124223E1,1.9701267E1,4.420865E1,4.958902E1,1.20050735E2,2.9269043E1,4.033896E1,3.0671103E1,0E0,3.2264923E1,6.4577637E0,3.762472E1,8.517785E1,1.794632E1,2.9715576E1,0E0,0E0,0E0,0E0,0E0,0E0,0E0,0E0,0E0,0E0,0E0,0E0,0E0,0E0,0E0,0E0,0E0,0E0,0E0,0E0,0E0,0E0,0E0,0E0,0E0,0E0,0E0,0E0,0E0,0E0],"parents":[2147483647,0,0,1,1,2,2,3,3,4,4,5,5,6,6,7,7,8,8,9,9,10,10,11,11,12,12,13,13,14,14,15,15,16,16,17,17,18,18,19,19,20,20,21,21,22,22,23,23,25,25,26,26,27,27,28,28,29,29,30,30],"right_children":[2,4,6,8,10,12,14,16,18,20,22,24,26,28,30,32,34,36,38,40,42,44,46,48,-1,50,52,54,56,58,60,-1,-1,-1,-1,-1,-1,-1,-1,-1,-1,-1,-1,-1,-1,-1,-1,-1,-1,-1,-1,-1,-1,-1,-1,-1,-1,-1,-1,-1,-1],"split_conditions":[1.948E0,2.0474693E-1,-1.228E0,1.192E0,1.103E0,3E1,2.473E0,5.59E-1,9.729138E-2,-2.669E0,3.673278E1,1.49E-4,2.329E0,5.5E1,3.6E1,-2.031E0,-2.46E-1,-1.36E-1,2.1293755E-1,2.9E1,5.131722E1,3.2E-1,8.536698E-1,9.6921E-2,-8.8128224E-2,2.5358808E-1,1.7354484E-1,4.1E-1,5.167E-2,3.2345778E-1,4.23429E-1,7.752567E-3,-6.556395E-2,1.17551E-2,-9.052284E-2,-8.8469855E-2,6.381512E-2,-2.2846197E-3,5.0094463E-2,-8.380171E-2,4.179938E-2,-2.738337E-2,9.963935E-3,-8.851662E-2,1.9310689E-2,5.802944E-2,-5.430593E-2,-7.440739E-2,6.517785E-2,3.5864566E-2,6.885087E-2,3.3118061E-3,7.853561E-2,-7.0526764E-2,2.5977918E-3,-6.374543E-2,2.7651636E-2,-8.583326E-2,3.2900922E-2,6.468313E-2,1.1439967E-2],"split_indices":[97,63,64,49,49,0,97,65,39,72,19,62,97,0,0,80,104,16,15,0,99,65,79,69,0,63,63,12,69,103,101,0,0,0,0,0,0,0,0,0,0,0,0,0,0,0,0,0,0,0,0,0,0,0,0,0,0,0,0,0,0],"split_type":[0,0,0,0,0,0,0,0,0,0,0,0,0,0,0,0,0,0,0,0,0,0,0,0,0,0,0,0,0,0,0,0,0,0,0,0,0,0,0,0,0,0,0,0,0,0,0,0,0,0,0,0,0,0,0,0,0,0,0,0,0],"sum_hessian":[5.920772E3,3.9661907E3,1.9545814E3,2.4732559E3,1.4929347E3,1.1408601E3,8.137213E2,2.2817104E3,1.9154546E2,1.1133285E3,3.7960626E2,4.1123005E1,1.0997372E3,4.2107233E2,3.9264896E2,2.0837373E3,1.9797324E2,1.4686934E1,1.7685852E2,2.5440384E2,8.589246E2,5.422396E1,3.2538232E2,3.0939577E1,1.018343E1,3.580737E2,7.4166345E2,7.445362E1,3.466187E2,1.1403048E1,3.812459E2,1.287271E2,1.9550101E3,1.7406476E2,2.3908464E1,1.2921361E1,1.765573E0,6.1481277E1,1.15377235E2,7.2123313E0,2.4719151E2,4.2726706E2,4.3165756E2,6.2243667E0,4.799959E1,3.17931E2,7.4513063E0,3.7197025E0,2.7219873E1,1.1134275E2,2.4673096E2,2.954411E0,7.38709E2,4.66923E1,2.7761318E1,2.6750765E1,3.1986795E2,6.6915197E0,4.711528E0,3.5242328E2,2.8822649E1],"tree_param":{"num_deleted":"0","num_feature":"110","num_nodes":"61","size_leaf_vector":"1"}},{"base_weights":[1.943724E-2,-5.3499526E-1,9.273287E-1,-8.677614E-1,3.856444E-1,1.2649156E0,4.4263503E-1,1.2674374E-2,-1.0689117E0,7.799464E-2,1.0695922E0,6.25682E-1,1.3482256E0,-1.8139026E-1,8.011044E-1,-4.5413443E-1,5.542389E-1,-1.2299098E0,-1.7579539E-1,-3.8617766E-1,4.0038484E-1,6.695154E-1,1.3164604E0,-5.4997665E-1,8.7309724E-1,1.1142328E0,1.4548174E0,-4.6114373E-1,8.354535E-1,3.1134215E-1,1.0898616E0,-3.881058E-2,3.1647664E-2,-1.4682184E-2,4.3611962E-2,-1.1150087E-2,-6.561184E-2,-2.887969E-2,3.2325495E-2,-5.6715418E-2,-4.1711745E-3,-2.697504E-2,2.7936658E-2,4.8002847E-3,5.433334E-2,-7.025551E-2,6.784325E-2,-7.7651374E-2,4.7617618E-2,5.7439502E-2,4.457103E-3,3.295779E-2,6.776722E-2,7.4123114E-2,3.925531E-2,-6.2333386E-2,-3.3003425E-3,-8.188709E-2,5.1904883E-2,3.4100797E-2,-3.2255378E-2,-3.472634E-2,5.6969386E-2],"categories":[],"categories_nodes":[],"categories_segments":[],"categories_sizes":[],"default_left":[0,0,0,0,0,0,0,0,0,0,0,0,0,0,0,0,0,1,0,0,0,0,0,0,0,0,0,0,0,0,1,0,0,0,0,0,0,0,0,0,0,0,0,0,0,0,0,0,0,0,0,0,0,0,0,0,0,0,0,0,0,0,0],"id":5,"left_children":[1,3,5,7,9,11,13,15,17,19,21,23,25,27,29,31,33,35,37,39,41,43,45,47,49,51,53,55,57,59,61,-1,-1,-1,-1,-1,-1,-1,-1,-1,-1,-1,-1,-1,-1,-1,-1,-1,-1,-1,-1,-1,-1,-1,-1,-1,-1,-1,-1,-1,-1,-1,-1],"loss_changes":[2.9919885E3,1.1309089E3,3.6819153E2,4.8011804E2,2.0621893E2,6.987134E1,2.0745624E2,1.2795938E2,3.170952E2,1.01514305E2,2.9154572E1,4.5557083E1,2.7657715E1,9.6804886E1,8.293173E1,9.567445E1,6.3430977E1,1.5468506E2,1.1211932E2,6.290181E1,5.9863785E1,2.8145447E1,2.2473236E1,4.3004246E1,2.7651611E1,3.988681E1,1.3707153E1,8.2624916E1,3.8530453E1,7.836347E1,3.349118E1,0E0,0E0,0E0,0E0,0E0,0E0,0E0,0E0,0E0,0E0,0E0,0E0,0E0,0E0,0E0,0E0,0E0,0E0,0E0,0E0,0E0,0E0,0E0,0E0,0E0,0E0,0E0,0E0,0E0,0E0,0E0,0E0],"parents":[2147483647,0,0,1,1,2,2,3,3,4,4,5,5,6,6,7,7,8,8,9,9,10,10,11,11,12,12,13,13,14,14,15,15,16,16,17,17,18,18,19,19,20,20,21,21,22,22,23,23,24,24,25,25,26,26,27,27,28,28,29,29,30,30],"right_children":[2,4,6,8,10,12,14,16,18,20,22,24,26,28,30,32,34,36,38,40,42,44,46,48,50,52,54,56,58,60,62,-1,-1,-1,-1,-1,-1,-1,-1,-1,-1,-1,-1,-1,-1,-1,-1,-1,-1,-1,-1,-1,-1,-1,-1,-1,-1,-1,-1,-1,-1,-1,-1],"split_conditions":[8.216639E1,1.4911264E-1,-1.228E0,-1.937E0,1.421E0,1.315E0,1.564E0,1.8706335E-1,5.09E-1,4.229139E1,1.593E0,1.0992449E-1,1.2867645E2,1.7E-1,3.063E0,2.2349731E2,6.39E-1,5.5E-2,-4.72E-1,2.8665478E1,1.124E0,4.571595E1,1.5231705E1,3.616E0,2.31278E-1,4.1E-1,2.25532E-1,5.7173E-2,-4.445E-3,1.84778E-1,5.5299538E1,-3.881058E-2,3.1647664E-2,-1.4682184E-2,4.3611962E-2,-1.1150087E-2,-6.561184E-2,-2.887969E-2,3.2325495E-2,-5.6715418E-2,-4.1711745E-3,-2.697504E-2,2.7936658E-2,4.8002847E-3,5.433334E-2,-7.025551E-2,6.784325E-2,-7.7651374E-2,4.7617618E-2,5.7439502E-2,4.457103E-3,3.295779E-2,6.776722E-2,7.4123114E-2,3.925531E-2,-6.2333386E-2,-3.3003425E-3,-8.188709E-2,5.1904883E-2,3.4100797E-2,-3.2255378E-2,-3.472634E-2,5.6969386E-2],"split_indices":[99,52,64,72,17,105,105,103,65,67,17,47,99,11,98,83,17,11,64,35,98,99,43,90,101,12,53,53,94,101,2,0,0,0,0,0,0,0,0,0,0,0,0,0,0,0,0,0,0,0,0,0,0,0,0,0,0,0,0,0,0,0,0],"split_type":[0,0,0,0,0,0,0,0,0,0,0,0,0,0,0,0,0,0,0,0,0,0,0,0,0,0,0,0,0,0,0,0,0,0,0,0,0,0,0,0,0,0,0,0,0,0,0,0,0,0,0,0,0,0,0,0,0,0,0,0,0,0,0],"sum_hessian":[5.9419946E3,3.6893735E3,2.252621E3,2.7099255E3,9.794479E2,1.3268599E3,9.257612E2,5.0415854E2,2.205767E3,6.7633606E2,3.0311182E2,1.5396957E2,1.1728903E3,3.3795007E2,5.8781116E2,2.7085388E2,2.3330467E2,1.868554E3,3.37213E2,2.7713034E2,3.9920572E2,1.1708107E2,1.8603076E2,2.6556496E1,1.2741308E2,3.7066083E2,8.022295E2,2.6546262E2,7.2487434E1,2.1879327E2,3.690179E2,2.0916843E2,6.1685455E1,6.3655888E1,1.6964879E2,1.4151004E2,1.727044E3,2.267265E2,1.104865E2,7.904844E1,1.980819E2,5.7212223E1,3.419935E2,4.981895E1,6.7262115E1,2.2273245E0,1.8380344E2,1.5904134E1,1.0652362E1,9.391923E1,3.349386E1,1.296644E2,2.4099643E2,7.692617E2,3.2967743E1,8.812229E1,1.7734033E2,4.9532323E0,6.75342E1,1.5788974E2,6.0903522E1,9.613863E0,3.5940405E2],"tree_param":{"num_deleted":"0","num_feature":"110","num_nodes":"63","size_leaf_vector":"1"}},{"base_weights":[8.478746E-3,-5.0113094E-1,9.447554E-1,-9.013602E-1,2.3879303E-1,5.054065E-1,1.2652848E0,-1.0124559E0,4.7037953E-1,5.387728E-3,9.4863355E-1,-2.2423851E-1,8.651448E-1,-5.5294794E-1,1.2868627E0,3.1735536E-1,-1.0999242E0,-2.4554196E-1,9.7821474E-1,-4.428472E-1,3.3975264E-1,1.0149487E0,-8.0792105E-1,7.216389E-1,-5.56859E-1,1.0746073E0,3.2536304E-1,-8.760128E-2,9.465642E-1,1.329515E0,6.7113686E-1,-2.1033598E-2,4.477837E-2,-3.3962799E-3,-5.9130687E-2,-5.03667E-2,1.8939726E-2,6.363356E-2,-3.7459526E-2,-3.2739174E-2,1.2129676E-2,-4.5055724E-4,3.754192E-2,5.237453E-2,-8.16172E-2,-9.161338E-2,7.074002E-2,6.308517E-2,-1.4209456E-2,1.6021153E-2,-4.1936908E-2,3.2428633E-2,6.626732E-2,-2.8117752E-2,3.0831335E-2,6.687921E-2,1.0985638E-2,5.31346E-2,7.1154706E-2,-9.1395065E-2,4.512347E-2],"categories":[],"categories_nodes":[],"categories_segments":[],"categories_sizes":[],"default_left":[0,0,0,0,0,0,0,0,0,0,0,0,0,0,0,0,1,0,0,0,0,0,0,0,0,0,0,0,0,0,0,0,0,0,0,0,0,0,0,0,0,0,0,0,0,0,0,0,0,0,0,0,0,0,0,0,0,0,0,0,0],"id":6,"left_children":[1,3,5,7,9,11,13,15,17,19,21,23,25,27,29,31,33,35,37,39,41,43,45,47,49,51,53,-1,55,57,59,-1,-1,-1,-1,-1,-1,-1,-1,-1,-1,-1,-1,-1,-1,-1,-1,-1,-1,-1,-1,-1,-1,-1,-1,-1,-1,-1,-1,-1,-1],"loss_changes":[2.7742507E3,1.1152056E3,2.879524E2,3.7287268E2,2.1909973E2,2.2752812E2,4.7172363E1,2.6332495E2,6.705086E1,1.4945789E2,3.8938324E1,9.063383E1,6.526123E1,2.788854E1,2.985083E1,6.025085E1,1.8096436E2,3.7031166E1,5.573739E1,6.205359E1,8.189383E1,2.8912994E1,3.0964922E1,4.112687E1,5.287864E1,4.375345E1,4.2664078E1,0E0,1.7329288E0,2.5797974E1,4.6659313E1,0E0,0E0,0E0,0E0,0E0,0E0,0E0,0E0,0E0,0E0,0E0,0E0,0E0,0E0,0E0,0E0,0E0,0E0,0E0,0E0,0E0,0E0,0E0,0E0,0E0,0E0,0E0,0E0,0E0,0E0],"parents":[2147483647,0,0,1,1,2,2,3,3,4,4,5,5,6,6,7,7,8,8,9,9,10,10,11,11,12,12,13,13,14,14,15,15,16,16,17,17,18,18,19,19,20,20,21,21,22,22,23,23,24,24,25,25,26,26,28,28,29,29,30,30],"right_children":[2,4,6,8,10,12,14,16,18,20,22,24,26,28,30,32,34,36,38,40,42,44,46,48,50,52,54,-1,56,58,60,-1,-1,-1,-1,-1,-1,-1,-1,-1,-1,-1,-1,-1,-1,-1,-1,-1,-1,-1,-1,-1,-1,-1,-1,-1,-1,-1,-1,-1,-1],"split_conditions":[2.975235E-1,4.194766E1,2.358E0,1.192E0,1.577E0,1.9484828E-1,1.7844334E-1,-2.031E0,1.151E0,1.15E-1,1.72322E-1,1.4075E-1,2.2714E-1,2.61E-4,4.23429E-1,2.8513783E1,5.5E-2,1.14456E-1,8.9107E-2,9.46E-1,2.2799216E-1,1.35E0,7.008E-3,1.80392E-1,-1.796E0,2.761168E-1,2.7428442E-1,-8.760128E-2,-2.58E-4,1.744366E-1,2.815166E-1,-2.1033598E-2,4.477837E-2,-3.3962799E-3,-5.9130687E-2,-5.03667E-2,1.8939726E-2,6.363356E-2,-3.7459526E-2,-3.2739174E-2,1.2129676E-2,-4.5055724E-4,3.754192E-2,5.237453E-2,-8.16172E-2,-9.161338E-2,7.074002E-2,6.308517E-2,-1.4209456E-2,1.6021153E-2,-4.1936908E-2,3.2428633E-2,6.626732E-2,-2.8117752E-2,3.0831335E-2,6.687921E-2,1.0985638E-2,5.31346E-2,7.1154706E-2,-9.1395065E-2,4.512347E-2],"split_indices":[95,67,97,49,18,63,103,80,105,11,29,93,101,78,101,107,11,21,29,49,95,7,62,101,80,63,103,0,22,63,103,0,0,0,0,0,0,0,0,0,0,0,0,0,0,0,0,0,0,0,0,0,0,0,0,0,0,0,0,0,0],"split_type":[0,0,0,0,0,0,0,0,0,0,0,0,0,0,0,0,0,0,0,0,0,0,0,0,0,0,0,0,0,0,0,0,0,0,0,0,0,0,0,0,0,0,0,0,0,0,0,0,0,0,0,0,0,0,0,0,0,0,0,0,0],"sum_hessian":[5.812394E3,3.7640884E3,2.0483057E3,2.4426345E3,1.3214536E3,8.650966E2,1.1832091E3,2.2598718E3,1.8276279E2,9.952194E2,3.262342E2,2.857983E2,5.7929834E2,1.3588252E1,1.1696208E3,1.3930707E2,2.1205647E3,7.6057335E1,1.0670545E2,4.2506778E2,5.701517E2,3.1477277E2,1.1461422E1,7.405046E1,2.1174785E2,4.1663297E2,1.6266536E2,7.4569445E0,6.131307E0,1.092764E3,7.685679E1,6.131602E1,7.799104E1,1.574424E2,1.9631223E3,3.3981243E1,4.207609E1,9.1390175E1,1.5315279E1,3.247124E2,1.0035538E2,3.0898654E2,2.611651E2,3.115474E2,3.2253847E0,7.965956E0,3.4954653E0,4.801508E1,2.603538E1,5.1458546E1,1.6028929E2,1.556879E2,2.6094507E2,3.995602E1,1.22709335E2,3.4403026E0,2.6910045E0,2.8694684E2,8.058172E2,5.926999E0,7.092979E1],"tree_param":{"num_deleted":"0","num_feature":"110","num_nodes":"61","size_leaf_vector":"1"}},{"base_weights":[-2.8357203E-3,-4.8188308E-1,9.6811324E-1,-9.46005E-1,1.815065E-1,5.0444615E-1,1.225216E0,-1.1614987E0,-2.4489488E-1,-6.2766485E-2,9.355551E-1,-1.4766008E-1,9.91293E-1,1.2400779E0,-1.0653944E0,-1.2239921E0,-1.6890109E-1,-4.138354E-1,7.7979195E-1,6.6837865E-1,-2.525177E-1,9.899286E-1,-8.384541E-1,-3.6290103E-1,1.0352557E0,-8.986216E-1,1.0548557E0,5.1015083E-2,1.266647E0,5.951057E-2,-9.175013E-2,-7.188287E-2,-4.840038E-2,-8.610916E-2,1.0415431E-2,5.351869E-2,-2.9577076E-2,-8.268119E-2,4.6336748E-2,4.9336564E-2,-1.6093882E-3,-2.5158903E-2,1.5244377E-2,-1.3879503E-2,5.2857395E-2,-9.3858406E-2,6.871312E-2,-2.622044E-2,5.8687814E-2,6.611132E-2,-7.820535E-2,3.3424683E-2,-8.680115E-2,-3.6177922E-2,5.5414528E-2,5.6519497E-2,-6.628451E-2,5.128197E-2,6.872068E-2],"categories":[],"categories_nodes":[],"categories_segments":[],"categories_sizes":[],"default_left":[0,0,0,0,0,0,0,0,0,0,1,0,0,0,0,0,0,0,0,0,0,0,0,0,0,0,0,0,0,0,0,0,0,0,0,0,0,0,0,0,0,0,0,0,0,0,0,0,0,0,0,0,0,0,0,0,0,0,0],"id":7,"left_children":[1,3,5,7,9,11,13,15,17,19,21,23,25,27,29,31,33,35,37,39,41,43,45,47,49,51,53,55,57,-1,-1,-1,-1,-1,-1,-1,-1,-1,-1,-1,-1,-1,-1,-1,-1,-1,-1,-1,-1,-1,-1,-1,-1,-1,-1,-1,-1,-1,-1],"loss_changes":[2.6883635E3,1.1918058E3,2.2701624E2,3.437815E2,2.9365918E2,2.1693091E2,4.311487E1,1.0782837E2,9.3224724E1,1.6733052E2,3.845706E1,7.491339E1,4.792859E1,3.848535E1,1.6855991E1,8.821631E1,6.1480038E1,1.2231774E2,2.8816486E1,5.5463646E1,1.3391383E2,3.2579926E1,3.0486511E1,6.2269634E1,3.5879627E1,1.8568624E1,3.6801086E1,4.267749E1,2.9589111E1,0E0,0E0,0E0,0E0,0E0,0E0,0E0,0E0,0E0,0E0,0E0,0E0,0E0,0E0,0E0,0E0,0E0,0E0,0E0,0E0,0E0,0E0,0E0,0E0,0E0,0E0,0E0,0E0,0E0,0E0],"parents":[2147483647,0,0,1,1,2,2,3,3,4,4,5,5,6,6,7,7,8,8,9,9,10,10,11,11,12,12,13,13,14,14,15,15,16,16,17,17,18,18,19,19,20,20,21,21,22,22,23,23,24,24,25,25,26,26,27,27,28,28],"right_children":[2,4,6,8,10,12,14,16,18,20,22,24,26,28,30,32,34,36,38,40,42,44,46,48,50,52,54,56,58,-1,-1,-1,-1,-1,-1,-1,-1,-1,-1,-1,-1,-1,-1,-1,-1,-1,-1,-1,-1,-1,-1,-1,-1,-1,-1,-1,-1,-1,-1],"split_conditions":[1.935E0,1.9598182E-1,1.9061676E-1,1.4597146E-1,1.115E0,2.358E0,-6E-1,1.95E-1,1.436E0,-1.875E0,2.4370833E-1,5.1E-1,3.5E1,2.5E1,3.72678E-3,6.2E1,1.1241399E-1,-2.187E0,9.7947E-2,8.28E-1,4.5E-1,1.6972828E-1,3.3524716E-1,1.89E0,1.001E0,8.58E-1,1.553E0,-1.737E0,2.305E0,5.951057E-2,-9.175013E-2,-7.188287E-2,-4.840038E-2,-8.610916E-2,1.0415431E-2,5.351869E-2,-2.9577076E-2,-8.268119E-2,4.6336748E-2,4.9336564E-2,-1.6093882E-3,-2.5158903E-2,1.5244377E-2,-1.3879503E-2,5.2857395E-2,-9.3858406E-2,6.871312E-2,-2.622044E-2,5.8687814E-2,6.611132E-2,-7.820535E-2,3.3424683E-2,-8.680115E-2,-3.6177922E-2,5.5414528E-2,5.6519497E-2,-6.628451E-2,5.128197E-2,6.872068E-2],"split_indices":[97,63,63,31,49,97,64,11,17,64,5,12,0,0,5,0,63,80,21,65,12,15,95,18,73,81,106,80,97,0,0,0,0,0,0,0,0,0,0,0,0,0,0,0,0,0,0,0,0,0,0,0,0,0,0,0,0,0,0],"split_type":[0,0,0,0,0,0,0,0,0,0,0,0,0,0,0,0,0,0,0,0,0,0,0,0,0,0,0,0,0,0,0,0,0,0,0,0,0,0,0,0,0,0,0,0,0,0,0,0,0,0,0,0,0,0,0,0,0,0,0],"sum_hessian":[5.7778013E3,3.8692783E3,1.9085231E3,2.2763018E3,1.5929767E3,6.8183795E2,1.2266852E3,1.7406405E3,5.3566113E2,1.2038938E3,3.8908295E2,2.9175024E2,3.9008774E2,1.2192332E3,7.4519134E0,1.6373225E3,1.0331802E2,4.6035788E2,7.530325E1,2.4754326E2,9.563505E2,3.77941E2,1.1141941E1,2.4742288E2,4.432735E1,1.2265295E1,3.7782242E2,2.6711622E1,1.1925216E3,1.7567186E0,5.6951947E0,8.899133E2,7.474092E2,1.9491192E1,8.382683E1,4.8688248E1,4.1166962E2,3.7043715E0,7.1598885E1,1.6991962E2,7.7623634E1,6.597596E2,2.9659094E2,1.8876015E1,3.5906497E2,7.685696E0,3.4562452E0,2.2448726E2,2.2935621E1,4.0362625E1,3.9647233E0,4.3417797E0,7.9235153E0,1.0655215E1,3.671672E2,1.5072939E1,1.1638683E1,3.7172333E2,8.207983E2],"tree_param":{"num_deleted":"0","num_feature":"110","num_nodes":"59","size_leaf_vector":"1"}},{"base_weights":[-1.4697011E-3,-6.284663E-1,6.4977026E-1,-8.907576E-1,2.916506E-1,2.5030026E-1,1.176466E0,-1.1193422E0,-3.663245E-1,1.05820216E-1,1.1974939E0,-2.5200573E-1,7.074647E-1,1.3145212E0,8.755103E-1,-1.207288E0,-2.5260615E-1,-7.530814E-1,2.6118753E-3,-4.680784E-1,3.0391458E-1,1.2538404E0,-7.592618E-2,-4.493378E-1,8.8079935E-1,-9.616117E-1,7.590326E-1,1.3208953E0,-3.2741234E-1,6.2055814E-1,1.2066339E0,-3.0444363E-2,-6.47824E-2,-3.469669E-2,2.6336316E-2,-4.5169514E-2,2.8359352E-2,1.4650113E-2,-3.4242433E-2,-1.2233683E-2,-9.160966E-2,-8.923053E-2,1.7962683E-2,-6.1468847E-2,6.4993866E-2,-3.23811E-2,2.9876748E-2,5.1470067E-2,-8.197146E-2,-9.5570125E-2,-4.3887338E-3,1.923589E-2,4.7721498E-2,5.405894E-2,6.88457E-2,-7.882072E-2,4.7362015E-2,-2.1637713E-3,4.2176425E-2,6.367668E-2,-4.3573704E-2],"categories":[],"categories_nodes":[],"categories_segments":[],"categories_sizes":[],"default_left":[0,0,0,0,0,0,0,0,0,0,0,0,0,0,0,0,0,0,0,0,0,0,0,0,0,0,0,0,0,1,0,0,0,0,0,0,0,0,0,0,0,0,0,0,0,0,0,0,0,0,0,0,0,0,0,0,0,0,0,0,0],"id":8,"left_children":[1,3,5,7,9,11,13,15,17,19,21,23,25,27,29,31,33,35,37,39,41,43,-1,45,47,49,51,53,55,57,59,-1,-1,-1,-1,-1,-1,-1,-1,-1,-1,-1,-1,-1,-1,-1,-1,-1,-1,-1,-1,-1,-1,-1,-1,-1,-1,-1,-1,-1,-1],"loss_changes":[2.3366248E3,7.038815E2,5.902882E2,2.7159204E2,1.08867645E2,3.6703302E2,4.914026E1,1.2011206E2,9.8494385E1,6.1347366E1,1.8756943E1,1.7071655E2,7.273816E1,9.096069E0,3.1637787E1,7.503076E1,5.0853054E1,6.738843E1,7.092341E1,4.1771717E1,4.6967793E1,1.39939575E1,0E0,1.3522063E2,4.4147263E1,2.1008398E1,5.903E1,9.586914E0,7.8653674E0,3.242305E1,2.4163925E1,0E0,0E0,0E0,0E0,0E0,0E0,0E0,0E0,0E0,0E0,0E0,0E0,0E0,0E0,0E0,0E0,0E0,0E0,0E0,0E0,0E0,0E0,0E0,0E0,0E0,0E0,0E0,0E0,0E0,0E0],"parents":[2147483647,0,0,1,1,2,2,3,3,4,4,5,5,6,6,7,7,8,8,9,9,10,10,11,11,12,12,13,13,14,14,15,15,16,16,17,17,18,18,19,19,20,20,21,21,23,23,24,24,25,25,26,26,27,27,28,28,29,29,30,30],"right_children":[2,4,6,8,10,12,14,16,18,20,22,24,26,28,30,32,34,36,38,40,42,44,-1,46,48,50,52,54,56,58,60,-1,-1,-1,-1,-1,-1,-1,-1,-1,-1,-1,-1,-1,-1,-1,-1,-1,-1,-1,-1,-1,-1,-1,-1,-1,-1,-1,-1,-1,-1],"split_conditions":[4.335041E1,1.534617E-1,2.26E0,3.3884193E1,1.593E0,2.1966472E-1,-1.131E0,1.8E-1,1.15E-1,3.95E-1,6.288E-3,4.85E-1,1.133E0,1.94E0,2.835E0,-3.78E-1,4.6897076E1,-4.72E-1,-2.4E-1,1.274E0,6.599E-2,1.23330005E-1,-7.592618E-2,1.103E0,1.29662E-1,-1.111E-3,1.15E-1,1.345851E2,-4.19E-1,3.85E-1,1.19925E-1,-3.0444363E-2,-6.47824E-2,-3.469669E-2,2.6336316E-2,-4.5169514E-2,2.8359352E-2,1.4650113E-2,-3.4242433E-2,-1.2233683E-2,-9.160966E-2,-8.923053E-2,1.7962683E-2,-6.1468847E-2,6.4993866E-2,-3.23811E-2,2.9876748E-2,5.1470067E-2,-8.197146E-2,-9.5570125E-2,-4.3887338E-3,1.923589E-2,4.7721498E-2,5.405894E-2,6.88457E-2,-7.882072E-2,4.7362015E-2,-2.1637713E-3,4.2176425E-2,6.367668E-2,-4.3573704E-2],"split_indices":[107,47,97,67,17,63,64,11,11,12,14,12,98,7,97,16,99,64,96,42,93,39,0,49,37,14,11,99,16,12,61,0,0,0,0,0,0,0,0,0,0,0,0,0,0,0,0,0,0,0,0,0,0,0,0,0,0,0,0,0,0],"split_type":[0,0,0,0,0,0,0,0,0,0,0,0,0,0,0,0,0,0,0,0,0,0,0,0,0,0,0,0,0,0,0,0,0,0,0,0,0,0,0,0,0,0,0,0,0,0,0,0,0,0,0,0,0,0,0,0,0,0,0,0,0],"sum_hessian":[5.7204595E3,2.9144954E3,2.805964E3,2.2680034E3,6.4649194E2,1.596546E3,1.2094181E3,1.5787426E3,6.8926086E2,5.373694E2,1.09122505E2,7.609294E2,8.3561664E2,8.267851E2,3.82633E2,1.4329513E3,1.4579132E2,3.3599515E2,3.5326572E2,1.3753995E2,3.9982947E2,1.0743207E2,1.6904345E0,6.485557E2,1.1237361E2,2.4514624E1,8.11102E2,8.237826E2,3.002481E0,2.178055E2,1.6482748E2,1.8538162E2,1.2475697E3,9.3150665E1,5.2640648E1,3.019363E2,3.4058857E1,2.4876053E2,1.04505196E2,1.1919794E2,1.8342003E1,9.514088E0,3.903154E2,1.4875913E0,1.0594447E2,5.455976E2,1.0295816E2,1.0667519E2,5.698416E0,1.117784E1,1.3336784E1,2.792064E2,5.318956E2,1.5988744E2,6.638952E2,1.3969259E0,1.605555E0,5.4965775E1,1.6283972E2,1.6006186E2,4.765623E0],"tree_param":{"num_deleted":"0","num_feature":"110","num_nodes":"61","size_leaf_vector":"1"}},{"base_weights":[-1.248057E-2,-4.4733927E-1,9.0154624E-1,-8.32113E-1,1.8647379E-1,4.7064435E-1,1.1368506E0,-1.0029933E0,-8.185899E-2,-3.2465894E-2,8.328736E-1,-8.660066E-2,8.7380177E-1,8.751285E-1,1.2544453E0,-1.1070443E0,-7.98626E-2,3.616888E-1,-5.3880966E-1,-3.5825983E-1,3.6500233E-1,8.8053334E-1,-1.1177307E0,6.320543E-1,-4.2248687E-1,-7.364731E-1,9.264257E-1,5.0457853E-1,1.1922076E0,-5.6529534E-1,1.2675982E0,-5.8692075E-2,-1.6756816E-2,1.3483596E-2,-6.0984053E-2,4.8438245E-3,6.821763E-2,-3.8771797E-3,-6.031188E-2,-2.6696613E-2,2.2247672E-2,3.282362E-2,5.8936543E-4,4.5675732E-2,-8.978418E-2,-8.645763E-2,5.064865E-2,-7.523625E-2,4.3233167E-2,-3.531791E-2,2.154404E-2,5.1782448E-2,-8.44515E-2,3.2545518E-2,6.060825E-2,4.004347E-2,-1.4939651E-2,-7.8902364E-2,6.1391663E-2,-7.580052E-2,6.303851E-2,6.377245E-2,-7.740148E-2],"categories":[],"categories_nodes":[],"categories_segments":[],"categories_sizes":[],"default_left":[0,0,0,0,0,0,0,0,0,0,1,0,0,0,0,0,0,1,0,0,0,0,0,0,0,0,0,0,0,0,0,0,0,0,0,0,0,0,0,0,0,0,0,0,0,0,0,0,0,0,0,0,0,0,0,0,0,0,0,0,0,0,0],"id":9,"left_children":[1,3,5,7,9,11,13,15,17,19,21,23,25,27,29,31,33,35,37,39,41,43,45,47,49,51,53,55,57,59,61,-1,-1,-1,-1,-1,-1,-1,-1,-1,-1,-1,-1,-1,-1,-1,-1,-1,-1,-1,-1,-1,-1,-1,-1,-1,-1,-1,-1,-1,-1,-1,-1],"loss_changes":[2.2369626E3,9.301914E2,1.8342944E2,3.0416785E2,2.0401874E2,1.4442769E2,3.4998413E1,1.8556567E2,8.964512E1,1.3968242E2,3.4891296E1,6.55949E1,3.2282043E1,4.2507294E1,2.0030151E1,8.916699E1,7.87629E1,5.949035E1,6.695462E1,8.3875015E1,5.002024E1,3.3114685E1,1.3658328E1,4.4345284E1,4.5128235E1,2.2610256E1,2.7674072E1,4.0923702E1,2.1378296E1,1.316464E1,1.9690063E1,0E0,0E0,0E0,0E0,0E0,0E0,0E0,0E0,0E0,0E0,0E0,0E0,0E0,0E0,0E0,0E0,0E0,0E0,0E0,0E0,0E0,0E0,0E0,0E0,0E0,0E0,0E0,0E0,0E0,0E0,0E0,0E0],"parents":[2147483647,0,0,1,1,2,2,3,3,4,4,5,5,6,6,7,7,8,8,9,9,10,10,11,11,12,12,13,13,14,14,15,15,16,16,17,17,18,18,19,19,20,20,21,21,22,22,23,23,24,24,25,25,26,26,27,27,28,28,29,29,30,30],"right_children":[2,4,6,8,10,12,14,16,18,20,22,24,26,28,30,32,34,36,38,40,42,44,46,48,50,52,54,56,58,60,62,-1,-1,-1,-1,-1,-1,-1,-1,-1,-1,-1,-1,-1,-1,-1,-1,-1,-1,-1,-1,-1,-1,-1,-1,-1,-1,-1,-1,-1,-1,-1,-1],"split_conditions":[1.96E0,2.0474693E-1,1.9061676E-1,1.335E0,1.115E0,2.358E0,2.305E0,1.8E-1,2.538591E-2,2.9284427E-1,1.45E0,1.37669E-1,1.277E0,1.35E-1,1.042E0,5.13E-1,-1.6E-1,4.85E-1,7.4E-1,3.026E0,2.32479E-1,5.4118335E-1,7.260726E1,5.167E-2,9.5372E-2,1.43E-1,2.835E0,-4.01E-1,4.01E-1,9.2E-1,2.06E0,-5.8692075E-2,-1.6756816E-2,1.3483596E-2,-6.0984053E-2,4.8438245E-3,6.821763E-2,-3.8771797E-3,-6.031188E-2,-2.6696613E-2,2.2247672E-2,3.282362E-2,5.8936543E-4,4.5675732E-2,-8.978418E-2,-8.645763E-2,5.064865E-2,-7.523625E-2,4.3233167E-2,-3.531791E-2,2.154404E-2,5.1782448E-2,-8.44515E-2,3.2545518E-2,6.060825E-2,4.004347E-2,-1.4939651E-2,-7.8902364E-2,6.1391663E-2,-7.580052E-2,6.303851E-2,6.377245E-2,-7.740148E-2],"split_indices":[97,63,63,34,49,97,97,11,5,63,7,93,105,11,105,65,104,12,25,90,69,31,2,69,69,65,97,32,58,6,7,0,0,0,0,0,0,0,0,0,0,0,0,0,0,0,0,0,0,0,0,0,0,0,0,0,0,0,0,0,0,0,0],"split_type":[0,0,0,0,0,0,0,0,0,0,0,0,0,0,0,0,0,0,0,0,0,0,0,0,0,0,0,0,0,0,0,0,0,0,0,0,0,0,0,0,0,0,0,0,0,0,0,0,0,0,0,0,0,0,0,0,0,0,0,0,0,0,0],"sum_hessian":[5.625953E3,3.8125835E3,1.8133696E3,2.3721758E3,1.4404077E3,6.415427E2,1.1718269E3,1.9318373E3,4.4033844E2,1.0766794E3,3.6372833E2,2.696362E2,3.7190656E2,3.6590356E2,8.0592334E2,1.7359678E3,1.9586952E2,2.2355197E2,2.1678648E2,5.917427E2,4.849368E2,3.5558868E2,8.139636E0,8.560207E1,1.8403413E2,1.1358077E1,3.6054846E2,1.6992014E2,1.9598343E2,5.482061E0,8.004413E2,1.5972307E3,1.3873706E2,1.5048538E2,4.5384148E1,1.7771303E2,4.583895E1,1.2885185E2,8.7934616E1,4.8582263E2,1.0592004E2,2.652205E2,2.197163E2,3.5191046E2,3.6782327E0,6.4711485E0,1.668487E0,7.8668847E0,7.773519E1,1.3822581E2,4.5808308E1,3.9403257E0,7.4177513E0,1.8522699E2,1.7532147E2,1.2413946E2,4.578067E1,1.9386504E0,1.9404478E2,3.7167711E0,1.7652898E0,7.9876117E2,1.6801459E0],"tree_param":{"num_deleted":"0","num_feature":"110","num_nodes":"63","size_leaf_vector":"1"}},{"base_weights":[-4.6376034E-4,-5.56668E-1,6.114651E-1,-9.33995E-1,-1.0212969E-1,2.4333593E-1,1.0881691E0,-1.0522552E0,-7.377844E-2,-2.7345034E-1,7.473847E-1,-3.8801408E-1,5.6743354E-1,1.2330608E0,7.5260115E-1,-4.903777E-2,-1.1583638E0,-6.390191E-1,6.851043E-1,7.4537325E-1,-3.9235038E-1,-8.566184E-2,8.130957E-1,-5.8605534E-1,9.30851E-1,8.5327834E-1,2.832291E-1,1.0712112E0,1.3130448E0,7.858196E-1,-9.716452E-2,-3.837652E-2,4.5536835E-2,-1.955338E-2,-6.330666E-2,-8.492774E-2,-1.169943E-2,-7.4684374E-2,4.301702E-2,5.264426E-2,-1.2540239E-2,-3.5302665E-2,-3.9798385E-3,4.5250677E-2,-2.0466944E-2,-3.7405357E-2,2.2069702E-2,6.1219037E-2,-4.5181613E-2,-1.4942554E-2,4.8667546E-2,-9.970508E-4,3.9107285E-2,5.7412423E-2,7.2220676E-3,6.754482E-2,3.953285E-2,1.8205412E-2,4.956023E-2],"categories":[],"categories_nodes":[],"categories_segments":[],"categories_sizes":[],"default_left":[0,0,0,0,0,0,0,0,0,0,0,1,0,0,0,0,0,0,0,0,0,0,0,0,0,0,0,0,0,0,0,0,0,0,0,0,0,0,0,0,0,0,0,0,0,0,0,0,0,0,0,0,0,0,0,0,0,0,0],"id":10,"left_children":[1,3,5,7,9,11,13,15,17,19,21,23,25,27,29,31,33,35,37,39,41,-1,43,45,47,49,51,53,55,57,-1,-1,-1,-1,-1,-1,-1,-1,-1,-1,-1,-1,-1,-1,-1,-1,-1,-1,-1,-1,-1,-1,-1,-1,-1,-1,-1,-1,-1],"loss_changes":[1.9027915E3,5.0219275E2,4.6687518E2,1.6269983E2,1.9370255E2,3.0782568E2,5.5454468E1,1.4968018E2,8.385442E1,1.344082E2,3.7513557E1,1.3389111E2,8.049115E1,9.057861E0,3.3074448E1,9.420159E1,1.04691895E2,4.7653908E1,3.3164185E1,3.5813713E1,9.727875E1,0E0,2.489508E1,7.433815E1,3.7205406E1,6.876349E1,7.561594E1,1.9309814E1,9.541565E0,2.9841034E1,0E0,0E0,0E0,0E0,0E0,0E0,0E0,0E0,0E0,0E0,0E0,0E0,0E0,0E0,0E0,0E0,0E0,0E0,0E0,0E0,0E0,0E0,0E0,0E0,0E0,0E0,0E0,0E0,0E0],"parents":[2147483647,0,0,1,1,2,2,3,3,4,4,5,5,6,6,7,7,8,8,9,9,10,10,11,11,12,12,13,13,14,14,15,15,16,16,17,17,18,18,19,19,20,20,22,22,23,23,24,24,25,25,26,26,27,27,28,28,29,29],"right_children":[2,4,6,8,10,12,14,16,18,20,22,24,26,28,30,32,34,36,38,40,42,-1,44,46,48,50,52,54,56,58,-1,-1,-1,-1,-1,-1,-1,-1,-1,-1,-1,-1,-1,-1,-1,-1,-1,-1,-1,-1,-1,-1,-1,-1,-1,-1,-1,-1,-1],"split_conditions":[4.442406E1,1.370603E1,2.26E0,1.8E-1,1.379E0,1.8396415E-1,-1.135E0,-4.19E-1,2.1381289E-1,-2.432E0,5.6703E-2,4.9E-1,-1.542E0,3.949128E-1,3.0624516E1,-4.91E-1,-1.666E0,-1.746E-3,1.414E0,2.61E-1,9.6921E-2,-8.566184E-2,1.14935E-1,1.297E0,1.4093097E-1,1.49E0,1.299E0,1.266E0,4.23429E-1,2.546E0,-9.716452E-2,-3.837652E-2,4.5536835E-2,-1.955338E-2,-6.330666E-2,-8.492774E-2,-1.169943E-2,-7.4684374E-2,4.301702E-2,5.264426E-2,-1.2540239E-2,-3.5302665E-2,-3.9798385E-3,4.5250677E-2,-2.0466944E-2,-3.7405357E-2,2.2069702E-2,6.1219037E-2,-4.5181613E-2,-1.4942554E-2,4.8667546E-2,-9.970508E-4,3.9107285E-2,5.7412423E-2,7.2220676E-3,6.754482E-2,3.953285E-2,1.8205412E-2,4.956023E-2],"split_indices":[107,35,97,11,17,63,64,16,100,80,109,12,64,100,3,40,80,62,82,41,69,0,29,17,5,98,50,33,101,97,0,0,0,0,0,0,0,0,0,0,0,0,0,0,0,0,0,0,0,0,0,0,0,0,0,0,0,0,0],"split_type":[0,0,0,0,0,0,0,0,0,0,0,0,0,0,0,0,0,0,0,0,0,0,0,0,0,0,0,0,0,0,0,0,0,0,0,0,0,0,0,0,0,0,0,0,0,0,0,0,0,0,0,0,0,0,0,0,0,0,0],"sum_hessian":[5.5885684E3,2.9276301E3,2.6609382E3,1.5991056E3,1.3285245E3,1.5023083E3,1.1586299E3,1.4056393E3,1.9346642E2,1.1061305E3,2.2239403E2,5.095315E2,9.927769E2,8.073551E2,3.5127478E2,1.3459138E2,1.2710479E3,1.1097017E2,8.2496254E1,1.1504769E2,9.910829E2,5.1324162E0,2.1726161E2,4.434922E2,6.6039314E1,4.939618E2,4.988151E2,2.7178442E2,5.355707E2,3.47699E2,3.575793E0,7.7085236E1,5.7506145E1,1.5710687E2,1.1139409E3,2.9805943E1,8.116422E1,5.5810146E0,7.691524E1,8.786697E1,2.7180727E1,4.941627E2,4.9692017E2,2.0230916E2,1.4952452E1,3.8330783E2,6.0184338E1,5.7216816E1,8.822502E0,4.648043E1,4.4748135E2,3.1087173E2,1.8794336E2,2.5070567E2,2.1078749E1,4.979069E2,3.7663803E1,1.1478563E2,2.3291336E2],"tree_param":{"num_deleted":"0","num_feature":"110","num_nodes":"59","size_leaf_vector":"1"}},{"base_weights":[2.662716E-3,-5.4907566E-1,5.792151E-1,-7.7238035E-1,2.5400066E-1,2.3000622E-1,1.0449026E0,-8.981076E-1,3.931017E-2,-2.9640517E-3,9.515113E-1,-1.7727754E-1,6.4078325E-1,1.4933737E-1,1.0990887E0,-1.0474504E0,-2.3743606E-1,-3.3739373E-1,4.915481E-1,-4.2194626E-1,3.2866743E-1,1.0243447E0,-8.27344E-2,-3.492211E-1,8.4779274E-1,2.0715156E-1,8.452832E-1,-8.1365776E-1,1.0842929E0,8.8532627E-1,1.2159327E0,-5.6265086E-2,-6.5083527E-3,3.8387652E-2,-2.1721989E-2,-3.84579E-2,2.1070031E-2,5.313765E-2,-1.0304321E-2,3.2605954E-2,-3.4806237E-2,2.6169932E-2,-3.7838574E-2,5.556196E-2,-2.6265357E-2,-2.8230397E-2,2.2417001E-2,-4.9212143E-2,5.1608104E-2,-1.4967436E-2,3.78073E-2,-8.121639E-3,4.7703516E-2,6.715688E-2,-7.3704354E-2,6.702318E-2,-1.1413614E-2,9.174607E-3,4.9637765E-2,4.4092264E-2,6.4515084E-2],"categories":[],"categories_nodes":[],"categories_segments":[],"categories_sizes":[],"default_left":[0,0,0,0,0,0,0,0,0,0,0,0,0,0,0,0,0,0,0,0,0,0,0,0,0,0,0,0,0,0,0,0,0,0,0,0,0,0,0,0,0,0,0,0,0,0,0,0,0,0,0,0,0,0,0,0,0,0,0,0,0],"id":11,"left_children":[1,3,5,7,9,11,13,15,17,19,21,23,25,27,29,31,33,35,37,39,41,43,-1,45,47,49,51,53,55,57,59,-1,-1,-1,-1,-1,-1,-1,-1,-1,-1,-1,-1,-1,-1,-1,-1,-1,-1,-1,-1,-1,-1,-1,-1,-1,-1,-1,-1,-1,-1],"loss_changes":[1.7577435E3,5.0655243E2,4.3917487E2,2.2552075E2,1.1024472E2,2.586676E2,5.601294E1,1.8852234E2,5.0814007E1,6.2731144E1,3.3127426E1,1.3720958E2,6.807385E1,6.1389664E1,2.618396E1,1.1126904E2,7.0441666E1,5.365702E1,5.421966E1,5.919321E1,5.3663376E1,2.2358658E1,0E0,1.1464798E2,3.880355E1,6.917704E1,5.745285E1,4.994944E1,1.1915375E1,2.9178741E1,1.6329102E1,0E0,0E0,0E0,0E0,0E0,0E0,0E0,0E0,0E0,0E0,0E0,0E0,0E0,0E0,0E0,0E0,0E0,0E0,0E0,0E0,0E0,0E0,0E0,0E0,0E0,0E0,0E0,0E0,0E0,0E0],"parents":[2147483647,0,0,1,1,2,2,3,3,4,4,5,5,6,6,7,7,8,8,9,9,10,10,11,11,12,12,13,13,14,14,15,15,16,16,17,17,18,18,19,19,20,20,21,21,23,23,24,24,25,25,26,26,27,27,28,28,29,29,30,30],"right_children":[2,4,6,8,10,12,14,16,18,20,22,24,26,28,30,32,34,36,38,40,42,44,-1,46,48,50,52,54,56,58,60,-1,-1,-1,-1,-1,-1,-1,-1,-1,-1,-1,-1,-1,-1,-1,-1,-1,-1,-1,-1,-1,-1,-1,-1,-1,-1,-1,-1,-1,-1],"split_conditions":[4.335041E1,1.534617E-1,2.26E0,1.4949883E2,1.377E0,1.668E0,1.007E0,4.52E-1,1.916E0,2.0798567E-1,5.6E-1,4.9E-1,1.15E-1,2.835E0,2.619E0,5.15E-1,3.5E-1,4.5E-1,8.8174E-2,6.74E-1,1.09047E-1,1.62526E-1,-8.27344E-2,1.338E0,9.32E-1,9.31E-1,1.116E0,-6.404E-3,8.76E-1,3.65E-1,-1.162E0,-5.6265086E-2,-6.5083527E-3,3.8387652E-2,-2.1721989E-2,-3.84579E-2,2.1070031E-2,5.313765E-2,-1.0304321E-2,3.2605954E-2,-3.4806237E-2,2.6169932E-2,-3.7838574E-2,5.556196E-2,-2.6265357E-2,-2.8230397E-2,2.2417001E-2,-4.9212143E-2,5.1608104E-2,-1.4967436E-2,3.78073E-2,-8.121639E-3,4.7703516E-2,6.715688E-2,-7.3704354E-2,6.702318E-2,-1.1413614E-2,9.174607E-3,4.9637765E-2,4.4092264E-2,6.4515084E-2],"split_indices":[107,47,97,75,49,66,66,65,98,63,12,12,11,97,97,12,17,12,109,17,29,61,0,50,66,49,105,94,4,12,96,0,0,0,0,0,0,0,0,0,0,0,0,0,0,0,0,0,0,0,0,0,0,0,0,0,0,0,0,0,0],"split_type":[0,0,0,0,0,0,0,0,0,0,0,0,0,0,0,0,0,0,0,0,0,0,0,0,0,0,0,0,0,0,0,0,0,0,0,0,0,0,0,0,0,0,0,0,0,0,0,0,0,0,0,0,0,0,0,0,0,0,0,0,0],"sum_hessian":[5.523652E3,2.8225898E3,2.701062E3,2.208523E3,6.14067E2,1.5444253E3,1.1566368E3,1.9122217E3,2.9630115E2,4.49475E2,1.6459201E2,7.757956E2,7.686297E2,6.6203766E1,1.090433E3,1.5591868E3,3.530349E2,1.6178874E2,1.3451239E2,1.9846394E2,2.5101108E2,1.6070778E2,3.8842173E0,6.64922E2,1.1087358E2,2.4696533E2,5.2166437E2,3.2676758E1,3.3527008E1,3.8841574E2,7.020173E2,1.4369995E3,1.2218728E2,5.737719E1,2.9565775E2,1.0310624E2,5.8682507E1,7.3669975E1,6.0842422E1,4.0079247E1,1.5838469E2,2.1326793E2,3.774315E1,1.524427E2,8.265086E0,5.237672E2,1.411548E2,9.741005E0,1.01132576E2,1.286906E2,1.1827474E2,5.0780617E1,4.7088376E2,7.417931E0,2.5258827E1,2.8034348E1,5.49266E0,5.1921364E1,3.364944E2,1.3015962E2,5.7185767E2],"tree_param":{"num_deleted":"0","num_feature":"110","num_nodes":"61","size_leaf_vector":"1"}},{"base_weights":[-2.3288247E-3,-3.8411465E-1,8.0195475E-1,-8.816608E-1,5.2219853E-2,4.8709133E-1,1.0918386E0,-9.7180396E-1,7.5037336E-1,-1.5630072E-1,7.213241E-1,-4.1684303E-2,8.333328E-1,-2.85277E-1,1.1241043E0,1.7423394E-1,-1.0380735E0,9.0218085E-1,-7.524035E-2,5.1699173E-1,-3.7608874E-1,3.1123874E-1,9.8136336E-1,-3.4977415E-1,8.794556E-1,-3.0924213E-1,9.244491E-1,-1.1745927E0,1.0350937E0,1.2645693E0,9.1629773E-1,-3.4160323E-2,3.796198E-2,-6.1920967E-2,-3.3733156E-2,-7.9914354E-2,5.12846E-2,2.9336005E-2,-7.460522E-2,-2.528724E-2,3.456632E-2,-3.2503556E-2,3.2873232E-2,-7.3091164E-2,5.0471842E-2,-6.771384E-2,-7.5731464E-3,5.2949667E-2,-7.530375E-2,-7.074643E-2,5.0514072E-2,4.7541026E-2,-5.8894157E-2,1.5977802E-2,-9.426286E-2,1.0621021E-2,6.3160576E-2,6.356788E-2,-9.919631E-3,5.0535202E-2,2.7808768E-3],"categories":[],"categories_nodes":[],"categories_segments":[],"categories_sizes":[],"default_left":[0,0,0,0,0,0,0,0,0,0,0,0,0,0,0,0,0,1,0,0,0,0,0,0,0,0,0,0,0,0,0,0,0,0,0,0,0,0,0,0,0,0,0,0,0,0,0,0,0,0,0,0,0,0,0,0,0,0,0,0,0],"id":12,"left_children":[1,3,5,7,9,11,13,15,17,19,21,23,25,27,29,31,33,35,-1,37,39,41,43,45,47,49,51,53,55,57,59,-1,-1,-1,-1,-1,-1,-1,-1,-1,-1,-1,-1,-1,-1,-1,-1,-1,-1,-1,-1,-1,-1,-1,-1,-1,-1,-1,-1,-1,-1],"loss_changes":[1.6864214E3,8.0856213E2,1.6082715E2,2.56729E2,2.7707904E2,1.5551381E2,4.118335E1,1.2545386E2,3.273302E1,2.2427939E2,5.0009995E1,9.594243E1,5.3717377E1,2.6874174E1,2.5076416E1,4.6176483E1,1.1270422E2,2.8350967E1,0E0,5.3141403E1,1.5842511E2,6.1853706E1,2.1248138E1,5.024157E1,3.7890907E1,5.782657E1,2.7486847E1,1.4964233E1,1.4818239E0,5.551941E0,2.9693115E1,0E0,0E0,0E0,0E0,0E0,0E0,0E0,0E0,0E0,0E0,0E0,0E0,0E0,0E0,0E0,0E0,0E0,0E0,0E0,0E0,0E0,0E0,0E0,0E0,0E0,0E0,0E0,0E0,0E0,0E0],"parents":[2147483647,0,0,1,1,2,2,3,3,4,4,5,5,6,6,7,7,8,8,9,9,10,10,11,11,12,12,13,13,14,14,15,15,16,16,17,17,19,19,20,20,21,21,22,22,23,23,24,24,25,25,26,26,27,27,28,28,29,29,30,30],"right_children":[2,4,6,8,10,12,14,16,18,20,22,24,26,28,30,32,34,36,-1,38,40,42,44,46,48,50,52,54,56,58,60,-1,-1,-1,-1,-1,-1,-1,-1,-1,-1,-1,-1,-1,-1,-1,-1,-1,-1,-1,-1,-1,-1,-1,-1,-1,-1,-1,-1,-1,-1],"split_conditions":[1.935E0,8.8788E-2,2.473E0,1.301E0,1.202E0,1.9061676E-1,2.7E1,-2.006E0,1.14935E-1,-2.117E0,1.204E0,4.75E-1,3.6E1,3.444E0,-1.235E0,1.015E0,1.2474524E1,3.6E-1,-7.524035E-2,2.953613E-1,-4.72E-1,1.358E0,1.6758443E-1,4.9E1,1.37E0,4.8928168E-1,5.223E-3,-2.693E-3,-3.1E-5,8.05621E-1,3.52215E-1,-3.4160323E-2,3.796198E-2,-6.1920967E-2,-3.3733156E-2,-7.9914354E-2,5.12846E-2,2.9336005E-2,-7.460522E-2,-2.528724E-2,3.456632E-2,-3.2503556E-2,3.2873232E-2,-7.3091164E-2,5.0471842E-2,-6.771384E-2,-7.5731464E-3,5.2949667E-2,-7.530375E-2,-7.074643E-2,5.0514072E-2,4.7541026E-2,-5.8894157E-2,1.5977802E-2,-9.426286E-2,1.0621021E-2,6.3160576E-2,6.356788E-2,-9.919631E-3,5.0535202E-2,2.7808768E-3],"split_indices":[97,69,97,49,17,63,0,80,29,80,49,12,0,82,64,26,35,12,0,15,64,97,15,0,7,71,102,14,46,77,101,0,0,0,0,0,0,0,0,0,0,0,0,0,0,0,0,0,0,0,0,0,0,0,0,0,0,0,0,0,0],"split_type":[0,0,0,0,0,0,0,0,0,0,0,0,0,0,0,0,0,0,0,0,0,0,0,0,0,0,0,0,0,0,0,0,0,0,0,0,0,0,0,0,0,0,0,0,0,0,0,0,0,0,0,0,0,0,0,0,0,0,0,0,0],"sum_hessian":[5.4900796E3,3.7232231E3,1.7668566E3,1.7391145E3,1.9841085E3,8.4822235E2,9.186342E2,1.6484683E3,9.064631E1,1.5132756E3,4.7083292E2,3.3598694E2,5.122354E2,2.0851288E1,8.9778296E2,9.00229E1,1.5584453E3,8.549141E1,5.154903E0,3.7208588E2,1.1411897E3,1.835574E2,2.8727554E2,2.5224117E2,8.374577E1,3.765517E1,4.7458023E2,1.25254E1,8.325888E0,5.326546E2,3.6512833E2,3.644206E1,5.3580845E1,1.0030585E3,5.553869E2,3.462056E0,8.202935E1,3.6028952E2,1.1796357E1,1.0180555E3,1.2313429E2,4.8372276E1,1.3518512E2,2.683286E0,2.8459225E2,4.062664E1,2.1161452E2,7.840128E1,5.3444905E0,2.0448324E1,1.7206846E1,4.6924185E2,5.338388E0,4.214627E0,8.310774E0,2.2267234E0,6.099164E0,5.303248E2,2.329766E0,3.288798E2,3.6248516E1],"tree_param":{"num_deleted":"0","num_feature":"110","num_nodes":"61","size_leaf_vector":"1"}},{"base_weights":[1.2161562E-2,-5.532986E-1,5.347771E-1,-8.317056E-1,1.3908675E-1,2.0287403E-1,9.780386E-1,2.415752E-1,-9.4566053E-1,-3.0009982E-1,4.5811212E-1,-2.3296435E-1,5.9476656E-1,1.0566508E0,3.1980225E-1,-2.6084396E-1,1.0019817E0,-1.0767567E0,-1.6570398E-1,-8.465805E-1,1.9478405E-1,7.917902E-1,1.7087978E-1,-4.0257436E-1,5.485441E-1,1.2276407E-1,7.799973E-1,-1.5953101E-1,1.0921474E0,4.3085092E-1,-9.770508E-2,1.1198004E-2,-4.416314E-2,5.7239454E-2,-7.292728E-2,-5.738472E-2,-1.1226143E-2,3.3632738E-3,-7.5618014E-2,-5.018298E-2,5.6325555E-2,2.5347997E-2,-4.6254043E-2,-7.061751E-2,4.2062435E-2,1.5610687E-2,-4.962272E-2,-2.6440248E-2,3.684045E-2,-7.3846616E-2,3.176378E-2,-3.6493313E-2,2.1278583E-2,4.094077E-2,-3.1051476E-2,-5.3661853E-2,4.987181E-2,-2.5027052E-2,5.5328306E-2,-6.0550954E-2,2.8720126E-2],"categories":[],"categories_nodes":[],"categories_segments":[],"categories_sizes":[],"default_left":[0,0,0,0,0,0,0,0,0,0,0,0,0,0,0,0,0,0,0,0,1,0,0,0,0,0,0,0,0,1,0,0,0,0,0,0,0,0,0,0,0,0,0,0,0,0,0,0,0,0,0,0,0,0,0,0,0,0,0,0,0],"id":13,"left_children":[1,3,5,7,9,11,13,15,17,19,21,23,25,27,29,31,33,35,37,39,41,43,45,47,49,51,53,55,57,59,-1,-1,-1,-1,-1,-1,-1,-1,-1,-1,-1,-1,-1,-1,-1,-1,-1,-1,-1,-1,-1,-1,-1,-1,-1,-1,-1,-1,-1,-1,-1],"loss_changes":[1.6262125E3,5.0961768E2,4.2053345E2,2.3080713E2,1.0646278E2,2.7966803E2,6.3009644E1,6.969794E1,1.7410718E2,8.668083E1,4.2031685E1,1.0302261E2,7.526941E1,4.736682E1,3.4184402E1,3.3461082E1,2.715075E1,8.795044E1,7.7421524E1,4.8306328E1,5.9441936E1,2.3345055E1,3.939372E1,9.212612E1,2.5308704E1,6.3341095E1,3.4166473E1,3.4765446E1,2.4949219E1,3.056106E1,0E0,0E0,0E0,0E0,0E0,0E0,0E0,0E0,0E0,0E0,0E0,0E0,0E0,0E0,0E0,0E0,0E0,0E0,0E0,0E0,0E0,0E0,0E0,0E0,0E0,0E0,0E0,0E0,0E0,0E0,0E0],"parents":[2147483647,0,0,1,1,2,2,3,3,4,4,5,5,6,6,7,7,8,8,9,9,10,10,11,11,12,12,13,13,14,14,15,15,16,16,17,17,18,18,19,19,20,20,21,21,22,22,23,23,24,24,25,25,26,26,27,27,28,28,29,29],"right_children":[2,4,6,8,10,12,14,16,18,20,22,24,26,28,30,32,34,36,38,40,42,44,46,48,50,52,54,56,58,60,-1,-1,-1,-1,-1,-1,-1,-1,-1,-1,-1,-1,-1,-1,-1,-1,-1,-1,-1,-1,-1,-1,-1,-1,-1,-1,-1,-1,-1,-1,-1],"split_conditions":[2.4403232E-1,1.4211103E-1,2.26E0,-2.006E0,1.356E0,4.428417E1,-7.79E-1,1.916E0,5.37E-1,3.69E-1,2.87E-1,1.235E0,1.05E-1,2.9E1,1.3574E-1,-2.478E0,4.607E0,5.15E-1,-1.94E-1,6.34E-3,8.247423E1,5.0106E-2,1.83651E-1,2E-1,9.354143E0,1.1749119E-1,2.8062498E1,4.3112656E-1,1.7844334E-1,5.549133E1,-9.770508E-2,1.1198004E-2,-4.416314E-2,5.7239454E-2,-7.292728E-2,-5.738472E-2,-1.1226143E-2,3.3632738E-3,-7.5618014E-2,-5.018298E-2,5.6325555E-2,2.5347997E-2,-4.6254043E-2,-7.061751E-2,4.2062435E-2,1.5610687E-2,-4.962272E-2,-2.6440248E-2,3.684045E-2,-7.3846616E-2,3.176378E-2,-3.6493313E-2,2.1278583E-2,4.094077E-2,-3.1051476E-2,-5.3661853E-2,4.987181E-2,-2.5027052E-2,5.5328306E-2,-6.0550954E-2,2.8720126E-2],"split_indices":[95,47,97,80,50,67,64,98,65,65,57,17,11,0,69,80,82,12,16,70,2,109,53,11,8,47,3,79,103,2,0,0,0,0,0,0,0,0,0,0,0,0,0,0,0,0,0,0,0,0,0,0,0,0,0,0,0,0,0,0,0],"split_type":[0,0,0,0,0,0,0,0,0,0,0,0,0,0,0,0,0,0,0,0,0,0,0,0,0,0,0,0,0,0,0,0,0,0,0,0,0,0,0,0,0,0,0,0,0,0,0,0,0,0,0,0,0,0,0,0,0,0,0,0,0],"sum_hessian":[5.5009165E3,2.6421265E3,2.8587898E3,1.8842654E3,7.578612E2,1.6355721E3,1.2232175E3,1.8075076E2,1.7035146E3,3.1890274E2,4.3895844E2,7.745602E2,8.6101196E2,1.0921754E3,1.3104211E2,1.092341E2,7.151667E1,1.4580612E3,2.4545349E2,1.5121327E2,1.6768948E2,2.0224901E2,2.3670943E2,6.368337E2,1.3772652E2,2.4313115E2,6.178808E2,3.0874063E1,1.0613014E3,1.25713295E2,5.3288264E0,6.1765182E1,4.7468918E1,6.809898E1,3.4176834E0,1.3457018E3,1.1235938E2,2.1006297E2,3.539052E1,1.4051787E2,1.06953945E1,1.3156223E2,3.612726E1,3.8338914E0,1.9841512E2,2.117192E2,2.4990234E1,5.737992E2,6.3034492E1,4.9971514E0,1.3272935E2,6.334819E1,1.7978296E2,6.0162714E2,1.625365E1,1.7290998E1,1.3583065E1,9.219362E0,1.052082E3,9.50973E0,1.1620356E2],"tree_param":{"num_deleted":"0","num_feature":"110","num_nodes":"61","size_leaf_vector":"1"}},{"base_weights":[1.3544658E-4,-5.5650914E-1,5.1358294E-1,-8.15869E-1,1.1220994E-1,2.4669716E-1,9.6635234E-1,2.4572775E-1,-9.403732E-1,-9.7375214E-2,8.744723E-1,7.324191E-1,-3.1633116E-2,-8.3637846E-1,9.994914E-1,-8.064935E-2,3.7294734E-1,-1.0707248E0,-2.741945E-1,8.3053684E-1,-2.7932853E-1,1.0823606E0,-5.137166E-1,-8.527229E-2,7.8013664E-1,-7.349304E-1,1.6787745E-1,-9.279819E-2,5.6541976E-2,1.1748209E0,7.3746836E-1,2.7953168E-2,-3.6539182E-2,-1.084652E-2,-5.6228925E-2,-3.7038412E-2,1.408443E-2,5.1534217E-2,-9.085678E-2,-3.0897936E-2,1.0381489E-2,-5.6481524E-3,5.832566E-2,-8.8178724E-2,2.4519123E-2,4.125794E-2,-3.1204546E-2,-4.7757957E-2,2.7333567E-2,4.7359597E-2,4.6692524E-4,-2.3692029E-2,5.910976E-2,4.1600358E-2,-9.647487E-3],"categories":[],"categories_nodes":[],"categories_segments":[],"categories_sizes":[],"default_left":[0,0,0,0,0,0,0,0,0,0,0,0,0,0,0,0,0,1,0,0,0,0,0,0,0,0,0,0,0,0,0,0,0,0,0,0,0,0,0,0,0,0,0,0,0,0,0,0,0,0,0,0,0,0,0],"id":14,"left_children":[1,3,5,7,9,11,13,15,17,19,21,23,25,27,29,-1,31,33,35,37,39,41,43,-1,45,47,49,-1,-1,51,53,-1,-1,-1,-1,-1,-1,-1,-1,-1,-1,-1,-1,-1,-1,-1,-1,-1,-1,-1,-1,-1,-1,-1,-1],"loss_changes":[1.5352773E3,4.4711908E2,3.3741583E2,2.4571216E2,1.1529784E2,2.3787253E2,6.2722595E1,4.6889347E1,1.4407544E2,9.588503E1,4.5467346E1,7.5890656E1,1.5719417E2,4.0696766E1,4.5886047E1,0E0,3.8210625E1,6.3672974E1,7.1121574E1,5.122564E1,7.835798E1,1.3779388E1,2.7154327E1,0E0,4.0301666E1,7.039598E1,1.0783319E2,0E0,0E0,7.9522095E0,3.6282562E1,0E0,0E0,0E0,0E0,0E0,0E0,0E0,0E0,0E0,0E0,0E0,0E0,0E0,0E0,0E0,0E0,0E0,0E0,0E0,0E0,0E0,0E0,0E0,0E0],"parents":[2147483647,0,0,1,1,2,2,3,3,4,4,5,5,6,6,7,7,8,8,9,9,10,10,11,11,12,12,13,13,14,14,16,16,17,17,18,18,19,19,20,20,21,21,22,22,24,24,25,25,26,26,29,29,30,30],"right_children":[2,4,6,8,10,12,14,16,18,20,22,24,26,28,30,-1,32,34,36,38,40,42,44,-1,46,48,50,-1,-1,52,54,-1,-1,-1,-1,-1,-1,-1,-1,-1,-1,-1,-1,-1,-1,-1,-1,-1,-1,-1,-1,-1,-1,-1,-1],"split_conditions":[5.9615532E1,1.430816E-1,2.358E0,-1.958E0,1.415E0,-1.389E0,2.6E1,1.82E-1,4.97E-1,-1.904E0,-6.12E-1,2.7E1,5.4E1,6.0623497E-1,-1.235E0,-8.064935E-2,-9.69E-1,3.25E-1,-5.54E-1,2.6802817E-1,4.5E-1,-4.99E-1,2.4942403E-1,-8.527229E-2,5.05118E-1,1.7406142E-1,-1.077E0,-9.279819E-2,5.6541976E-2,4.6E-1,3.52215E-1,2.7953168E-2,-3.6539182E-2,-1.084652E-2,-5.6228925E-2,-3.7038412E-2,1.408443E-2,5.1534217E-2,-9.085678E-2,-3.0897936E-2,1.0381489E-2,-5.6481524E-3,5.832566E-2,-8.8178724E-2,2.4519123E-2,4.125794E-2,-3.1204546E-2,-4.7757957E-2,2.7333567E-2,4.7359597E-2,4.6692524E-4,-2.3692029E-2,5.910976E-2,4.1600358E-2,-9.647487E-3],"split_indices":[99,47,97,80,49,64,0,49,65,64,40,0,0,87,64,0,88,12,40,47,12,16,63,0,69,47,40,0,0,34,101,0,0,0,0,0,0,0,0,0,0,0,0,0,0,0,0,0,0,0,0,0,0,0,0],"split_type":[0,0,0,0,0,0,0,0,0,0,0,0,0,0,0,0,0,0,0,0,0,0,0,0,0,0,0,0,0,0,0,0,0,0,0,0,0,0,0,0,0,0,0,0,0,0,0,0,0,0,0,0,0,0,0],"sum_hessian":[5.3697134E3,2.576435E3,2.793278E3,1.8562689E3,7.201661E2,1.7583564E3,1.0349216E3,1.9474905E2,1.6615199E3,5.655418E2,1.5462428E2,6.399429E2,1.1184137E3,1.8243694E1,1.016678E3,1.172754E1,1.830215E2,1.3891055E3,2.724145E2,9.213155E1,4.7341028E2,1.3467616E2,1.9948122E1,1.1618514E1,6.2832434E2,2.46564E2,8.718497E2,1.2053213E1,6.19048E0,6.070166E2,4.0966135E2,1.5703503E2,2.5986467E1,8.2718506E1,1.306387E3,1.4792383E2,1.2449067E2,8.622426E1,5.9072957E0,2.7907373E2,1.9433655E2,8.835289E0,1.2584087E2,8.549593E0,1.1398529E1,6.092045E2,1.911984E1,2.1062517E2,3.593883E1,1.4654047E2,7.253092E2,2.421345E0,6.045953E2,3.7197147E2,3.7689865E1],"tree_param":{"num_deleted":"0","num_feature":"110","num_nodes":"55","size_leaf_vector":"1"}},{"base_weights":[1.8444099E-2,-3.195324E-1,7.525778E-1,-7.8611964E-1,7.5803414E-2,1.0626837E0,4.7483414E-1,-8.7149584E-1,4.3566683E-1,-9.666621E-2,6.498188E-1,-3.5431054E-1,1.0935119E0,1.7716949E-1,8.83354E-1,-9.7100806E-1,1.7797884E-2,1.2448888E0,1.1047356E-1,-1.034833E0,-1.3552982E-3,1.1216713E0,5.1481974E-1,-1.2560744E0,1.0389946E0,1.1024499E0,-8.3592033E-1,-4.810923E-1,4.293701E-1,-6.7212486E-1,9.2408204E-1,-1.0110318E-4,-5.261593E-2,-6.1143678E-2,2.4335258E-2,-6.694274E-2,7.1772866E-2,-7.381182E-2,2.1400861E-2,3.7622977E-2,-5.7419118E-2,-1.3002442E-2,1.8778875E-2,5.9071105E-2,-7.501021E-2,4.176636E-2,7.075054E-3,-8.728405E-2,4.9206045E-2,6.0526337E-2,1.7172454E-2,5.5505823E-2,-3.3961132E-2,4.120406E-2,-1.0092409E-1,-4.1521758E-2,3.4726754E-2,5.648199E-3,4.6617206E-2,5.470988E-2,-7.8977644E-2,4.8316594E-2,-3.8550455E-2],"categories":[],"categories_nodes":[],"categories_segments":[],"categories_sizes":[],"default_left":[0,0,0,0,0,0,0,0,0,0,0,0,0,0,0,0,0,0,0,0,0,0,0,1,1,0,0,0,0,0,0,0,0,0,0,0,0,0,0,0,0,0,0,0,0,0,0,0,0,0,0,0,0,0,0,0,0,0,0,0,0,0,0],"id":15,"left_children":[1,3,5,7,9,11,13,15,17,19,21,23,25,27,29,31,33,35,37,39,41,43,45,47,49,51,53,55,57,59,61,-1,-1,-1,-1,-1,-1,-1,-1,-1,-1,-1,-1,-1,-1,-1,-1,-1,-1,-1,-1,-1,-1,-1,-1,-1,-1,-1,-1,-1,-1,-1,-1],"loss_changes":[1.3235509E3,6.738399E2,1.4433203E2,1.7515149E2,1.9591122E2,3.5059387E1,1.0793526E2,1.3863538E2,2.88355E1,1.3609839E2,2.8545486E1,2.3488045E1,1.4321716E1,8.578161E1,2.4341827E1,1.1099255E2,9.28744E1,1.7414047E1,4.0756157E1,2.935147E1,1.3492499E2,1.7572662E1,4.2637337E1,1.3970629E1,4.7719765E-1,1.1325134E1,9.813509E0,5.9412346E1,5.9288963E1,1.796912E1,2.6906647E1,0E0,0E0,0E0,0E0,0E0,0E0,0E0,0E0,0E0,0E0,0E0,0E0,0E0,0E0,0E0,0E0,0E0,0E0,0E0,0E0,0E0,0E0,0E0,0E0,0E0,0E0,0E0,0E0,0E0,0E0,0E0,0E0],"parents":[2147483647,0,0,1,1,2,2,3,3,4,4,5,5,6,6,7,7,8,8,9,9,10,10,11,11,12,12,13,13,14,14,15,15,16,16,17,17,18,18,19,19,20,20,21,21,22,22,23,23,24,24,25,25,26,26,27,27,28,28,29,29,30,30],"right_children":[2,4,6,8,10,12,14,16,18,20,22,24,26,28,30,32,34,36,38,40,42,44,46,48,50,52,54,56,58,60,62,-1,-1,-1,-1,-1,-1,-1,-1,-1,-1,-1,-1,-1,-1,-1,-1,-1,-1,-1,-1,-1,-1,-1,-1,-1,-1,-1,-1,-1,-1,-1,-1],"split_conditions":[1.948E0,8.8788E-2,-1.343E0,1.391E0,1.202E0,2.5E1,2.546E0,1.8E-1,1.89736E1,4E1,-1.875E0,3.303E0,8.32544E-1,5.9E1,2.6E1,-1.406E0,6.9328E-2,-2.273E-3,1.192E0,4.7E-1,1.4470166E2,7.675747E1,-1.14E0,2.1E-1,8.5E-2,4.0119573E-1,4.240283E1,4.6E-1,1.5599267E-1,-3.165E0,8.890406E-1,-1.0110318E-4,-5.261593E-2,-6.1143678E-2,2.4335258E-2,-6.694274E-2,7.1772866E-2,-7.381182E-2,2.1400861E-2,3.7622977E-2,-5.7419118E-2,-1.3002442E-2,1.8778875E-2,5.9071105E-2,-7.501021E-2,4.176636E-2,7.075054E-3,-8.728405E-2,4.9206045E-2,6.0526337E-2,1.7172454E-2,5.5505823E-2,-3.3961132E-2,4.120406E-2,-1.0092409E-1,-4.1521758E-2,3.4726754E-2,5.648199E-3,4.6617206E-2,5.470988E-2,-7.8977644E-2,4.8316594E-2,-3.8550455E-2],"split_indices":[97,69,64,17,17,0,97,11,83,0,64,97,85,0,0,88,109,54,49,6,75,27,32,13,11,5,2,12,39,72,95,0,0,0,0,0,0,0,0,0,0,0,0,0,0,0,0,0,0,0,0,0,0,0,0,0,0,0,0,0,0,0,0],"split_type":[0,0,0,0,0,0,0,0,0,0,0,0,0,0,0,0,0,0,0,0,0,0,0,0,0,0,0,0,0,0,0,0,0,0,0,0,0,0,0,0,0,0,0,0,0,0,0,0,0,0,0,0,0,0,0,0,0,0,0,0,0,0,0],"sum_hessian":[5.3323496E3,3.6517444E3,1.6806056E3,1.6744818E3,1.9772625E3,7.927071E2,8.878985E2,1.5653826E3,1.0909933E2,1.5210706E3,4.5619183E2,1.6655539E1,7.760515E2,5.1446875E2,3.7342975E2,1.4077617E3,1.5762082E2,3.0463865E1,7.863547E1,1.3936934E2,1.3817013E3,9.985768E1,3.5633414E2,1.01711445E1,6.484395E0,7.728998E2,3.1517534E0,1.4225787E2,3.7221088E2,9.132685E0,3.6429706E2,1.0906367E2,1.298698E3,4.2791588E1,1.1482923E2,1.6786741E0,2.878519E1,1.2504375E1,6.613109E1,7.9892926E0,1.3138005E2,8.1954663E2,5.6215466E2,9.816985E1,1.6878291E0,1.9106253E2,1.6527162E2,8.528042E0,1.6431023E0,4.607673E0,1.8767219E0,7.699635E2,2.9362948E0,1.4373024E0,1.7144511E0,1.09895546E2,3.2362324E1,2.2923222E2,1.4297865E2,3.0296338E0,6.103051E0,3.558573E2,8.4397545E0],"tree_param":{"num_deleted":"0","num_feature":"110","num_nodes":"63","size_leaf_vector":"1"}},{"base_weights":[2.592912E-2,-4.359064E-1,5.3296405E-1,-7.588187E-1,-6.6424996E-2,8.957436E-1,2.3849313E-1,-1.0030437E0,-3.752445E-1,-1.9761936E-1,6.808329E-1,9.3544945E-2,9.732667E-1,-5.644912E-2,6.3259864E-1,-3.9537114E-1,-1.1441089E0,-6.737048E-1,7.6396644E-2,-3.0014354E-1,5.946922E-1,7.303389E-1,-8.259792E-2,-9.518866E-2,2.6728255E-1,-7.9668425E-2,9.841907E-1,-2.8234056E-1,6.2178755E-1,-2.5610065E-1,7.3502463E-1,-3.679588E-2,1.8657258E-2,-5.8393296E-2,5.3088E-2,-4.0296894E-2,5.427754E-2,-3.5719737E-2,1.6886292E-2,-2.5242135E-2,1.1420664E-2,-9.4741145E-3,4.967807E-2,1.5623497E-3,4.4156827E-2,2.1706883E-2,-6.5434806E-2,5.1244218E-2,2.1941628E-2,-2.979821E-2,1.0814376E-2,3.7668884E-2,-3.7667293E-2,1.564753E-2,-6.309759E-2,4.2110793E-2,7.835078E-3],"categories":[],"categories_nodes":[],"categories_segments":[],"categories_sizes":[],"default_left":[0,0,0,0,0,0,0,0,0,0,0,0,0,0,0,0,0,0,0,0,0,1,0,0,0,0,0,0,0,0,0,0,0,0,0,0,0,0,0,0,0,0,0,0,0,0,0,0,0,0,0,0,0,0,0,0,0],"id":16,"left_children":[1,3,5,7,9,11,13,15,17,19,21,23,25,27,29,31,33,35,37,39,41,43,-1,-1,45,-1,47,49,51,53,55,-1,-1,-1,-1,-1,-1,-1,-1,-1,-1,-1,-1,-1,-1,-1,-1,-1,-1,-1,-1,-1,-1,-1,-1,-1,-1],"loss_changes":[1.2332314E3,3.2878125E2,2.6796393E2,1.3739117E2,1.2625446E2,6.983203E1,1.6125806E2,7.652026E1,7.738504E1,8.91355E1,2.3420975E1,3.5275066E1,3.0312134E1,1.2185644E2,5.4237366E1,4.4950394E1,3.9403137E1,8.1256836E1,4.7601063E1,1.05097534E2,3.9538147E1,2.0166756E1,0E0,0E0,2.5035946E1,0E0,2.2218933E1,9.340689E1,3.6531067E1,3.59423E1,3.2889038E1,0E0,0E0,0E0,0E0,0E0,0E0,0E0,0E0,0E0,0E0,0E0,0E0,0E0,0E0,0E0,0E0,0E0,0E0,0E0,0E0,0E0,0E0,0E0,0E0,0E0,0E0],"parents":[2147483647,0,0,1,1,2,2,3,3,4,4,5,5,6,6,7,7,8,8,9,9,10,10,11,11,12,12,13,13,14,14,15,15,16,16,17,17,18,18,19,19,20,20,21,21,24,24,26,26,27,27,28,28,29,29,30,30],"right_children":[2,4,6,8,10,12,14,16,18,20,22,24,26,28,30,32,34,36,38,40,42,44,-1,-1,46,-1,48,50,52,54,56,-1,-1,-1,-1,-1,-1,-1,-1,-1,-1,-1,-1,-1,-1,-1,-1,-1,-1,-1,-1,-1,-1,-1,-1,-1,-1],"split_conditions":[4.442406E1,8.837E-2,-1.389E0,4.3E-1,1.318E0,1.198E0,1.1665577E2,-3.56E-1,4.3067165E1,-5.3E-1,-1.25E-1,6.82E-1,2.2935976E1,4.6E-1,1.424E0,1.121E0,1.677E0,-2.65E-1,1.1019694E-1,4.6E-1,3.53E-1,3.9E-1,-8.259792E-2,-9.518866E-2,-1.743E0,-7.9668425E-2,3.70823E-1,1.081E0,2.24091E-1,1.4129844E-1,-7.27E-1,-3.679588E-2,1.8657258E-2,-5.8393296E-2,5.3088E-2,-4.0296894E-2,5.427754E-2,-3.5719737E-2,1.6886292E-2,-2.5242135E-2,1.1420664E-2,-9.4741145E-3,4.967807E-2,1.5623497E-3,4.4156827E-2,2.1706883E-2,-6.5434806E-2,5.1244218E-2,2.1941628E-2,-2.979821E-2,1.0814376E-2,3.7668884E-2,-3.7667293E-2,1.564753E-2,-6.309759E-2,4.2110793E-2,7.835078E-3],"split_indices":[107,69,64,12,17,105,99,104,99,64,24,50,99,12,105,50,17,64,63,12,33,12,0,0,72,0,69,50,109,39,64,0,0,0,0,0,0,0,0,0,0,0,0,0,0,0,0,0,0,0,0,0,0,0,0,0,0],"split_type":[0,0,0,0,0,0,0,0,0,0,0,0,0,0,0,0,0,0,0,0,0,0,0,0,0,0,0,0,0,0,0,0,0,0,0,0,0,0,0,0,0,0,0,0,0,0,0,0,0,0,0,0,0,0,0,0,0],"sum_hessian":[5.2644746E3,2.7551091E3,2.5093657E3,1.4696439E3,1.2854651E3,1.1233677E3,1.3859979E3,8.969398E2,5.727041E2,1.0941102E3,1.9135487E2,9.918817E1,1.0241796E3,7.932209E2,5.927771E2,1.697036E2,7.2723627E2,3.4453296E2,2.2817117E2,9.693045E2,1.2480569E2,1.8805103E2,3.3038483E0,7.1406174E0,9.2047554E1,3.7266662E0,1.0204529E3,5.954769E2,1.97744E2,6.1104412E1,5.3167267E2,1.1762416E2,5.2079437E1,7.19953E2,7.2832565E0,3.2095084E2,2.3582132E1,5.6243286E1,1.7192789E2,6.987413E2,2.705632E2,4.225586E1,8.254983E1,3.394548E1,1.5410555E2,8.389028E1,8.1572695E0,9.4877765E2,7.167523E1,3.6543372E2,2.3004318E2,1.8088663E2,1.685737E1,3.9465836E1,2.1638577E1,4.4815213E2,8.3520515E1],"tree_param":{"num_deleted":"0","num_feature":"110","num_nodes":"57","size_leaf_vector":"1"}},{"base_weights":[1.7823976E-2,-5.1547337E-1,4.1407704E-1,-7.1446073E-1,1.2835656E-1,7.5824654E-1,6.383821E-2,1.2758826E-1,-8.114062E-1,-3.739782E-1,4.1543564E-1,5.46206E-1,1.0802295E0,-1.21888906E-1,7.852616E-1,3.2718736E-1,-9.5993257E-1,-9.349699E-1,-1.5010689E-1,4.1692325E-1,-6.274411E-1,-8.318786E-1,5.465741E-1,3.761738E-1,1.0568508E0,-5.8735114E-2,1.0868756E0,-2.5103328E-1,7.3521775E-1,8.690444E-1,-3.2012157E-2,4.085292E-2,-5.7785106E-3,-8.3502166E-2,5.433727E-2,-4.9001884E-2,1.0997831E-2,-3.531419E-2,2.4877947E-2,4.0021446E-2,-4.7348827E-2,-4.1407548E-2,5.6058433E-2,-7.467449E-2,2.3850719E-2,2.0310177E-2,5.872766E-2,-4.4139265E-3,2.9728487E-2,-1.5799718E-2,5.714584E-2,4.832563E-2,5.8917265E-2,1.4199217E-2,-2.3798324E-2,-8.6877055E-2,4.1584957E-2,-9.454493E-2,4.456235E-2,-9.464287E-2,2.8713668E-2],"categories":[],"categories_nodes":[],"categories_segments":[],"categories_sizes":[],"default_left":[0,0,0,0,0,0,0,0,0,0,0,0,0,0,0,1,0,0,0,0,0,0,0,0,0,0,0,0,0,0,0,0,0,0,0,0,0,0,0,0,0,0,0,0,0,0,0,0,0,0,0,0,0,0,0,0,0,0,0,0,0],"id":17,"left_children":[1,3,5,7,9,11,13,15,17,19,21,23,25,27,29,31,33,35,37,39,41,43,45,47,49,-1,51,53,55,57,59,-1,-1,-1,-1,-1,-1,-1,-1,-1,-1,-1,-1,-1,-1,-1,-1,-1,-1,-1,-1,-1,-1,-1,-1,-1,-1,-1,-1,-1,-1],"loss_changes":[1.0979735E3,2.8385028E2,3.5926987E2,1.3823535E2,7.56894E1,1.0205011E2,1.9819666E2,3.8423515E1,1.2386255E2,3.85511E1,5.505048E1,7.848044E1,1.0207336E1,1.3042976E2,2.076416E1,3.2430016E1,4.1753044E1,6.675842E1,8.684096E1,2.531932E1,5.1834824E1,2.8553617E1,2.6199188E1,6.934045E1,2.7109116E1,0E0,5.408203E0,1.2328593E2,3.8264915E1,1.851918E1,3.394388E1,0E0,0E0,0E0,0E0,0E0,0E0,0E0,0E0,0E0,0E0,0E0,0E0,0E0,0E0,0E0,0E0,0E0,0E0,0E0,0E0,0E0,0E0,0E0,0E0,0E0,0E0,0E0,0E0,0E0,0E0],"parents":[2147483647,0,0,1,1,2,2,3,3,4,4,5,5,6,6,7,7,8,8,9,9,10,10,11,11,12,12,13,13,14,14,15,15,16,16,17,17,18,18,19,19,20,20,21,21,22,22,23,23,24,24,26,26,27,27,28,28,29,29,30,30],"right_children":[2,4,6,8,10,12,14,16,18,20,22,24,26,28,30,32,34,36,38,40,42,44,46,48,50,-1,52,54,56,58,60,-1,-1,-1,-1,-1,-1,-1,-1,-1,-1,-1,-1,-1,-1,-1,-1,-1,-1,-1,-1,-1,-1,-1,-1,-1,-1,-1,-1,-1,-1],"split_conditions":[5.3141483E1,1.346E0,-1.228E0,-1.958E0,1.805722E-1,2.329E0,2.546E0,-9.91E-1,5.09E-1,1.4561681E-1,6.24E-1,1.85E-1,1.057E0,1.85E-1,4.23429E-1,1.5634414E0,3.863E-3,1.391E0,-6.59E-1,-3.68E-4,-2.9E-1,1.38E0,1.593E0,1.1981139E1,1.116E0,-5.8735114E-2,2.773E0,-7.72E-1,6.03E-1,3.74E-1,3.1859142E-1,4.085292E-2,-5.7785106E-3,-8.3502166E-2,5.433727E-2,-4.9001884E-2,1.0997831E-2,-3.531419E-2,2.4877947E-2,4.0021446E-2,-4.7348827E-2,-4.1407548E-2,5.6058433E-2,-7.467449E-2,2.3850719E-2,2.0310177E-2,5.872766E-2,-4.4139265E-3,2.9728487E-2,-1.5799718E-2,5.714584E-2,4.832563E-2,5.8917265E-2,1.4199217E-2,-2.3798324E-2,-8.6877055E-2,4.1584957E-2,-9.454493E-2,4.456235E-2,-9.464287E-2,2.8713668E-2],"split_indices":[99,34,64,80,63,97,97,88,65,71,42,11,105,11,101,3,102,17,64,94,40,106,17,51,97,0,97,32,42,34,103,0,0,0,0,0,0,0,0,0,0,0,0,0,0,0,0,0,0,0,0,0,0,0,0,0,0,0,0,0,0],"split_type":[0,0,0,0,0,0,0,0,0,0,0,0,0,0,0,0,0,0,0,0,0,0,0,0,0,0,0,0,0,0,0,0,0,0,0,0,0,0,0,0,0,0,0,0,0,0,0,0,0,0,0,0,0,0,0,0,0,0,0,0,0],"sum_hessian":[5.1937583E3,2.213891E3,2.9798672E3,1.6911124E3,5.227788E2,1.5023684E3,1.4774988E3,1.7456438E2,1.5165481E3,1.9000421E2,3.3277457E2,9.074603E2,5.949081E2,1.1756613E3,3.0183752E2,1.4808467E2,2.6479708E1,1.2774438E3,2.3910416E2,4.595672E1,1.440475E2,3.1150002E1,3.0162457E2,6.820808E2,2.2537953E2,1.2317799E0,5.9367633E2,1.02232916E3,1.533321E2,2.7371436E2,2.812317E1,6.990061E1,7.818406E1,1.979552E1,6.6841874E0,1.2296132E3,4.7830776E1,1.2858904E2,1.1051512E2,3.6192993E1,9.763727E0,1.2968797E2,1.4359517E1,2.059748E1,1.0552521E1,2.4786644E2,5.375813E1,2.1834103E2,4.637398E2,1.313828E1,2.1224124E2,2.6134485E2,3.3233148E2,3.025153E2,7.198139E2,5.1192703E0,1.4821284E2,1.5126704E0,2.722017E2,6.389649E0,2.1733522E1],"tree_param":{"num_deleted":"0","num_feature":"110","num_nodes":"61","size_leaf_vector":"1"}},{"base_weights":[-6.137303E-4,-4.3311933E-1,4.7340506E-1,-7.3329866E-1,-1.8738888E-2,1.7659017E-1,8.064325E-1,-9.3604106E-1,-3.645318E-1,-1.941796E-1,5.790929E-1,-5.5003077E-1,3.5295495E-1,-4.3637803E-1,8.4203345E-1,-1.0601052E0,-4.302632E-1,-4.9598598E-1,4.5502192E-1,-6.610415E-1,-3.0521965E-2,-6.240657E-1,6.594798E-1,-8.2872474E-1,3.5941628E-1,-6.8209225E-1,4.9804974E-1,-8.7415166E-2,6.108712E-1,1.1135845E0,6.8433475E-1,-5.7309728E-2,-1.14827715E-2,-3.5424646E-2,6.472253E-2,-5.6533307E-2,-1.6081063E-2,3.0739618E-2,-8.571865E-2,-2.3905436E-2,-7.557306E-2,-6.249692E-3,3.901635E-2,5.4750234E-2,-8.165129E-2,1.5316771E-2,4.8885196E-2,2.7527604E-3,-5.581475E-2,-2.632895E-2,4.8773587E-2,-4.906549E-2,1.9082239E-2,2.9285045E-3,3.356695E-2,5.0735947E-2,-7.650835E-2,1.0492458E-2,5.659304E-2,4.1463047E-2,9.949318E-3],"categories":[],"categories_nodes":[],"categories_segments":[],"categories_sizes":[],"default_left":[0,0,0,0,0,0,0,0,0,0,0,0,0,0,0,0,0,0,0,0,0,0,0,0,0,0,0,0,0,0,0,0,0,0,0,0,0,0,0,0,0,0,0,0,0,0,0,0,0,0,0,0,0,0,0,0,0,0,0,0,0],"id":18,"left_children":[1,3,5,7,9,11,13,15,17,19,21,23,25,27,29,31,33,35,37,39,41,43,45,47,49,51,53,-1,55,57,59,-1,-1,-1,-1,-1,-1,-1,-1,-1,-1,-1,-1,-1,-1,-1,-1,-1,-1,-1,-1,-1,-1,-1,-1,-1,-1,-1,-1,-1,-1],"loss_changes":[1.0552561E3,3.3477173E2,2.4260162E2,1.1634955E2,1.1880736E2,1.6675728E2,5.155896E1,6.269763E1,6.0052498E1,6.688588E1,2.5268814E1,6.473901E1,1.5750294E2,4.624003E1,4.7419006E1,5.7468933E1,9.685717E1,5.264965E1,2.784012E1,3.4629105E1,4.9845436E1,3.0597483E1,2.6828491E1,4.959854E1,3.344574E1,4.1461098E1,6.9904465E1,0E0,1.8002352E1,6.563324E0,5.008307E1,0E0,0E0,0E0,0E0,0E0,0E0,0E0,0E0,0E0,0E0,0E0,0E0,0E0,0E0,0E0,0E0,0E0,0E0,0E0,0E0,0E0,0E0,0E0,0E0,0E0,0E0,0E0,0E0,0E0,0E0],"parents":[2147483647,0,0,1,1,2,2,3,3,4,4,5,5,6,6,7,7,8,8,9,9,10,10,11,11,12,12,13,13,14,14,15,15,16,16,17,17,18,18,19,19,20,20,21,21,22,22,23,23,24,24,25,25,26,26,28,28,29,29,30,30],"right_children":[2,4,6,8,10,12,14,16,18,20,22,24,26,28,30,32,34,36,38,40,42,44,46,48,50,52,54,-1,56,58,60,-1,-1,-1,-1,-1,-1,-1,-1,-1,-1,-1,-1,-1,-1,-1,-1,-1,-1,-1,-1,-1,-1,-1,-1,-1,-1,-1,-1,-1,-1],"split_conditions":[4.4046726E1,3.2624905E1,3.4140036E-1,9.82E-1,1.202E0,5.3E1,2.9E1,-4.46E-1,1.391E0,5.4E1,-5.26E-1,1.218E0,1.2717776E-1,2.2987852E-1,-1.077E0,1.8E-1,9.1392E-2,-7.9E-1,3.31E-1,-4.3E-1,1.038E0,6.2523E-2,3.8714375E1,-2.279E0,-3.22E-1,9.234076E1,1.338E0,-8.7415166E-2,1.509E0,1.458E0,-1.197E0,-5.7309728E-2,-1.14827715E-2,-3.5424646E-2,6.472253E-2,-5.6533307E-2,-1.6081063E-2,3.0739618E-2,-8.571865E-2,-2.3905436E-2,-7.557306E-2,-6.249692E-3,3.901635E-2,5.4750234E-2,-8.165129E-2,1.5316771E-2,4.8885196E-2,2.7527604E-3,-5.581475E-2,-2.632895E-2,4.8773587E-2,-4.906549E-2,1.9082239E-2,2.9285045E-3,3.356695E-2,5.0735947E-2,-7.650835E-2,1.0492458E-2,5.659304E-2,4.1463047E-2,9.949318E-3],"split_indices":[107,67,95,34,17,0,0,40,17,0,48,17,63,63,40,11,29,40,41,88,57,29,51,72,96,83,105,0,34,105,72,0,0,0,0,0,0,0,0,0,0,0,0,0,0,0,0,0,0,0,0,0,0,0,0,0,0,0,0,0,0],"split_type":[0,0,0,0,0,0,0,0,0,0,0,0,0,0,0,0,0,0,0,0,0,0,0,0,0,0,0,0,0,0,0,0,0,0,0,0,0,0,0,0,0,0,0,0,0,0,0,0,0,0,0,0,0,0,0,0,0,0,0,0,0],"sum_hessian":[5.1451943E3,2.6904512E3,2.4547432E3,1.5597736E3,1.1306776E3,1.2987479E3,1.1559951E3,1.0054527E3,5.5432086E2,8.746706E2,2.5600708E2,2.5324846E2,1.0454995E3,3.1878391E1,1.1241167E3,8.0652203E2,1.989307E2,4.7803946E2,7.628143E1,2.2624062E2,6.4843E2,1.5609833E1,2.4039723E2,1.9391367E2,5.9334793E1,1.2808588E2,9.1741364E2,1.3853815E1,1.8024576E1,4.1075342E2,7.1336334E2,7.304219E2,7.610011E1,1.7180452E2,2.7126175E1,1.01844696E2,3.7619476E2,7.171632E1,4.5651183E0,1.8747523E2,3.876538E1,5.815227E2,6.690726E1,5.741744E0,9.868089E0,1.14876945E2,1.25520294E2,4.7804928E1,1.4610873E2,2.4395317E1,3.4939476E1,1.000269E2,2.805898E1,2.5982034E2,6.5759326E2,1.5606839E1,2.417737E0,8.389426E0,4.0236398E2,5.4878595E2,1.6457738E2],"tree_param":{"num_deleted":"0","num_feature":"110","num_nodes":"61","size_leaf_vector":"1"}},{"base_weights":[-3.4036748E-3,-2.9484418E-1,6.336476E-1,-5.5892783E-1,2.5428838E-1,9.393547E-1,4.4672072E-1,-7.465118E-1,-9.7611085E-2,5.2590158E-2,7.288211E-1,9.890479E-1,-2.606572E-1,8.07965E-1,2.942522E-1,-8.644164E-1,1.525249E-1,-5.6269157E-1,1.6861962E-1,-2.4802823E-1,2.8730813E-1,5.256644E-1,1.1769524E0,-4.2324725E-1,1.0011761E0,-1.9528645E0,7.1657836E-1,8.5848963E-1,-1.057415E0,-2.3553674E-1,6.0947126E-1,-4.7870386E-2,-1.519558E-3,5.9204984E-2,-1.3125531E-2,3.421772E-2,-3.5800666E-2,2.5735805E-2,-1.8322134E-2,-2.529732E-2,3.992623E-2,1.7752104E-2,-6.883565E-2,4.688623E-2,1.0202614E-2,6.0376473E-2,-4.454397E-3,-1.0099985E-1,4.9091466E-2,7.7740583E-3,5.113653E-2,1.759853E-2,-1.3135695E-1,-2.8231734E-2,5.5006634E-2,4.4376023E-2,-8.445737E-2,4.6122264E-2,-8.353222E-2,2.5065614E-2,-2.5445987E-2,4.0743154E-2,-6.1525414E-3],"categories":[],"categories_nodes":[],"categories_segments":[],"categories_sizes":[],"default_left":[0,0,0,0,0,0,0,0,0,0,0,0,0,0,0,0,0,0,0,0,0,0,0,0,0,0,0,0,0,0,0,0,0,0,0,0,0,0,0,0,0,0,0,0,0,0,0,0,0,0,0,0,0,0,0,0,0,0,0,0,0,0,0],"id":19,"left_children":[1,3,5,7,9,11,13,15,17,19,21,23,25,27,29,31,33,35,37,39,41,43,45,47,49,51,53,55,57,59,61,-1,-1,-1,-1,-1,-1,-1,-1,-1,-1,-1,-1,-1,-1,-1,-1,-1,-1,-1,-1,-1,-1,-1,-1,-1,-1,-1,-1,-1,-1,-1,-1],"loss_changes":[9.4074304E2,5.0429324E2,9.046625E1,2.0310022E2,1.08082664E2,3.6190918E1,5.4227524E1,1.7704529E2,8.427515E1,5.6081177E1,3.0049301E1,1.0338257E1,4.23319E1,2.8514862E1,1.1653354E2,1.1441675E2,8.352116E1,4.785643E1,8.039772E1,9.449215E1,5.0781864E1,3.0764793E1,4.144043E0,1.4617382E1,1.0307678E1,1.5424068E1,8.691425E0,2.2633057E1,1.1463673E1,5.277273E1,6.5884674E1,0E0,0E0,0E0,0E0,0E0,0E0,0E0,0E0,0E0,0E0,0E0,0E0,0E0,0E0,0E0,0E0,0E0,0E0,0E0,0E0,0E0,0E0,0E0,0E0,0E0,0E0,0E0,0E0,0E0,0E0,0E0,0E0],"parents":[2147483647,0,0,1,1,2,2,3,3,4,4,5,5,6,6,7,7,8,8,9,9,10,10,11,11,12,12,13,13,14,14,15,15,16,16,17,17,18,18,19,19,20,20,21,21,22,22,23,23,24,24,25,25,26,26,27,27,28,28,29,29,30,30],"right_children":[2,4,6,8,10,12,14,16,18,20,22,24,26,28,30,32,34,36,38,40,42,44,46,48,50,52,54,56,58,60,62,-1,-1,-1,-1,-1,-1,-1,-1,-1,-1,-1,-1,-1,-1,-1,-1,-1,-1,-1,-1,-1,-1,-1,-1,-1,-1,-1,-1,-1,-1,-1,-1],"split_conditions":[3.0739805E-1,2.1966472E-1,-1.502E0,1.081E0,1.18E0,5.7217755E2,1.68653E-1,1.8E-1,1.334E0,1.2E-1,1.593E0,3.4E-1,-7.01E-1,-4.92E-1,3.8338476E-1,5.37E-1,-3.49E-1,6.07E-1,2.1266177E0,-8.81E-1,5.5710884E1,-1.978E0,2.27E0,2.37103E-1,2.1267398E-1,8.2E-1,-3.31E-1,6.519E-3,1.79E-1,-3.934E-3,3.34205E-1,-4.7870386E-2,-1.519558E-3,5.9204984E-2,-1.3125531E-2,3.421772E-2,-3.5800666E-2,2.5735805E-2,-1.8322134E-2,-2.529732E-2,3.992623E-2,1.7752104E-2,-6.883565E-2,4.688623E-2,1.0202614E-2,6.0376473E-2,-4.454397E-3,-1.0099985E-1,4.9091466E-2,7.7740583E-3,5.113653E-2,1.759853E-2,-1.3135695E-1,-2.8231734E-2,5.5006634E-2,4.4376023E-2,-8.445737E-2,4.6122264E-2,-8.353222E-2,2.5065614E-2,-2.5445987E-2,4.0743154E-2,-6.1525414E-3],"split_indices":[100,63,64,50,17,67,101,11,106,11,17,6,96,64,95,65,48,17,3,64,19,72,42,29,103,26,16,14,17,94,101,0,0,0,0,0,0,0,0,0,0,0,0,0,0,0,0,0,0,0,0,0,0,0,0,0,0,0,0,0,0,0,0],"split_type":[0,0,0,0,0,0,0,0,0,0,0,0,0,0,0,0,0,0,0,0,0,0,0,0,0,0,0,0,0,0,0,0,0,0,0,0,0,0,0,0,0,0,0,0,0,0,0,0,0,0,0,0,0,0,0,0,0,0,0,0,0,0,0],"sum_hessian":[5.064945E3,3.4754983E3,1.5894463E3,2.3468538E3,1.1286447E3,6.0157806E2,9.878682E2,1.6679866E3,6.788671E2,7.927853E2,3.3585938E2,5.778258E2,2.3752306E1,2.9192056E2,6.959477E2,1.4746337E3,1.9335298E2,2.4673329E2,4.3213385E2,3.4757147E2,4.4521384E2,2.325897E2,1.0326967E2,4.631281E0,5.731945E2,8.329817E0,1.5422489E1,2.847478E2,7.172741E0,2.5970837E2,4.362393E2,1.3265764E3,1.4805722E2,5.4941742E1,1.3841124E2,2.6634829E1,2.2009846E2,2.6242587E2,1.6970796E2,2.7926456E2,6.830691E1,4.285561E2,1.665773E1,1.011181E2,1.314716E2,1.0087946E2,2.3902035E0,1.962933E0,2.6683478E0,1.4450169E1,5.587443E2,1.9935106E0,6.3363056E0,3.444494E0,1.1977996E1,2.821839E2,2.563912E0,1.5770066E0,5.5957346E0,7.005512E1,1.8965326E2,3.4062036E2,9.561891E1],"tree_param":{"num_deleted":"0","num_feature":"110","num_nodes":"63","size_leaf_vector":"1"}},{"base_weights":[1.5639118E-3,-2.8077224E-1,6.2748456E-1,-5.645699E-1,2.2866446E-1,7.3348105E-1,-1.4928144E-1,-8.4225464E-1,-2.4548936E-1,-7.732399E-2,4.5566535E-1,4.4291353E-1,9.281897E-1,4.9011058E-1,-6.4571506E-1,-9.356283E-1,1.5193705E-1,-3.748582E-1,4.1595197E-1,-3.770214E-1,4.0950266E-1,4.8015842E-1,-9.7524635E-2,5.15013E-1,-1.9049952E0,9.884579E-1,6.737912E-2,-6.8128055E-1,6.902932E-1,-1.07673295E-1,-1.2842818E0,-5.1317867E-2,-1.1846988E-2,-6.227466E-2,3.1775318E-2,2.2132603E-2,-2.4638565E-2,-3.1607829E-3,3.852154E-2,1.0410576E-2,-3.5144992E-2,2.6850615E-2,-5.77178E-2,1.9339997E-2,5.467933E-2,4.506537E-2,1.403182E-2,-1.09626174E-1,3.8750615E-2,4.091634E-2,5.6912918E-2,-5.7422157E-2,4.0019117E-2,-9.5134206E-2,5.318905E-2,-1.7345881E-2,4.5749195E-2,-6.0622662E-2,1.3499101E-2,-8.578767E-2,-6.9796876E-3],"categories":[],"categories_nodes":[],"categories_segments":[],"categories_sizes":[],"default_left":[0,0,0,0,0,0,0,0,0,0,1,0,0,0,0,0,0,0,0,1,1,0,0,0,0,0,0,0,0,0,1,0,0,0,0,0,0,0,0,0,0,0,0,0,0,0,0,0,0,0,0,0,0,0,0,0,0,0,0,0,0],"id":20,"left_children":[1,3,5,7,9,11,13,15,17,19,21,23,25,27,29,31,33,35,37,39,41,43,-1,45,47,49,51,53,55,57,59,-1,-1,-1,-1,-1,-1,-1,-1,-1,-1,-1,-1,-1,-1,-1,-1,-1,-1,-1,-1,-1,-1,-1,-1,-1,-1,-1,-1,-1,-1],"loss_changes":[8.854532E2,4.9934677E2,1.2834814E2,1.9630493E2,8.589326E1,7.713678E1,5.9942856E1,1.1018884E2,8.8585846E1,7.70886E1,4.2766846E1,9.44043E1,4.24646E1,1.9856134E1,3.6341854E1,6.8460815E1,7.014936E1,8.358945E1,2.8844515E1,6.2491257E1,4.0781273E1,3.986154E1,0E0,4.8295624E1,1.4533123E1,1.8593018E1,4.9681263E1,2.8814539E1,1.6887932E1,2.4825266E1,2.3695755E1,0E0,0E0,0E0,0E0,0E0,0E0,0E0,0E0,0E0,0E0,0E0,0E0,0E0,0E0,0E0,0E0,0E0,0E0,0E0,0E0,0E0,0E0,0E0,0E0,0E0,0E0,0E0,0E0,0E0,0E0],"parents":[2147483647,0,0,1,1,2,2,3,3,4,4,5,5,6,6,7,7,8,8,9,9,10,10,11,11,12,12,13,13,14,14,15,15,16,16,17,17,18,18,19,19,20,20,21,21,23,23,24,24,25,25,26,26,27,27,28,28,29,29,30,30],"right_children":[2,4,6,8,10,12,14,16,18,20,22,24,26,28,30,32,34,36,38,40,42,44,-1,46,48,50,52,54,56,58,60,-1,-1,-1,-1,-1,-1,-1,-1,-1,-1,-1,-1,-1,-1,-1,-1,-1,-1,-1,-1,-1,-1,-1,-1,-1,-1,-1,-1,-1,-1],"split_conditions":[1.948E0,2.1823208E-1,-7.79E-1,1.2611121E1,1.5800758E-1,3.6242598E-1,1.9235384E1,1.95E-1,1.241E0,4.388727E-1,3.2608788E1,2.04956E-1,4.23429E-1,-3.43E-1,-1.048E-3,-4.27E-1,9.391447E0,3.5E-1,1.09E0,7.253846E-1,9.2E-1,1.593E0,-9.7524635E-2,1.42398E-1,1.593E0,2.773E0,2.148E0,1.748E0,6.321748E0,-3.146E-3,8.396125E1,-5.1317867E-2,-1.1846988E-2,-6.227466E-2,3.1775318E-2,2.2132603E-2,-2.4638565E-2,-3.1607829E-3,3.852154E-2,1.0410576E-2,-3.5144992E-2,2.6850615E-2,-5.77178E-2,1.9339997E-2,5.467933E-2,4.506537E-2,1.403182E-2,-1.09626174E-1,3.8750615E-2,4.091634E-2,5.6912918E-2,-5.7422157E-2,4.0019117E-2,-9.5134206E-2,5.318905E-2,-1.7345881E-2,4.5749195E-2,-6.0622662E-2,1.3499101E-2,-8.578767E-2,-6.9796876E-3],"split_indices":[97,63,64,35,20,95,8,11,49,71,3,101,101,48,54,64,27,17,105,4,6,17,0,93,17,97,105,50,35,78,2,0,0,0,0,0,0,0,0,0,0,0,0,0,0,0,0,0,0,0,0,0,0,0,0,0,0,0,0,0,0],"split_type":[0,0,0,0,0,0,0,0,0,0,0,0,0,0,0,0,0,0,0,0,0,0,0,0,0,0,0,0,0,0,0,0,0,0,0,0,0,0,0,0,0,0,0,0,0,0,0,0,0,0,0,0,0,0,0,0,0,0,0,0,0],"sum_hessian":[5.008489E3,3.4519553E3,1.5565337E3,2.21687E3,1.2350851E3,1.3696842E3,1.8684953E2,1.1844471E3,1.0324231E3,5.263053E2,7.0877985E2,5.5087604E2,8.1880817E2,8.1671616E1,1.05177925E2,1.0828094E3,1.0163766E2,8.638911E2,1.6853195E2,3.2590134E2,2.0040396E2,7.0243005E2,6.349817E0,5.352211E2,1.5654892E1,7.6509314E2,5.3714973E1,1.1569294E1,7.010232E1,5.7716198E1,4.7461727E1,9.5794543E2,1.2486401E2,2.572405E1,7.5913605E1,1.0854908E2,7.5534204E2,7.201167E1,9.652029E1,1.166947E2,2.0920663E2,1.8590292E2,1.4501035E1,6.110622E2,9.1367836E1,2.0103464E2,3.341865E2,1.4302342E1,1.3525496E0,3.6126303E2,4.0383014E2,1.9990402E1,3.372457E1,6.7526526E0,4.816642E0,1.23853655E1,5.7716953E1,1.4140266E1,4.3575928E1,3.410683E1,1.3354898E1],"tree_param":{"num_deleted":"0","num_feature":"110","num_nodes":"61","size_leaf_vector":"1"}},{"base_weights":[1.1240902E-2,-3.8161388E-1,4.2558533E-1,-7.15425E-1,-7.221767E-2,2.1925725E-1,7.936432E-1,-9.346842E-1,-3.3588096E-1,-2.9436088E-1,3.0950767E-1,6.1618406E-1,-1.6845632E-2,9.3052185E-1,4.5575252E-1,-1.069141E0,-2.3991147E-1,-4.4468156E-1,5.2701485E-1,-4.9239236E-1,3.3607873E-1,4.3703362E-1,-8.015639E-1,-8.251986E-2,6.555999E-1,-1.5648313E-1,7.637281E-1,-3.7160426E-1,9.55651E-1,-1.0185837E0,5.869387E-1,9.426778E-2,-5.4473173E-2,-5.3811487E-2,9.468449E-3,-3.6947463E-2,-7.7655017E-3,-7.9456314E-2,4.9055766E-2,-3.7322696E-2,-1.7458906E-5,-7.9625346E-2,2.0749774E-2,-2.3713603E-3,3.870995E-2,7.88444E-2,-5.8325984E-2,-1.3363957E-2,3.7272453E-2,-1.5053391E-2,2.6855534E-2,-9.08556E-2,4.2294953E-2,-1.0605414E-1,2.6703E-2,-4.210953E-2,4.8553046E-2,3.5094906E-2,-9.6761204E-2,4.3228953E-3,4.3346778E-2],"categories":[],"categories_nodes":[],"categories_segments":[],"categories_sizes":[],"default_left":[0,0,0,0,0,0,0,0,0,0,0,0,1,0,0,0,0,0,0,0,0,0,0,0,0,0,0,0,0,0,0,0,0,0,0,0,0,0,0,0,0,0,0,0,0,0,0,0,0,0,0,0,0,0,0,0,0,0,0,0,0],"id":21,"left_children":[1,3,5,7,9,11,13,15,17,19,21,23,25,27,29,31,33,35,37,39,41,43,45,-1,47,49,51,53,55,57,59,-1,-1,-1,-1,-1,-1,-1,-1,-1,-1,-1,-1,-1,-1,-1,-1,-1,-1,-1,-1,-1,-1,-1,-1,-1,-1,-1,-1,-1,-1],"loss_changes":[8.053764E2,2.622521E2,1.8269028E2,1.013421E2,1.1195476E2,1.4474324E2,3.9563843E1,7.202075E1,4.237382E1,1.04339165E2,6.917943E1,5.2544937E1,1.0577548E2,2.0458252E1,4.9188885E1,4.095941E1,4.5706543E1,3.3872498E1,5.029326E1,7.942636E1,3.1107388E1,7.13203E1,4.5560215E1,0E0,4.7207367E1,8.27028E1,3.2767242E1,2.070392E1,1.7524231E1,3.4308567E1,3.2342964E1,0E0,0E0,0E0,0E0,0E0,0E0,0E0,0E0,0E0,0E0,0E0,0E0,0E0,0E0,0E0,0E0,0E0,0E0,0E0,0E0,0E0,0E0,0E0,0E0,0E0,0E0,0E0,0E0,0E0,0E0],"parents":[2147483647,0,0,1,1,2,2,3,3,4,4,5,5,6,6,7,7,8,8,9,9,10,10,11,11,12,12,13,13,14,14,15,15,16,16,17,17,18,18,19,19,20,20,21,21,22,22,24,24,25,25,26,26,27,27,28,28,29,29,30,30],"right_children":[2,4,6,8,10,12,14,16,18,20,22,24,26,28,30,32,34,36,38,40,42,44,46,-1,48,50,52,54,56,58,60,-1,-1,-1,-1,-1,-1,-1,-1,-1,-1,-1,-1,-1,-1,-1,-1,-1,-1,-1,-1,-1,-1,-1,-1,-1,-1,-1,-1,-1,-1],"split_conditions":[4.335041E1,9.1E-1,3.7005582E-1,8.8788E-2,4.45E-1,-1.397E0,2.90572E-1,4.8E-1,-4.72E-1,1.8922123E-1,2.5704517E2,2.6E1,4.85E-1,2.4E0,2.7180484E-1,5.2E-1,9.2434E-2,1.15E-1,-1.727E-3,2.2799216E-1,8.36E-1,1.4974509E-1,9.43E-1,-8.251986E-2,1.465E0,1.103E0,-1.291E0,4.62E-1,2E1,-5.423E-3,3.997E0,9.426778E-2,-5.4473173E-2,-5.3811487E-2,9.468449E-3,-3.6947463E-2,-7.7655017E-3,-7.9456314E-2,4.9055766E-2,-3.7322696E-2,-1.7458906E-5,-7.9625346E-2,2.0749774E-2,-2.3713603E-3,3.870995E-2,7.88444E-2,-5.8325984E-2,-1.3363957E-2,3.7272453E-2,-1.5053391E-2,2.6855534E-2,-9.08556E-2,4.2294953E-2,-1.0605414E-1,2.6703E-2,-4.210953E-2,4.8553046E-2,3.5094906E-2,-9.6761204E-2,4.3228953E-3,4.3346778E-2],"split_indices":[107,34,95,69,12,64,101,12,64,47,9,0,12,98,103,7,93,11,14,95,18,103,34,0,98,49,96,57,0,22,98,0,0,0,0,0,0,0,0,0,0,0,0,0,0,0,0,0,0,0,0,0,0,0,0,0,0,0,0,0,0],"split_type":[0,0,0,0,0,0,0,0,0,0,0,0,0,0,0,0,0,0,0,0,0,0,0,0,0,0,0,0,0,0,0,0,0,0,0,0,0,0,0,0,0,0,0,0,0,0,0,0,0,0,0,0,0,0,0,0,0,0,0,0,0],"sum_hessian":[4.9457256E3,2.538737E3,2.4069885E3,1.2205544E3,1.3181826E3,1.5433844E3,8.6360394E2,7.7270624E2,4.4784814E2,8.3341156E2,4.8477097E2,5.7504004E2,9.6834436E2,6.1337384E2,2.5023012E2,6.46963E2,1.2574326E2,3.9813312E2,4.971504E1,6.343658E2,1.9904579E2,4.3540317E2,4.93678E1,9.13041E0,5.6590967E2,8.220811E2,1.4626326E2,1.1352082E1,6.020218E2,1.9893417E1,2.303367E2,3.792783E0,6.431702E2,4.2139877E1,8.3603386E1,1.9662627E2,2.0150685E2,8.341862E0,4.1373177E1,4.1801227E2,2.1635352E2,7.070704E0,1.9197508E2,1.7902618E2,2.5637698E2,6.125641E0,4.324216E1,5.0032257E1,5.158774E2,6.807415E2,1.4133963E2,3.8616657E0,1.424016E2,3.414414E0,7.9376683E0,4.660291E0,5.973615E2,6.9962063E0,1.289721E1,8.3102974E1,1.4723372E2],"tree_param":{"num_deleted":"0","num_feature":"110","num_nodes":"61","size_leaf_vector":"1"}},{"base_weights":[-1.1881075E-4,-2.714455E-1,5.9231067E-1,-6.4399517E-1,2.4567654E-2,2.5611848E-1,8.044567E-1,-7.165955E-1,5.457836E-1,-1.2680097E-1,4.940019E-1,-3.1101555E-1,4.28971E-1,6.5333605E-1,1.0181521E0,-8.1739575E-1,-6.247953E-2,8.326686E-1,-1.0471141E0,-6.205425E-1,2.3509454E-2,3.2794985E-1,9.184943E-1,-8.114132E-1,4.2528456E-1,2.6308173E-1,9.267301E-1,-5.426343E-2,7.419425E-1,1.0867562E0,3.1473106E-1,-4.498821E-2,-1.2575501E-3,7.338912E-2,-1.0668184E-2,4.777141E-2,-7.701293E-2,5.004386E-2,-9.311809E-2,2.163856E-2,-4.7358375E-2,-7.815455E-3,1.5772248E-2,-2.1303194E-2,2.5525674E-2,4.8248123E-2,-8.3200924E-2,-6.455129E-2,1.0177879E-2,3.308476E-2,-5.211823E-2,3.432592E-2,-6.725126E-3,-8.869857E-2,4.833969E-2,-3.563723E-2,4.1821856E-2,3.9545834E-2,-2.7793098E-2,-4.3843756E-3,5.5523284E-2,-8.62254E-2,4.6407834E-2],"categories":[],"categories_nodes":[],"categories_segments":[],"categories_sizes":[],"default_left":[0,0,0,0,0,0,0,0,0,0,0,0,0,0,0,0,0,0,0,0,0,0,0,0,1,0,1,0,0,0,0,0,0,0,0,0,0,0,0,0,0,0,0,0,0,0,0,0,0,0,0,0,0,0,0,0,0,0,0,0,0,0,0],"id":22,"left_children":[1,3,5,7,9,11,13,15,17,19,21,23,25,27,29,31,33,35,37,39,41,43,45,47,49,51,53,55,57,59,61,-1,-1,-1,-1,-1,-1,-1,-1,-1,-1,-1,-1,-1,-1,-1,-1,-1,-1,-1,-1,-1,-1,-1,-1,-1,-1,-1,-1,-1,-1,-1,-1],"loss_changes":[7.826966E2,3.6831845E2,1.08884766E2,1.281214E2,1.3237091E2,5.8288643E1,2.9604431E1,9.187036E1,3.9994072E1,1.0456641E2,3.1714859E1,5.161498E1,3.7333702E1,3.4639343E1,1.8308685E1,7.879938E1,4.3543797E1,2.276619E1,2.4418056E1,1.13536896E2,5.679466E1,4.537489E1,1.6865578E1,4.076014E1,2.0453276E1,5.7790558E1,1.3980484E1,3.7161297E1,3.1614899E1,9.89151E0,4.6322937E1,0E0,0E0,0E0,0E0,0E0,0E0,0E0,0E0,0E0,0E0,0E0,0E0,0E0,0E0,0E0,0E0,0E0,0E0,0E0,0E0,0E0,0E0,0E0,0E0,0E0,0E0,0E0,0E0,0E0,0E0,0E0,0E0],"parents":[2147483647,0,0,1,1,2,2,3,3,4,4,5,5,6,6,7,7,8,8,9,9,10,10,11,11,12,12,13,13,14,14,15,15,16,16,17,17,18,18,19,19,20,20,21,21,22,22,23,23,24,24,25,25,26,26,27,27,28,28,29,29,30,30],"right_children":[2,4,6,8,10,12,14,16,18,20,22,24,26,28,30,32,34,36,38,40,42,44,46,48,50,52,54,56,58,60,62,-1,-1,-1,-1,-1,-1,-1,-1,-1,-1,-1,-1,-1,-1,-1,-1,-1,-1,-1,-1,-1,-1,-1,-1,-1,-1,-1,-1,-1,-1,-1,-1],"split_conditions":[1.935E0,8.8788E-2,3.6368183E1,1.436E0,1.18E0,5.7E1,2.619E0,2.789E0,1.44881E-1,5.4E1,1.593E0,4.15E-1,2.835E0,4.4E1,4.23429E-1,1.85E-1,4.38E-1,2.985E-3,7.795411E-2,-1.213E0,4.92E-1,3.5778316E1,4.33748E-1,2.663E0,1.65E-1,1.39454E-1,5.128205E1,4.8928168E-1,3.34205E-1,2.1E1,1.983E0,-4.498821E-2,-1.2575501E-3,7.338912E-2,-1.0668184E-2,4.777141E-2,-7.701293E-2,5.004386E-2,-9.311809E-2,2.163856E-2,-4.7358375E-2,-7.815455E-3,1.5772248E-2,-2.1303194E-2,2.5525674E-2,4.8248123E-2,-8.3200924E-2,-6.455129E-2,1.0177879E-2,3.308476E-2,-5.211823E-2,3.432592E-2,-6.725126E-3,-8.869857E-2,4.833969E-2,-3.563723E-2,4.1821856E-2,3.9545834E-2,-2.7793098E-2,-4.3843756E-3,5.5523284E-2,-8.62254E-2,4.6407834E-2],"split_indices":[97,69,67,17,17,0,97,90,85,0,17,12,97,0,101,11,34,62,23,88,33,99,85,97,13,85,2,71,101,0,105,0,0,0,0,0,0,0,0,0,0,0,0,0,0,0,0,0,0,0,0,0,0,0,0,0,0,0,0,0,0,0,0],"split_type":[0,0,0,0,0,0,0,0,0,0,0,0,0,0,0,0,0,0,0,0,0,0,0,0,0,0,0,0,0,0,0,0,0,0,0,0,0,0,0,0,0,0,0,0,0,0,0,0,0,0,0,0,0,0,0,0,0,0,0,0,0,0,0],"sum_hessian":[4.867274E3,3.338717E3,1.5285568E3,1.4777313E3,1.8609858E3,5.922358E2,9.36321E2,1.3931208E3,8.461051E1,1.4077788E3,4.5320703E2,1.3815291E2,4.540829E2,5.50838E2,3.85483E2,1.206888E3,1.862329E2,7.210201E1,1.25085E1,3.278207E2,1.0799581E3,3.2704633E2,1.26160706E2,8.219218E1,5.5960724E1,3.4172424E2,1.12358665E2,6.134363E1,4.8949435E2,3.5073148E2,3.4751507E1,1.0931038E3,1.1378411E2,1.5931211E1,1.7030168E2,6.912339E1,2.978625E0,3.4967027E0,9.011797E0,7.7516685E1,2.5030403E2,6.685978E2,4.1136026E2,6.348997E1,2.6355637E2,1.2454605E2,1.614658E0,5.5631966E1,2.6560211E1,4.867004E1,7.290683E0,1.6513007E2,1.7659418E2,1.0097897E0,1.1134888E2,3.5384335E1,2.59593E1,4.720708E2,1.7423548E1,6.886987E0,3.4384448E2,7.61739E0,2.7134117E1],"tree_param":{"num_deleted":"0","num_feature":"110","num_nodes":"63","size_leaf_vector":"1"}},{"base_weights":[1.4717406E-2,-2.3739572E-1,5.845443E-1,-6.410223E-1,3.2054916E-2,8.8877237E-1,3.2578555E-1,-8.810384E-1,-2.8121814E-1,-9.84405E-2,5.150215E-1,9.093358E-1,-8.0921155E-1,9.640044E-2,6.689432E-1,-9.834112E-1,-5.2531637E-2,-4.597381E-1,4.0877756E-1,-2.7270263E-1,2.3862202E-1,-1.2656115E0,5.518472E-1,2.2648412E-1,9.497427E-1,-1.1892698E-1,6.9007796E-1,5.278118E-1,-1.5287639E-1,7.5558335E-1,-3.6309466E-1,4.238036E-2,-5.066452E-2,-6.81162E-2,2.1977887E-2,-9.247222E-3,-4.4085614E-2,2.788145E-3,6.762805E-2,1.9228965E-2,-2.2845743E-2,-4.2924102E-2,1.8247688E-2,3.8510364E-2,-8.609495E-2,1.2168213E-2,3.832884E-2,3.1300884E-2,-1.0271826E-1,3.984858E-2,5.400874E-2,2.5100396E-3,4.8157785E-2,7.981344E-3,5.143408E-2,-3.6645886E-2,1.0647724E-2,3.878468E-2,-1.0221795E-1,-7.714113E-2,1.8058108E-2],"categories":[],"categories_nodes":[],"categories_segments":[],"categories_sizes":[],"default_left":[0,0,0,0,0,0,0,0,0,0,0,0,0,0,0,0,0,0,0,0,0,0,0,0,0,0,0,0,0,0,0,0,0,0,0,0,0,0,0,0,0,0,0,0,0,0,0,0,0,0,0,0,0,0,0,0,0,0,0,0,0],"id":23,"left_children":[1,3,5,7,9,11,13,15,17,19,21,23,25,27,29,31,33,35,37,39,41,43,45,47,49,-1,51,53,55,57,59,-1,-1,-1,-1,-1,-1,-1,-1,-1,-1,-1,-1,-1,-1,-1,-1,-1,-1,-1,-1,-1,-1,-1,-1,-1,-1,-1,-1,-1,-1],"loss_changes":[6.987944E2,3.6677734E2,1.1716193E2,1.1634064E2,1.2756264E2,2.4659302E1,6.3523293E1,6.859552E1,6.691168E1,9.3672485E1,2.8929916E1,1.8476624E1,2.2176182E1,5.2274704E1,2.9198502E1,4.026581E1,5.8649048E1,4.9792427E1,3.7196465E1,1.2743033E2,7.566441E1,9.711772E0,2.7800507E1,3.6971634E1,1.1877563E1,0E0,8.670013E-1,3.2654396E1,6.559305E1,1.8407623E1,2.2540255E1,0E0,0E0,0E0,0E0,0E0,0E0,0E0,0E0,0E0,0E0,0E0,0E0,0E0,0E0,0E0,0E0,0E0,0E0,0E0,0E0,0E0,0E0,0E0,0E0,0E0,0E0,0E0,0E0,0E0,0E0],"parents":[2147483647,0,0,1,1,2,2,3,3,4,4,5,5,6,6,7,7,8,8,9,9,10,10,11,11,12,12,13,13,14,14,15,15,16,16,17,17,18,18,19,19,20,20,21,21,22,22,23,23,24,24,26,26,27,27,28,28,29,29,30,30],"right_children":[2,4,6,8,10,12,14,16,18,20,22,24,26,28,30,32,34,36,38,40,42,44,46,48,50,-1,52,54,56,58,60,-1,-1,-1,-1,-1,-1,-1,-1,-1,-1,-1,-1,-1,-1,-1,-1,-1,-1,-1,-1,-1,-1,-1,-1,-1,-1,-1,-1,-1,-1],"split_conditions":[1.948E0,8.4706E-2,-1.343E0,1.2611121E1,1.115E0,5.7217755E2,2.546E0,1.8E-1,1.45E-1,-5.62E-1,2.1984386E1,2.23E-1,1.132E0,1.38531E-1,4.23429E-1,-2.572E0,6.5953E-2,2.423555E0,3.64E-1,-1.748E0,-4.212E-3,-1.389E-2,1.081E0,-1.76E-1,1.35E-1,-1.1892698E-1,1E0,1.5214302E-1,3.0830044E-1,2.325E0,1.5379068E-1,4.238036E-2,-5.066452E-2,-6.81162E-2,2.1977887E-2,-9.247222E-3,-4.4085614E-2,2.788145E-3,6.762805E-2,1.9228965E-2,-2.2845743E-2,-4.2924102E-2,1.8247688E-2,3.8510364E-2,-8.609495E-2,1.2168213E-2,3.832884E-2,3.1300884E-2,-1.0271826E-1,3.984858E-2,5.400874E-2,2.5100396E-3,4.8157785E-2,7.981344E-3,5.143408E-2,-3.6645886E-2,1.0647724E-2,3.878468E-2,-1.0221795E-1,-7.714113E-2,1.8058108E-2],"split_indices":[97,69,64,35,49,67,97,11,11,40,51,49,17,85,101,72,109,3,65,64,46,78,105,32,11,0,1,39,79,66,15,0,0,0,0,0,0,0,0,0,0,0,0,0,0,0,0,0,0,0,0,0,0,0,0,0,0,0,0,0,0],"split_type":[0,0,0,0,0,0,0,0,0,0,0,0,0,0,0,0,0,0,0,0,0,0,0,0,0,0,0,0,0,0,0,0,0,0,0,0,0,0,0,0,0,0,0,0,0,0,0,0,0,0,0,0,0,0,0,0,0,0,0,0,0],"sum_hessian":[4.8622295E3,3.3712454E3,1.4909839E3,1.3490468E3,2.0221986E3,6.8416376E2,8.068202E2,8.0836115E2,5.406856E2,1.5926641E3,4.2953455E2,6.764362E2,7.727529E0,4.8434125E2,3.224789E2,7.1929584E2,8.906531E1,4.2981494E2,1.1087066E2,1.0500017E3,5.426624E2,8.027218E0,4.2150732E2,3.8160004E1,6.3827625E2,3.4890475E0,4.2384815E0,1.7696283E2,3.0737842E2,2.977505E2,2.4728436E1,1.1109815E1,7.08186E2,2.3840553E1,6.5224754E1,2.611741E2,1.6864084E2,8.1460205E1,2.9410454E1,2.2961867E2,8.20383E2,5.543678E1,4.8722565E2,1.3437628E0,6.683455E0,1.7386472E2,2.4764262E2,3.308932E1,5.0706825E0,2.9723935E2,3.4103687E2,1.621891E0,2.6165903E0,1.0275053E2,7.42123E1,1.1849533E2,1.888831E2,2.96345E2,1.4054902E0,8.976527E0,1.5751908E1],"tree_param":{"num_deleted":"0","num_feature":"110","num_nodes":"61","size_leaf_vector":"1"}},{"base_weights":[1.210476E-2,-3.363155E-1,4.3205088E-1,-5.493948E-1,7.9160035E-2,-2.0691884E-1,5.7992166E-1,-8.8972414E-1,-3.3101448E-1,-1.804706E-2,7.859021E-1,-4.4057095E-1,5.969285E-1,-2.9836175E-1,6.6576123E-1,-1.0140885E0,6.738341E-1,-6.190599E-2,-5.988249E-1,9.0429895E-2,-5.419606E-1,-9.8197356E-2,8.5640836E-1,-6.5295315E-1,7.7399874E-1,-2.141425E-1,9.1964763E-1,6.3174087E-1,-6.26648E-1,8.885812E-1,4.9389583E-1,6.6507864E-3,-5.46772E-2,-6.238615E-2,6.311246E-2,4.395219E-3,-3.531633E-2,-3.4710713E-2,1.7321607E-2,6.149084E-3,-8.106456E-2,-8.952334E-2,-1.216941E-2,-9.374898E-2,4.5350574E-2,-3.8155235E-2,4.4278126E-2,5.141983E-2,-7.352094E-2,1.3723775E-2,-9.048333E-2,5.104608E-2,-4.637036E-2,6.3825115E-5,6.049774E-2,-4.824409E-2,1.812141E-2,4.6588894E-2,-1.8790074E-3,-2.8470033E-3,3.0460525E-2],"categories":[],"categories_nodes":[],"categories_segments":[],"categories_sizes":[],"default_left":[0,0,0,0,0,0,0,0,0,0,0,0,0,0,0,0,0,0,0,0,0,0,0,0,0,0,0,0,0,0,0,0,0,0,0,0,0,0,0,0,0,0,0,0,0,0,0,0,0,0,0,0,0,0,0,0,0,0,0,0,0],"id":24,"left_children":[1,3,5,7,9,11,13,15,17,19,21,23,25,27,29,31,33,35,37,39,41,-1,43,45,47,49,51,53,55,57,59,-1,-1,-1,-1,-1,-1,-1,-1,-1,-1,-1,-1,-1,-1,-1,-1,-1,-1,-1,-1,-1,-1,-1,-1,-1,-1,-1,-1,-1,-1],"loss_changes":[7.0102264E2,2.3186307E2,2.0539227E2,1.2835565E2,6.105887E1,7.7085724E1,1.3322827E2,1.3213135E2,7.606929E1,4.4497963E1,2.2516571E1,8.2400986E1,2.4418907E1,4.8576187E1,6.1128967E1,5.7255127E1,5.8569313E1,5.1020363E1,4.7953827E1,3.6350407E1,4.9627552E1,0E0,1.6278412E1,4.656347E1,2.8753687E1,2.166388E1,1.3365246E1,1.5186262E1,3.9534172E1,2.7993286E1,5.7830612E1,0E0,0E0,0E0,0E0,0E0,0E0,0E0,0E0,0E0,0E0,0E0,0E0,0E0,0E0,0E0,0E0,0E0,0E0,0E0,0E0,0E0,0E0,0E0,0E0,0E0,0E0,0E0,0E0,0E0,0E0],"parents":[2147483647,0,0,1,1,2,2,3,3,4,4,5,5,6,6,7,7,8,8,9,9,10,10,11,11,12,12,13,13,14,14,15,15,16,16,17,17,18,18,19,19,20,20,22,22,23,23,24,24,25,25,26,26,27,27,28,28,29,29,30,30],"right_children":[2,4,6,8,10,12,14,16,18,20,22,24,26,28,30,32,34,36,38,40,42,-1,44,46,48,50,52,54,56,58,60,-1,-1,-1,-1,-1,-1,-1,-1,-1,-1,-1,-1,-1,-1,-1,-1,-1,-1,-1,-1,-1,-1,-1,-1,-1,-1,-1,-1,-1,-1],"split_conditions":[1.315E0,4.7699677E1,2.0916056E1,5.8E1,1.391E0,2.546E0,4E1,-3.39E-1,-2.2E-1,2.141E-3,1.06021136E-1,1.85E-1,1.2618408E-1,-1.279E0,-1.864E0,-5.26E-1,7.194E-2,1.3025151E2,1.335E0,-1.52E-1,1.671301E-1,-9.8197356E-2,-1.1116E-2,5.418624E1,-1.46E-1,-1.57E-4,-6.21E-1,3.95E-1,3.716E0,6.05198E-1,5.7E1,6.6507864E-3,-5.46772E-2,-6.238615E-2,6.311246E-2,4.395219E-3,-3.531633E-2,-3.4710713E-2,1.7321607E-2,6.149084E-3,-8.106456E-2,-8.952334E-2,-1.216941E-2,-9.374898E-2,4.5350574E-2,-3.8155235E-2,4.4278126E-2,5.141983E-2,-7.352094E-2,1.3723775E-2,-9.048333E-2,5.104608E-2,-4.637036E-2,6.3825115E-5,6.049774E-2,-4.824409E-2,1.812141E-2,4.6588894E-2,-1.8790074E-3,-2.8470033E-3,3.0460525E-2],"split_indices":[105,67,67,0,17,97,0,40,48,46,39,11,15,40,72,16,101,9,34,96,95,0,14,19,16,102,80,12,74,85,0,0,0,0,0,0,0,0,0,0,0,0,0,0,0,0,0,0,0,0,0,0,0,0,0,0,0,0,0,0,0],"split_type":[0,0,0,0,0,0,0,0,0,0,0,0,0,0,0,0,0,