{"learner":{"attributes":{"scikit_learn":"{\"_estimator_type\": \"classifier\"}"},"feature_names":[],"feature_types":[],"gradient_booster":{"model":{"cats":{"enc":[],"feature_segments":[],"sorted_idx":[]},"gbtree_model_param":{"num_parallel_tree":"1","num_trees":"400"},"iteration_indptr":[0,1,2,3,4,5,6,7,8,9,10,11,12,13,14,15,16,17,18,19,20,21,22,23,24,25,26,27,28,29,30,31,32,33,34,35,36,37,38,39,40,41,42,43,44,45,46,47,48,49,50,51,52,53,54,55,56,57,58,59,60,61,62,63,64,65,66,67,68,69,70,71,72,73,74,75,76,77,78,79,80,81,82,83,84,85,86,87,88,89,90,91,92,93,94,95,96,97,98,99,100,101,102,103,104,105,106,107,108,109,110,111,112,113,114,115,116,117,118,119,120,121,122,123,124,125,126,127,128,129,130,131,132,133,134,135,136,137,138,139,140,141,142,143,144,145,146,147,148,149,150,151,152,153,154,155,156,157,158,159,160,161,162,163,164,165,166,167,168,169,170,171,172,173,174,175,176,177,178,179,180,181,182,183,184,185,186,187,188,189,190,191,192,193,194,195,196,197,198,199,200,201,202,203,204,205,206,207,208,209,210,211,212,213,214,215,216,217,218,219,220,221,222,223,224,225,226,227,228,229,230,231,232,233,234,235,236,237,238,239,240,241,242,243,244,245,246,247,248,249,250,251,252,253,254,255,256,257,258,259,260,261,262,263,264,265,266,267,268,269,270,271,272,273,274,275,276,277,278,279,280,281,282,283,284,285,286,287,288,289,290,291,292,293,294,295,296,297,298,299,300,301,302,303,304,305,306,307,308,309,310,311,312,313,314,315,316,317,318,319,320,321,322,323,324,325,326,327,328,329,330,331,332,333,334,335,336,337,338,339,340,341,342,343,344,345,346,347,348,349,350,351,352,353,354,355,356,357,358,359,360,361,362,363,364,365,366,367,368,369,370,371,372,373,374,375,376,377,378,379,380,381,382,383,384,385,386,387,388,389,390,391,392,393,394,395,396,397,398,399,400],"tree_info":[0,0,0,0,0,0,0,0,0,0,0,0,0,0,0,0,0,0,0,0,0,0,0,0,0,0,0,0,0,0,0,0,0,0,0,0,0,0,0,0,0,0,0,0,0,0,0,0,0,0,0,0,0,0,0,0,0,0,0,0,0,0,0,0,0,0,0,0,0,0,0,0,0,0,0,0,0,0,0,0,0,0,0,0,0,0,0,0,0,0,0,0,0,0,0,0,0,0,0,0,0,0,0,0,0,0,0,0,0,0,0,0,0,0,0,0,0,0,0,0,0,0,0,0,0,0,0,0,0,0,0,0,0,0,0,0,0,0,0,0,0,0,0,0,0,0,0,0,0,0,0,0,0,0,0,0,0,0,0,0,0,0,0,0,0,0,0,0,0,0,0,0,0,0,0,0,0,0,0,0,0,0,0,0,0,0,0,0,0,0,0,0,0,0,0,0,0,0,0,0,0,0,0,0,0,0,0,0,0,0,0,0,0,0,0,0,0,0,0,0,0,0,0,0,0,0,0,0,0,0,0,0,0,0,0,0,0,0,0,0,0,0,0,0,0,0,0,0,0,0,0,0,0,0,0,0,0,0,0,0,0,0,0,0,0,0,0,0,0,0,0,0,0,0,0,0,0,0,0,0,0,0,0,0,0,0,0,0,0,0,0,0,0,0,0,0,0,0,0,0,0,0,0,0,0,0,0,0,0,0,0,0,0,0,0,0,0,0,0,0,0,0,0,0,0,0,0,0,0,0,0,0,0,0,0,0,0,0,0,0,0,0,0,0,0,0,0,0,0,0,0,0,0,0,0,0,0,0,0,0,0,0,0,0,0,0,0,0,0,0,0,0,0,0,0,0,0,0,0,0,0,0,0,0,0,0,0,0,0,0,0,0,0,0,0,0,0,0,0,0],"trees":[{"base_weights":[6.323763E-3,6.5966177E-1,-5.034518E-1,1.3258114E0,4.6661618E-1,6.2616845E-3,-1.1141102E0,8.901721E-1,1.5115228E0,1.9311926E-1,8.882018E-1,-1.0587022E0,2.3830873E-1,4.9066436E-1,-1.2649596E0,1.4610908E0,4.3884167E-1,6.0468666E-2,1.5532568E0,6.706517E-1,-1.4768097E-1,2.8776344E-2,1.0262275E0,8.455118E-1,-1.193431E0,1.102686E-2,7.427118E-1,1.2919546E0,-1.6601425E-1,-1.744004E0,-9.4854605E-1,-2.4018055E-2,7.6771654E-2,5.6507718E-2,-3.5786603E-3,-7.5E-2,4.2509336E-2,9.260432E-2,7.2173E-2,5.8321435E-2,2.462861E-2,2.1247955E-2,-2.4628576E-2,1.104452E-2,-8.9189194E-2,5.4817982E-2,-7.409572E-3,-2.5417877E-2,7.670817E-2,2.5774945E-2,-6.7069165E-2,-2.734603E-2,1.6070891E-2,5.728051E-2,2.020568E-2,7.227763E-2,-2.1195626E-2,-3.1519305E-2,7.794992E-2,5.455937E-2,-8.834441E-2,6.8417336E-3,-5.423295E-2],"categories":[],"categories_nodes":[],"categories_segments":[],"categories_sizes":[],"default_left":[0,0,0,0,0,0,0,0,0,0,0,1,0,0,0,0,0,0,0,0,0,0,0,0,0,0,0,0,0,0,0,0,0,0,0,0,0,0,0,0,0,0,0,0,0,0,0,0,0,0,0,0,0,0,0,0,0,0,0,0,0,0,0],"id":0,"left_children":[1,3,5,7,9,11,13,15,17,19,21,23,25,27,29,31,33,35,37,39,41,43,45,47,49,51,53,55,57,59,61,-1,-1,-1,-1,-1,-1,-1,-1,-1,-1,-1,-1,-1,-1,-1,-1,-1,-1,-1,-1,-1,-1,-1,-1,-1,-1,-1,-1,-1,-1,-1,-1],"loss_changes":[1.697455E3,2.8663733E2,8.910991E2,3.9214783E1,1.9969601E2,3.8610532E2,3.1591895E2,3.859617E1,2.1105469E1,1.7140945E2,8.084497E1,7.272327E1,1.470608E2,5.9480507E1,1.7884668E2,1.0379181E1,3.0593874E1,1.4618161E1,8.490112E0,3.814496E1,1.2168689E2,3.3604374E1,4.8543884E1,1.8546715E1,6.680261E1,1.535078E2,5.3897522E1,1.4012955E1,5.1279034E1,3.2583374E1,1.0641925E2,0E0,0E0,0E0,0E0,0E0,0E0,0E0,0E0,0E0,0E0,0E0,0E0,0E0,0E0,0E0,0E0,0E0,0E0,0E0,0E0,0E0,0E0,0E0,0E0,0E0,0E0,0E0,0E0,0E0,0E0,0E0,0E0],"parents":[2147483647,0,0,1,1,2,2,3,3,4,4,5,5,6,6,7,7,8,8,9,9,10,10,11,11,12,12,13,13,14,14,15,15,16,16,17,17,18,18,19,19,20,20,21,21,22,22,23,23,24,24,25,25,26,26,27,27,28,28,29,29,30,30],"right_children":[2,4,6,8,10,12,14,16,18,20,22,24,26,28,30,32,34,36,38,40,42,44,46,48,50,52,54,56,58,60,62,-1,-1,-1,-1,-1,-1,-1,-1,-1,-1,-1,-1,-1,-1,-1,-1,-1,-1,-1,-1,-1,-1,-1,-1,-1,-1,-1,-1,-1,-1,-1,-1],"split_conditions":[5.92E-1,7.3711626E-2,-3.63E-1,5.4727E-2,1.6E-1,5.1E1,3.8E-1,3.8958E-2,2.942E-2,6.6E-1,5.51597E0,6E-2,1.7E-1,1E0,5.1E1,2.9978E-2,-2.02E-1,9.77E-1,5.6571E-2,4.98E-1,6.06E-1,1.488E-3,1.5743025E2,-2.228E0,5.935E-2,1.3408305E1,7.4396E-2,1.868E0,2.1339294E-1,5.16E-1,-1.893E0,-2.4018055E-2,7.6771654E-2,5.6507718E-2,-3.5786603E-3,-7.5E-2,4.2509336E-2,9.260432E-2,7.2173E-2,5.8321435E-2,2.462861E-2,2.1247955E-2,-2.4628576E-2,1.104452E-2,-8.9189194E-2,5.4817982E-2,-7.409572E-3,-2.5417877E-2,7.670817E-2,2.5774945E-2,-6.7069165E-2,-2.734603E-2,1.6070891E-2,5.728051E-2,2.020568E-2,7.227763E-2,-2.1195626E-2,-3.1519305E-2,7.794992E-2,5.455937E-2,-8.834441E-2,6.8417336E-3,-5.423295E-2],"split_indices":[25,39,32,69,13,0,81,45,37,6,35,11,13,1,0,69,16,66,101,81,81,94,67,72,45,35,45,97,79,97,80,0,0,0,0,0,0,0,0,0,0,0,0,0,0,0,0,0,0,0,0,0,0,0,0,0,0,0,0,0,0,0,0],"split_type":[0,0,0,0,0,0,0,0,0,0,0,0,0,0,0,0,0,0,0,0,0,0,0,0,0,0,0,0,0,0,0,0,0,0,0,0,0,0,0,0,0,0,0,0,0,0,0,0,0,0,0,0,0,0,0,0,0,0,0,0,0,0,0],"sum_hessian":[5.094612E3,2.2327646E3,2.8618472E3,5.0034335E2,1.7324211E3,1.5603884E3,1.3014587E3,1.5127586E2,3.4906747E2,1.0516428E3,6.807784E2,2.785303E2,1.2818582E3,1.1163234E2,1.1898264E3,6.580161E1,8.547425E1,9.827358E0,3.3924014E2,4.3756076E2,6.1408203E2,9.437223E1,5.864061E2,1.8056063E1,2.6047424E2,8.843815E2,3.9747665E2,4.98442E1,6.1788136E1,4.714888E2,7.183376E2,2.2253368E0,6.3576275E1,3.5788136E1,4.9686115E1,3E0,6.827358E0,8.688908E1,2.5235106E2,1.1416711E2,3.2339365E2,2.3074E2,3.8334204E2,8.612223E1,8.25E0,5.534241E2,3.2982075E1,6.1760106E0,1.1880053E1,2.0556063E1,2.3991818E2,3.158532E2,5.6852826E2,1.8041602E2,2.1706064E2,4.5893528E1,3.9506736E0,4.9182747E1,1.260539E1,3.4013474E0,4.6808746E2,8.0044876E1,6.382927E2],"tree_param":{"num_deleted":"0","num_feature":"110","num_nodes":"63","size_leaf_vector":"1"}},{"base_weights":[-6.8412593E-4,6.207815E-1,-4.8414633E-1,1.3556662E0,4.249978E-1,1.8236917E-1,-9.340778E-1,1.5838172E0,1.0545796E0,1.2535768E0,2.4954508E-1,-1.2775068E0,2.9751253E-1,8.881433E-1,-1.0624341E0,1.6513972E0,1.5177497E-1,1.5306242E-1,1.2273884E0,1.4655031E0,8.458256E-1,9.181668E-1,7.5338066E-2,7.810153E-2,-1.5442331E0,1.3347553E-1,1.136233E0,1.572949E0,2.9825574E-1,-1.5435421E0,-7.7859914E-1,9.332438E-2,7.271763E-2,5.6005206E-2,-5.8913052E-2,5.4250877E-2,-2.2321017E-2,6.356971E-2,-1.10138655E-2,7.744241E-2,-3.4311276E-3,3.0327337E-3,5.416722E-2,3.278658E-2,6.985666E-2,-2.8176863E-2,1.6385233E-2,4.017501E-2,-8.559564E-2,-4.816608E-3,3.776364E-2,5.9551544E-2,-7.540395E-2,-1.7465377E-2,8.277916E-2,-5.6059074E-2,3.9006628E-2,5.2965235E-2,-7.823508E-2,-5.1937528E-2,-2.0227235E-2],"categories":[],"categories_nodes":[],"categories_segments":[],"categories_sizes":[],"default_left":[0,0,0,0,1,0,0,0,0,0,0,1,0,0,0,0,0,0,0,0,0,1,0,0,0,1,0,0,0,0,0,0,0,0,0,0,0,0,0,0,0,0,0,0,0,0,0,0,0,0,0,0,0,0,0,0,0,0,0,0,0],"id":1,"left_children":[1,3,5,7,9,11,13,15,17,19,21,23,25,27,29,31,33,35,37,39,41,43,45,-1,47,49,51,53,55,57,59,-1,-1,-1,-1,-1,-1,-1,-1,-1,-1,-1,-1,-1,-1,-1,-1,-1,-1,-1,-1,-1,-1,-1,-1,-1,-1,-1,-1,-1,-1],"loss_changes":[1.5310522E3,3.2022418E2,8.596786E2,3.0519043E1,2.5585031E2,1.9467928E2,4.01188E2,2.535608E1,3.1749283E1,2.5347137E1,1.6945355E2,6.655562E1,1.4736261E2,4.523896E1,2.1716016E2,7.989929E0,1.8094887E1,1.954555E1,1.122998E1,2.5817108E1,1.999836E1,3.6885117E1,1.8651367E2,0E0,3.2050842E1,1.2838202E2,2.7192337E1,8.858627E0,4.329736E1,3.427954E1,9.7644714E1,0E0,0E0,0E0,0E0,0E0,0E0,0E0,0E0,0E0,0E0,0E0,0E0,0E0,0E0,0E0,0E0,0E0,0E0,0E0,0E0,0E0,0E0,0E0,0E0,0E0,0E0,0E0,0E0,0E0,0E0],"parents":[2147483647,0,0,1,1,2,2,3,3,4,4,5,5,6,6,7,7,8,8,9,9,10,10,11,11,12,12,13,13,14,14,15,15,16,16,17,17,18,18,19,19,20,20,21,21,22,22,24,24,25,25,26,26,27,27,28,28,29,29,30,30],"right_children":[2,4,6,8,10,12,14,16,18,20,22,24,26,28,30,32,34,36,38,40,42,44,46,-1,48,50,52,54,56,58,60,-1,-1,-1,-1,-1,-1,-1,-1,-1,-1,-1,-1,-1,-1,-1,-1,-1,-1,-1,-1,-1,-1,-1,-1,-1,-1,-1,-1,-1,-1],"split_conditions":[5.92E-1,5.28E-1,-4.9E-1,1E0,7E-2,4.1E1,6.07E-1,2.49006E-1,5.5E1,6.3508E-2,5.688195E0,6E-2,-6.34E-1,3.96E-1,5.1E1,3.04E-1,6.1501765E-1,8.56E-1,7.2456926E-1,-2.27E-1,1.1368888E1,1.7E-1,8.888789E-2,7.810153E-2,8.36E-1,1.7E-1,3.70823E-1,1.078769E1,5.1E1,2.36E-1,3.0465374E1,9.332438E-2,7.271763E-2,5.6005206E-2,-5.8913052E-2,5.4250877E-2,-2.2321017E-2,6.356971E-2,-1.10138655E-2,7.744241E-2,-3.4311276E-3,3.0327337E-3,5.416722E-2,3.278658E-2,6.985666E-2,-2.8176863E-2,1.6385233E-2,4.017501E-2,-8.559564E-2,-4.816608E-3,3.776364E-2,5.9551544E-2,-7.540395E-2,-1.7465377E-2,8.277916E-2,-5.6059074E-2,3.9006628E-2,5.2965235E-2,-7.823508E-2,-5.1937528E-2,-2.0227235E-2],"split_indices":[25,89,32,1,11,0,89,69,0,45,27,11,40,89,0,89,76,90,76,32,35,13,31,0,42,13,69,67,0,81,67,0,0,0,0,0,0,0,0,0,0,0,0,0,0,0,0,0,0,0,0,0,0,0,0,0,0,0,0,0,0],"split_type":[0,0,0,0,0,0,0,0,0,0,0,0,0,0,0,0,0,0,0,0,0,0,0,0,0,0,0,0,0,0,0,0,0,0,0,0,0,0,0,0,0,0,0,0,0,0,0,0,0,0,0,0,0,0,0,0,0,0,0,0,0],"sum_hessian":[5.093777E3,2.2286626E3,2.8651143E3,4.6759503E2,1.7610675E3,1.1548893E3,1.710225E3,2.635939E2,2.0400111E2,3.0666956E2,1.454398E3,8.369133E1,1.071198E3,1.1215051E2,1.5980745E3,2.5156886E2,1.2025039E1,3.3117558E1,1.7088356E2,2.0008327E2,1.065863E2,2.9973154E2,1.1546664E3,6.769346E0,7.692198E1,8.969346E2,1.7426338E2,5.112848E1,6.1022034E1,5.913245E2,1.0067499E3,1.16226074E2,1.3534279E2,7.0500836E0,4.974955E0,1.26468525E1,2.0470703E1,1.659605E2,4.9230556E0,1.8976428E2,1.0318989E1,2.5046125E1,8.154018E1,1.9516551E2,1.0456603E2,3.2660944E2,8.2805695E2,4.8749166E0,7.2047066E1,6.555116E2,2.4142296E2,1.7126387E2,2.999504E0,1.974318E0,4.915416E1,1.512943E1,4.58926E1,4.3726635E0,5.8695184E2,5.927328E2,4.140171E2],"tree_param":{"num_deleted":"0","num_feature":"110","num_nodes":"61","size_leaf_vector":"1"}},{"base_weights":[1.0319865E-2,6.2001604E-1,-4.4222462E-1,1.1856433E0,3.8019076E-1,2.3717037E-3,-9.869749E-1,1.4670879E0,8.3981377E-1,1.5901515E-1,1.0452174E0,-2.0991391E-1,5.46388E-1,8.2518494E-1,-1.1441797E0,1.5282534E0,1.6017665E-1,1.1859839E0,4.377696E-1,5.955285E-1,-1.3536927E-1,1.0851133E0,-1.0244006E0,2.0248803E-1,-6.0453266E-1,9.4907105E-1,1.6296959E-1,1.6022041E0,2.8838006E-1,4.424792E-1,-1.2077296E0,3.733961E-2,7.8246556E-2,6.951235E-2,-5.4716654E-2,6.10737E-2,-1.497735E-2,8.080813E-3,7.1449086E-2,2.1034887E-2,5.222404E-2,1.1811159E-2,-3.1802077E-2,6.9615535E-2,4.117239E-2,-8.4517516E-2,3.1016454E-2,3.4980108E-3,5.1812004E-2,1.3471453E-2,-3.8961645E-2,5.579999E-2,2.3272859E-2,5.2803963E-2,9.1664534E-4,-2.1062675E-3,8.309614E-2,6.3162446E-2,-1.391772E-3,5.8485933E-2,-8.992664E-3,-6.1727256E-2,4.708805E-2],"categories":[],"categories_nodes":[],"categories_segments":[],"categories_sizes":[],"default_left":[0,0,0,0,0,0,0,0,0,0,0,0,0,0,0,0,0,0,0,0,0,0,0,0,0,0,0,0,0,0,0,0,0,0,0,0,0,0,0,0,0,0,0,0,0,0,0,0,0,0,0,0,0,0,0,0,0,0,0,0,0,0,0],"id":2,"left_children":[1,3,5,7,9,11,13,15,17,19,21,23,25,27,29,31,33,35,37,39,41,43,45,47,49,51,53,55,57,59,61,-1,-1,-1,-1,-1,-1,-1,-1,-1,-1,-1,-1,-1,-1,-1,-1,-1,-1,-1,-1,-1,-1,-1,-1,-1,-1,-1,-1,-1,-1,-1,-1],"loss_changes":[1.4022765E3,2.9326086E2,7.0650653E2,6.1470886E1,2.23697E2,1.8572519E2,3.7439355E2,2.8039795E1,4.0034622E1,1.4699805E2,3.2460632E1,1.8838174E2,6.95399E1,4.3427597E1,1.22206055E2,8.516113E0,2.7656868E1,8.5898285E0,3.710484E1,3.5719193E1,1.2733649E2,2.883432E1,9.476796E0,6.2512447E1,9.05051E1,1.7237885E1,3.0006285E1,4.2702026E0,1.9595036E1,2.1572937E1,6.805237E1,0E0,0E0,0E0,0E0,0E0,0E0,0E0,0E0,0E0,0E0,0E0,0E0,0E0,0E0,0E0,0E0,0E0,0E0,0E0,0E0,0E0,0E0,0E0,0E0,0E0,0E0,0E0,0E0,0E0,0E0,0E0,0E0],"parents":[2147483647,0,0,1,1,2,2,3,3,4,4,5,5,6,6,7,7,8,8,9,9,10,10,11,11,12,12,13,13,14,14,15,15,16,16,17,17,18,18,19,19,20,20,21,21,22,22,23,23,24,24,25,25,26,26,27,27,28,28,29,29,30,30],"right_children":[2,4,6,8,10,12,14,16,18,20,22,24,26,28,30,32,34,36,38,40,42,44,46,48,50,52,54,56,58,60,62,-1,-1,-1,-1,-1,-1,-1,-1,-1,-1,-1,-1,-1,-1,-1,-1,-1,-1,-1,-1,-1,-1,-1,-1,-1,-1,-1,-1,-1,-1,-1,-1],"split_conditions":[5.82E-1,6.61E-1,-3.6E-1,1E0,1.75E-1,1.7E-1,6.39E-1,2.58056E-1,4.54E-1,6.8E-1,4.3808954E2,7E-1,7.5811E-2,3.96E-1,2.49E-1,-5.596E-3,6.344127E-1,1.77876E-1,1.754E0,-3.9E-1,6.3508E-2,3.65E-1,1.441E-3,-5.76E-1,8.39E-1,1E0,7.37E-1,8.991086E-2,3.16E-1,1E0,1.6603763E-1,3.733961E-2,7.8246556E-2,6.951235E-2,-5.4716654E-2,6.10737E-2,-1.497735E-2,8.080813E-3,7.1449086E-2,2.1034887E-2,5.222404E-2,1.1811159E-2,-3.1802077E-2,6.9615535E-2,4.117239E-2,-8.4517516E-2,3.1016454E-2,3.4980108E-3,5.1812004E-2,1.3471453E-2,-3.8961645E-2,5.579999E-2,2.3272859E-2,5.2803963E-2,9.1664534E-4,-2.1062675E-3,8.309614E-2,6.3162446E-2,-1.391772E-3,5.8485933E-2,-8.992664E-3,-6.1727256E-2,4.708805E-2],"split_indices":[25,89,32,1,13,13,89,69,89,6,83,6,45,89,73,46,71,21,106,40,45,25,94,40,89,1,89,63,81,1,47,0,0,0,0,0,0,0,0,0,0,0,0,0,0,0,0,0,0,0,0,0,0,0,0,0,0,0,0,0,0,0,0],"split_type":[0,0,0,0,0,0,0,0,0,0,0,0,0,0,0,0,0,0,0,0,0,0,0,0,0,0,0,0,0,0,0,0,0,0,0,0,0,0,0,0,0,0,0,0,0,0,0,0,0,0,0,0,0,0,0,0,0,0,0,0,0,0,0],"sum_hessian":[5.08029E3,2.1641892E3,2.9161008E3,6.4321783E2,1.5209713E3,1.6062007E3,1.3099003E3,3.5283212E2,2.903857E2,1.1423019E3,3.7866946E2,1.1557996E3,4.504011E2,1.0422377E2,1.2056765E3,3.368955E2,1.5936607E1,1.5498761E2,1.3539812E2,4.5967407E2,6.826278E2,3.7197464E2,6.6948466E0,5.6540344E2,5.903961E2,2.1896207E2,2.3143903E2,4.1773045E1,6.245073E1,4.620124E1,1.1594752E3,1.6060833E1,3.208347E2,7.9920516E0,7.944556E0,1.5154488E2,3.4427435E0,1.06805084E2,2.8593025E1,3.3223312E2,1.27440956E2,3.9212552E2,2.905023E2,1.6911334E2,2.0286128E2,4.745614E0,1.9492326E0,4.8879214E2,7.661132E1,9.826582E1,4.9213028E2,1.6180446E2,5.715761E1,3.13787E1,2.0006032E2,1.474267E0,4.0298775E1,1.4562065E1,4.7888664E1,2.0899328E1,2.530191E1,1.145609E3,1.3866174E1],"tree_param":{"num_deleted":"0","num_feature":"110","num_nodes":"63","size_leaf_vector":"1"}},{"base_weights":[2.6707472E-3,5.8391577E-1,-4.188164E-1,1.3832103E0,4.3071032E-1,-1.2051635E0,-1.2414148E-1,1.4946344E0,9.343172E-1,1.1909447E0,2.6450863E-1,1.4686433E0,-1.2819079E0,1.6777149E-1,-7.4621874E-1,1.596844E0,1.0461265E0,-1.0179172E0,1.0573493E0,1.4104358E0,8.1829476E-1,5.9280753E-1,-5.648474E-2,-1.4338699E-2,1.6243776E0,2.8465056E-1,-1.3348353E0,-9.047704E-2,5.465033E-1,8.99643E-1,-9.12571E-1,6.951855E-3,8.06217E-2,-3.9573234E-2,5.7969034E-2,-7.521758E-2,1.018348E-2,5.9110124E-2,-2.8905138E-2,1.9610995E-2,7.550367E-2,-8.158708E-2,4.549721E-2,-5.6730057E-3,3.9481495E-2,2.2710662E-2,-2.1266349E-2,8.513085E-2,2.7953276E-2,-6.840335E-2,5.3480264E-2,-8.079015E-2,-5.4453045E-2,-1.7154781E-2,2.4412302E-2,3.1898726E-2,-7.396392E-2,-1.8727768E-2,6.1465245E-2,2.8910836E-2,-4.9519777E-2],"categories":[],"categories_nodes":[],"categories_segments":[],"categories_sizes":[],"default_left":[0,0,0,0,1,0,0,0,0,1,0,0,1,0,0,0,0,0,0,0,0,0,0,0,0,0,0,0,0,0,0,0,0,0,0,0,0,0,0,0,0,0,0,0,0,0,0,0,0,0,0,0,0,0,0,0,0,0,0,0,0],"id":3,"left_children":[1,3,5,7,9,11,13,15,17,19,21,23,25,27,29,31,33,35,37,39,41,43,45,-1,47,49,51,53,55,57,59,-1,-1,-1,-1,-1,-1,-1,-1,-1,-1,-1,-1,-1,-1,-1,-1,-1,-1,-1,-1,-1,-1,-1,-1,-1,-1,-1,-1,-1,-1],"loss_changes":[1.2455975E3,2.611106E2,6.827652E2,1.5774414E1,2.2646744E2,1.6671118E2,3.896295E2,1.0860962E1,1.811406E1,2.5159363E1,1.5538055E2,6.7202263E0,6.5167114E1,1.4291574E2,1.884349E2,4.7923584E0,1.2079617E1,3.1080847E0,1.4409248E1,1.9807526E1,2.8796227E1,1.0140811E2,1.407666E2,0E0,8.1212616E-1,3.5661613E1,5.04469E1,1.2726321E2,1.1070598E2,2.7094109E1,7.283392E1,0E0,0E0,0E0,0E0,0E0,0E0,0E0,0E0,0E0,0E0,0E0,0E0,0E0,0E0,0E0,0E0,0E0,0E0,0E0,0E0,0E0,0E0,0E0,0E0,0E0,0E0,0E0,0E0,0E0,0E0],"parents":[2147483647,0,0,1,1,2,2,3,3,4,4,5,5,6,6,7,7,8,8,9,9,10,10,11,11,12,12,13,13,14,14,15,15,16,16,17,17,18,18,19,19,20,20,21,21,22,22,24,24,25,25,26,26,27,27,28,28,29,29,30,30],"right_children":[2,4,6,8,10,12,14,16,18,20,22,24,26,28,30,32,34,36,38,40,42,44,46,-1,48,50,52,54,56,58,60,-1,-1,-1,-1,-1,-1,-1,-1,-1,-1,-1,-1,-1,-1,-1,-1,-1,-1,-1,-1,-1,-1,-1,-1,-1,-1,-1,-1,-1,-1],"split_conditions":[5.79E-1,4.54E-1,5.1E1,6.9808E-2,7E-2,3.96E-1,-3.19E-1,3.96E-1,5.2E1,5.5E-2,6.1033E-2,-3.06E-1,5.5E-2,1.281E0,6.9E-1,-9.86E-3,3.9552E-2,8.7528E-2,4.6191233E-1,1.3E-1,3.52E-1,6.574358E-2,6.8E-1,-1.4338699E-2,-1.049E0,-2.189E0,3.8E1,1.7E-1,2.8963895E2,1.9386293E-1,2.49E-1,6.951855E-3,8.06217E-2,-3.9573234E-2,5.7969034E-2,-7.521758E-2,1.018348E-2,5.9110124E-2,-2.8905138E-2,1.9610995E-2,7.550367E-2,-8.158708E-2,4.549721E-2,-5.6730057E-3,3.9481495E-2,2.2710662E-2,-2.1266349E-2,8.513085E-2,2.7953276E-2,-6.840335E-2,5.3480264E-2,-8.079015E-2,-5.4453045E-2,-1.7154781E-2,2.4412302E-2,3.1898726E-2,-7.396392E-2,-1.8727768E-2,6.1465245E-2,2.8910836E-2,-4.9519777E-2],"split_indices":[25,89,0,45,11,89,32,89,0,11,45,104,11,34,89,78,37,45,63,13,50,47,6,0,72,72,0,13,67,71,73,0,0,0,0,0,0,0,0,0,0,0,0,0,0,0,0,0,0,0,0,0,0,0,0,0,0,0,0,0,0],"split_type":[0,0,0,0,0,0,0,0,0,0,0,0,0,0,0,0,0,0,0,0,0,0,0,0,0,0,0,0,0,0,0,0,0,0,0,0,0,0,0,0,0,0,0,0,0,0,0,0,0,0,0,0,0,0,0,0,0,0,0,0,0],"sum_hessian":[5.082337E3,2.136141E3,2.946196E3,3.4229752E2,1.7938435E3,8.022589E2,2.1439373E3,2.7236227E2,6.993525E1,3.2070758E2,1.473136E3,2.1878155E1,7.8038074E2,1.4596971E3,6.842401E2,2.1972842E2,5.263385E1,3.7148943E0,6.622035E1,2.0007712E2,1.20630455E2,7.278618E2,7.452741E2,1.7142222E0,2.0163933E1,2.5360981E1,7.550198E2,8.6835016E2,5.913469E2,6.240523E1,6.2183484E2,2.4298825E0,2.1729854E2,2.7079508E0,4.9925896E1,2.4913628E0,1.2235315E0,6.1781025E1,4.4393287E0,1.827348E1,1.8180363E2,3.7438207E0,1.16886635E2,1.5872482E2,5.69137E2,3.124396E2,4.328345E2,1.8227057E1,1.9368765E0,7.9272804E0,1.7433702E1,3.496863E2,4.0533347E2,6.047693E2,2.6358084E2,5.664546E2,2.4892345E1,1.2798955E1,4.9606277E1,3.0532473E1,5.9130237E2],"tree_param":{"num_deleted":"0","num_feature":"110","num_nodes":"61","size_leaf_vector":"1"}},{"base_weights":[-8.474839E-3,5.3895515E-1,-4.315297E-1,1.0560493E0,3.2325837E-1,1.7863335E-1,-7.823514E-1,1.2776945E0,7.1089625E-1,1.1508203E0,1.4650504E-1,-1.0964193E0,2.734013E-1,6.1577874E-1,-9.11411E-1,1.5720311E0,1.1102101E0,-1.5379664E-1,8.912037E-1,1.3586742E0,7.485959E-1,-6.8119013E-1,2.711678E-1,-1.4212735E0,7.57981E-2,9.45182E-2,7.7186733E-1,1.347287E0,2.5896505E-1,-1.3683476E0,-6.534948E-1,8.014391E-2,2.2081522E-2,3.127629E-2,6.286273E-2,-3.0046463E-2,5.7234317E-2,4.9861595E-2,-5.2430686E-2,7.032993E-2,-4.793788E-2,-8.252719E-2,4.2902853E-2,-4.5079432E-2,3.759585E-2,4.4057336E-2,6.388403E-3,-2.540172E-2,-8.488183E-2,2.4447681E-2,-1.2039352E-2,5.8082797E-2,2.3409484E-2,3.4475837E-2,7.895433E-2,-3.2576606E-2,3.7436157E-2,-6.995767E-2,6.548259E-3,-3.7239466E-2,1.6053684E-2],"categories":[],"categories_nodes":[],"categories_segments":[],"categories_sizes":[],"default_left":[0,0,0,0,1,0,0,0,0,1,0,0,1,0,0,0,0,0,0,0,0,1,0,0,0,0,0,0,0,0,0,0,0,0,0,0,0,0,0,0,0,0,0,0,0,0,0,0,0,0,0,0,0,0,0,0,0,0,0,0,0],"id":4,"left_children":[1,3,5,7,9,11,13,15,17,19,21,23,25,27,29,31,33,35,37,39,41,43,45,47,-1,49,51,53,55,57,59,-1,-1,-1,-1,-1,-1,-1,-1,-1,-1,-1,-1,-1,-1,-1,-1,-1,-1,-1,-1,-1,-1,-1,-1,-1,-1,-1,-1,-1,-1],"loss_changes":[1.1632557E3,2.4387372E2,6.0662524E2,4.83631E1,2.2604657E2,1.2538017E2,3.251997E2,1.752716E1,3.97558E1,2.1725739E1,1.317925E2,6.309861E1,8.591341E1,3.949132E1,1.9326501E2,4.1520996E0,1.7214233E1,2.6639297E1,4.4322617E1,2.1131134E1,2.634034E1,5.350277E1,9.6913376E1,1.5387924E1,0E0,9.4124855E1,2.9585175E1,6.5050583E0,4.6788998E1,2.7595337E1,9.410513E1,0E0,0E0,0E0,0E0,0E0,0E0,0E0,0E0,0E0,0E0,0E0,0E0,0E0,0E0,0E0,0E0,0E0,0E0,0E0,0E0,0E0,0E0,0E0,0E0,0E0,0E0,0E0,0E0,0E0,0E0],"parents":[2147483647,0,0,1,1,2,2,3,3,4,4,5,5,6,6,7,7,8,8,9,9,10,10,11,11,12,12,13,13,14,14,15,15,16,16,17,17,18,18,19,19,20,20,21,21,22,22,23,23,25,25,26,26,27,27,28,28,29,29,30,30],"right_children":[2,4,6,8,10,12,14,16,18,20,22,24,26,28,30,32,34,36,38,40,42,44,46,48,-1,50,52,54,56,58,60,-1,-1,-1,-1,-1,-1,-1,-1,-1,-1,-1,-1,-1,-1,-1,-1,-1,-1,-1,-1,-1,-1,-1,-1,-1,-1,-1,-1,-1,-1],"split_conditions":[5.92E-1,6.61E-1,-5.35E-1,6.17E-2,7E-2,4.1E1,6.81E-1,3.21E-1,1.2044064E-1,6E-2,5.2E1,-4.94E-1,1.7E-1,3.96E-1,5.1E1,4.913E-3,6.592504E0,1.27932274E2,4.44846E-1,2.81527E-1,6.6176E-2,1.75E-1,4.9463E-2,8.6504E-2,7.57981E-2,-3.19E-1,7.4396E-2,-3.06E-1,5.4E1,4.066E0,5.2E-1,8.014391E-2,2.2081522E-2,3.127629E-2,6.286273E-2,-3.0046463E-2,5.7234317E-2,4.9861595E-2,-5.2430686E-2,7.032993E-2,-4.793788E-2,-8.252719E-2,4.2902853E-2,-4.5079432E-2,3.759585E-2,4.4057336E-2,6.388403E-3,-2.540172E-2,-8.488183E-2,2.4447681E-2,-1.2039352E-2,5.8082797E-2,2.3409484E-2,3.4475837E-2,7.895433E-2,-3.2576606E-2,3.7436157E-2,-6.995767E-2,6.548259E-3,-3.7239466E-2,1.6053684E-2],"split_indices":[25,89,32,45,11,0,89,89,63,11,0,40,13,89,0,62,35,8,77,37,77,13,29,109,0,48,45,104,0,82,12,0,0,0,0,0,0,0,0,0,0,0,0,0,0,0,0,0,0,0,0,0,0,0,0,0,0,0,0,0,0],"split_type":[0,0,0,0,0,0,0,0,0,0,0,0,0,0,0,0,0,0,0,0,0,0,0,0,0,0,0,0,0,0,0,0,0,0,0,0,0,0,0,0,0,0,0,0,0,0,0,0,0,0,0,0,0,0,0,0,0,0,0,0,0],"sum_hessian":[5.0208423E3,2.1885718E3,2.8322705E3,6.430586E2,1.5455132E3,1.0341414E3,1.798129E3,3.8994675E2,2.5311186E2,2.71031E2,1.2744822E3,7.0813515E1,9.633279E2,1.516374E2,1.6464917E3,1.3837709E2,2.5156964E2,4.3698044E1,2.0941382E2,1.7712288E2,9.3908134E1,1.6624416E2,1.108238E3,6.338716E1,7.426355E0,7.097953E2,2.535326E2,4.880526E1,1.0283215E2,5.9249457E2,1.0539971E3,1.3429443E2,4.082671E0,5.977961E1,1.9179002E2,3.2904564E1,1.079348E1,1.9902145E2,1.0392365E1,1.7391928E2,3.2035983E0,3.483302E0,9.0424835E1,1.4440665E2,2.1837507E1,2.0996523E2,8.982728E2,1.53852005E1,4.800196E1,3.2593008E2,3.838652E2,1.09787926E2,1.4374467E2,1.375311E1,3.5052147E1,3.5851395E1,6.698076E1,5.8063135E2,1.1863211E1,9.639345E2,9.0062584E1],"tree_param":{"num_deleted":"0","num_feature":"110","num_nodes":"61","size_leaf_vector":"1"}},{"base_weights":[-7.408831E-4,5.4309565E-1,-3.8812563E-1,3.9071012E-1,1.2304499E0,-8.951026E-1,-1.7167863E-2,2.2010475E-1,1.0387695E0,1.3497818E0,8.504916E-1,7.6268345E-1,-9.9865156E-1,-1.570037E-1,8.869635E-1,9.267921E-1,8.328708E-2,1.3431194E-1,1.1122347E0,8.1570953E-1,1.4514326E0,-6.8852544E-2,9.13887E-1,9.2480105E-1,-7.242276E-1,-1.1233557E0,-3.2340533E-1,-4.5819283E-1,1.2731078E-1,4.8406026E-1,1.3107433E0,6.497589E-2,3.1623345E-2,2.6361475E-2,-8.690665E-3,-5.0856736E-2,4.7026765E-2,5.773257E-2,-1.4514557E-2,6.5032564E-2,-4.5253197E-3,4.193322E-3,7.3244244E-2,7.310628E-2,2.917235E-2,6.160233E-2,1.3136971E-2,-8.082455E-2,5.7613105E-2,-6.5844394E-2,-3.5058554E-2,-5.0244857E-2,9.758955E-3,-3.591455E-2,6.717361E-3,6.0486194E-2,1.1752947E-3,5.386859E-2,-4.1139554E-3,6.7373626E-2,-5.3213965E-2],"categories":[],"categories_nodes":[],"categories_segments":[],"categories_sizes":[],"default_left":[0,0,0,1,0,0,0,0,0,0,0,0,0,0,0,0,1,0,0,0,0,0,0,0,0,0,0,1,0,0,0,0,0,0,0,0,0,0,0,0,0,0,0,0,0,0,0,0,0,0,0,0,0,0,0,0,0,0,0,0,0],"id":5,"left_children":[1,3,5,7,9,11,13,15,17,19,21,23,25,27,29,31,33,35,37,39,41,-1,43,45,47,49,51,53,55,57,59,-1,-1,-1,-1,-1,-1,-1,-1,-1,-1,-1,-1,-1,-1,-1,-1,-1,-1,-1,-1,-1,-1,-1,-1,-1,-1,-1,-1,-1,-1],"loss_changes":[1.0647401E3,2.1973425E2,5.5507135E2,1.9020148E2,1.6129639E1,2.1484235E2,2.1575668E2,1.3187308E2,2.3682556E1,1.4466431E1,1.450135E1,1.8479927E1,9.851343E1,1.2660962E2,3.839496E1,2.345082E1,1.3071681E2,2.7025455E1,2.0061249E1,2.1378284E1,4.3090515E0,0E0,1.5774422E1,1.3317314E1,1.4963297E1,8.0028564E1,6.538408E1,1.10729385E2,8.5477356E1,3.9995644E1,1.1101318E1,0E0,0E0,0E0,0E0,0E0,0E0,0E0,0E0,0E0,0E0,0E0,0E0,0E0,0E0,0E0,0E0,0E0,0E0,0E0,0E0,0E0,0E0,0E0,0E0,0E0,0E0,0E0,0E0,0E0,0E0],"parents":[2147483647,0,0,1,1,2,2,3,3,4,4,5,5,6,6,7,7,8,8,9,9,10,10,11,11,12,12,13,13,14,14,15,15,16,16,17,17,18,18,19,19,20,20,22,22,23,23,24,24,25,25,26,26,27,27,28,28,29,29,30,30],"right_children":[2,4,6,8,10,12,14,16,18,20,22,24,26,28,30,32,34,36,38,40,42,-1,44,46,48,50,52,54,56,58,60,-1,-1,-1,-1,-1,-1,-1,-1,-1,-1,-1,-1,-1,-1,-1,-1,-1,-1,-1,-1,-1,-1,-1,-1,-1,-1,-1,-1,-1,-1],"split_conditions":[5.75E-1,-3.25E-1,4.7E-1,1.75E-1,8.76E-1,3.33E-1,-6.62E-1,4.03E-1,3.6E-1,6.5E-1,4.1250248E-2,-1.23E-1,4.5E-1,1.8562837E-1,6.77E-1,1E0,6.6E-1,6.7567566E1,4.2550164E-1,4.9692E-2,-6.502E-3,-6.8852544E-2,4.189315E0,-1.496E-3,2.4638428E-1,-6.4E-1,1.597347E-1,1.65E-1,8.1041E-2,6.651E-2,5.696031E-1,6.497589E-2,3.1623345E-2,2.6361475E-2,-8.690665E-3,-5.0856736E-2,4.7026765E-2,5.773257E-2,-1.4514557E-2,6.5032564E-2,-4.5253197E-3,4.193322E-3,7.3244244E-2,7.310628E-2,2.917235E-2,6.160233E-2,1.3136971E-2,-8.082455E-2,5.7613105E-2,-6.5844394E-2,-3.5058554E-2,-5.0244857E-2,9.758955E-3,-3.591455E-2,6.717361E-3,6.0486194E-2,1.1752947E-3,5.386859E-2,-4.1139554E-3,6.7373626E-2,-5.3213965E-2],"split_indices":[25,40,49,13,81,81,40,81,49,66,47,56,12,63,57,1,6,2,87,45,54,0,43,54,71,40,63,13,93,45,63,0,0,0,0,0,0,0,0,0,0,0,0,0,0,0,0,0,0,0,0,0,0,0,0,0,0,0,0,0,0],"split_type":[0,0,0,0,0,0,0,0,0,0,0,0,0,0,0,0,0,0,0,0,0,0,0,0,0,0,0,0,0,0,0,0,0,0,0,0,0,0,0,0,0,0,0,0,0,0,0,0,0,0,0,0,0,0,0,0,0,0,0,0,0],"sum_hessian":[5.051971E3,2.1014348E3,2.9505361E3,1.7213766E3,3.8005835E2,1.2461064E3,1.7044297E3,1.3637113E3,3.5766525E2,2.8728088E2,9.277746E1,7.288439E1,1.173222E3,1.4768429E3,2.2758687E2,2.2025931E2,1.143452E3,2.7081606E1,3.3058365E2,4.7378628E1,2.3990227E2,1.9939483E0,9.078351E1,6.605993E1,6.8244624E0,9.8976843E2,1.8345361E2,7.168426E2,7.6000024E2,1.1776529E2,1.0982159E2,9.567887E1,1.2458043E2,4.1896417E2,7.244878E2,1.1045228E1,1.6036377E1,3.210508E2,9.532837E0,3.0579447E1,1.6799181E1,2.4073298E0,2.3749493E2,3.2852543E1,5.7930965E1,4.4532593E1,2.1527336E1,4.719104E0,2.1053586E0,6.7721124E2,3.1255716E2,7.886988E1,1.04583725E2,4.9802155E2,2.1882108E2,6.5574646E1,6.944256E2,5.7072422E1,6.0692867E1,1.0857515E2,1.2464367E0],"tree_param":{"num_deleted":"0","num_feature":"110","num_nodes":"61","size_leaf_vector":"1"}},{"base_weights":[1.06440745E-2,3.343449E-1,-6.0968965E-1,8.990237E-1,5.1417395E-2,-8.7895006E-1,3.1971866E-1,7.157932E-1,1.2992271E0,3.8563272E-1,-2.4486643E-1,2.848219E-1,-9.8054224E-1,1.2080283E0,6.064137E-2,3.4003752E-1,1.0177041E0,4.908256E-1,1.3401955E0,4.421968E-1,-8.704434E-1,-5.4622954E-1,3.7041923E-1,-3.3974397E-1,1.0300095E0,-1.0410206E0,2.2134165E-1,6.4750165E-1,1.4267869E0,1.0689788E0,-1.4096518E-1,5.5743672E-2,6.153437E-3,3.57329E-2,6.109583E-2,-6.198449E-2,5.256192E-2,7.740187E-2,5.907796E-2,1.4731839E-2,4.2226285E-2,-7.609312E-2,1.0909479E-2,-4.255187E-2,-6.58109E-3,5.417272E-2,1.1103892E-2,5.0463963E-2,-3.853964E-2,5.5250753E-2,-5.2492507E-2,-1.2385011E-2,-5.545784E-2,-2.0768164E-2,3.6363102E-2,-6.2994673E-3,6.1245825E-2,7.5146906E-2,-4.0280656E-3,6.1264187E-2,-4.83592E-3,-3.056388E-2,1.5793761E-2],"categories":[],"categories_nodes":[],"categories_segments":[],"categories_sizes":[],"default_left":[0,0,0,0,1,0,0,0,0,0,0,0,0,0,0,0,0,0,0,0,0,0,0,0,0,0,0,0,0,0,0,0,0,0,0,0,0,0,0,0,0,0,0,0,0,0,0,0,0,0,0,0,0,0,0,0,0,0,0,0,0,0,0],"id":6,"left_children":[1,3,5,7,9,11,13,15,17,19,21,23,25,27,29,31,33,35,37,39,41,43,45,47,49,51,53,55,57,59,61,-1,-1,-1,-1,-1,-1,-1,-1,-1,-1,-1,-1,-1,-1,-1,-1,-1,-1,-1,-1,-1,-1,-1,-1,-1,-1,-1,-1,-1,-1,-1,-1],"loss_changes":[1.0036769E3,5.2468396E2,4.2918622E2,7.94588E1,2.1687059E2,1.5742578E2,8.8698685E1,8.52146E1,1.07039795E1,7.3502365E1,2.1548782E2,5.037728E1,8.910376E1,9.749458E0,6.1072857E1,5.6603683E1,2.4976013E1,1.8880955E1,8.91748E0,5.825403E1,3.201955E1,9.842752E1,4.0197033E1,3.5219418E1,8.844666E0,6.2658325E1,1.9436577E1,1.1885184E1,7.212372E0,9.2380905E0,5.4043625E1,0E0,0E0,0E0,0E0,0E0,0E0,0E0,0E0,0E0,0E0,0E0,0E0,0E0,0E0,0E0,0E0,0E0,0E0,0E0,0E0,0E0,0E0,0E0,0E0,0E0,0E0,0E0,0E0,0E0,0E0,0E0,0E0],"parents":[2147483647,0,0,1,1,2,2,3,3,4,4,5,5,6,6,7,7,8,8,9,9,10,10,11,11,12,12,13,13,14,14,15,15,16,16,17,17,18,18,19,19,20,20,21,21,22,22,23,23,24,24,25,25,26,26,27,27,28,28,29,29,30,30],"right_children":[2,4,6,8,10,12,14,16,18,20,22,24,26,28,30,32,34,36,38,40,42,44,46,48,50,52,54,56,58,60,62,-1,-1,-1,-1,-1,-1,-1,-1,-1,-1,-1,-1,-1,-1,-1,-1,-1,-1,-1,-1,-1,-1,-1,-1,-1,-1,-1,-1,-1,-1,-1,-1],"split_conditions":[-3.7E-1,6.17E-2,-5.02E-1,1.75E-1,7E-1,3.74E-1,4.0598E-2,1.2357894E1,4.2777E-2,2.8963895E2,1.7E-1,1.697506E-1,5.3E-1,2.0453551E-1,1.108E0,1.33E0,8.0643E-2,-5.9E-5,6.0043E-2,1.6E-1,1.41E0,3.447736E1,6.1341E-2,1.96E-1,7.9E-1,-1.893E0,1.44188E-1,-3.46E-1,2.976E0,-1.64E-1,6.5718E-2,5.5743672E-2,6.153437E-3,3.57329E-2,6.109583E-2,-6.198449E-2,5.256192E-2,7.740187E-2,5.907796E-2,1.4731839E-2,4.2226285E-2,-7.609312E-2,1.0909479E-2,-4.255187E-2,-6.58109E-3,5.417272E-2,1.1103892E-2,5.0463963E-2,-3.853964E-2,5.5250753E-2,-5.2492507E-2,-1.2385011E-2,-5.545784E-2,-2.0768164E-2,3.6363102E-2,-6.2994673E-3,6.1245825E-2,7.5146906E-2,-4.0280656E-3,6.1264187E-2,-4.83592E-3,-3.056388E-2,1.5793761E-2],"split_indices":[32,45,40,13,6,81,45,35,69,67,13,63,12,71,90,90,69,30,109,13,65,67,29,73,73,80,85,40,90,32,69,0,0,0,0,0,0,0,0,0,0,0,0,0,0,0,0,0,0,0,0,0,0,0,0,0,0,0,0,0,0,0,0],"split_type":[0,0,0,0,0,0,0,0,0,0,0,0,0,0,0,0,0,0,0,0,0,0,0,0,0,0,0,0,0,0,0,0,0,0,0,0,0,0,0,0,0,0,0,0,0,0,0,0,0,0,0,0,0,0,0,0,0,0,0,0,0,0,0],"sum_hessian":[4.9963125E3,3.2834255E3,1.7128871E3,1.0952671E3,2.1881584E3,1.3281583E3,3.847287E2,7.532055E2,3.420616E2,1.0281166E3,1.1600419E3,1.0648889E2,1.2216694E3,8.6043785E1,2.986849E2,3.3651196E2,4.166935E2,1.7125067E1,3.2493655E2,9.8443317E2,4.3683388E1,7.787347E2,3.8130722E2,5.82292E1,4.8259697E1,1.1632681E3,5.8401405E1,2.5265554E1,6.0778233E1,4.905141E1,2.4963348E2,7.271057E1,2.638014E2,1.6956415E2,2.4712938E2,3.892671E0,1.3232396E1,1.3686308E2,1.8807346E2,7.215327E2,2.629004E2,2.7080772E1,1.6602617E1,4.4818738E2,3.305473E2,6.458096E1,3.1672623E2,1.3775509E1,4.445369E1,4.7032288E1,1.2274096E0,9.237442E1,1.0708937E3,2.5937653E1,3.2463753E1,1.11333685E1,1.4132187E1,5.7858162E1,2.9200723E0,4.3206814E1,5.844595E0,1.22836525E2,1.2679697E2],"tree_param":{"num_deleted":"0","num_feature":"110","num_nodes":"63","size_leaf_vector":"1"}},{"base_weights":[1.3372683E-3,5.141711E-1,-3.6776125E-1,1.2045689E0,3.663315E-1,-1.0743366E0,-1.0941313E-1,3.100655E-1,1.2513608E0,-2.5918984E-1,5.28227E-1,1.276054E0,-1.1393204E0,2.9560047E-1,-4.2833266E-1,7.9931974E-1,-8.9959556E-1,1.3190706E0,6.8191075E-1,3.5513523E-1,-5.409331E-1,2.6508963E-1,9.0364E-1,1.4236318E0,-1.3645465E-2,-1.2603955E0,-4.7630924E-1,-2.8119566E-2,6.0282654E-1,7.0595884E-1,-6.062867E-1,-6.8277635E-2,5.7422496E-2,-8.158794E-2,3.4067746E-2,6.704562E-2,1.1590152E-2,5.9655387E-2,-8.443116E-3,5.30904E-2,4.229586E-4,-7.144038E-2,-1.9599367E-2,4.031417E-2,2.2340126E-3,8.060205E-3,4.9320333E-2,7.766652E-2,-7.258343E-3,1.8055892E-2,-6.568346E-2,6.180137E-3,-5.1647604E-2,2.5636703E-2,-1.3787429E-2,3.4212448E-2,-5.828776E-2,5.815984E-2,1.4432102E-2,-3.447206E-2,1.4775219E-2],"categories":[],"categories_nodes":[],"categories_segments":[],"categories_sizes":[],"default_left":[0,0,0,0,0,0,0,0,0,0,0,0,0,0,0,0,0,0,0,0,0,0,0,0,0,0,0,0,0,0,0,0,0,0,0,0,0,0,0,0,0,0,0,0,0,0,0,0,0,0,0,0,0,0,0,0,0,0,0,0,0],"id":7,"left_children":[1,3,5,7,9,11,13,15,17,19,21,23,25,27,29,31,33,35,37,39,41,43,45,47,-1,49,51,53,55,57,59,-1,-1,-1,-1,-1,-1,-1,-1,-1,-1,-1,-1,-1,-1,-1,-1,-1,-1,-1,-1,-1,-1,-1,-1,-1,-1,-1,-1,-1,-1],"loss_changes":[9.4666614E2,2.1319495E2,5.3074664E2,1.5044861E1,1.7486221E2,1.2036255E2,2.7533582E2,1.235354E1,1.25979E1,6.1707146E1,1.3518973E2,5.284317E0,6.0255676E1,9.3427574E1,2.4112164E2,1.2547866E1,8.209365E0,7.093506E0,1.7280632E1,2.75158E1,3.1715363E1,9.62758E1,3.4530853E1,4.236912E0,0E0,5.5797302E1,3.9755974E1,6.152069E1,7.019693E1,3.0607933E1,7.753583E1,0E0,0E0,0E0,0E0,0E0,0E0,0E0,0E0,0E0,0E0,0E0,0E0,0E0,0E0,0E0,0E0,0E0,0E0,0E0,0E0,0E0,0E0,0E0,0E0,0E0,0E0,0E0,0E0,0E0,0E0],"parents":[2147483647,0,0,1,1,2,2,3,3,4,4,5,5,6,6,7,7,8,8,9,9,10,10,11,11,12,12,13,13,14,14,15,15,16,16,17,17,18,18,19,19,20,20,21,21,22,22,23,23,25,25,26,26,27,27,28,28,29,29,30,30],"right_children":[2,4,6,8,10,12,14,16,18,20,22,24,26,28,30,32,34,36,38,40,42,44,46,48,-1,50,52,54,56,58,60,-1,-1,-1,-1,-1,-1,-1,-1,-1,-1,-1,-1,-1,-1,-1,-1,-1,-1,-1,-1,-1,-1,-1,-1,-1,-1,-1,-1,-1,-1],"split_conditions":[5.75E-1,4.814406E0,5.1E1,3.4442E-2,1.04583696E-1,4.13E-1,-5.3E-1,2.71E-1,-2.29E-1,3.32E-1,1.6E-1,2.78E-1,1.35E-1,4.21E-1,7.78E-1,-3.414E-3,1.65E-1,5.2081E-2,4.0598E-2,3.55E-1,4.9E1,6.61E-1,7.071926E-2,1.7351134E-1,-1.3645465E-2,3.16E-1,-3.42E-1,6.37E-1,5.696031E-1,1E0,5.2E-1,-6.8277635E-2,5.7422496E-2,-8.158794E-2,3.4067746E-2,6.704562E-2,1.1590152E-2,5.9655387E-2,-8.443116E-3,5.30904E-2,4.229586E-4,-7.144038E-2,-1.9599367E-2,4.031417E-2,2.2340126E-3,8.060205E-3,4.9320333E-2,7.766652E-2,-7.258343E-3,1.8055892E-2,-6.568346E-2,6.180137E-3,-5.1647604E-2,2.5636703E-2,-1.3787429E-2,3.4212448E-2,-5.828776E-2,5.815984E-2,1.4432102E-2,-3.447206E-2,1.4775219E-2],"split_indices":[25,43,0,69,63,89,32,25,32,25,13,41,11,33,89,102,13,45,45,73,0,89,31,103,0,81,32,81,63,1,12,0,0,0,0,0,0,0,0,0,0,0,0,0,0,0,0,0,0,0,0,0,0,0,0,0,0,0,0,0,0],"split_type":[0,0,0,0,0,0,0,0,0,0,0,0,0,0,0,0,0,0,0,0,0,0,0,0,0,0,0,0,0,0,0,0,0,0,0,0,0,0,0,0,0,0,0,0,0,0,0,0,0,0,0,0,0,0,0,0,0,0,0,0,0],"sum_hessian":[4.999243E3,2.0920747E3,2.9071687E3,3.677177E2,1.7243569E3,7.775182E2,2.1296504E3,1.8658419E1,3.490593E2,3.5440988E2,1.369947E3,2.0417116E1,7.571011E2,9.3822266E2,1.1914279E3,1.3526691E1,5.1317267E0,3.1078894E2,3.8270336E1,1.1135222E2,2.4305766E2,8.0641473E2,5.635323E2,1.8714958E1,1.702158E0,6.3943097E2,1.1767009E2,4.5729034E2,4.8093228E2,1.6116753E2,1.0302603E3,1.4742043E0,1.2052487E1,3.4854305E0,1.6462963E0,3.0443985E2,6.349099E0,2.3654732E1,1.4615603E1,3.596911E1,7.538311E1,3.368236E1,2.093753E2,2.3260867E2,5.73806E2,5.6817135E1,5.0671515E2,1.7294975E1,1.4199826E0,2.0155987E1,6.19275E2,5.7008324E1,6.0661766E1,1.4327931E2,3.1401105E2,4.6035162E2,2.0580664E1,7.605247E1,8.511507E1,9.434957E2,8.676456E1],"tree_param":{"num_deleted":"0","num_feature":"110","num_nodes":"61","size_leaf_vector":"1"}},{"base_weights":[-8.254707E-3,2.5049376E-1,-6.653016E-1,8.0580044E-1,-2.6018156E-2,7.355069E-1,-8.136895E-1,6.3314706E-1,1.1952173E0,3.038599E-1,-3.079728E-1,1.3351736E0,2.3407401E-1,4.8027858E-1,-9.200507E-1,1.1284168E0,4.14691E-1,1.4259928E0,1.0442451E0,7.045953E-1,1.0900057E-1,-5.9538907E-1,2.638418E-1,4.8895237E-1,1.4657682E0,-4.0330157E-1,7.1371627E-1,1.585012E-1,1.3084308E0,-1.21754885E-1,-1.0135093E0,-1.9814393E-2,5.7893302E-2,5.4864794E-2,1.4159585E-2,7.256353E-2,1.4750073E-2,5.315704E-2,-6.59449E-2,3.7870884E-2,-7.226703E-2,-2.6894972E-2,1.1826094E-2,5.2868444E-2,-3.3485614E-2,2.6395617E-2,-1.0289802E-2,5.7035286E-2,-4.466501E-2,7.502081E-2,-1.4421011E-3,5.1434256E-2,-5.234052E-2,-1.1896758E-3,5.1242143E-2,-2.9232565E-2,3.8499568E-2,7.110821E-2,-1.1470883E-2,3.65394E-2,-3.2932337E-2,-5.273482E-2,2.247622E-2],"categories":[],"categories_nodes":[],"categories_segments":[],"categories_sizes":[],"default_left":[0,0,0,0,1,0,0,0,0,0,0,0,0,0,0,0,1,0,0,0,0,0,0,0,0,0,0,0,0,0,0,0,0,0,0,0,0,0,0,0,0,0,0,0,0,0,0,0,0,0,0,0,0,0,0,0,0,0,0,0,0,0,0],"id":8,"left_children":[1,3,5,7,9,11,13,15,17,19,21,23,25,27,29,31,33,35,37,39,41,43,45,47,49,51,53,55,57,59,61,-1,-1,-1,-1,-1,-1,-1,-1,-1,-1,-1,-1,-1,-1,-1,-1,-1,-1,-1,-1,-1,-1,-1,-1,-1,-1,-1,-1,-1,-1,-1,-1],"loss_changes":[8.4325555E2,5.464484E2,2.918985E2,7.878076E1,2.2114824E2,4.0207893E1,1.7490552E2,8.843942E1,1.1132263E1,8.54874E1,2.1083676E2,6.041641E0,2.3094648E1,2.562535E1,8.729492E1,1.1726196E1,5.1015274E1,3.5894775E0,1.1347733E1,4.178633E1,6.1043922E1,1.0553952E2,5.337364E1,9.736519E0,2.7608795E0,3.1184675E1,9.874916E0,3.269294E1,5.0466614E0,5.7209244E1,6.36709E1,0E0,0E0,0E0,0E0,0E0,0E0,0E0,0E0,0E0,0E0,0E0,0E0,0E0,0E0,0E0,0E0,0E0,0E0,0E0,0E0,0E0,0E0,0E0,0E0,0E0,0E0,0E0,0E0,0E0,0E0,0E0,0E0],"parents":[2147483647,0,0,1,1,2,2,3,3,4,4,5,5,6,6,7,7,8,8,9,9,10,10,11,11,12,12,13,13,14,14,15,15,16,16,17,17,18,18,19,19,20,20,21,21,22,22,23,23,24,24,25,25,26,26,27,27,28,28,29,29,30,30],"right_children":[2,4,6,8,10,12,14,16,18,20,22,24,26,28,30,32,34,36,38,40,42,44,46,48,50,52,54,56,58,60,62,-1,-1,-1,-1,-1,-1,-1,-1,-1,-1,-1,-1,-1,-1,-1,-1,-1,-1,-1,-1,-1,-1,-1,-1,-1,-1,-1,-1,-1,-1,-1,-1],"split_conditions":[-3.21E-1,6.17E-2,5.97E-1,1.75E-1,7E-1,3.96E-1,7.87E-1,6.61E-1,5.96E-1,9.63E-1,1.7E-1,1.8996623E-1,1.4519246E-1,-3.07E-1,3.21E-1,5.5403322E-2,7E-2,6.82E-1,7.602E-3,5.96912E-1,5.01E-1,3.16E-1,-5.53E-1,-5.2E-5,1.99108E-1,3.16E-1,1.15E-1,1.2138E-1,2.028E-3,1E0,-3.46E-1,-1.9814393E-2,5.7893302E-2,5.4864794E-2,1.4159585E-2,7.256353E-2,1.4750073E-2,5.315704E-2,-6.59449E-2,3.7870884E-2,-7.226703E-2,-2.6894972E-2,1.1826094E-2,5.2868444E-2,-3.3485614E-2,2.6395617E-2,-1.0289802E-2,5.7035286E-2,-4.466501E-2,7.502081E-2,-1.4421011E-3,5.1434256E-2,-5.234052E-2,-1.1896758E-3,5.1242143E-2,-2.9232565E-2,3.8499568E-2,7.110821E-2,-1.1470883E-2,3.65394E-2,-3.2932337E-2,-5.273482E-2,2.247622E-2],"split_indices":[32,45,89,13,6,89,106,89,81,89,13,71,63,40,73,20,11,57,54,77,49,81,32,14,5,81,11,77,54,1,40,0,0,0,0,0,0,0,0,0,0,0,0,0,0,0,0,0,0,0,0,0,0,0,0,0,0,0,0,0,0,0,0],"split_type":[0,0,0,0,0,0,0,0,0,0,0,0,0,0,0,0,0,0,0,0,0,0,0,0,0,0,0,0,0,0,0,0,0,0,0,0,0,0,0,0,0,0,0,0,0,0,0,0,0,0,0,0,0,0,0,0,0,0,0,0,0,0,0],"sum_hessian":[4.9580576E3,3.5576538E3,1.4004038E3,1.1819939E3,2.3756602E3,1.3375696E2,1.2666469E3,8.207353E2,3.6125858E2,1.0947543E3,1.2809058E3,6.015477E1,7.360219E1,9.594039E1,1.1707064E3,2.4993443E2,5.7080084E2,1.395292E2,2.2172935E2,3.573123E2,7.37442E2,8.5241003E2,4.284957E2,8.676596E0,5.1478176E1,3.1672781E1,4.192941E1,6.995203E1,2.5988369E1,1.2293493E2,1.0477715E3,4.499908E0,2.4543452E2,9.101308E1,4.7978778E2,1.3620189E2,3.3273156E0,2.2051624E2,1.2131242E0,3.493761E2,7.9362135E0,1.2090214E2,6.1653986E2,3.61134E1,8.1629663E2,2.7419547E2,1.5430022E2,6.0151215E0,2.661474E0,5.030805E1,1.1701267E0,9.634585E0,2.2038195E1,1.2714308E1,2.9215101E1,3.1596386E1,3.8355637E1,2.426877E1,1.7195992E0,4.7363766E1,7.557116E1,1.01935394E3,2.8417576E1],"tree_param":{"num_deleted":"0","num_feature":"110","num_nodes":"63","size_leaf_vector":"1"}},{"base_weights":[-3.7263343E-3,8.9706755E-1,-1.6954778E-1,1.1614635E0,6.075948E-1,1.0875446E-1,-7.3983455E-1,1.2155398E0,5.131222E-2,2.758633E-1,8.5145473E-1,5.4315764E-1,-7.219071E-2,2.655275E-1,-8.540005E-1,1.4029003E0,1.0244583E0,1.0000201E0,-1.4862301E0,7.690156E-1,-1.290868E-1,9.2035484E-1,-7.0113826E-1,1.2663119E0,4.2395785E-1,-3.025046E-1,2.537116E-1,-2.6257446E-1,8.179848E-1,3.0803412E-1,-9.030137E-1,7.25244E-2,3.8764846E-2,-2.6189199E-2,5.2839827E-2,-2.9081216E-2,6.664554E-2,3.780822E-3,-8.843895E-2,5.029125E-2,1.1101824E-2,2.3287239E-2,-3.997307E-2,-2.9843157E-2,4.831417E-2,-6.861208E-2,5.69538E-2,6.5843076E-2,-3.916007E-2,4.051825E-2,1.0115177E-2,-9.0046704E-4,-3.0269293E-2,3.286462E-2,3.1594005E-3,3.956239E-2,-4.749566E-2,7.265707E-3,5.0923724E-2,2.7405981E-2,-6.1335325E-2,-2.2642638E-3,-4.9085137E-2],"categories":[],"categories_nodes":[],"categories_segments":[],"categories_sizes":[],"default_left":[0,0,0,0,0,0,0,0,0,0,0,1,0,0,0,0,0,0,0,0,0,0,0,0,0,0,0,0,0,0,0,0,0,0,0,0,0,0,0,0,0,0,0,0,0,0,0,0,0,0,0,0,0,0,0,0,0,0,0,0,0,0,0],"id":9,"left_children":[1,3,5,7,9,11,13,15,17,19,21,23,25,27,29,31,33,35,37,39,41,43,45,47,49,51,53,55,57,59,61,-1,-1,-1,-1,-1,-1,-1,-1,-1,-1,-1,-1,-1,-1,-1,-1,-1,-1,-1,-1,-1,-1,-1,-1,-1,-1,-1,-1,-1,-1,-1,-1],"loss_changes":[7.355688E2,5.7888306E1,6.601396E2,2.3892273E1,2.9498901E1,2.1979697E2,1.5679071E2,1.21831665E1,3.0044363E1,3.1492653E1,2.3254715E1,7.033902E1,1.4828688E2,4.102098E1,7.005908E1,4.531708E0,1.0169495E1,7.464733E0,3.6080208E0,8.976517E0,3.5134693E1,1.4709015E1,1.3355147E1,1.3033508E1,6.042224E1,9.9720695E1,6.2867752E1,5.3096146E1,9.10355E0,1.921791E1,7.931891E1,0E0,0E0,0E0,0E0,0E0,0E0,0E0,0E0,0E0,0E0,0E0,0E0,0E0,0E0,0E0,0E0,0E0,0E0,0E0,0E0,0E0,0E0,0E0,0E0,0E0,0E0,0E0,0E0,0E0,0E0,0E0,0E0],"parents":[2147483647,0,0,1,1,2,2,3,3,4,4,5,5,6,6,7,7,8,8,9,9,10,10,11,11,12,12,13,13,14,14,15,15,16,16,17,17,18,18,19,19,20,20,21,21,22,22,23,23,24,24,25,25,26,26,27,27,28,28,29,29,30,30],"right_children":[2,4,6,8,10,12,14,16,18,20,22,24,26,28,30,32,34,36,38,40,42,44,46,48,50,52,54,56,58,60,62,-1,-1,-1,-1,-1,-1,-1,-1,-1,-1,-1,-1,-1,-1,-1,-1,-1,-1,-1,-1,-1,-1,-1,-1,-1,-1,-1,-1,-1,-1,-1,-1],"split_conditions":[6.19E-1,1E0,-3.42E-1,4.44846E-1,1.328089E1,1.0271273E1,4.68E-1,3.96E-1,1.12799E-1,4.27E-1,2.6061963E2,6E-2,4.229139E1,6.8655E-2,2.49E-1,1.2707E-1,3.38E-1,7.4923925E-2,2.46E-1,7.0965E-2,-1.933E-3,-1.0203E-2,1.159E0,2.452574E-1,6.7E-1,1E0,1.34682E-1,5.183209E0,-1.691E0,1.135E-3,-1.323E0,7.25244E-2,3.8764846E-2,-2.6189199E-2,5.2839827E-2,-2.9081216E-2,6.664554E-2,3.780822E-3,-8.843895E-2,5.029125E-2,1.1101824E-2,2.3287239E-2,-3.997307E-2,-2.9843157E-2,4.831417E-2,-6.861208E-2,5.69538E-2,6.5843076E-2,-3.916007E-2,4.051825E-2,1.0115177E-2,-9.0046704E-4,-3.0269293E-2,3.286462E-2,3.1594005E-3,3.956239E-2,-4.749566E-2,7.265707E-3,5.0923724E-2,2.7405981E-2,-6.1335325E-2,-2.2642638E-3,-4.9085137E-2],"split_indices":[89,1,32,77,35,43,25,89,21,89,67,11,67,69,73,109,58,47,25,21,22,14,65,15,6,1,93,27,72,54,88,0,0,0,0,0,0,0,0,0,0,0,0,0,0,0,0,0,0,0,0,0,0,0,0,0,0,0,0,0,0,0,0],"split_type":[0,0,0,0,0,0,0,0,0,0,0,0,0,0,0,0,0,0,0,0,0,0,0,0,0,0,0,0,0,0,0,0,0,0,0,0,0,0,0,0,0,0,0,0,0,0,0,0,0,0,0,0,0,0,0,0,0,0,0,0,0,0,0],"sum_hessian":[4.922426E3,7.645798E2,4.1578457E3,3.98024E2,3.6655576E2,2.7947876E3,1.3630582E3,3.7944592E2,1.8578064E1,1.5620108E2,2.1035469E2,8.2122766E2,1.9735599E3,1.3886519E2,1.2241931E3,1.8838632E2,1.910596E2,1.1705211E1,6.872853E0,7.002495E1,8.6176125E1,2.0180626E2,8.5484295E0,1.14848465E2,7.063792E2,1.1564049E3,8.17155E2,7.126585E1,6.7599335E1,4.9331326E1,1.1748617E3,1.7389006E2,1.4496258E1,3.5981114E0,1.8746149E2,1.9053302E0,9.79988E0,1.1650692E0,5.7077837E0,4.8282593E1,2.1742357E1,4.5822502E1,4.0353622E1,5.577037E0,1.9622922E2,6.450365E0,2.0980644E0,1.1243288E2,2.4155903E0,2.5652554E2,4.4985367E2,5.968476E2,5.595573E2,2.6126816E2,5.5588684E2,2.8073147E1,4.31927E1,1.5917776E1,5.168156E1,4.3214043E1,6.1172833E0,9.885839E1,1.0760034E3],"tree_param":{"num_deleted":"0","num_feature":"110","num_nodes":"63","size_leaf_vector":"1"}},{"base_weights":[1.7750366E-3,4.47328E-1,-3.22349E-1,3.033008E-1,1.0085137E0,-6.165595E-1,9.345779E-2,1.5090907E-1,8.8897705E-1,1.2369772E0,8.2237643E-1,1.0416186E0,-6.816352E-1,4.048676E-1,-1.6786434E-1,1.0057831E0,6.020298E-2,-2.4279761E-1,9.471191E-1,2.085241E-1,1.2691715E0,1.7568652E-1,9.589306E-1,-6.795389E-2,1.181945E0,-2.3233046E-1,-8.426409E-1,1.0796839E0,2.5194538E-1,-6.302657E-1,4.2503815E-2,5.9447855E-2,9.380072E-3,3.8844015E-2,-2.2962706E-3,6.156798E-2,-4.214139E-2,4.9120873E-2,-3.4752812E-2,-7.016598E-2,4.498994E-2,3.4922276E-2,6.5749794E-2,-7.4337767E-3,6.11142E-2,5.1184E-2,-4.3119542E-2,6.2101483E-2,-4.8681E-2,2.3296138E-2,-2.4124496E-2,-4.6189345E-2,6.0268417E-3,-1.842617E-2,5.88726E-2,3.6862344E-3,4.2170793E-2,-3.5273213E-2,4.1760687E-2,6.5130997E-3,-7.700821E-2],"categories":[],"categories_nodes":[],"categories_segments":[],"categories_sizes":[],"default_left":[0,0,0,1,0,0,0,0,0,0,0,0,0,1,0,0,1,0,0,0,0,0,0,0,0,0,0,0,0,0,0,0,0,0,0,0,0,0,0,0,0,0,0,0,0,0,0,0,0,0,0,0,0,0,0,0,0,0,0,0,0],"id":10,"left_children":[1,3,5,7,9,11,13,15,17,19,21,23,25,27,29,31,33,35,37,39,41,43,45,-1,47,49,51,53,55,57,59,-1,-1,-1,-1,-1,-1,-1,-1,-1,-1,-1,-1,-1,-1,-1,-1,-1,-1,-1,-1,-1,-1,-1,-1,-1,-1,-1,-1,-1,-1],"loss_changes":[7.068907E2,1.6630191E2,3.4670084E2,1.4639629E2,1.6867157E1,1.7978723E2,9.5688644E1,1.0105316E2,2.2522644E1,5.9212646E0,2.0560028E1,2.285196E1,1.1536719E2,5.5083588E1,6.2242996E1,1.851403E1,8.978315E1,1.6383951E1,1.937265E1,8.914596E0,3.8141785E0,1.4489976E1,2.37117E1,0E0,8.995483E0,7.407932E1,9.199951E1,1.44225235E1,4.617406E1,2.2635948E1,6.1387634E1,0E0,0E0,0E0,0E0,0E0,0E0,0E0,0E0,0E0,0E0,0E0,0E0,0E0,0E0,0E0,0E0,0E0,0E0,0E0,0E0,0E0,0E0,0E0,0E0,0E0,0E0,0E0,0E0,0E0,0E0],"parents":[2147483647,0,0,1,1,2,2,3,3,4,4,5,5,6,6,7,7,8,8,9,9,10,10,11,11,12,12,13,13,14,14,15,15,16,16,17,17,18,18,19,19,20,20,21,21,22,22,24,24,25,25,26,26,27,27,28,28,29,29,30,30],"right_children":[2,4,6,8,10,12,14,16,18,20,22,24,26,28,30,32,34,36,38,40,42,44,46,-1,48,50,52,54,56,58,60,-1,-1,-1,-1,-1,-1,-1,-1,-1,-1,-1,-1,-1,-1,-1,-1,-1,-1,-1,-1,-1,-1,-1,-1,-1,-1,-1,-1,-1,-1],"split_conditions":[5.79E-1,-3.39E-1,1.2207192E1,1.75E-1,6.468676E-2,2.9E-1,1.481994E-1,3.33E-1,5.26E-1,-4.596E-3,7.16E-1,5.0231315E-2,-1.399E0,7E-2,1.8562837E-1,6.74E-4,7E-2,6.5E-2,4.7083524E-1,2.47E-3,-3.16E-1,-2.29E-1,4.3808954E2,-6.795389E-2,3.253E-3,6.59E-1,1.85E-1,4.11E-1,1.949E0,5.4E-1,6.1367834E-1,5.9447855E-2,9.380072E-3,3.8844015E-2,-2.2962706E-3,6.156798E-2,-4.214139E-2,4.9120873E-2,-3.4752812E-2,-7.016598E-2,4.498994E-2,3.4922276E-2,6.5749794E-2,-7.4337767E-3,6.11142E-2,5.1184E-2,-4.3119542E-2,6.2101483E-2,-4.8681E-2,2.3296138E-2,-2.4124496E-2,-4.6189345E-2,6.0268417E-3,-1.842617E-2,5.88726E-2,3.6862344E-3,4.2170793E-2,-3.5273213E-2,4.1760687E-2,6.5130997E-3,-7.700821E-2],"split_indices":[25,40,51,13,39,81,44,81,50,38,66,31,80,11,63,86,11,11,87,54,40,40,83,0,22,81,11,17,34,12,63,0,0,0,0,0,0,0,0,0,0,0,0,0,0,0,0,0,0,0,0,0,0,0,0,0,0,0,0,0,0],"split_type":[0,0,0,0,0,0,0,0,0,0,0,0,0,0,0,0,0,0,0,0,0,0,0,0,0,0,0,0,0,0,0,0,0,0,0,0,0,0,0,0,0,0,0,0,0,0,0,0,0,0,0,0,0,0,0,0,0,0,0,0,0],"sum_hessian":[4.8928774E3,2.0603137E3,2.832564E3,1.6407571E3,4.195566E2,1.6585492E3,1.1740148E3,1.3029817E3,3.3777542E2,1.8582762E2,2.3372897E2,6.2065575E1,1.5964835E3,5.354206E2,6.385941E2,1.240226E2,1.1789591E3,1.6349297E1,3.2142612E2,5.8674445E0,1.7996017E2,4.114799E1,1.92581E2,2.9479032E0,5.9117672E1,4.218119E2,1.1746716E3,9.779772E1,4.376229E2,1.9905772E2,4.395364E2,1.0096537E2,2.305723E1,1.512511E2,1.027708E3,4.425223E0,1.1924074E1,3.150558E2,6.3703327E0,1.4519322E0,4.4155126E0,1.4582484E1,1.653777E2,3.2067543E1,9.080447E0,1.8639253E2,6.1884503E0,5.792681E1,1.1908599E0,1.11032326E2,3.1077957E2,1.083435E3,9.123661E1,6.0096273E0,9.178809E1,3.3715628E2,1.00466606E2,1.8983527E2,9.222449E0,4.1731424E2,2.222218E1],"tree_param":{"num_deleted":"0","num_feature":"110","num_nodes":"61","size_leaf_vector":"1"}},{"base_weights":[-1.0396521E-2,8.22653E-1,-1.7608128E-1,1.1651961E0,5.8705515E-1,8.5630156E-2,-7.233149E-1,1.2313231E0,2.3728356E-1,1.0540937E0,4.1647816E-1,-1.4903404E-1,4.3970346E-1,-6.628822E-2,-8.832523E-1,1.3733054E0,1.0298715E0,8.8236016E-1,-8.802947E-2,7.676046E-1,1.3055382E0,4.866758E-1,-9.4122237E-1,1.7853828E-1,-4.647882E-1,9.801692E-1,2.5952286E-1,1.0909488E0,-2.3249586E-1,8.1753165E-1,-9.105558E-1,-6.793177E-3,6.918331E-2,3.489948E-2,6.0133424E-2,6.090636E-2,-2.304854E-2,-2.3990793E-2,4.6048116E-2,6.803452E-2,-7.587732E-4,4.4478945E-2,8.867396E-3,-7.182196E-2,6.2336452E-2,1.323199E-3,4.2381473E-2,1.9636312E-2,-2.9693529E-2,5.0775338E-2,-7.509732E-2,3.2231674E-2,1.2695049E-3,8.920455E-3,6.880503E-2,-2.4706839E-2,2.4548313E-2,5.783192E-2,-3.0987455E-2,-4.86378E-2,-8.4030675E-3],"categories":[],"categories_nodes":[],"categories_segments":[],"categories_sizes":[],"default_left":[0,0,0,0,0,0,0,0,0,0,0,0,1,1,0,1,0,0,0,0,0,0,0,0,0,0,0,0,0,0,0,0,0,0,0,0,0,0,0,0,0,0,0,0,0,0,0,0,0,0,0,0,0,0,0,0,0,0,0,0,0],"id":11,"left_children":[1,3,5,7,9,11,13,15,17,19,21,23,25,27,29,31,33,35,-1,37,39,41,43,45,47,49,51,53,55,57,59,-1,-1,-1,-1,-1,-1,-1,-1,-1,-1,-1,-1,-1,-1,-1,-1,-1,-1,-1,-1,-1,-1,-1,-1,-1,-1,-1,-1,-1,-1],"loss_changes":[6.692514E2,6.4232666E1,5.7928613E2,1.9759277E1,3.7690125E1,2.2746364E2,1.3744794E2,7.303894E0,3.1166445E1,8.174316E0,3.4027744E1,1.7040533E2,1.0600055E2,4.973478E1,4.9610046E1,2.9367676E0,6.616455E0,8.696333E0,0E0,1.229702E1,4.858383E0,4.166388E1,2.0922138E1,8.228938E1,9.307498E1,2.5422272E1,7.389099E1,8.207169E0,4.297851E1,9.077021E0,4.7688843E1,0E0,0E0,0E0,0E0,0E0,0E0,0E0,0E0,0E0,0E0,0E0,0E0,0E0,0E0,0E0,0E0,0E0,0E0,0E0,0E0,0E0,0E0,0E0,0E0,0E0,0E0,0E0,0E0,0E0,0E0],"parents":[2147483647,0,0,1,1,2,2,3,3,4,4,5,5,6,6,7,7,8,8,9,9,10,10,11,11,12,12,13,13,14,14,15,15,16,16,17,17,19,19,20,20,21,21,22,22,23,23,24,24,25,25,26,26,27,27,28,28,29,29,30,30],"right_children":[2,4,6,8,10,12,14,16,18,20,22,24,26,28,30,32,34,36,-1,38,40,42,44,46,48,50,52,54,56,58,60,-1,-1,-1,-1,-1,-1,-1,-1,-1,-1,-1,-1,-1,-1,-1,-1,-1,-1,-1,-1,-1,-1,-1,-1,-1,-1,-1,-1,-1,-1],"split_conditions":[6.39E-1,3.96E-1,-3.42E-1,2.20103E-1,-7.62E-1,1.6E-1,9.011188E-2,1E0,1.8322936E-1,1.777546E1,2.3361435E2,7E-1,7E-2,5.5E-2,2.78E-1,5E0,9.92E-2,-3.18E-1,-8.802947E-2,9.607689E0,5.250006E2,1E0,5.126E0,-4.46E-1,5.7909E-2,2.8764448E-1,6.6142E-2,5.1342E-2,6.574358E-2,9.3E-5,4.9E-1,-6.793177E-3,6.918331E-2,3.489948E-2,6.0133424E-2,6.090636E-2,-2.304854E-2,-2.3990793E-2,4.6048116E-2,6.803452E-2,-7.587732E-4,4.4478945E-2,8.867396E-3,-7.182196E-2,6.2336452E-2,1.323199E-3,4.2381473E-2,1.9636312E-2,-2.9693529E-2,5.0775338E-2,-7.509732E-2,3.2231674E-2,1.2695049E-3,8.920455E-3,6.880503E-2,-2.4706839E-2,2.4548313E-2,5.783192E-2,-3.0987455E-2,-4.86378E-2,-8.4030675E-3],"split_indices":[89,89,32,69,96,13,44,1,15,27,67,6,11,11,81,8,85,96,0,8,75,1,66,40,109,39,29,69,47,54,12,0,0,0,0,0,0,0,0,0,0,0,0,0,0,0,0,0,0,0,0,0,0,0,0,0,0,0,0,0,0],"split_type":[0,0,0,0,0,0,0,0,0,0,0,0,0,0,0,0,0,0,0,0,0,0,0,0,0,0,0,0,0,0,0,0,0,0,0,0,0,0,0,0,0,0,0,0,0,0,0,0,0,0,0,0,0,0,0,0,0,0,0,0,0],"sum_hessian":[4.846769E3,8.033956E2,4.0433733E3,3.2578342E2,4.776122E2,2.735824E3,1.3075492E3,3.038059E2,2.1977503E1,1.2638669E2,3.5122552E2,1.6457034E3,1.0901207E3,2.562565E2,1.0512927E3,1.7479443E2,1.2901147E2,1.7035427E1,4.942077E0,6.097088E1,6.541581E1,3.3456876E2,1.6656769E1,8.0794885E2,8.377545E2,2.7144882E2,8.186718E2,3.1483784E1,2.247727E2,1.6152937E1,1.0351398E3,1.1092347E0,1.736852E2,4.589767E1,8.3113815E1,1.370344E1,3.3319862E0,6.4420595E0,5.4528816E1,6.2764538E1,2.651275E0,1.4449132E2,1.9007744E2,1.386261E1,2.7941592E0,6.591692E2,1.4877965E2,1.0934125E2,7.2841327E2,2.6822107E2,3.2277656E0,3.0887274E2,5.0979907E2,7.8828473E0,2.3600937E1,1.6530643E2,5.9466278E1,1.3227377E1,2.925559E0,9.548408E2,8.029895E1],"tree_param":{"num_deleted":"0","num_feature":"110","num_nodes":"61","size_leaf_vector":"1"}},{"base_weights":[5.6677274E-3,-7.583107E-1,1.9980334E-1,4.460764E-1,-9.111097E-1,7.03267E-1,1.0868772E-2,1.0689951E0,-5.782545E-1,-1.0274155E0,-8.8582136E-2,9.639017E-1,4.48469E-1,2.3625548E-1,-3.1528232E-1,1.2143574E0,-3.2499313E-1,4.3879083E-1,-1.2558703E0,-1.2785357E0,-7.756746E-1,-3.31366E-1,1.0405172E0,1.0437288E0,-1.9780542E-1,-1.4239784E-1,6.9977725E-1,3.241136E-2,6.1313593E-1,8.452098E-2,-5.9366965E-1,6.38503E-2,-5.559504E-2,3.593236E-2,-7.0960574E-2,6.547994E-2,-4.0297654E-2,-8.941665E-3,-8.691188E-2,-6.680002E-2,-1.2584545E-2,-5.5471625E-2,-2.1699714E-2,4.9690865E-2,-2.4685591E-2,6.887784E-2,-4.0891353E-2,6.45735E-2,4.4402257E-2,4.6916205E-2,-5.4481424E-2,5.6254555E-2,-2.3047755E-2,3.7300516E-2,-2.6436001E-2,2.9575393E-2,-5.441644E-3,4.6825927E-2,1.5630836E-2,-2.4073666E-2,1.5375632E-2,5.7744928E-2,-3.1772275E-2],"categories":[],"categories_nodes":[],"categories_segments":[],"categories_sizes":[],"default_left":[0,0,0,0,0,0,0,0,0,0,0,0,0,1,0,0,0,0,0,0,0,0,0,0,0,0,0,0,0,0,0,0,0,0,0,0,0,0,0,0,0,0,0,0,0,0,0,0,0,0,0,0,0,0,0,0,0,0,0,0,0,0,0],"id":12,"left_children":[1,3,5,7,9,11,13,15,17,19,21,23,25,27,29,31,33,35,37,39,41,43,45,47,49,51,53,55,57,59,61,-1,-1,-1,-1,-1,-1,-1,-1,-1,-1,-1,-1,-1,-1,-1,-1,-1,-1,-1,-1,-1,-1,-1,-1,-1,-1,-1,-1,-1,-1,-1,-1],"loss_changes":[7.2304846E2,1.8219073E2,3.6975415E2,7.200798E1,8.3799255E1,7.000781E1,2.0792822E2,1.4563759E1,3.015649E1,4.7570984E1,3.042475E1,4.875107E1,8.0020424E1,1.2848053E2,1.2870332E2,1.0678955E1,9.461288E0,2.04775E1,1.3217758E1,2.2265015E1,4.3555923E1,2.0083141E1,1.3440727E1,1.7751038E1,3.5977215E1,6.570252E1,2.1851562E1,8.587001E1,5.676021E1,6.0144215E1,5.051979E1,0E0,0E0,0E0,0E0,0E0,0E0,0E0,0E0,0E0,0E0,0E0,0E0,0E0,0E0,0E0,0E0,0E0,0E0,0E0,0E0,0E0,0E0,0E0,0E0,0E0,0E0,0E0,0E0,0E0,0E0,0E0,0E0],"parents":[2147483647,0,0,1,1,2,2,3,3,4,4,5,5,6,6,7,7,8,8,9,9,10,10,11,11,12,12,13,13,14,14,15,15,16,16,17,17,18,18,19,19,20,20,21,21,22,22,23,23,24,24,25,25,26,26,27,27,28,28,29,29,30,30],"right_children":[2,4,6,8,10,12,14,16,18,20,22,24,26,28,30,32,34,36,38,40,42,44,46,48,50,52,54,56,58,60,62,-1,-1,-1,-1,-1,-1,-1,-1,-1,-1,-1,-1,-1,-1,-1,-1,-1,-1,-1,-1,-1,-1,-1,-1,-1,-1,-1,-1,-1,-1,-1,-1],"split_conditions":[5.1E1,6.9288E-2,8.46E-1,1E0,-4.98E-1,1E0,1E0,1.523105E-1,-1.371E0,4E1,1.1574884E-1,4.00834E-1,6.5E1,1.7E-1,6.9E-1,1.12E0,1.9535235E-1,3.85E-1,-2.511E-3,4.7187427E-1,1.6064428E-1,5.27E-1,2.681E0,1.246E0,3.9453608E-1,2.78E-1,5.083806E-1,6.59E-1,6.8281E-2,4.95E-1,1.96E-1,6.38503E-2,-5.559504E-2,3.593236E-2,-7.0960574E-2,6.547994E-2,-4.0297654E-2,-8.941665E-3,-8.691188E-2,-6.680002E-2,-1.2584545E-2,-5.5471625E-2,-2.1699714E-2,4.9690865E-2,-2.4685591E-2,6.887784E-2,-4.0891353E-2,6.45735E-2,4.4402257E-2,4.6916205E-2,-5.4481424E-2,5.6254555E-2,-2.3047755E-2,3.7300516E-2,-2.6436001E-2,2.9575393E-2,-5.441644E-3,4.6825927E-2,1.5630836E-2,-2.4073666E-2,1.5375632E-2,5.7744928E-2,-3.1772275E-2],"split_indices":[0,101,89,1,40,1,1,95,72,0,47,77,0,13,6,6,87,81,54,79,63,42,82,90,63,81,63,81,29,49,73,0,0,0,0,0,0,0,0,0,0,0,0,0,0,0,0,0,0,0,0,0,0,0,0,0,0,0,0,0,0,0,0],"split_type":[0,0,0,0,0,0,0,0,0,0,0,0,0,0,0,0,0,0,0,0,0,0,0,0,0,0,0,0,0,0,0,0,0,0,0,0,0,0,0,0,0,0,0,0,0,0,0,0,0,0,0,0,0,0,0,0,0,0,0,0,0,0,0],"sum_hessian":[4.8730513E3,9.8680176E2,3.8862498E3,1.10883156E2,8.7591864E2,1.0596973E3,2.8265522E3,6.892482E1,4.195834E1,7.6718866E2,1.08729965E2,5.2247296E2,5.372243E2,1.6716407E3,1.1549116E3,6.253288E1,6.3919396E0,1.6918108E1,2.5040234E1,3.8202594E2,3.8516272E2,9.0069374E1,1.8660587E1,4.889745E2,3.3498497E1,1.6043909E2,3.7678522E2,1.0855714E3,5.860693E2,4.7436014E2,6.805515E2,6.1332188E1,1.2006912E0,3.4472575E0,2.9446821E0,9.923584E0,6.9945235E0,8.169652E0,1.6870583E1,3.6149478E2,2.0531162E1,1.9370352E2,1.9145918E2,9.271024E0,8.0798355E1,1.6014778E1,2.6458094E0,1.8588235E2,3.0309213E2,1.4708545E1,1.8789951E1,3.1715662E1,1.2872343E2,3.6349814E2,1.3287085E1,2.1829439E2,8.6727704E2,2.812768E2,3.0479248E2,1.3374112E2,3.4061902E2,1.5258231E1,6.652933E2],"tree_param":{"num_deleted":"0","num_feature":"110","num_nodes":"63","size_leaf_vector":"1"}},{"base_weights":[2.1241214E-2,-7.155697E-1,2.0407428E-1,-9.0897423E-1,2.3957781E-1,6.96033E-1,1.7425029E-2,8.8730544E-1,-9.600283E-1,-2.2907326E-1,7.6082593E-1,1.0354332E0,5.2113914E-1,5.9390396E-1,-9.347013E-2,-7.237288E-2,1.1745079E0,-1.1939898E0,-6.378675E-1,1.1326779E0,-5.6721485E-1,8.808185E-1,-1.0447556E0,1.0785387E0,-1.7354439E-1,1.252681E-1,7.356861E-1,9.344629E-1,2.7698007E-1,-4.2957163E-1,9.4259806E-2,-2.5974756E-2,6.711933E-2,-6.051079E-2,4.1930776E-2,2.3001812E-2,-4.000328E-2,-1.5423623E-2,6.358713E-2,1.0795287E-2,-5.0319802E-2,2.6343713E-2,7.019001E-2,-7.3410265E-2,1.2861565E-2,6.1686154E-2,4.4243958E-2,2.7282178E-2,-7.598845E-2,3.7603464E-2,-7.044711E-3,4.1987576E-2,-1.0933938E-2,-2.5495723E-2,4.9685176E-2,1.8535888E-2,-7.391202E-2,3.3452205E-2,-2.7725864E-2,2.6275922E-2,-4.3416675E-3],"categories":[],"categories_nodes":[],"categories_segments":[],"categories_sizes":[],"default_left":[0,0,0,0,0,0,1,0,0,0,0,0,0,0,0,0,0,0,0,0,0,0,0,0,0,0,0,0,0,0,0,0,0,0,0,0,0,0,0,0,0,0,0,0,0,0,0,0,0,0,0,0,0,0,0,0,0,0,0,0,0],"id":13,"left_children":[1,3,5,7,9,11,13,15,17,19,21,23,25,27,29,-1,31,33,35,37,39,41,43,45,47,49,51,53,55,57,59,-1,-1,-1,-1,-1,-1,-1,-1,-1,-1,-1,-1,-1,-1,-1,-1,-1,-1,-1,-1,-1,-1,-1,-1,-1,-1,-1,-1,-1,-1],"loss_changes":[6.591323E2,1.7991312E2,3.5993857E2,7.505737E1,4.038141E1,6.3459167E1,1.8179553E2,1.7043556E1,5.8577576E1,4.090427E1,1.7852959E1,1.9241669E1,6.0510117E1,4.925766E1,1.5052998E2,0E0,6.648901E0,1.6018555E1,5.9731003E1,3.944952E0,2.4536945E1,1.2926243E1,3.3149462E0,9.522522E0,1.3850473E1,4.2146305E1,4.6121124E1,1.939293E1,3.9880013E1,1.1772626E2,1.1962425E2,0E0,0E0,0E0,0E0,0E0,0E0,0E0,0E0,0E0,0E0,0E0,0E0,0E0,0E0,0E0,0E0,0E0,0E0,0E0,0E0,0E0,0E0,0E0,0E0,0E0,0E0,0E0,0E0,0E0,0E0],"parents":[2147483647,0,0,1,1,2,2,3,3,4,4,5,5,6,6,7,7,8,8,9,9,10,10,11,11,12,12,13,13,14,14,16,16,17,17,18,18,19,19,20,20,21,21,22,22,23,23,24,24,25,25,26,26,27,27,28,28,29,29,30,30],"right_children":[2,4,6,8,10,12,14,16,18,20,22,24,26,28,30,-1,32,34,36,38,40,42,44,46,48,50,52,54,56,58,60,-1,-1,-1,-1,-1,-1,-1,-1,-1,-1,-1,-1,-1,-1,-1,-1,-1,-1,-1,-1,-1,-1,-1,-1,-1,-1,-1,-1,-1,-1],"split_conditions":[5.1E1,-4.98E-1,8.46E-1,4.13E-1,1E-1,4.54E-1,7E-2,1.4995097E1,4.95E-1,6.468676E-2,3.546E-3,3.8297E-1,7.5493E-2,6.25E-1,8.140585E0,-7.237288E-2,9.045341E0,2.2156337E-1,6.1281E-2,3.19E-1,6.6E-1,6.8268E-2,6.577E-3,1E0,8.37E-2,2.92E-1,4.0337012E2,6.7412E-2,3.07535E-1,5.688195E0,6.5897E-2,-2.5974756E-2,6.711933E-2,-6.051079E-2,4.1930776E-2,2.3001812E-2,-4.000328E-2,-1.5423623E-2,6.358713E-2,1.0795287E-2,-5.0319802E-2,2.6343713E-2,7.019001E-2,-7.3410265E-2,1.2861565E-2,6.1686154E-2,4.4243958E-2,2.7282178E-2,-7.598845E-2,3.7603464E-2,-7.044711E-3,4.1987576E-2,-1.0933938E-2,-2.5495723E-2,4.9685176E-2,1.8535888E-2,-7.391202E-2,3.3452205E-2,-2.7725864E-2,2.6275922E-2,-4.3416675E-3],"split_indices":[0,40,89,89,11,89,11,67,49,39,94,77,69,25,51,0,8,15,45,58,6,37,102,1,29,73,75,77,69,27,45,0,0,0,0,0,0,0,0,0,0,0,0,0,0,0,0,0,0,0,0,0,0,0,0,0,0,0,0,0,0],"split_type":[0,0,0,0,0,0,0,0,0,0,0,0,0,0,0,0,0,0,0,0,0,0,0,0,0,0,0,0,0,0,0,0,0,0,0,0,0,0,0,0,0,0,0,0,0,0,0,0,0,0,0,0,0,0,0,0,0,0,0,0,0],"sum_hessian":[4.890765E3,9.7174646E2,3.9190186E3,8.081544E2,1.6359207E2,1.0771646E3,2.841854E3,2.1881977E1,7.862724E2,8.6437325E1,7.7154755E1,3.646337E2,7.125308E2,4.5777814E2,2.384076E3,1.9543746E0,1.99276E1,4.5391876E2,3.3235367E2,1.6726654E1,6.971067E1,7.2827095E1,4.3276606E0,3.5218463E2,1.2449056E1,2.509938E2,4.6153702E2,2.1972177E2,2.3805638E2,8.539399E2,1.530136E3,1.6079451E0,1.8319656E1,4.5072528E2,3.193485E0,4.2543625E1,2.8981003E2,1.3648008E0,1.5361853E1,2.523018E1,4.448049E1,4.4629875E1,2.8197216E1,3.1692495E0,1.1584113E0,1.925326E2,1.5965205E2,8.50184E0,3.9472163E0,7.426865E1,1.7672516E2,4.1626678E2,4.527024E1,8.35702E0,2.1136475E2,2.267363E2,1.1320078E1,8.675655E1,7.6718335E2,4.519506E2,1.0781854E3],"tree_param":{"num_deleted":"0","num_feature":"110","num_nodes":"61","size_leaf_vector":"1"}},{"base_weights":[9.397971E-3,-7.0466286E-1,1.8752682E-1,-8.8157076E-1,1.9047731E-1,5.801183E-1,2.2038592E-3,-1.2192358E0,-6.394052E-1,-7.8103624E-2,1.0847125E0,8.69224E-1,3.0938536E-1,1.9453506E-1,-5.0169414E-1,-1.2620121E0,4.2467523E-1,-1.0013652E0,-2.6974618E-1,1.1009728E0,-3.582655E-1,-2.0529081E-1,1.1959835E0,1.0860629E0,6.195606E-1,-1.6957416E-1,5.80835E-1,3.8525205E-2,5.961913E-1,6.0496974E-1,-6.247997E-1,2.1606412E-2,-6.447724E-2,9.911637E-2,-6.510954E-2,-2.2195846E-2,-6.695258E-2,4.3912046E-2,-2.4930252E-2,-1.8002091E-2,6.0064454E-2,-3.1620827E-2,5.0661355E-2,-5.6577664E-2,4.3677647E-2,6.41183E-2,-1.1019394E-3,5.614865E-2,1.4302163E-2,4.687733E-2,1.7498443E-2,5.301529E-2,-2.0306764E-2,1.4033324E-2,3.8565077E-2,-8.523382E-3,2.1951465E-2,4.6746477E-2,2.046738E-2,4.4215348E-2,-3.0194024E-2,-3.8468927E-2,-4.696131E-3],"categories":[],"categories_nodes":[],"categories_segments":[],"categories_sizes":[],"default_left":[0,0,0,0,0,0,0,0,0,0,0,0,0,1,0,0,0,0,0,0,0,0,0,0,0,0,0,0,0,0,0,0,0,0,0,0,0,0,0,0,0,0,0,0,0,0,0,0,0,0,0,0,0,0,0,0,0,0,0,0,0,0,0],"id":14,"left_children":[1,3,5,7,9,11,13,15,17,19,21,23,25,27,29,31,33,35,37,39,41,43,45,47,49,51,53,55,57,59,61,-1,-1,-1,-1,-1,-1,-1,-1,-1,-1,-1,-1,-1,-1,-1,-1,-1,-1,-1,-1,-1,-1,-1,-1,-1,-1,-1,-1,-1,-1,-1,-1],"loss_changes":[6.133059E2,1.5261673E2,2.8076898E2,6.496466E1,3.8436737E1,9.659076E1,2.542633E2,2.4071533E1,6.265901E1,4.1267723E1,5.5493393E0,3.1695038E1,8.338622E1,1.18960434E2,9.911572E1,1.5784302E1,2.7425781E1,4.406874E1,6.1929688E1,3.950243E0,3.8515793E1,4.7733855E0,3.622692E0,9.088226E0,2.3695763E1,6.807605E1,2.3172852E1,1.1463611E2,3.323311E1,2.5204386E1,5.0024292E1,0E0,0E0,0E0,0E0,0E0,0E0,0E0,0E0,0E0,0E0,0E0,0E0,0E0,0E0,0E0,0E0,0E0,0E0,0E0,0E0,0E0,0E0,0E0,0E0,0E0,0E0,0E0,0E0,0E0,0E0,0E0,0E0],"parents":[2147483647,0,0,1,1,2,2,3,3,4,4,5,5,6,6,7,7,8,8,9,9,10,10,11,11,12,12,13,13,14,14,15,15,16,16,17,17,18,18,19,19,20,20,21,21,22,22,23,23,24,24,25,25,26,26,27,27,28,28,29,29,30,30],"right_children":[2,4,6,8,10,12,14,16,18,20,22,24,26,28,30,32,34,36,38,40,42,44,46,48,50,52,54,56,58,60,62,-1,-1,-1,-1,-1,-1,-1,-1,-1,-1,-1,-1,-1,-1,-1,-1,-1,-1,-1,-1,-1,-1,-1,-1,-1,-1,-1,-1,-1,-1,-1,-1],"split_conditions":[5.1E1,-4.98E-1,6.24E-1,3.8E1,1.8844873E-1,1E0,-3.7E-1,3.226427E2,6.864444E1,6.468676E-2,-3.882E-3,4.66E-1,6.5E1,1.7E-1,5.1301E-2,2.9E-1,1.014E0,1E0,6.0622E-2,2.5869E-2,1.8829378E2,1.0369646E-1,1.23E0,3.533E-3,5.8911E-2,2.78E-1,3.108526E1,1.0422332E2,7.8314E-2,-1.21E-1,1.21514786E2,2.1606412E-2,-6.447724E-2,9.911637E-2,-6.510954E-2,-2.2195846E-2,-6.695258E-2,4.3912046E-2,-2.4930252E-2,-1.8002091E-2,6.0064454E-2,-3.1620827E-2,5.0661355E-2,-5.6577664E-2,4.3677647E-2,6.41183E-2,-1.1019394E-3,5.614865E-2,1.4302163E-2,4.687733E-2,1.7498443E-2,5.301529E-2,-2.0306764E-2,1.4033324E-2,3.8565077E-2,-8.523382E-3,2.1951465E-2,4.6746477E-2,2.046738E-2,4.4215348E-2,-3.0194024E-2,-3.8468927E-2,-4.696131E-3],"split_indices":[0,40,81,0,63,1,32,83,75,39,54,81,0,13,29,81,34,1,45,37,8,15,7,86,45,81,83,8,109,56,83,0,0,0,0,0,0,0,0,0,0,0,0,0,0,0,0,0,0,0,0,0,0,0,0,0,0,0,0,0,0,0,0],"split_type":[0,0,0,0,0,0,0,0,0,0,0,0,0,0,0,0,0,0,0,0,0,0,0,0,0,0,0,0,0,0,0,0,0,0,0,0,0,0,0,0,0,0,0,0,0,0,0,0,0,0,0,0,0,0,0,0,0,0,0,0,0,0,0],"sum_hessian":[4.8197446E3,9.6168896E2,3.8580554E3,8.0300507E2,1.5868394E2,1.2365005E3,2.621555E3,3.3368903E2,4.69316E2,1.2273385E2,3.5950092E1,5.968915E2,6.39609E2,1.8978026E3,7.237523E2,3.254527E2,8.236334E0,2.3626392E2,2.330521E2,2.3001408E1,9.9732445E1,2.7875936E0,3.31625E1,3.1765234E2,2.792391E2,2.3150504E2,4.0810397E2,1.3676722E3,5.3013043E2,7.205912E1,6.516932E2,4.969568E0,3.2048312E2,4.252552E0,3.9837818E0,9.000289E1,1.4626103E2,3.826619E1,1.947859E2,1.3115034E0,2.1689905E1,8.3566925E1,1.6165516E1,1.473572E0,1.3140216E0,3.091703E1,2.24547E0,3.0325742E2,1.4394914E1,1.26983376E2,1.5225574E2,3.6783844E1,1.9472119E2,1.593879E2,2.4871606E2,8.99083E2,4.685892E2,1.8703728E2,3.4309317E2,5.875149E1,1.3307631E1,5.118476E2,1.3984558E2],"tree_param":{"num_deleted":"0","num_feature":"110","num_nodes":"63","size_leaf_vector":"1"}},{"base_weights":[7.6206257E-3,-6.924588E-1,1.7819977E-1,6.2467957E-1,-8.11028E-1,3.5000578E-2,7.6028925E-1,3.043657E-1,1.2590008E0,6.8299055E-1,-8.7411946E-1,1.8402444E-1,-4.717448E-1,4.5282605E-1,8.783831E-1,4.8171693E-1,-7.2152786E-2,1.3928406E0,-2.5064394E-2,1.2649971E0,-3.9892063E-1,-1.23311594E-1,-1.0015687E0,3.7259612E-2,5.706541E-1,6.117928E-1,-5.5337995E-1,9.496364E-1,1.4363097E-1,9.433337E-1,1.0710962E-1,4.8223536E-2,4.8193387E-3,7.2674856E-2,3.1156948E-2,7.452305E-2,1.4340498E-2,2.596775E-2,-7.193484E-2,2.1074167E-2,-4.454735E-2,4.6252113E-2,-5.1165618E-2,3.2932047E-2,-3.2358908E-3,4.5166295E-2,1.7516129E-2,1.116657E-2,6.69006E-2,-4.7454875E-2,-1.819118E-2,5.498618E-2,8.503616E-3,-7.852307E-3,3.6390252E-2,5.430485E-2,3.8621236E-2,5.5425216E-2,-1.7657088E-2],"categories":[],"categories_nodes":[],"categories_segments":[],"categories_sizes":[],"default_left":[0,0,0,1,1,0,0,0,0,0,0,1,0,0,0,1,0,0,0,0,1,0,1,0,0,0,0,0,0,0,0,0,0,0,0,0,0,0,0,0,0,0,0,0,0,0,0,0,0,0,0,0,0,0,0,0,0,0,0],"id":15,"left_children":[1,3,5,7,9,11,13,15,17,19,21,23,25,27,29,31,-1,33,-1,35,37,39,41,43,45,47,49,51,53,55,57,-1,-1,-1,-1,-1,-1,-1,-1,-1,-1,-1,-1,-1,-1,-1,-1,-1,-1,-1,-1,-1,-1,-1,-1,-1,-1,-1,-1],"loss_changes":[5.7233405E2,1.4714871E2,3.21193E2,1.5487598E1,8.1836426E1,2.3372475E2,2.7226715E1,1.7188719E1,6.797867E0,2.2847395E1,7.9048645E1,1.3568011E2,6.2553864E1,3.261213E1,2.7381683E1,9.034432E0,0E0,2.2996521E-1,0E0,4.713726E0,1.33233E1,5.1064774E1,3.0571472E1,1.0995434E2,4.7910217E1,1.3737202E1,4.8756973E1,9.360931E0,2.3402733E1,1.150415E1,2.0550806E1,0E0,0E0,0E0,0E0,0E0,0E0,0E0,0E0,0E0,0E0,0E0,0E0,0E0,0E0,0E0,0E0,0E0,0E0,0E0,0E0,0E0,0E0,0E0,0E0,0E0,0E0,0E0,0E0],"parents":[2147483647,0,0,1,1,2,2,3,3,4,4,5,5,6,6,7,7,8,8,9,9,10,10,11,11,12,12,13,13,14,14,15,15,17,17,19,19,20,20,21,21,22,22,23,23,24,24,25,25,26,26,27,27,28,28,29,29,30,30],"right_children":[2,4,6,8,10,12,14,16,18,20,22,24,26,28,30,32,-1,34,-1,36,38,40,42,44,46,48,50,52,54,56,58,-1,-1,-1,-1,-1,-1,-1,-1,-1,-1,-1,-1,-1,-1,-1,-1,-1,-1,-1,-1,-1,-1,-1,-1,-1,-1,-1,-1],"split_conditions":[5.1E1,3.65E-1,-4.41E-1,1.6E-1,5.5E-2,-3.19E-1,6.1279E-2,1.2652074E-1,3.341E-3,1.193E0,6.5136E-2,1.7E-1,2.49E-1,6.468676E-2,3.9546912E2,6.5E-1,-7.2152786E-2,9.4216E-2,-2.5064394E-2,1E0,4.7E-1,1E0,2.8E-1,3.46E-1,6.5291E-2,9.0524E-2,4.0290398E1,3.88E-1,1.15E-1,6.83E-4,2.4071872E-1,4.8223536E-2,4.8193387E-3,7.2674856E-2,3.1156948E-2,7.452305E-2,1.4340498E-2,2.596775E-2,-7.193484E-2,2.1074167E-2,-4.454735E-2,4.6252113E-2,-5.1165618E-2,3.2932047E-2,-3.2358908E-3,4.5166295E-2,1.7516129E-2,1.116657E-2,6.69006E-2,-4.7454875E-2,-1.819118E-2,5.498618E-2,8.503616E-3,-7.852307E-3,3.6390252E-2,5.430485E-2,3.8621236E-2,5.5425216E-2,-1.7657088E-2],"split_indices":[0,25,40,13,11,32,69,39,22,105,109,13,73,39,83,6,0,53,0,1,12,1,12,73,29,77,75,25,11,30,68,0,0,0,0,0,0,0,0,0,0,0,0,0,0,0,0,0,0,0,0,0,0,0,0,0,0,0,0],"split_type":[0,0,0,0,0,0,0,0,0,0,0,0,0,0,0,0,0,0,0,0,0,0,0,0,0,0,0,0,0,0,0,0,0,0,0,0,0,0,0,0,0,0,0,0,0,0,0,0,0,0,0,0,0,0,0,0,0,0,0],"sum_hessian":[4.790623E3,9.379779E2,3.852645E3,7.7111244E1,8.6086664E2,3.092839E3,7.5980585E2,5.2220985E1,2.4890255E1,3.4482754E1,8.263839E2,2.3904822E3,7.0235706E2,2.1219081E2,5.4761505E2,4.8066856E1,4.1541276E0,2.3325495E1,1.5647609E0,2.2311314E1,1.217144E1,1.2020704E2,7.061769E2,1.7335297E3,6.569525E2,4.875404E1,6.5360297E2,8.0604805E1,1.31586E2,5.048753E2,4.2739723E1,2.066905E1,2.7397808E1,2.0798107E1,2.5273879E0,1.7706436E1,4.6048784E0,6.729135E0,5.4423056E0,7.057237E1,4.963466E1,7.417331E0,6.987595E2,2.4361942E2,1.4899103E3,2.6051263E2,3.9643985E2,3.2615326E1,1.6138716E1,2.1038881E2,4.432142E2,6.7247215E1,1.3357593E1,8.7355095E1,4.4230907E1,2.7217108E2,2.3270424E2,1.3014617E1,2.9725105E1],"tree_param":{"num_deleted":"0","num_feature":"110","num_nodes":"59","size_leaf_vector":"1"}},{"base_weights":[4.985746E-3,2.4845362E-1,-3.9424667E-1,5.7875985E-1,4.5447316E-2,2.6497224E-1,-5.959522E-1,3.157729E-1,7.8972715E-1,-9.6338116E-2,4.2744976E-1,1.19448E0,1.2421013E-1,7.360839E-1,-6.591351E-1,-1.7868681E-1,5.7512534E-1,1.127371E0,6.669378E-1,2.0065162E-1,-4.020045E-1,1.016418E0,3.1338155E-1,1.2437447E0,-2.5007313E-2,-4.0357652E-1,4.1383582E-1,9.579748E-1,-2.3977852E-1,-8.399286E-1,-2.8681856E-1,2.0596378E-2,-2.3781752E-2,-4.744731E-2,3.3266015E-2,5.73654E-2,-2.7992949E-2,5.1301535E-2,2.480403E-2,1.2201031E-2,-5.103143E-2,4.9835116E-2,-2.3207996E-2,5.6971397E-2,-2.2574145E-2,4.0991835E-2,7.0655877E-3,6.694168E-2,2.8217435E-2,-3.763745E-2,4.5210343E-2,4.953833E-2,1.2250382E-2,5.232046E-2,-6.111E-2,6.078E-2,-5.1546223E-2,3.9416533E-2,-4.310536E-2,2.636504E-2,-2.7504725E-2],"categories":[],"categories_nodes":[],"categories_segments":[],"categories_sizes":[],"default_left":[0,0,0,0,0,0,0,0,1,0,0,0,0,0,0,0,0,0,0,0,0,0,1,0,0,0,1,0,0,0,0,0,0,0,0,0,0,0,0,0,0,0,0,0,0,0,0,0,0,0,0,0,0,0,0,0,0,0,0,0,0],"id":16,"left_children":[1,3,5,7,9,11,13,15,17,19,21,23,25,27,29,31,33,35,37,39,41,43,45,47,-1,49,51,53,55,57,59,-1,-1,-1,-1,-1,-1,-1,-1,-1,-1,-1,-1,-1,-1,-1,-1,-1,-1,-1,-1,-1,-1,-1,-1,-1,-1,-1,-1,-1,-1],"loss_changes":[4.596337E2,1.9693736E2,2.3834937E2,6.1780914E1,9.8635414E1,5.4854595E1,1.1595181E2,6.413611E1,2.4940521E1,1.2067322E2,3.279828E1,5.228195E0,5.614639E1,1.3785213E1,8.796228E1,3.0459574E1,4.568753E1,6.152817E0,2.7522842E1,3.59709E1,5.7404205E1,1.4875542E1,3.599764E1,2.7266083E0,0E0,6.0163994E1,2.2836636E1,1.1151318E1,1.5527523E1,3.251367E1,9.241916E1,0E0,0E0,0E0,0E0,0E0,0E0,0E0,0E0,0E0,0E0,0E0,0E0,0E0,0E0,0E0,0E0,0E0,0E0,0E0,0E0,0E0,0E0,0E0,0E0,0E0,0E0,0E0,0E0,0E0,0E0],"parents":[2147483647,0,0,1,1,2,2,3,3,4,4,5,5,6,6,7,7,8,8,9,9,10,10,11,11,12,12,13,13,14,14,15,15,16,16,17,17,18,18,19,19,20,20,21,21,22,22,23,23,25,25,26,26,27,27,28,28,29,29,30,30],"right_children":[2,4,6,8,10,12,14,16,18,20,22,24,26,28,30,32,34,36,38,40,42,44,46,48,-1,50,52,54,56,58,60,-1,-1,-1,-1,-1,-1,-1,-1,-1,-1,-1,-1,-1,-1,-1,-1,-1,-1,-1,-1,-1,-1,-1,-1,-1,-1,-1,-1,-1,-1],"split_conditions":[-4.12E-1,1.1512706E1,8.039926E0,1.5E-1,1.7E-1,3.96E-1,3.16E-1,1.2474524E1,6.5E-2,7E-1,5.8392E-2,6.87E-1,5.1600926E-2,9.3E-5,1.9061676E-1,7.471E-2,-6.974E-3,4.2016922E2,5.2E-1,7.5968146E2,3.16E-1,1.38265E-1,6.5E-2,8.2538E-2,-2.5007313E-2,-3.16E-1,7E-2,1.0112448E1,3.65E-1,1.96E-1,1.052E0,2.0596378E-2,-2.3781752E-2,-4.744731E-2,3.3266015E-2,5.73654E-2,-2.7992949E-2,5.1301535E-2,2.480403E-2,1.2201031E-2,-5.103143E-2,4.9835116E-2,-2.3207996E-2,5.6971397E-2,-2.2574145E-2,4.0991835E-2,7.0655877E-3,6.694168E-2,2.8217435E-2,-3.763745E-2,4.5210343E-2,4.953833E-2,1.2250382E-2,5.232046E-2,-6.111E-2,6.078E-2,-5.1546223E-2,3.9416533E-2,-4.310536E-2,2.636504E-2,-2.7504725E-2],"split_indices":[32,43,43,13,13,89,81,35,11,6,29,81,47,54,63,101,46,91,81,75,81,109,11,101,0,40,11,3,12,73,89,0,0,0,0,0,0,0,0,0,0,0,0,0,0,0,0,0,0,0,0,0,0,0,0,0,0,0,0,0,0],"split_type":[0,0,0,0,0,0,0,0,0,0,0,0,0,0,0,0,0,0,0,0,0,0,0,0,0,0,0,0,0,0,0,0,0,0,0,0,0,0,0,0,0,0,0,0,0,0,0,0,0,0,0,0,0,0,0,0,0,0,0,0,0],"sum_hessian":[4.7267207E3,2.936378E3,1.7903429E3,1.1170326E3,1.8193453E3,4.1938507E2,1.3709579E3,4.983268E2,6.187058E2,1.3274076E3,4.9193768E2,5.4173073E1,3.6521198E2,6.160194E1,1.309356E3,1.715586E2,3.2676822E2,1.6281604E2,4.5588977E2,6.7343365E2,6.53974E2,7.853376E1,4.1340393E2,5.290124E1,1.271834E0,1.2926257E2,2.3594942E2,5.020475E1,1.1397189E1,8.805251E2,4.2883087E2,5.7268116E1,1.14290474E2,1.7725758E1,3.0904248E2,1.6123088E2,1.5851679E0,1.4536632E2,3.1052347E2,6.511121E2,2.232151E1,2.7184944E1,6.2678906E2,7.266797E1,5.8657937E0,1.03882065E2,3.0952185E2,4.5554737E1,7.3465047E0,1.0235787E2,2.6904697E1,5.2313107E1,1.836363E2,4.8747444E1,1.4573075E0,3.8247461E0,7.5724435E0,1.1368277E1,8.691568E2,1.0454548E2,3.242854E2],"tree_param":{"num_deleted":"0","num_feature":"110","num_nodes":"61","size_leaf_vector":"1"}},{"base_weights":[1.9467996E-2,2.077516E-1,-4.903833E-1,8.214013E-2,7.580776E-1,7.0146495E-1,-6.0850114E-1,5.615987E-1,-3.4446586E-2,1.0453207E0,6.4843786E-1,8.908828E-1,-2.503276E-1,4.9357495E-1,-6.8586403E-1,2.0906034E-1,8.3077556E-1,5.6163687E-1,-1.4607911E-1,-5.657546E-1,1.0725203E0,1.1416951E-1,7.86302E-1,9.6063054E-1,-7.8781074E-1,-1.4169682E0,3.2286966E-1,-1.5366584E-1,9.531476E-1,1.8197924E-1,-7.545957E-1,6.2001813E-2,3.554117E-3,4.7491573E-2,1.8460914E-2,3.2930013E-2,-5.8395464E-2,-1.4116548E-2,1.3718936E-2,-7.4424E-2,3.6953267E-2,5.4563876E-2,-1.6336357E-2,2.4061417E-2,-2.4409724E-2,4.340113E-2,-1.3277176E-2,6.43866E-2,3.141354E-2,3.9586317E-2,-8.244737E-2,3.0139855E-3,-8.6496346E-2,-1.4698139E-2,6.0675085E-2,1.7022982E-2,-5.3800613E-2,6.097237E-2,-9.968045E-3,2.4704393E-2,-4.374137E-2,-4.145805E-2,-9.746255E-3],"categories":[],"categories_nodes":[],"categories_segments":[],"categories_sizes":[],"default_left":[0,0,0,0,0,0,0,0,1,0,0,0,0,0,0,0,0,0,0,0,0,0,0,0,0,0,0,0,1,0,0,0,0,0,0,0,0,0,0,0,0,0,0,0,0,0,0,0,0,0,0,0,0,0,0,0,0,0,0,0,0,0,0],"id":17,"left_children":[1,3,5,7,9,11,13,15,17,19,21,23,25,27,29,31,33,35,37,39,41,43,45,47,49,51,53,55,57,59,61,-1,-1,-1,-1,-1,-1,-1,-1,-1,-1,-1,-1,-1,-1,-1,-1,-1,-1,-1,-1,-1,-1,-1,-1,-1,-1,-1,-1,-1,-1,-1,-1],"loss_changes":[4.5278455E2,2.3804897E2,1.7950757E2,1.5684528E2,1.9477448E1,2.0985832E1,9.9061615E1,5.190709E1,1.5031618E2,8.282547E0,3.422107E1,1.2028572E1,1.376214E1,2.291129E1,6.469931E1,3.3903587E1,1.6731934E1,6.0526978E1,1.0906201E2,5.3896914E0,4.886612E0,2.161932E1,3.204384E1,9.28846E0,7.276458E0,3.22046E0,8.133334E0,1.5241711E1,1.4021416E1,2.6897554E1,4.1701416E1,0E0,0E0,0E0,0E0,0E0,0E0,0E0,0E0,0E0,0E0,0E0,0E0,0E0,0E0,0E0,0E0,0E0,0E0,0E0,0E0,0E0,0E0,0E0,0E0,0E0,0E0,0E0,0E0,0E0,0E0,0E0,0E0],"parents":[2147483647,0,0,1,1,2,2,3,3,4,4,5,5,6,6,7,7,8,8,9,9,10,10,11,11,12,12,13,13,14,14,15,15,16,16,17,17,18,18,19,19,20,20,21,21,22,22,23,23,24,24,25,25,26,26,27,27,28,28,29,29,30,30],"right_children":[2,4,6,8,10,12,14,16,18,20,22,24,26,28,30,32,34,36,38,40,42,44,46,48,50,52,54,56,58,60,62,-1,-1,-1,-1,-1,-1,-1,-1,-1,-1,-1,-1,-1,-1,-1,-1,-1,-1,-1,-1,-1,-1,-1,-1,-1,-1,-1,-1,-1,-1,-1,-1],"split_conditions":[-3.19E-1,-4.41E-1,5.55E-1,5.2E-1,6.468676E-2,6.8341E-2,5.113009E0,2.651277E1,6.5E-2,4.3681733E-2,1.0750875E-1,7.6190475E1,7.7666566E-2,2.0554596E-1,2.82E-1,1.96E-1,1.5463154E-1,4.00834E-1,8.680709E0,4.08E-1,1.9319126E-1,8.62E-4,3.9546912E2,3.96E-1,5.36E-1,1.4709085E-1,1.005E0,4.87E-1,1.35E-1,3.05E-4,5.66E-1,6.2001813E-2,3.554117E-3,4.7491573E-2,1.8460914E-2,3.2930013E-2,-5.8395464E-2,-1.4116548E-2,1.3718936E-2,-7.4424E-2,3.6953267E-2,5.4563876E-2,-1.6336357E-2,2.4061417E-2,-2.4409724E-2,4.340113E-2,-1.3277176E-2,6.43866E-2,3.141354E-2,3.9586317E-2,-8.244737E-2,3.0139855E-3,-8.6496346E-2,-1.4698139E-2,6.0675085E-2,1.7022982E-2,-5.3800613E-2,6.097237E-2,-9.968045E-3,2.4704393E-2,-4.374137E-2,-4.145805E-2,-9.746255E-3],"split_indices":[32,40,89,81,39,21,43,67,11,47,63,10,55,71,73,73,39,77,3,18,23,54,83,89,42,71,18,58,11,54,65,0,0,0,0,0,0,0,0,0,0,0,0,0,0,0,0,0,0,0,0,0,0,0,0,0,0,0,0,0,0,0,0],"split_type":[0,0,0,0,0,0,0,0,0,0,0,0,0,0,0,0,0,0,0,0,0,0,0,0,0,0,0,0,0,0,0,0,0,0,0,0,0,0,0,0,0,0,0,0,0,0,0,0,0,0,0,0,0,0,0,0,0,0,0,0,0,0,0],"sum_hessian":[4.7146094E3,3.4435347E3,1.2710746E3,2.804548E3,6.389866E2,1.14165726E2,1.1569089E3,5.478242E2,2.2567239E3,1.7416382E2,4.6482275E2,9.52699E1,1.889583E1,7.553221E1,1.0813767E3,2.3795433E2,3.0986987E2,3.553315E2,1.9013923E3,2.562825E0,1.71601E2,9.571686E1,3.691059E2,9.1880135E1,3.3897614E0,5.740343E0,1.3155487E1,3.1638977E1,4.3893234E1,7.9237206E1,1.00213947E3,2.7144276E1,2.1081006E2,2.4548947E2,6.43804E1,3.3705444E2,1.827706E1,1.4362844E3,4.651079E2,1.4187658E0,1.1440592E0,1.6954826E2,2.0527284E0,5.959992E1,3.6116936E1,3.4265863E2,2.6447271E1,4.4857655E1,4.702248E1,1.2244399E0,2.1653214E0,1.1446549E0,4.595688E0,8.168263E0,4.9872227E0,2.101276E1,1.0626218E1,3.560762E1,8.285612E0,6.1582424E1,1.7654778E1,8.838959E2,1.18243614E2],"tree_param":{"num_deleted":"0","num_feature":"110","num_nodes":"63","size_leaf_vector":"1"}},{"base_weights":[-5.756896E-3,-7.450744E-1,1.2359549E-1,4.1777994E-2,-9.3171924E-1,6.969305E-1,-3.1778268E-3,-3.4861568E-1,6.355533E-1,-1.1251746E0,-6.0275257E-1,7.4167764E-1,-3.1053513E-1,5.62827E-1,-1.1025509E-1,7.339945E-1,-7.4704045E-1,9.275364E-1,-2.2303845E-1,1.0696841E0,-1.1622782E0,7.310551E-2,-1.0483347E0,3.5456404E-1,8.699385E-1,1.0823773E0,-1.1702704E0,8.2047606E-1,9.739377E-2,1.7739092E-1,-2.9832736E-1,-4.7809174E-3,5.781206E-2,-5.049401E-2,2.6911471E-2,-4.9667604E-2,5.6605704E-2,-4.5980368E-2,4.0066328E-2,-3.6691837E-3,6.9896154E-2,2.1255055E-2,-5.9349723E-2,3.3253662E-2,-4.289473E-2,1.1163683E-2,-5.8066774E-2,4.5540385E-2,4.6079126E-3,5.8437195E-2,3.8428206E-2,7.421805E-2,1.8005323E-3,1.3106822E-2,-8.540069E-2,4.564801E-2,-4.308115E-2,3.542533E-2,-1.0225519E-2,3.4451818E-3,3.1054994E-2,-3.3602477E-3,-3.0474324E-2],"categories":[],"categories_nodes":[],"categories_segments":[],"categories_sizes":[],"default_left":[0,0,0,0,0,0,1,0,0,0,0,0,0,0,0,0,0,0,0,0,0,0,0,0,0,1,0,0,0,0,0,0,0,0,0,0,0,0,0,0,0,0,0,0,0,0,0,0,0,0,0,0,0,0,0,0,0,0,0,0,0,0,0],"id":18,"left_children":[1,3,5,7,9,11,13,15,17,19,21,23,25,27,29,31,33,35,37,39,41,43,45,47,49,51,53,55,57,59,61,-1,-1,-1,-1,-1,-1,-1,-1,-1,-1,-1,-1,-1,-1,-1,-1,-1,-1,-1,-1,-1,-1,-1,-1,-1,-1,-1,-1,-1,-1,-1,-1],"loss_changes":[4.5159998E2,1.0330957E2,2.9212482E2,3.1695122E1,3.54953E1,3.3039032E1,1.9959781E2,3.616079E1,1.3797691E1,3.0297485E1,6.411244E1,3.4304443E1,3.917408E1,6.2748245E1,1.498729E2,8.06773E0,2.1099033E1,1.709842E1,1.1128766E1,2.5232077E0,1.4288208E1,4.764854E1,1.8682861E1,2.54854E1,1.4942139E1,5.2466497E0,1.5894579E1,5.322914E1,3.479715E1,5.2690784E1,1.204117E2,0E0,0E0,0E0,0E0,0E0,0E0,0E0,0E0,0E0,0E0,0E0,0E0,0E0,0E0,0E0,0E0,0E0,0E0,0E0,0E0,0E0,0E0,0E0,0E0,0E0,0E0,0E0,0E0,0E0,0E0,0E0,0E0],"parents":[2147483647,0,0,1,1,2,2,3,3,4,4,5,5,6,6,7,7,8,8,9,9,10,10,11,11,12,12,13,13,14,14,15,15,16,16,17,17,18,18,19,19,20,20,21,21,22,22,23,23,24,24,25,25,26,26,27,27,28,28,29,29,30,30],"right_children":[2,4,6,8,10,12,14,16,18,20,22,24,26,28,30,32,34,36,38,40,42,44,46,48,50,52,54,56,58,60,62,-1,-1,-1,-1,-1,-1,-1,-1,-1,-1,-1,-1,-1,-1,-1,-1,-1,-1,-1,-1,-1,-1,-1,-1,-1,-1,-1,-1,-1,-1,-1,-1],"split_conditions":[4.7E1,7.55E-1,6.61E-1,1.4385854E-1,1.8744422E-1,7.2456926E-1,7E-2,5.355468E0,8.76E-1,4.98E-1,1.336E0,1.24720685E-1,5.31E-1,1E0,7E-1,9.92E-2,2.97E-1,3.4457844E1,7.56E-1,-3.69E-1,1.07E-1,1E0,8.74E-1,4.8236E-2,3.26E-1,1.1E-1,7.9872E-2,6.344127E-1,8.85E-1,-4.46E-1,1E0,-4.7809174E-3,5.781206E-2,-5.049401E-2,2.6911471E-2,-4.9667604E-2,5.6605704E-2,-4.5980368E-2,4.0066328E-2,-3.6691837E-3,6.9896154E-2,2.1255055E-2,-5.9349723E-2,3.3253662E-2,-4.289473E-2,1.1163683E-2,-5.8066774E-2,4.5540385E-2,4.6079126E-3,5.8437195E-2,3.8428206E-2,7.421805E-2,1.8005323E-3,1.3106822E-2,-8.540069E-2,4.564801E-2,-4.308115E-2,3.542533E-2,-1.0225519E-2,3.4451818E-3,3.1054994E-2,-3.3602477E-3,-3.0474324E-2],"split_indices":[0,42,89,63,63,76,11,43,81,105,89,63,65,1,6,85,41,83,65,48,33,1,42,45,81,11,45,71,26,40,1,0,0,0,0,0,0,0,0,0,0,0,0,0,0,0,0,0,0,0,0,0,0,0,0,0,0,0,0,0,0,0,0],"split_type":[0,0,0,0,0,0,0,0,0,0,0,0,0,0,0,0,0,0,0,0,0,0,0,0,0,0,0,0,0,0,0,0,0,0,0,0,0,0,0,0,0,0,0,0,0,0,0,0,0,0,0,0,0,0,0,0,0,0,0,0,0,0,0],"sum_hessian":[4.7202817E3,7.021816E2,4.0181E3,1.3477536E2,5.674062E2,7.2676996E2,3.29133E3,8.156266E1,5.32127E1,3.557689E2,2.1163733E2,6.961155E2,3.0654501E1,5.2292413E2,2.768406E3,2.171523E1,5.984743E1,3.964891E1,1.3563791E1,5.4515676E0,3.5031732E2,8.4422066E1,1.2721526E2,1.741786E2,5.219368E2,1.1600622E1,1.9053879E1,3.3610452E2,1.8681964E2,1.0944945E3,1.6739114E3,7.5853653E0,1.4129866E1,4.9864353E1,9.983075E0,3.4451292E0,3.620378E1,8.134555E0,5.4292364E0,1.389426E0,4.062142E0,5.122618E0,3.451947E2,5.1782368E1,3.2639698E1,1.0302646E1,1.1691261E2,5.5038303E1,1.1914031E2,1.2955095E2,3.923859E2,8.078508E0,3.5221138E0,5.340559E0,1.371332E1,3.190215E2,1.7082993E1,6.1329662E1,1.25489975E2,8.803929E2,2.1410164E2,9.611818E2,7.1272955E2],"tree_param":{"num_deleted":"0","num_feature":"110","num_nodes":"63","size_leaf_vector":"1"}},{"base_weights":[-1.1748643E-2,6.2646425E-1,-1.4186837E-1,1.0669613E0,4.524007E-1,3.7284467E-2,-5.799586E-1,1.1268941E0,-1.2329838E-1,7.4907506E-1,2.0716909E-1,-1.8522076E-1,3.7718734E-1,3.6111003E-1,-6.682683E-1,1.2253336E0,9.247545E-1,8.2407737E-1,-8.639006E-2,8.323184E-1,-4.9083525E-1,9.78189E-3,7.850175E-1,1.3301182E-1,-4.268531E-1,6.6112447E-1,4.830535E-2,6.382382E-1,-5.045323E-1,3.1749062E-2,-7.5363094E-1,6.1895557E-2,-1.1990369E-2,2.9782135E-2,5.9680827E-2,5.5103153E-2,-1.4680411E-2,3.460006E-2,5.3593118E-2,3.0472834E-2,-6.704738E-2,2.435304E-2,-1.0710151E-2,4.2502318E-2,-6.873133E-2,2.2770403E-2,-2.2762087E-3,-1.5608948E-3,-3.0837396E-2,5.0584864E-2,2.6492223E-2,1.5597566E-2,-1.2794538E-2,-1.865297E-2,5.081011E-2,3.1670485E-2,-6.950451E-2,3.1873334E-2,-2.0339174E-2,-4.171436E-2,-9.174955E-3],"categories":[],"categories_nodes":[],"categories_segments":[],"categories_sizes":[],"default_left":[0,0,0,0,0,0,0,0,0,0,0,0,0,0,0,0,0,0,0,0,0,1,0,0,0,1,0,0,0,0,0,0,0,0,0,0,0,0,0,0,0,0,0,0,0,0,0,0,0,0,0,0,0,0,0,0,0,0,0,0,0],"id":19,"left_children":[1,3,5,7,9,11,13,15,17,19,21,23,25,27,29,31,33,35,-1,37,39,41,43,45,47,49,51,53,55,57,59,-1,-1,-1,-1,-1,-1,-1,-1,-1,-1,-1,-1,-1,-1,-1,-1,-1,-1,-1,-1,-1,-1,-1,-1,-1,-1,-1,-1,-1,-1],"loss_changes":[3.8643973E2,5.9942688E1,3.0338867E2,1.6009216E1,4.1067505E1,2.076244E2,9.34812E1,3.0834656E0,1.900569E1,2.6834106E1,3.553088E1,1.27646515E2,1.0138718E2,2.3567783E1,6.13356E1,2.8662872E0,5.7905884E0,2.7935033E0,0E0,7.334915E0,1.6471985E1,2.5040375E1,1.230814E1,4.1284195E1,7.085602E1,2.6285492E1,4.052365E1,2.8604364E1,2.51234E1,3.0137026E1,4.1902893E1,0E0,0E0,0E0,0E0,0E0,0E0,0E0,0E0,0E0,0E0,0E0,0E0,0E0,0E0,0E0,0E0,0E0,0E0,0E0,0E0,0E0,0E0,0E0,0E0,0E0,0E0,0E0,0E0,0E0,0E0],"parents":[2147483647,0,0,1,1,2,2,3,3,4,4,5,5,6,6,7,7,8,8,9,9,10,10,11,11,12,12,13,13,14,14,15,15,16,16,17,17,19,19,20,20,21,21,22,22,23,23,24,24,25,25,26,26,27,27,28,28,29,29,30,30],"right_children":[2,4,6,8,10,12,14,16,18,20,22,24,26,28,30,32,34,36,-1,38,40,42,44,46,48,50,52,54,56,58,60,-1,-1,-1,-1,-1,-1,-1,-1,-1,-1,-1,-1,-1,-1,-1,-1,-1,-1,-1,-1,-1,-1,-1,-1,-1,-1,-1,-1,-1,-1],"split_conditions":[6.61E-1,3.39E-1,-3.19E-1,4.0526035E-1,1E0,1.6E-1,8.14E-1,2.82E-1,1.07013E-1,5.250006E2,1.691E0,6.7E-1,7.1218E-2,5.8718E-2,3.25E-1,2.35569E-1,1.21380776E-1,1.07379E-1,-8.639006E-2,5.2009625E0,8.269E-2,6.3E-1,1.04125E0,7.0782E-2,6.4134E-2,7E-2,8E-1,1.7799936E-1,-2.74E-1,1E0,5.66E-1,6.1895557E-2,-1.1990369E-2,2.9782135E-2,5.9680827E-2,5.5103153E-2,-1.4680411E-2,3.460006E-2,5.3593118E-2,3.0472834E-2,-6.704738E-2,2.435304E-2,-1.0710151E-2,4.2502318E-2,-6.873133E-2,2.2770403E-2,-2.2762087E-3,-1.5608948E-3,-3.0837396E-2,5.0584864E-2,2.6492223E-2,1.5597566E-2,-1.2794538E-2,-1.865297E-2,5.081011E-2,3.1670485E-2,-6.950451E-2,3.1873334E-2,-2.0339174E-2,-4.171436E-2,-9.174955E-3],"split_indices":[89,89,32,63,1,13,106,89,21,75,106,6,45,45,73,109,47,109,0,3,45,6,4,45,45,11,6,71,48,1,65,0,0,0,0,0,0,0,0,0,0,0,0,0,0,0,0,0,0,0,0,0,0,0,0,0,0,0,0,0,0],"split_type":[0,0,0,0,0,0,0,0,0,0,0,0,0,0,0,0,0,0,0,0,0,0,0,0,0,0,0,0,0,0,0,0,0,0,0,0,0,0,0,0,0,0,0,0,0,0,0,0,0,0,0,0,0,0,0,0,0,0,0,0,0],"sum_hessian":[4.6513584E3,7.870773E2,3.8642812E3,2.2147299E2,5.656043E2,2.7433352E3,1.1209459E3,2.109065E2,1.0566495E1,2.5502617E2,3.1057812E2,1.658266E3,1.0850693E3,9.590021E1,1.0250457E3,1.3843071E2,7.247579E1,6.949546E0,3.6169493E0,2.392898E2,1.5736378E1,2.3225803E2,7.832008E1,7.1588574E2,9.4238025E2,5.8178265E2,5.0328662E2,7.2842865E1,2.3057339E1,1.1148002E2,9.135657E2,1.3740622E2,1.024479E0,3.4032406E1,3.8443382E1,5.5765495E0,1.3729966E0,1.5335068E2,8.5939125E1,6.982319E0,8.754059E0,7.380848E1,1.5844955E2,7.66194E1,1.7006847E0,2.5459431E2,4.6129144E2,3.0600348E2,6.363768E2,1.5667853E2,4.2510413E2,2.6959973E2,2.3368689E2,1.982124E1,5.302163E1,1.0215347E1,1.284199E1,4.6625496E1,6.485452E1,7.9993585E2,1.13629814E2],"tree_param":{"num_deleted":"0","num_feature":"110","num_nodes":"61","size_leaf_vector":"1"}},{"base_weights":[2.324328E-3,3.880811E-1,-2.0839708E-1,-1.5025538E-1,5.3603965E-1,-6.151804E-1,4.1900493E-2,5.841666E-1,-5.018275E-1,9.4100374E-1,3.9249727E-1,-6.7095065E-1,5.499396E-1,-1.7914629E-1,2.3068766E-1,1.0349915E0,1.9648556E-1,-1.3256402E-1,-8.57687E-1,4.1032383E-1,1.030579E0,1.4796726E-1,6.6769135E-1,2.4274352E-1,-7.3193085E-1,-4.7984716E-1,9.542636E-1,-3.1328487E-1,5.5439156E-1,3.3065894E-1,-4.2472938E-1,-6.4552077E-3,5.8132943E-2,-3.0151919E-2,3.4508776E-2,-2.5941072E-2,2.793251E-2,2.232968E-2,-5.059856E-2,3.121438E-2,-5.3831786E-2,2.3284022E-2,5.4907203E-2,3.7442025E-2,1.4039886E-3,5.1190294E-2,2.4652405E-2,2.5934556E-2,-6.376419E-2,-2.171865E-3,-4.0846158E-2,3.5420846E-2,-6.168747E-2,5.2833743E-2,-5.9361864E-2,-2.4882084E-2,9.3651685E-4,-4.6593696E-3,3.7370756E-2,1.2234296E-3,2.6373897E-2,8.5611915E-4,-4.2848136E-2],"categories":[],"categories_nodes":[],"categories_segments":[],"categories_sizes":[],"default_left":[0,0,0,0,0,0,0,0,0,0,0,0,0,0,0,0,0,0,0,0,0,1,0,0,0,0,0,1,0,0,0,0,0,0,0,0,0,0,0,0,0,0,0,0,0,0,0,0,0,0,0,0,0,0,0,0,0,0,0,0,0,0,0],"id":20,"left_children":[1,3,5,7,9,11,13,15,17,19,21,23,25,27,29,31,33,35,37,39,41,43,45,47,49,51,53,55,57,59,61,-1,-1,-1,-1,-1,-1,-1,-1,-1,-1,-1,-1,-1,-1,-1,-1,-1,-1,-1,-1,-1,-1,-1,-1,-1,-1,-1,-1,-1,-1,-1,-1],"loss_changes":[3.7654706E2,1.3042859E2,3.0505176E2,9.159096E1,7.426251E1,7.452612E1,7.7476326E1,1.9883835E1,3.1378963E1,1.5514679E1,6.380388E1,6.088513E1,2.2392853E1,8.433397E1,6.574583E1,8.012482E0,2.5294119E1,3.2007164E1,2.497419E1,1.6605606E1,1.0411835E1,3.6293377E1,2.7264938E1,2.9531452E1,5.9747803E1,1.4775704E1,9.624317E0,4.430858E1,1.6643147E1,5.2375298E1,2.5405603E1,0E0,0E0,0E0,0E0,0E0,0E0,0E0,0E0,0E0,0E0,0E0,0E0,0E0,0E0,0E0,0E0,0E0,0E0,0E0,0E0,0E0,0E0,0E0,0E0,0E0,0E0,0E0,0E0,0E0,0E0,0E0,0E0],"parents":[2147483647,0,0,1,1,2,2,3,3,4,4,5,5,6,6,7,7,8,8,9,9,10,10,11,11,12,12,13,13,14,14,15,15,16,16,17,17,18,18,19,19,20,20,21,21,22,22,23,23,24,24,25,25,26,26,27,27,28,28,29,29,30,30],"right_children":[2,4,6,8,10,12,14,16,18,20,22,24,26,28,30,32,34,36,38,40,42,44,46,48,50,52,54,56,58,60,62,-1,-1,-1,-1,-1,-1,-1,-1,-1,-1,-1,-1,-1,-1,-1,-1,-1,-1,-1,-1,-1,-1,-1,-1,-1,-1,-1,-1,-1,-1,-1,-1],"split_conditions":[6.2802E-2,3.649024E0,1.0194713E1,7.146016E-2,4.5602E-2,-3.85E-1,3.447736E1,3.6E-1,6.92E-1,8.4144786E-2,2.4680653E1,3.74E-1,1.1918273E-1,-5.35E-1,4.4711825E-1,1.5637808E-1,2.0554596E-1,1.5143797E-1,6.5E-2,1.728E-3,6.982597E-2,7E-2,5.58E-1,6.36E-4,-1.879E0,1.132E0,3.41E0,1.6E-1,7.61E-1,-9.22E-1,6.6002965E-1,-6.4552077E-3,5.8132943E-2,-3.0151919E-2,3.4508776E-2,-2.5941072E-2,2.793251E-2,2.232968E-2,-5.059856E-2,3.121438E-2,-5.3831786E-2,2.3284022E-2,5.4907203E-2,3.7442025E-2,1.4039886E-3,5.1190294E-2,2.4652405E-2,2.5934556E-2,-6.376419E-2,-2.171865E-3,-4.0846158E-2,3.5420846E-2,-6.168747E-2,5.2833743E-2,-5.9361864E-2,-2.4882084E-2,9.3651685E-4,-4.6593696E-3,3.7370756E-2,1.2234296E-3,2.6373897E-2,8.5611915E-4,-4.2848136E-2],"split_indices":[45,51,51,39,45,40,67,25,81,63,67,81,63,40,63,79,71,63,11,14,31,11,81,86,80,74,90,13,66,40,71,0,0,0,0,0,0,0,0,0,0,0,0,0,0,0,0,0,0,0,0,0,0,0,0,0,0,0,0,0,0,0,0],"split_type":[0,0,0,0,0,0,0,0,0,0,0,0,0,0,0,0,0,0,0,0,0,0,0,0,0,0,0,0,0,0,0,0,0,0,0,0,0,0,0,0,0,0,0,0,0,0,0,0,0,0,0,0,0,0,0,0,0,0,0,0,0,0,0],"sum_hessian":[4.6303096E3,1.6354797E3,2.9948296E3,3.5259024E2,1.2828895E3,1.1402458E3,1.8545839E3,1.13930916E2,2.3865933E2,3.3427417E2,9.486153E2,1.0885641E3,5.1681694E1,8.543247E2,1.00025916E3,5.190368E1,6.202724E1,1.1779742E2,1.2086191E2,4.9080772E1,2.851934E2,5.0310632E2,4.45509E2,6.791919E1,1.02064496E3,1.4518145E1,3.7163548E1,7.227346E2,1.3159012E2,8.6831055E2,1.319486E2,5.1286225E0,4.6775055E1,2.3594608E1,3.8432632E1,7.5728806E1,4.206861E1,1.2584133E1,1.0827778E2,4.3413944E1,5.666826E0,3.1309841E1,2.5388356E2,8.281139E1,4.2029492E2,1.4499266E2,3.0051633E2,5.8028973E1,9.890218E0,1.1231671E2,9.0832825E2,5.659014E0,8.859131E0,3.595087E1,1.212677E0,4.643808E2,2.5835382E2,3.033518E1,1.0125494E2,3.4019507E2,5.281155E2,6.572322E1,6.6225365E1],"tree_param":{"num_deleted":"0","num_feature":"110","num_nodes":"63","size_leaf_vector":"1"}},{"base_weights":[-2.8519991E-3,-5.965349E-1,1.3831711E-1,9.091333E-1,-6.7912334E-1,7.1351415E-1,3.2514192E-2,-5.676227E-1,1.0172383E0,8.392006E-1,-7.531108E-1,7.6290613E-1,-3.8409752E-1,2.3500884E-1,-2.3786928E-1,3.539319E-2,-6.7457184E-2,-2.8326852E-2,1.0901641E0,-8.852062E-1,1.0728209E0,-1.1291474E0,-5.373998E-1,9.674062E-1,5.701347E-1,6.38769E-1,-1.1784256E0,7.277549E-1,1.3236386E-1,-6.635886E-1,-3.9680302E-2,-9.375925E-3,5.9445806E-2,-6.6462465E-2,1.8445669E-2,5.901131E-2,-4.7877334E-2,2.3210783E-2,-5.849297E-2,-1.2231822E-2,-4.53507E-2,4.9881957E-2,3.986134E-3,5.214773E-3,3.806401E-2,-4.6995312E-2,5.591002E-2,2.1651862E-2,-7.8883365E-2,4.219162E-2,-2.2084383E-2,3.945005E-2,2.2078266E-3,-3.945727E-2,-4.914008E-3,-1.1001139E-2,1.6712015E-2],"categories":[],"categories_nodes":[],"categories_segments":[],"categories_sizes":[],"default_left":[0,0,0,0,1,0,0,0,0,0,0,0,0,1,0,0,0,0,0,0,0,0,0,0,0,0,0,0,0,0,1,0,0,0,0,0,0,0,0,0,0,0,0,0,0,0,0,0,0,0,0,0,0,0,0,0,0],"id":21,"left_children":[1,3,5,7,9,11,13,15,17,19,21,23,25,27,29,-1,-1,-1,31,33,35,37,39,41,43,45,47,49,51,53,55,-1,-1,-1,-1,-1,-1,-1,-1,-1,-1,-1,-1,-1,-1,-1,-1,-1,-1,-1,-1,-1,-1,-1,-1,-1,-1],"loss_changes":[3.8498737E2,1.10351105E2,2.2582835E2,7.971283E0,9.4673615E1,3.1548676E1,1.7173488E2,4.743931E0,5.643364E0,1.681053E1,6.4185425E1,2.1210846E1,2.146445E1,9.06099E1,1.1330536E2,0E0,0E0,0E0,5.5146866E0,3.411467E0,8.790035E0,1.9372498E1,5.4910736E1,7.0708923E0,2.544072E1,9.975459E0,1.0140808E1,4.231253E1,8.6002045E1,3.0203323E1,6.1950977E1,0E0,0E0,0E0,0E0,0E0,0E0,0E0,0E0,0E0,0E0,0E0,0E0,0E0,0E0,0E0,0E0,0E0,0E0,0E0,0E0,0E0,0E0,0E0,0E0,0E0,0E0],"parents":[2147483647,0,0,1,1,2,2,3,3,4,4,5,5,6,6,7,7,8,8,9,9,10,10,11,11,12,12,13,13,14,14,18,18,19,19,20,20,21,21,22,22,23,23,24,24,25,25,26,26,27,27,28,28,29,29,30,30],"right_children":[2,4,6,8,10,12,14,16,18,20,22,24,26,28,30,-1,-1,-1,32,34,36,38,40,42,44,46,48,50,52,54,56,-1,-1,-1,-1,-1,-1,-1,-1,-1,-1,-1,-1,-1,-1,-1,-1,-1,-1,-1,-1,-1,-1,-1,-1,-1,-1],"split_conditions":[5.1E1,4.13E-1,6.19E-1,-5.926E-3,5.5E-2,5.250006E2,1E0,-1.812E-3,5.783854E0,-1.77E0,3.7E1,1E0,1.11385E-1,7E-2,6.5E1,3.539319E-2,-6.7457184E-2,-2.8326852E-2,5.8533335E-1,8.48E-1,1.8317E-1,7.8509516E-1,1E0,5.198E-3,6.6E1,7.98E-1,4.61E-1,1.5743025E2,9.1345E-2,6.003172E0,8.450704E1,-9.375925E-3,5.9445806E-2,-6.6462465E-2,1.8445669E-2,5.901131E-2,-4.7877334E-2,2.3210783E-2,-5.849297E-2,-1.2231822E-2,-4.53507E-2,4.9881957E-2,3.986134E-3,5.214773E-3,3.806401E-2,-4.6995312E-2,5.591002E-2,2.1651862E-2,-7.8883365E-2,4.219162E-2,-2.2084383E-2,3.945005E-2,2.2078266E-3,-3.945727E-2,-4.914008E-3,-1.1001139E-2,1.6712015E-2],"split_indices":[0,89,89,78,11,75,1,22,67,64,0,1,21,11,0,0,0,0,4,65,101,3,1,78,0,18,65,67,93,3,2,0,0,0,0,0,0,0,0,0,0,0,0,0,0,0,0,0,0,0,0,0,0,0,0,0,0],"split_type":[0,0,0,0,0,0,0,0,0,0,0,0,0,0,0,0,0,0,0,0,0,0,0,0,0,0,0,0,0,0,0,0,0,0,0,0,0,0,0,0,0,0,0,0,0,0,0,0,0,0,0,0,0,0,0,0,0],"sum_hessian":[4.5916055E3,8.8145294E2,3.7101523E3,4.5314617E1,8.361383E2,5.75532E2,3.1346204E3,2.801011E0,4.2513607E1,3.8371002E1,7.9776733E2,5.510404E2,2.44916E1,1.7923961E3,1.3422244E3,1.0999988E0,1.7010123E0,1.5734451E0,4.094016E1,4.245425E0,3.4125576E1,2.8926822E2,5.0849908E2,2.654361E2,2.856043E2,1.0791318E1,1.3700282E1,3.079579E2,1.4844382E3,4.256213E2,9.16603E2,2.8727555E0,3.8067406E1,3.0910707E0,1.1543542E0,3.2808727E1,1.3168513E0,6.947781E0,2.8232043E2,2.8467557E2,2.2382352E2,2.565738E2,8.862323E0,8.354442E1,2.0205989E2,2.2900772E0,8.501241E0,2.7034945E0,1.0996788E1,2.8040375E2,2.7554125E1,1.7485199E2,1.3095863E3,3.4794553E2,7.7675766E1,6.186424E2,2.9796057E2],"tree_param":{"num_deleted":"0","num_feature":"110","num_nodes":"57","size_leaf_vector":"1"}},{"base_weights":[9.28853E-3,-5.6028396E-1,1.4443882E-1,1.5013109E-1,-7.4245065E-1,5.556671E-1,-7.916481E-3,6.018112E-1,-4.456424E-1,-8.6172265E-1,-1.1742126E-1,6.078593E-1,-4.1197568E-1,9.779338E-2,-5.370172E-1,1.1807414E0,2.6012197E-1,-7.7766776E-1,4.1389322E-1,-1.1172124E0,-6.522401E-1,2.8518865E-1,-7.928349E-1,8.6363703E-1,3.8033476E-1,5.603891E-1,-1.282321E0,6.1539006E-1,6.933976E-4,8.154608E-1,-6.05574E-1,-1.979679E-2,6.3693784E-2,-1.763198E-2,3.6720317E-2,3.860066E-2,-5.820903E-2,-5.282068E-2,4.3796737E-2,4.8708875E-2,-5.7153918E-2,-4.248808E-2,-1.6084649E-3,3.9323747E-2,-2.4874052E-2,4.395435E-2,-4.9033016E-2,3.9944664E-2,6.6592984E-2,-5.8075474E-3,2.8650923E-2,4.5498297E-2,-3.3813402E-2,4.768875E-2,-7.301861E-2,3.025626E-3,3.7376933E-2,2.3245541E-2,-4.3510487E-3,5.181132E-2,-6.1728746E-2,1.5596755E-2,-3.6002845E-2],"categories":[],"categories_nodes":[],"categories_segments":[],"categories_sizes":[],"default_left":[0,0,0,0,0,0,0,0,0,0,0,0,0,0,0,0,0,0,0,0,0,0,0,0,0,0,0,0,1,0,0,0,0,0,0,0,0,0,0,0,0,0,0,0,0,0,0,0,0,0,0,0,0,0,0,0,0,0,0,0,0,0,0],"id":22,"left_children":[1,3,5,7,9,11,13,15,17,19,21,23,25,27,29,31,33,35,37,39,41,43,45,47,49,51,53,55,57,59,61,-1,-1,-1,-1,-1,-1,-1,-1,-1,-1,-1,-1,-1,-1,-1,-1,-1,-1,-1,-1,-1,-1,-1,-1,-1,-1,-1,-1,-1,-1,-1,-1],"loss_changes":[3.5170288E2,1.1350583E2,2.3135722E2,4.861401E1,5.1900543E1,5.0665436E1,1.5080751E2,1.9990952E1,2.2595299E1,3.0613922E1,3.09374E1,5.4815887E1,4.4458073E1,1.12949554E2,4.212503E1,6.055317E0,1.9384861E1,3.482823E1,1.6142641E1,1.5310089E1,3.967781E1,2.8441734E1,1.4190718E1,1.2435028E1,4.8211456E1,1.1469297E1,1.2372211E1,2.5985825E1,7.713578E1,1.1275569E1,4.5171265E1,0E0,0E0,0E0,0E0,0E0,0E0,0E0,0E0,0E0,0E0,0E0,0E0,0E0,0E0,0E0,0E0,0E0,0E0,0E0,0E0,0E0,0E0,0E0,0E0,0E0,0E0,0E0,0E0,0E0,0E0,0E0,0E0],"parents":[2147483647,0,0,1,1,2,2,3,3,4,4,5,5,6,6,7,7,8,8,9,9,10,10,11,11,12,12,13,13,14,14,15,15,16,16,17,17,18,18,19,19,20,20,21,21,22,22,23,23,24,24,25,25,26,26,27,27,28,28,29,29,30,30],"right_children":[2,4,6,8,10,12,14,16,18,20,22,24,26,28,30,32,34,36,38,40,42,44,46,48,50,52,54,56,58,60,62,-1,-1,-1,-1,-1,-1,-1,-1,-1,-1,-1,-1,-1,-1,-1,-1,-1,-1,-1,-1,-1,-1,-1,-1,-1,-1,-1,-1,-1,-1,-1,-1],"split_conditions":[5.1E1,7.55E-1,8.46E-1,1E0,1.35E-1,2.1558691E2,-2.58E-1,5.5E-1,2.0473309E1,3.8E1,-3.21E-1,1E0,6.141378E-1,6.2995E-2,4.4896E-2,-4.321E-3,7.3595E-2,9.61E-1,1.0328E-1,2.17E-1,3.410534E-1,8.8703E-2,8.94E-1,-4E-1,6.4E1,1.15587E-1,1.01542346E-1,1.35E-1,3.55E-1,3.29E-1,-1.323E0,-1.979679E-2,6.3693784E-2,-1.763198E-2,3.6720317E-2,3.860066E-2,-5.820903E-2,-5.282068E-2,4.3796737E-2,4.8708875E-2,-5.7153918E-2,-4.248808E-2,-1.6084649E-3,3.9323747E-2,-2.4874052E-2,4.395435E-2,-4.9033016E-2,3.9944664E-2,6.6592984E-2,-5.8075474E-3,2.8650923E-2,4.5498297E-2,-3.3813402E-2,4.768875E-2,-7.301861E-2,3.025626E-3,3.7376933E-2,2.3245541E-2,-4.3510487E-3,5.181132E-2,-6.1728746E-2,1.5596755E-2,-3.6002845E-2],"split_indices":[0,42,89,1,11,67,32,81,67,0,32,1,71,109,29,94,69,90,85,81,71,45,97,88,0,29,87,13,12,57,88,0,0,0,0,0,0,0,0,0,0,0,0,0,0,0,0,0,0,0,0,0,0,0,0,0,0,0,0,0,0,0,0],"split_type":[0,0,0,0,0,0,0,0,0,0,0,0,0,0,0,0,0,0,0,0,0,0,0,0,0,0,0,0,0,0,0,0,0,0,0,0,0,0,0,0,0,0,0,0,0,0,0,0,0,0,0,0,0,0,0,0,0,0,0,0,0,0,0],"sum_hessian":[4.566831E3,8.752143E2,3.691617E3,1.786581E2,6.965562E2,9.972506E2,2.6943662E3,1.0161187E2,7.704622E1,5.8461725E2,1.11938965E2,9.46567E2,5.06836E1,2.2463748E3,4.4799155E2,3.6801987E1,6.480988E1,5.56462E1,2.140002E1,2.6143353E2,3.2318372E2,7.0495056E1,4.144391E1,4.4429984E2,5.022672E2,2.4106989E1,2.6576612E1,3.5400333E2,1.8923715E3,2.1087433E1,4.269041E2,1.8713031E0,3.4930683E1,2.8388828E1,3.6421055E1,1.0909277E1,4.4736923E1,4.8093433E0,1.6590677E1,2.7459564E0,2.5868756E2,2.4482507E2,7.835863E1,4.296918E1,2.7525873E1,3.8139367E0,3.7629974E1,3.927046E2,5.1595222E1,1.4053908E2,3.6172815E2,1.9000206E1,5.106784E0,1.6387877E0,2.4937824E1,6.837248E1,2.8563083E2,3.0005695E2,1.5923145E3,1.9483784E1,1.6036499E0,4.7166798E1,3.7973734E2],"tree_param":{"num_deleted":"0","num_feature":"110","num_nodes":"63","size_leaf_vector":"1"}},{"base_weights":[1.163605E-2,2.0783493E-1,-3.301899E-1,5.7539666E-1,5.4668624E-2,3.527534E-1,-4.686654E-1,8.80916E-1,4.266179E-1,-1.6585071E-1,2.6564562E-1,7.718025E-1,-1.7385965E-2,6.9529986E-1,-5.409169E-1,1.0361748E0,5.124131E-1,7.289546E-1,2.3958892E-1,-3.1381622E-1,3.4934434E-1,3.269279E-1,-7.1270764E-1,8.479985E-1,-9.9281615E-1,8.3214444E-1,-2.8327596E-1,1.21395096E-1,9.282933E-1,2.0429051E-1,-6.0361946E-1,-7.5153834E-3,5.32037E-2,5.191795E-4,4.2175975E-2,-4.3510777E-4,4.0088695E-2,4.987532E-2,5.065435E-3,-2.544426E-2,3.0387468E-3,-2.5023096E-3,3.1600963E-2,3.0586576E-2,9.013007E-3,-1.0884183E-2,-6.97234E-2,5.7656255E-2,2.9198125E-2,2.6100973E-2,-7.972562E-2,5.9093602E-2,-1.325412E-2,-2.531509E-2,5.0862193E-2,-3.960151E-2,4.9390756E-2,-1.8720167E-2,5.2806593E-2,4.410163E-2,-1.1645842E-2,-1.487231E-2,-3.5686728E-2],"categories":[],"categories_nodes":[],"categories_segments":[],"categories_sizes":[],"default_left":[0,0,0,1,0,0,0,0,0,0,0,0,0,0,1,0,0,0,1,1,0,0,0,0,0,0,0,0,0,0,0,0,0,0,0,0,0,0,0,0,0,0,0,0,0,0,0,0,0,0,0,0,0,0,0,0,0,0,0,0,0,0,0],"id":23,"left_children":[1,3,5,7,9,11,13,15,17,19,21,23,25,27,29,31,33,35,37,39,41,43,45,47,49,51,53,55,57,59,61,-1,-1,-1,-1,-1,-1,-1,-1,-1,-1,-1,-1,-1,-1,-1,-1,-1,-1,-1,-1,-1,-1,-1,-1,-1,-1,-1,-1,-1,-1,-1,-1],"loss_changes":[3.061352E2,1.632371E2,1.575878E2,3.8393433E1,9.533345E1,4.36278E1,1.1680249E2,1.5396378E1,3.236936E1,7.649668E1,6.301313E1,1.8577263E1,3.4182625E1,1.0765144E1,6.105725E1,6.610962E0,1.4037266E1,1.1796028E1,3.7320877E1,5.695292E1,2.532651E1,4.1079422E1,2.0633251E1,9.556946E0,6.2287226E0,1.4157776E1,3.393092E1,2.0283108E1,1.0006107E1,3.0416445E1,4.0349396E1,0E0,0E0,0E0,0E0,0E0,0E0,0E0,0E0,0E0,0E0,0E0,0E0,0E0,0E0,0E0,0E0,0E0,0E0,0E0,0E0,0E0,0E0,0E0,0E0,0E0,0E0,0E0,0E0,0E0,0E0,0E0,0E0],"parents":[2147483647,0,0,1,1,2,2,3,3,4,4,5,5,6,6,7,7,8,8,9,9,10,10,11,11,12,12,13,13,14,14,15,15,16,16,17,17,18,18,19,19,20,20,21,21,22,22,23,23,24,24,25,25,26,26,27,27,28,28,29,29,30,30],"right_children":[2,4,6,8,10,12,14,16,18,20,22,24,26,28,30,32,34,36,38,40,42,44,46,48,50,52,54,56,58,60,62,-1,-1,-1,-1,-1,-1,-1,-1,-1,-1,-1,-1,-1,-1,-1,-1,-1,-1,-1,-1,-1,-1,-1,-1,-1,-1,-1,-1,-1,-1,-1,-1],"split_conditions":[-4.04E-1,6.0841E-2,7.56E-1,4E-1,1.8562837E-1,1E0,7.453854E-2,1E0,5.93E-1,8.680709E0,5.696031E-1,1.0007E-1,5.74E-1,1.8074226E-1,5.5E-2,2.9363E-2,1.45E-1,5.630805E0,6.5E-2,1.6E-1,2.69E-1,1.009E0,2.6660308E-1,1.246E0,3.21E-1,6.6791E-2,1.947E0,1.65E-1,-1.639E0,1.975E0,6.59E-1,-7.5153834E-3,5.32037E-2,5.191795E-4,4.2175975E-2,-4.3510777E-4,4.0088695E-2,4.987532E-2,5.065435E-3,-2.544426E-2,3.0387468E-3,-2.5023096E-3,3.1600963E-2,3.0586576E-2,9.013007E-3,-1.0884183E-2,-6.97234E-2,5.7656255E-2,2.9198125E-2,2.6100973E-2,-7.972562E-2,5.9093602E-2,-1.325412E-2,-2.531509E-2,5.0862193E-2,-3.960151E-2,4.9390756E-2,-1.8720167E-2,5.2806593E-2,4.410163E-2,-1.1645842E-2,-1.487231E-2,-3.5686728E-2],"split_indices":[32,45,89,12,63,1,23,1,81,3,63,45,97,71,11,53,13,51,11,13,41,89,15,90,89,21,98,13,80,90,81,0,0,0,0,0,0,0,0,0,0,0,0,0,0,0,0,0,0,0,0,0,0,0,0,0,0,0,0,0,0,0,0],"split_type":[0,0,0,0,0,0,0,0,0,0,0,0,0,0,0,0,0,0,0,0,0,0,0,0,0,0,0,0,0,0,0,0,0,0,0,0,0,0,0,0,0,0,0,0,0,0,0,0,0,0,0,0,0,0,0,0,0,0,0,0,0,0,0],"sum_hessian":[4.5626714E3,2.8990735E3,1.6635979E3,8.5191907E2,2.0471544E3,2.8018985E2,1.3834081E3,2.7738467E2,5.7453436E2,1.00104584E3,1.0461085E3,1.3090363E2,1.4928622E2,8.035026E1,1.3030577E3,1.938847E2,8.349996E1,2.184719E2,3.5606247E2,7.779945E2,2.2305138E2,9.850713E2,6.103724E1,1.2598313E2,4.9204917E0,3.5078667E1,1.1420756E2,2.3640493E1,5.6709763E1,1.0095611E2,1.2021017E3,4.353493E0,1.895312E2,3.3594597E1,4.9905365E1,1.9708254E1,1.9876364E2,5.398047E1,3.02082E2,5.1134976E2,2.666447E2,9.278238E1,1.30269E2,3.337722E2,6.512991E2,3.6125748E1,2.491149E1,5.6881794E1,6.910133E1,1.4364624E0,3.4840293E0,2.6541685E1,8.53698E0,9.801046E1,1.6197094E1,1.1549873E1,1.2090621E1,4.8954625E0,5.18143E1,3.9189156E1,6.1766953E1,3.1895453E2,8.8314716E2],"tree_param":{"num_deleted":"0","num_feature":"110","num_nodes":"63","size_leaf_vector":"1"}},{"base_weights":[-6.611111E-3,-6.878485E-1,9.8962925E-2,7.86547E-1,-7.657663E-1,-1.6089857E-3,5.287975E-1,1.145591E0,5.115405E-2,8.1732726E-1,-8.2654893E-1,2.0231478E-1,-2.6028675E-1,2.2717649E-1,6.978296E-1,-1.7722019E-3,1.2505443E0,8.052783E-1,-6.3999765E-2,-2.7774152E-1,9.826038E-1,-8.8802415E-1,2.411184E-2,3.8246563E-1,-4.2583765E-3,6.7446314E-2,-4.079526E-1,7.0332575E-1,5.0760917E-2,7.532228E-1,-9.191003E-2,-1.3357005E-3,6.651001E-2,-2.6160423E-2,7.0013836E-2,3.9292786E-2,-5.6977417E-2,-2.5513327E-2,5.6174763E-2,-4.606692E-2,2.0018406E-2,-2.9457157E-2,3.0318854E-2,5.516317E-2,1.47025185E-2,-7.874928E-3,2.3087753E-2,1.134786E-2,-3.2285694E-2,-3.0725012E-2,-6.3355947E-3,-2.5532244E-2,4.040198E-2,-4.723024E-2,8.555408E-3,5.721879E-2,3.480645E-2,2.4098603E-2,-5.32546E-2],"categories":[],"categories_nodes":[],"categories_segments":[],"categories_sizes":[],"default_left":[0,1,0,0,0,0,0,0,1,0,0,0,0,0,0,0,0,0,0,0,0,0,0,0,0,0,0,0,0,0,0,0,0,0,0,0,0,0,0,0,0,0,0,0,0,0,0,0,0,0,0,0,0,0,0,0,0,0,0],"id":24,"left_children":[1,3,5,7,9,11,13,15,17,19,21,23,25,27,29,-1,31,33,-1,35,37,39,41,43,45,47,49,51,53,55,57,-1,-1,-1,-1,-1,-1,-1,-1,-1,-1,-1,-1,-1,-1,-1,-1,-1,-1,-1,-1,-1,-1,-1,-1,-1,-1,-1,-1],"loss_changes":[3.2467926E2,7.019049E1,1.6897136E2,8.099686E0,5.608545E1,1.6719595E2,3.7627686E1,2.6120014E0,1.2257083E1,4.217491E0,2.9047241E1,6.5958824E1,6.764501E1,2.2447773E1,2.082611E1,0E0,1.9738846E0,6.8607664E0,0E0,4.2298746E0,4.602602E0,2.2587952E1,1.4062548E1,6.0010757E1,5.9103474E1,4.9613598E1,5.5882828E1,9.601059E0,2.3685656E1,9.107651E0,1.8379896E1,0E0,0E0,0E0,0E0,0E0,0E0,0E0,0E0,0E0,0E0,0E0,0E0,0E0,0E0,0E0,0E0,0E0,0E0,0E0,0E0,0E0,0E0,0E0,0E0,0E0,0E0,0E0,0E0],"parents":[2147483647,0,0,1,1,2,2,3,3,4,4,5,5,6,6,7,7,8,8,9,9,10,10,11,11,12,12,13,13,14,14,16,16,17,17,19,19,20,20,21,21,22,22,23,23,24,24,25,25,26,26,27,27,28,28,29,29,30,30],"right_children":[2,4,6,8,10,12,14,16,18,20,22,24,26,28,30,-1,32,34,-1,36,38,40,42,44,46,48,50,52,54,56,58,-1,-1,-1,-1,-1,-1,-1,-1,-1,-1,-1,-1,-1,-1,-1,-1,-1,-1,-1,-1,-1,-1,-1,-1,-1,-1,-1,-1],"split_conditions":[4.6E1,5.5E-2,-4.46E-1,1.193E0,5.6571E-2,-5.05E-1,1.2109832E-1,1.0606311E-1,4.7E-1,8.909621E-2,-4.16E-1,1E0,7.0076E-2,7.091695E-2,6.959111E-1,-1.7722019E-3,-6.788E-3,-1.445E0,-6.3999765E-2,6.460367E-2,1.6143297E1,5.67822E-1,9.82E-1,8.1721E-2,8.759124E1,-2.04E-1,3.1389614E1,