{"learner":{"attributes":{"scikit_learn":"{\"_estimator_type\": \"classifier\"}"},"feature_names":[],"feature_types":[],"gradient_booster":{"model":{"cats":{"enc":[],"feature_segments":[],"sorted_idx":[]},"gbtree_model_param":{"num_parallel_tree":"1","num_trees":"400"},"iteration_indptr":[0,1,2,3,4,5,6,7,8,9,10,11,12,13,14,15,16,17,18,19,20,21,22,23,24,25,26,27,28,29,30,31,32,33,34,35,36,37,38,39,40,41,42,43,44,45,46,47,48,49,50,51,52,53,54,55,56,57,58,59,60,61,62,63,64,65,66,67,68,69,70,71,72,73,74,75,76,77,78,79,80,81,82,83,84,85,86,87,88,89,90,91,92,93,94,95,96,97,98,99,100,101,102,103,104,105,106,107,108,109,110,111,112,113,114,115,116,117,118,119,120,121,122,123,124,125,126,127,128,129,130,131,132,133,134,135,136,137,138,139,140,141,142,143,144,145,146,147,148,149,150,151,152,153,154,155,156,157,158,159,160,161,162,163,164,165,166,167,168,169,170,171,172,173,174,175,176,177,178,179,180,181,182,183,184,185,186,187,188,189,190,191,192,193,194,195,196,197,198,199,200,201,202,203,204,205,206,207,208,209,210,211,212,213,214,215,216,217,218,219,220,221,222,223,224,225,226,227,228,229,230,231,232,233,234,235,236,237,238,239,240,241,242,243,244,245,246,247,248,249,250,251,252,253,254,255,256,257,258,259,260,261,262,263,264,265,266,267,268,269,270,271,272,273,274,275,276,277,278,279,280,281,282,283,284,285,286,287,288,289,290,291,292,293,294,295,296,297,298,299,300,301,302,303,304,305,306,307,308,309,310,311,312,313,314,315,316,317,318,319,320,321,322,323,324,325,326,327,328,329,330,331,332,333,334,335,336,337,338,339,340,341,342,343,344,345,346,347,348,349,350,351,352,353,354,355,356,357,358,359,360,361,362,363,364,365,366,367,368,369,370,371,372,373,374,375,376,377,378,379,380,381,382,383,384,385,386,387,388,389,390,391,392,393,394,395,396,397,398,399,400],"tree_info":[0,0,0,0,0,0,0,0,0,0,0,0,0,0,0,0,0,0,0,0,0,0,0,0,0,0,0,0,0,0,0,0,0,0,0,0,0,0,0,0,0,0,0,0,0,0,0,0,0,0,0,0,0,0,0,0,0,0,0,0,0,0,0,0,0,0,0,0,0,0,0,0,0,0,0,0,0,0,0,0,0,0,0,0,0,0,0,0,0,0,0,0,0,0,0,0,0,0,0,0,0,0,0,0,0,0,0,0,0,0,0,0,0,0,0,0,0,0,0,0,0,0,0,0,0,0,0,0,0,0,0,0,0,0,0,0,0,0,0,0,0,0,0,0,0,0,0,0,0,0,0,0,0,0,0,0,0,0,0,0,0,0,0,0,0,0,0,0,0,0,0,0,0,0,0,0,0,0,0,0,0,0,0,0,0,0,0,0,0,0,0,0,0,0,0,0,0,0,0,0,0,0,0,0,0,0,0,0,0,0,0,0,0,0,0,0,0,0,0,0,0,0,0,0,0,0,0,0,0,0,0,0,0,0,0,0,0,0,0,0,0,0,0,0,0,0,0,0,0,0,0,0,0,0,0,0,0,0,0,0,0,0,0,0,0,0,0,0,0,0,0,0,0,0,0,0,0,0,0,0,0,0,0,0,0,0,0,0,0,0,0,0,0,0,0,0,0,0,0,0,0,0,0,0,0,0,0,0,0,0,0,0,0,0,0,0,0,0,0,0,0,0,0,0,0,0,0,0,0,0,0,0,0,0,0,0,0,0,0,0,0,0,0,0,0,0,0,0,0,0,0,0,0,0,0,0,0,0,0,0,0,0,0,0,0,0,0,0,0,0,0,0,0,0,0,0,0,0,0,0,0,0,0,0,0,0,0,0,0,0,0,0,0,0,0,0,0,0,0,0],"trees":[{"base_weights":[5.5484124E-3,-8.135187E-1,2.901118E-1,-9.9152315E-1,5.609996E-1,7.901329E-2,1.0811927E0,1.3957365E-1,-1.1987687E0,-1.6235033E-1,9.7105443E-1,6.3461363E-1,-2.1567293E-1,4.0765595E-1,1.3989455E0,-3.723906E-1,6.2614805E-1,-4.6295223E-1,-1.3810612E0,5.824165E-1,-8.7641114E-1,-8.260869E-2,1.1221378E0,2.8345963E-1,1.0046196E0,-5.457999E-1,4.7700787E-1,5.501241E-1,-1.1942184E0,9.981419E-1,1.5993193E0,-2.234655E-4,-6.567048E-2,-4.9173888E-2,4.146414E-2,-3.6104064E-2,3.3598557E-2,-8.2239985E-2,-5.210653E-2,-6.666667E-2,3.8970973E-2,-6.4623915E-2,5.536933E-2,1.6942909E-2,7.0083015E-2,4.1654773E-2,4.6657836E-3,6.9522426E-2,3.7193593E-2,4.537083E-3,-3.5512995E-2,-3.8183387E-2,2.9797912E-2,3.4357417E-2,-4.054691E-2,-8.3630405E-2,1.1470196E-3,-6.1035395E-2,5.364581E-2,8.3417654E-2,2.9023692E-2],"categories":[],"categories_nodes":[],"categories_segments":[],"categories_sizes":[],"default_left":[0,0,0,0,1,0,0,0,0,0,0,0,0,0,1,0,0,0,0,0,0,0,0,1,0,0,0,0,0,0,0,0,0,0,0,0,0,0,0,0,0,0,0,0,0,0,0,0,0,0,0,0,0,0,0,0,0,0,0,0,0],"id":0,"left_children":[1,3,5,7,9,11,13,15,17,19,21,23,25,27,29,31,33,35,37,39,41,-1,43,45,47,49,51,53,55,57,59,-1,-1,-1,-1,-1,-1,-1,-1,-1,-1,-1,-1,-1,-1,-1,-1,-1,-1,-1,-1,-1,-1,-1,-1,-1,-1,-1,-1,-1,-1],"loss_changes":[1.2057891E3,3.2692633E2,6.410844E2,2.7709045E2,4.5711147E1,4.9652264E2,1.7249695E2,4.602653E1,1.3329443E2,3.0515135E1,4.0756844E1,1.362687E2,4.5344165E2,6.0135105E1,4.249695E1,3.1224775E1,3.175502E1,5.9233032E1,6.977478E1,1.1688569E1,2.5535276E1,0E0,1.9976334E1,5.642266E1,5.0410767E1,1.4061566E2,9.493317E1,4.5320717E1,1.2616423E1,3.2112244E1,2.4660156E1,0E0,0E0,0E0,0E0,0E0,0E0,0E0,0E0,0E0,0E0,0E0,0E0,0E0,0E0,0E0,0E0,0E0,0E0,0E0,0E0,0E0,0E0,0E0,0E0,0E0,0E0,0E0,0E0,0E0,0E0],"parents":[2147483647,0,0,1,1,2,2,3,3,4,4,5,5,6,6,7,7,8,8,9,9,10,10,11,11,12,12,13,13,14,14,15,15,16,16,17,17,18,18,19,19,20,20,22,22,23,23,24,24,25,25,26,26,27,27,28,28,29,29,30,30],"right_children":[2,4,6,8,10,12,14,16,18,20,22,24,26,28,30,32,34,36,38,40,42,-1,44,46,48,50,52,54,56,58,60,-1,-1,-1,-1,-1,-1,-1,-1,-1,-1,-1,-1,-1,-1,-1,-1,-1,-1,-1,-1,-1,-1,-1,-1,-1,-1,-1,-1,-1,-1],"split_conditions":[5.4E1,4.7E-1,1.7E-1,6E-1,6.0066742E1,6.5E-1,1.038E0,1E-1,8.4442E-2,9.6255E-2,7.1E-1,1.477E0,4.45E-1,2.6334092E-1,6.615215E1,1.63568E-1,7.4745186E1,2.6377499E1,4.24E-1,1.7E-1,1.286E0,-8.260869E-2,1.13E0,1.2E-1,-1.639E0,-1.282E0,6.81E-1,6.96E-1,1.147E0,-1.547E0,3.24575E-1,-2.234655E-4,-6.567048E-2,-4.9173888E-2,4.146414E-2,-3.6104064E-2,3.3598557E-2,-8.2239985E-2,-5.210653E-2,-6.666667E-2,3.8970973E-2,-6.4623915E-2,5.536933E-2,1.6942909E-2,7.0083015E-2,4.1654773E-2,4.6657836E-3,6.9522426E-2,3.7193593E-2,4.537083E-3,-3.5512995E-2,-3.8183387E-2,2.9797912E-2,3.4357417E-2,-4.054691E-2,-8.3630405E-2,1.1470196E-3,-6.1035395E-2,5.364581E-2,8.3417654E-2,2.9023692E-2],"split_indices":[0,12,11,6,2,6,105,11,101,93,106,97,12,5,2,93,2,99,49,57,42,0,97,13,80,64,97,65,97,32,69,0,0,0,0,0,0,0,0,0,0,0,0,0,0,0,0,0,0,0,0,0,0,0,0,0,0,0,0,0,0],"split_type":[0,0,0,0,0,0,0,0,0,0,0,0,0,0,0,0,0,0,0,0,0,0,0,0,0,0,0,0,0,0,0,0,0,0,0,0,0,0,0,0,0,0,0,0,0,0,0,0,0,0,0,0,0,0,0,0,0,0,0,0,0],"sum_hessian":[5.171349E3,1.3329169E3,3.8384324E3,1.180338E3,1.5257883E2,3.0307751E3,8.0765704E2,1.8282883E2,9.975092E2,5.542009E1,9.715874E1,1.0499846E3,1.9807906E3,2.5962207E2,5.48035E2,8.920437E1,9.362446E1,1.9876027E2,7.987489E2,2.7217031E1,2.8203058E1,4.75E0,9.240874E1,5.396223E2,5.1036227E2,1.3416035E3,6.3918713E2,2.3902054E2,2.0601528E1,1.8465503E2,3.6337994E2,6.4852844E1,2.4351528E1,1.0060917E1,8.3563545E1,1.6211049E2,3.6649784E1,4.4703558E2,3.5171332E2,2E0,2.5217031E1,2.3601528E1,4.6015286E0,2.4885809E1,6.7522934E1,1.3782883E2,4.0179346E2,2.040688E2,3.0629346E2,2.7554718E2,1.0660564E3,5.5446728E1,5.837404E2,2.176081E2,2.1412445E1,1.4520306E1,6.081223E0,5.5203056E0,1.7913474E2,3.3972382E2,2.3656115E1],"tree_param":{"num_deleted":"0","num_feature":"110","num_nodes":"61","size_leaf_vector":"1"}},{"base_weights":[2.8013887E-3,-8.0423856E-1,2.8272235E-1,-9.6765524E-1,4.411411E-1,1.0690466E-1,1.0969381E0,-1.2722791E0,-3.5229117E-1,7.1134466E-1,-6.0194147E-1,5.7411146E-1,-2.0035592E-1,-6.9805866E-1,1.2039698E0,-1.9200306E-1,-1.4277462E0,-5.1943016E-1,1.1294096E0,-1.08320184E-1,1.0678337E0,-9.034777E-2,1.1976359E-1,1.0351773E-1,8.1649154E-1,-5.3439814E-1,4.3557855E-1,-1.0667703E0,7.76611E-1,3.8748443E-1,1.3586657E0,-4.1581955E-2,1.6676927E-2,-7.8948334E-2,-4.8769433E-2,1.732636E-2,-3.8933408E-2,6.699667E-2,-7.259867E-2,3.5091143E-2,-3.8464632E-2,3.463037E-2,7.713213E-2,3.0455215E-2,-7.978414E-2,1.9004332E-2,-1.609997E-2,5.940001E-2,3.1150369E-2,-3.67521E-2,-2.8732815E-3,-3.417095E-2,2.797213E-2,-1.7609453E-3,-8.0283396E-2,-5.65191E-2,6.3434325E-2,3.8222123E-2,-4.124126E-2,4.0004026E-2,7.362972E-2],"categories":[],"categories_nodes":[],"categories_segments":[],"categories_sizes":[],"default_left":[0,0,0,0,0,0,0,0,0,0,0,0,0,1,0,0,0,0,0,0,1,0,0,0,0,0,0,0,0,0,1,0,0,0,0,0,0,0,0,0,0,0,0,0,0,0,0,0,0,0,0,0,0,0,0,0,0,0,0,0,0],"id":1,"left_children":[1,3,5,7,9,11,13,15,17,19,21,23,25,27,29,31,33,35,37,39,41,-1,43,45,47,49,51,53,55,57,59,-1,-1,-1,-1,-1,-1,-1,-1,-1,-1,-1,-1,-1,-1,-1,-1,-1,-1,-1,-1,-1,-1,-1,-1,-1,-1,-1,-1,-1,-1],"loss_changes":[1.1698893E3,2.7184216E2,5.503058E2,2.2060718E2,4.422253E1,4.542159E2,1.3200433E2,1.3213477E2,9.762883E1,3.6311623E1,2.8490467E1,1.4309229E2,4.057644E2,2.2061527E1,8.0898926E1,3.4007957E1,4.559497E1,7.947317E1,2.3702904E1,2.1131098E1,1.43281555E1,0E0,1.8827824E1,5.047677E1,5.88042E1,1.1976993E2,9.158116E1,1.7543968E1,9.306802E0,4.819629E1,3.328723E1,0E0,0E0,0E0,0E0,0E0,0E0,0E0,0E0,0E0,0E0,0E0,0E0,0E0,0E0,0E0,0E0,0E0,0E0,0E0,0E0,0E0,0E0,0E0,0E0,0E0,0E0,0E0,0E0,0E0,0E0],"parents":[2147483647,0,0,1,1,2,2,3,3,4,4,5,5,6,6,7,7,8,8,9,9,10,10,11,11,12,12,13,13,14,14,15,15,16,16,17,17,18,18,19,19,20,20,22,22,23,23,24,24,25,25,26,26,27,27,28,28,29,29,30,30],"right_children":[2,4,6,8,10,12,14,16,18,20,22,24,26,28,30,32,34,36,38,40,42,-1,44,46,48,50,52,54,56,58,60,-1,-1,-1,-1,-1,-1,-1,-1,-1,-1,-1,-1,-1,-1,-1,-1,-1,-1,-1,-1,-1,-1,-1,-1,-1,-1,-1,-1,-1,-1],"split_conditions":[5.4E1,4.7E-1,1.8E-1,7.829182E1,1.06E0,6.8E-1,3.43E-1,5.3274E-2,1.55E-1,1.121E0,-2.48E-1,9.3E-1,4.45E-1,8.9E-1,1.043E0,6.81E-1,9.48E-1,5.5E-1,-4E-1,4.45E-1,5.15E-1,-9.034777E-2,-7.52E-1,-4.63E-1,4.8E-1,7.577497E1,7.04E-1,7.194E-2,1.45E-1,8.88E-1,6.0377357E1,-4.1581955E-2,1.6676927E-2,-7.8948334E-2,-4.8769433E-2,1.732636E-2,-3.8933408E-2,6.699667E-2,-7.259867E-2,3.5091143E-2,-3.8464632E-2,3.463037E-2,7.713213E-2,3.0455215E-2,-7.978414E-2,1.9004332E-2,-1.609997E-2,5.940001E-2,3.1150369E-2,-3.67521E-2,-2.8732815E-3,-3.417095E-2,2.797213E-2,-1.7609453E-3,-8.0283396E-2,-5.65191E-2,6.3434325E-2,3.8222123E-2,-4.124126E-2,4.0004026E-2,7.362972E-2],"split_indices":[0,12,11,2,4,6,25,45,11,97,104,105,12,6,97,42,17,6,40,81,12,0,80,40,6,2,97,101,13,73,2,0,0,0,0,0,0,0,0,0,0,0,0,0,0,0,0,0,0,0,0,0,0,0,0,0,0,0,0,0,0],"split_type":[0,0,0,0,0,0,0,0,0,0,0,0,0,0,0,0,0,0,0,0,0,0,0,0,0,0,0,0,0,0,0,0,0,0,0,0,0,0,0,0,0,0,0,0,0,0,0,0,0,0,0,0,0,0,0,0,0,0,0,0,0],"sum_hessian":[5.176616E3,1.3326322E3,3.8439841E3,1.1782474E3,1.543847E2,3.1622708E3,6.817136E2,7.873953E2,3.9085217E2,1.22873245E2,3.1511456E1,1.2542482E3,1.9080225E3,3.8050903E1,6.436627E2,9.934223E1,6.880531E2,3.51816E2,3.903616E1,3.7453545E1,8.54197E1,1.1240211E1,2.0271246E1,4.2687497E2,8.2737317E2,1.2510392E3,6.5698334E2,3.0661272E1,7.3896327E0,1.03084946E2,5.4057776E2,4.454461E1,5.4797626E1,5.1380176E2,1.7425131E2,8.097865E1,2.7083737E2,3.6537296E1,2.4988637E0,1.6800116E1,2.0653429E1,4.9086735E1,3.633297E1,1.6273943E1,3.9973035E0,2.5878317E2,1.680918E2,2.8157724E2,5.457959E2,8.8020056E2,3.7083862E2,6.502499E1,5.919584E2,1.0886953E1,1.9774319E1,1.2496312E0,6.1400013E0,7.891606E1,2.4168886E1,9.29369E1,4.4764084E2],"tree_param":{"num_deleted":"0","num_feature":"110","num_nodes":"61","size_leaf_vector":"1"}},{"base_weights":[6.861591E-3,-2.998815E-1,5.5107933E-1,2.6732382E-1,-8.8893485E-1,2.8497922E-1,1.0632193E0,8.775518E-1,-4.6613935E-2,-1.4157245E-1,-1.1149806E0,4.0891442E-1,-4.3957657E-1,1.2376343E0,4.642173E-1,4.0029573E-1,1.22574E0,-3.6066526E-1,6.136653E-1,-4.756327E-1,5.834936E-1,-1.2857909E0,-4.4000727E-1,5.618926E-1,-1.1283789E-1,2.6750362E-1,-1.0816299E0,3.6290264E-1,1.3241982E0,-2.976076E-1,1.3506459E0,4.7948323E-3,4.9293086E-2,6.367599E-2,2.425614E-3,1.0237042E-2,-3.6165435E-2,-7.513666E-3,4.5726757E-2,3.91225E-3,-4.4836897E-2,-1.9333718E-2,4.8378326E-2,-3.1236395E-2,-7.0040755E-2,-3.6605205E-2,1.2383869E-2,4.178354E-2,1.02062095E-2,-2.6788926E-2,3.449595E-2,2.2360602E-2,-4.9768794E-2,-8.169033E-2,-3.536975E-2,3.3479203E-2,-8.392187E-2,6.987471E-2,3.9999917E-2,1.8276727E-2,-5.3994562E-2,7.311088E-2,-3.8376957E-2],"categories":[],"categories_nodes":[],"categories_segments":[],"categories_sizes":[],"default_left":[0,0,0,0,0,0,0,0,0,0,0,0,0,0,0,0,0,0,0,0,0,0,0,0,0,0,0,0,0,0,0,0,0,0,0,0,0,0,0,0,0,0,0,0,0,0,0,0,0,0,0,0,0,0,0,0,0,0,0,0,0,0,0],"id":2,"left_children":[1,3,5,7,9,11,13,15,17,19,21,23,25,27,29,31,33,35,37,39,41,43,45,47,49,51,53,55,57,59,61,-1,-1,-1,-1,-1,-1,-1,-1,-1,-1,-1,-1,-1,-1,-1,-1,-1,-1,-1,-1,-1,-1,-1,-1,-1,-1,-1,-1,-1,-1,-1,-1],"loss_changes":[8.6101855E2,1.1023478E3,2.5307147E2,3.2212112E2,2.7324634E2,1.1017033E2,6.580328E1,9.442233E1,2.3061479E2,9.158426E1,1.4267383E2,8.358954E1,8.1730576E1,3.6733337E1,9.823898E1,4.311447E1,1.8485992E1,1.5466168E2,8.253648E1,6.039011E1,4.4844975E1,7.4476685E1,5.0887066E1,7.91075E1,8.120713E1,2.0002518E1,1.8313797E1,2.9692457E1,1.6050232E1,4.1239704E1,1.6990303E1,0E0,0E0,0E0,0E0,0E0,0E0,0E0,0E0,0E0,0E0,0E0,0E0,0E0,0E0,0E0,0E0,0E0,0E0,0E0,0E0,0E0,0E0,0E0,0E0,0E0,0E0,0E0,0E0,0E0,0E0,0E0,0E0],"parents":[2147483647,0,0,1,1,2,2,3,3,4,4,5,5,6,6,7,7,8,8,9,9,10,10,11,11,12,12,13,13,14,14,15,15,16,16,17,17,18,18,19,19,20,20,21,21,22,22,23,23,24,24,25,25,26,26,27,27,28,28,29,29,30,30],"right_children":[2,4,6,8,10,12,14,16,18,20,22,24,26,28,30,32,34,36,38,40,42,44,46,48,50,52,54,56,58,60,62,-1,-1,-1,-1,-1,-1,-1,-1,-1,-1,-1,-1,-1,-1,-1,-1,-1,-1,-1,-1,-1,-1,-1,-1,-1,-1,-1,-1,-1,-1,-1,-1],"split_conditions":[4.35E-1,7.790909E-1,8.41E-1,5.3E-1,5.8386E-2,-7.15E-1,1.00375E0,1.368E0,4E-1,7.6E-1,4.643512E1,7.4396E-2,1.89E-1,1.11E0,5.2E-1,-3.42E-1,-5.42E-1,6.9E-1,1.033E0,4.7552E-2,1.11E0,9.1959E-2,1.195E0,9.5E-1,1.235E0,7.1218E-2,-2.88E-1,3.8569832E-1,-6.62E-1,6.9808E-2,4.0119573E-1,4.7948323E-3,4.9293086E-2,6.367599E-2,2.425614E-3,1.0237042E-2,-3.6165435E-2,-7.513666E-3,4.5726757E-2,3.91225E-3,-4.4836897E-2,-1.9333718E-2,4.8378326E-2,-3.1236395E-2,-7.0040755E-2,-3.6605205E-2,1.2383869E-2,4.178354E-2,1.02062095E-2,-2.6788926E-2,3.449595E-2,2.2360602E-2,-4.9768794E-2,-8.169033E-2,-3.536975E-2,3.3479203E-2,-8.392187E-2,6.987471E-2,3.9999917E-2,1.8276727E-2,-5.3994562E-2,7.311088E-2,-3.8376957E-2],"split_indices":[12,4,25,6,45,72,4,97,12,17,67,45,41,97,12,32,72,7,97,45,97,93,17,4,17,45,48,63,80,45,5,0,0,0,0,0,0,0,0,0,0,0,0,0,0,0,0,0,0,0,0,0,0,0,0,0,0,0,0,0,0,0,0],"split_type":[0,0,0,0,0,0,0,0,0,0,0,0,0,0,0,0,0,0,0,0,0,0,0,0,0,0,0,0,0,0,0,0,0,0,0,0,0,0,0,0,0,0,0,0,0,0,0,0,0,0,0,0,0,0,0,0,0,0,0,0,0,0,0],"sum_hessian":[5.1558164E3,3.2976033E3,1.8582131E3,1.6802347E3,1.6173684E3,1.223867E3,6.343462E2,5.7016345E2,1.1100713E3,3.7596448E2,1.2414039E3,1.0454742E3,1.7839267E2,4.904676E2,1.4387862E2,2.414126E2,3.2875085E2,7.525748E2,3.574965E2,2.576166E2,1.1834789E2,9.8997394E2,2.5142998E2,8.0837976E2,2.370945E2,8.5174774E1,9.321789E1,4.4633755E1,4.4583386E2,7.773497E1,6.614364E1,1.5960678E2,8.180581E1,3.158497E2,1.2901141E1,2.942453E2,4.583295E2,1.0115483E2,2.5634164E2,1.11618935E2,1.4599767E2,3.3562435E1,8.478545E1,1.4767758E2,8.422964E2,1.7642722E2,7.500277E1,4.5718692E2,3.5119287E2,1.5550021E2,8.159429E1,7.512966E1,1.0045114E1,3.629684E1,5.6921043E1,3.9388237E1,5.2455173E0,3.8968094E2,5.6152905E1,4.235952E1,3.537545E1,6.3128162E1,3.0154788E0],"tree_param":{"num_deleted":"0","num_feature":"110","num_nodes":"63","size_leaf_vector":"1"}},{"base_weights":[5.813562E-3,-7.29096E-1,2.6126376E-1,-8.694575E-1,3.902037E-1,3.2214444E-2,8.012865E-1,-3.51116E-1,-1.2142335E0,9.1729146E-1,-2.2359744E-1,4.5715994E-1,-2.5398764E-1,-1.1891919E-1,9.410969E-1,-6.4713377E-1,6.0621774E-1,-2.2428855E-1,-1.3529286E0,-4.4284087E-1,1.1235975E0,-9.935793E-1,4.4047514E-1,1.8297249E-1,8.8912106E-1,-5.5257505E-1,3.811687E-1,5.802061E-1,-5.446822E-1,1.4235322E0,6.650438E-1,-4.9789134E-2,5.1248185E-3,-7.951889E-2,3.5871036E-2,-3.6996026E-2,1.0719988E-2,-3.3441883E-2,-7.411816E-2,-8.229171E-2,6.7598276E-2,-1.9359596E-2,6.107637E-2,-1.9442197E-2,-9.126379E-2,-2.7697695E-2,4.9040545E-2,1.5078248E-2,-2.6763117E-2,5.4158773E-2,2.655128E-2,5.8613806E-3,-3.6027454E-2,2.7914936E-2,-3.0148992E-2,3.614716E-2,-7.624837E-2,-6.034861E-2,-1.2409621E-3,7.339954E-2,-4.6851497E-2,1.5739298E-3,5.1927567E-2],"categories":[],"categories_nodes":[],"categories_segments":[],"categories_sizes":[],"default_left":[0,0,0,0,0,0,0,0,0,0,0,0,0,0,0,0,0,0,0,0,0,0,0,0,0,0,0,0,0,0,0,0,0,0,0,0,0,0,0,0,0,0,0,0,0,0,0,0,0,0,0,0,0,0,0,0,0,0,0,0,0,0,0],"id":3,"left_children":[1,3,5,7,9,11,13,15,17,19,21,23,25,27,29,31,33,35,37,39,41,43,45,47,49,51,53,55,57,59,61,-1,-1,-1,-1,-1,-1,-1,-1,-1,-1,-1,-1,-1,-1,-1,-1,-1,-1,-1,-1,-1,-1,-1,-1,-1,-1,-1,-1,-1,-1,-1,-1],"loss_changes":[9.7038806E2,2.0980536E2,4.7441867E2,2.1135034E2,4.8492886E1,3.278062E2,1.4707721E2,1.3493573E2,9.735193E1,2.30848E1,3.6107132E1,1.2830844E2,3.0567194E2,4.542801E1,1.3113531E2,9.500636E1,2.8657124E1,2.0200626E1,5.4229492E1,2.6664024E1,1.0855644E1,1.5692032E1,2.1041407E1,5.6786514E1,2.8674408E1,1.23397156E2,9.022418E1,1.8484575E1,3.257798E1,3.9164795E1,1.4968839E2,0E0,0E0,0E0,0E0,0E0,0E0,0E0,0E0,0E0,0E0,0E0,0E0,0E0,0E0,0E0,0E0,0E0,0E0,0E0,0E0,0E0,0E0,0E0,0E0,0E0,0E0,0E0,0E0,0E0,0E0,0E0,0E0],"parents":[2147483647,0,0,1,1,2,2,3,3,4,4,5,5,6,6,7,7,8,8,9,9,10,10,11,11,12,12,13,13,14,14,15,15,16,16,17,17,18,18,19,19,20,20,21,21,22,22,23,23,24,24,25,25,26,26,27,27,28,28,29,29,30,30],"right_children":[2,4,6,8,10,12,14,16,18,20,22,24,26,28,30,32,34,36,38,40,42,44,46,48,50,52,54,56,58,60,62,-1,-1,-1,-1,-1,-1,-1,-1,-1,-1,-1,-1,-1,-1,-1,-1,-1,-1,-1,-1,-1,-1,-1,-1,-1,-1,-1,-1,-1,-1,-1,-1],"split_conditions":[5.4E1,4.7E-1,1.45E-1,7.936364E-1,1.19818E-1,6.8E-1,4.53E-1,4E-1,5.3274E-2,5.251641E1,7.14E-1,1.282E0,4.45E-1,4.8602E-2,7.6416665E-1,9.395973E1,6.09E-1,6.84E-1,9.1959E-2,-1.21E-1,2.78E-1,9.639395E-2,6.2427746E1,-7.15E-1,-1.25E0,-1.282E0,-5.23E-1,-1.04E-1,3.48E-1,5.7217755E2,4.65E-1,-4.9789134E-2,5.1248185E-3,-7.951889E-2,3.5871036E-2,-3.6996026E-2,1.0719988E-2,-3.3441883E-2,-7.411816E-2,-8.229171E-2,6.7598276E-2,-1.9359596E-2,6.107637E-2,-1.9442197E-2,-9.126379E-2,-2.7697695E-2,4.9040545E-2,1.5078248E-2,-2.6763117E-2,5.4158773E-2,2.655128E-2,5.8613806E-3,-3.6027454E-2,2.7914936E-2,-3.0148992E-2,3.614716E-2,-7.624837E-2,-6.034861E-2,-1.2409621E-3,7.339954E-2,-4.6851497E-2,1.5739298E-3,5.1927567E-2],"split_indices":[0,12,11,4,85,6,25,12,45,2,25,105,12,45,4,2,105,42,93,104,25,39,2,72,72,64,64,16,25,67,12,0,0,0,0,0,0,0,0,0,0,0,0,0,0,0,0,0,0,0,0,0,0,0,0,0,0,0,0,0,0,0,0],"split_type":[0,0,0,0,0,0,0,0,0,0,0,0,0,0,0,0,0,0,0,0,0,0,0,0,0,0,0,0,0,0,0,0,0,0,0,0,0,0,0,0,0,0,0,0,0,0,0,0,0,0,0,0,0,0,0,0,0,0,0,0,0,0,0],"sum_hessian":[5.1669707E3,1.3322736E3,3.8346973E3,1.1840193E3,1.4825423E2,2.6933704E3,1.1413268E3,4.7376785E2,7.1025146E2,7.949514E1,6.875909E1,1.0837094E3,1.609661E3,1.5055453E2,9.907722E2,3.621204E2,1.1164745E2,8.760228E1,6.226492E2,1.0318819E1,6.917632E1,3.1610735E1,3.714835E1,6.637913E2,4.199181E2,1.095021E3,5.1464E2,5.6846626E1,9.37079E1,3.5908032E2,6.316919E2,2.469411E2,1.15179306E2,4.738867E0,1.0690859E2,3.995395E1,4.764833E1,1.00046684E2,5.2260254E2,6.2276525E0,4.0911665E0,4.031257E0,6.5145065E1,1.9152372E1,1.2458362E1,1.3069731E1,2.4078619E1,5.702189E2,9.357246E1,2.7102368E2,1.4889441E2,2.1961201E2,8.75409E2,4.3650858E2,7.813143E1,5.3851894E1,2.9947305E0,4.06277E1,5.30802E1,3.5281363E2,6.2667117E0,2.3468683E2,3.970051E2],"tree_param":{"num_deleted":"0","num_feature":"110","num_nodes":"63","size_leaf_vector":"1"}},{"base_weights":[-5.943332E-3,-7.4994624E-1,2.1235314E-1,-9.6279985E-1,-5.9043385E-2,5.978738E-2,9.547798E-1,-5.7822015E-2,-1.1536801E0,5.13692E-1,-8.3888185E-1,5.4902035E-1,-1.9376992E-1,3.1443775E-1,1.2390155E0,-3.5452193E-1,4.749326E-1,-1.2079647E0,8.424209E-1,-2.7751228E-1,8.9773685E-1,1.7593393E-1,-1.3610787E0,2.533795E-1,8.828372E-1,-4.380857E-1,3.292781E-1,5.014634E-1,-1.124401E0,1.2905859E0,-7.272798E-2,-2.9772032E-2,2.9690657E-2,-2.06474E-2,4.4703245E-2,-1.765438E-2,-6.535138E-2,7.81688E-2,-2.1744018E-2,3.4918915E-2,-4.3163028E-2,7.170164E-2,2.4297105E-2,3.361123E-2,-5.0843503E-2,-7.299935E-2,5.4955076E-2,3.4351744E-2,4.855538E-3,6.0135633E-2,3.301976E-2,4.89937E-3,-2.9740734E-2,-3.5521653E-3,3.2286607E-2,-2.398464E-2,3.5687473E-2,2.5241133E-3,-7.58765E-2,4.8374806E-2,7.2478555E-2,-7.671528E-2,6.547179E-2],"categories":[],"categories_nodes":[],"categories_segments":[],"categories_sizes":[],"default_left":[0,0,0,0,0,0,0,0,0,0,0,0,0,0,0,0,0,0,0,0,0,0,0,1,0,0,0,0,0,1,0,0,0,0,0,0,0,0,0,0,0,0,0,0,0,0,0,0,0,0,0,0,0,0,0,0,0,0,0,0,0,0,0],"id":4,"left_children":[1,3,5,7,9,11,13,15,17,19,21,23,25,27,29,31,33,35,37,39,41,43,45,47,49,51,53,55,57,59,61,-1,-1,-1,-1,-1,-1,-1,-1,-1,-1,-1,-1,-1,-1,-1,-1,-1,-1,-1,-1,-1,-1,-1,-1,-1,-1,-1,-1,-1,-1,-1,-1],"loss_changes":[8.2928394E2,1.7028284E2,4.4709924E2,1.528836E2,1.22751305E2,4.0647128E2,1.22081604E2,2.4713041E1,8.024255E1,4.841693E1,6.1895363E1,1.101608E2,2.759579E2,5.6590702E1,3.1596313E1,2.3270994E1,2.119838E1,5.985205E1,1.9048069E1,3.0650349E1,2.2923698E1,2.460774E1,2.0324814E1,4.0225353E1,3.6556427E1,1.2369934E2,8.717289E1,3.8863365E1,1.1280956E1,2.1616089E1,3.950759E1,0E0,0E0,0E0,0E0,0E0,0E0,0E0,0E0,0E0,0E0,0E0,0E0,0E0,0E0,0E0,0E0,0E0,0E0,0E0,0E0,0E0,0E0,0E0,0E0,0E0,0E0,0E0,0E0,0E0,0E0,0E0,0E0],"parents":[2147483647,0,0,1,1,2,2,3,3,4,4,5,5,6,6,7,7,8,8,9,9,10,10,11,11,12,12,13,13,14,14,15,15,16,16,17,17,18,18,19,19,20,20,21,21,22,22,23,23,24,24,25,25,26,26,27,27,28,28,29,29,30,30],"right_children":[2,4,6,8,10,12,14,16,18,20,22,24,26,28,30,32,34,36,38,40,42,44,46,48,50,52,54,56,58,60,62,-1,-1,-1,-1,-1,-1,-1,-1,-1,-1,-1,-1,-1,-1,-1,-1,-1,-1,-1,-1,-1,-1,-1,-1,-1,-1,-1,-1,-1,-1,-1,-1],"split_conditions":[5.2E1,4.25E-1,1.8E-1,6.1E-1,9.711111E-1,6.5E-1,6.66E-1,1.05E-1,1.65E-1,1.13E0,6.2995E-2,1.499E0,4.45E-1,2.3530527E2,8.0056965E-1,3.095E-3,1.3873151E-1,5.6373E-2,2E1,5.2661E-2,1.02358E-1,9.6255E-2,4.607E0,1.2E-1,-1.639E0,-1.247E0,5.39E-1,3.69E-1,-8.46E-1,6.615215E1,2.284E0,-2.9772032E-2,2.9690657E-2,-2.06474E-2,4.4703245E-2,-1.765438E-2,-6.535138E-2,7.81688E-2,-2.1744018E-2,3.4918915E-2,-4.3163028E-2,7.170164E-2,2.4297105E-2,3.361123E-2,-5.0843503E-2,-7.299935E-2,5.4955076E-2,3.4351744E-2,4.855538E-3,6.0135633E-2,3.301976E-2,4.89937E-3,-2.9740734E-2,-3.5521653E-3,3.2286607E-2,-2.398464E-2,3.5687473E-2,2.5241133E-3,-7.58765E-2,4.8374806E-2,7.2478555E-2,-7.671528E-2,6.547179E-2],"split_indices":[0,12,11,6,4,6,25,11,11,97,109,97,12,9,71,70,23,45,8,109,101,93,82,13,80,64,25,25,104,2,97,0,0,0,0,0,0,0,0,0,0,0,0,0,0,0,0,0,0,0,0,0,0,0,0,0,0,0,0,0,0,0,0],"split_type":[0,0,0,0,0,0,0,0,0,0,0,0,0,0,0,0,0,0,0,0,0,0,0,0,0,0,0,0,0,0,0,0,0,0,0,0,0,0,0,0,0,0,0,0,0,0,0,0,0,0,0,0,0,0,0,0,0,0,0,0,0,0,0],"sum_hessian":[5.104032E3,1.1572913E3,3.9467412E3,8.84424E2,2.7286725E2,3.2748523E3,6.718888E2,1.5427892E2,7.301451E2,1.5752081E2,1.1534645E2,1.1174988E3,2.1573535E3,2.0720103E2,4.6468774E2,9.930748E1,5.4971436E1,7.1119867E2,1.8946405E1,5.1564884E1,1.0595593E2,3.9413998E1,7.593245E1,5.935698E2,5.23929E2,1.470599E3,6.867545E2,1.8394292E2,2.325811E1,4.4712543E2,1.7562338E1,7.9486534E1,1.9820944E1,1.7632946E1,3.733849E1,7.432913E1,6.3686957E2,1.1967529E1,6.9788766E0,1.9269121E1,3.229576E1,4.4942814E1,6.101312E1,2.8141558E1,1.1272441E1,7.338852E1,2.543935E0,1.5633476E2,4.3723508E2,2.1309207E2,3.108369E2,3.3277063E2,1.1378284E3,3.0354224E2,3.8321228E2,3.249517E1,1.5144775E2,6.0497494E0,1.720836E1,1.4979572E2,2.973297E2,8.482447E0,9.07989E0],"tree_param":{"num_deleted":"0","num_feature":"110","num_nodes":"63","size_leaf_vector":"1"}},{"base_weights":[1.2549327E-2,-2.0134853E-1,6.477661E-1,3.7613717E-1,-4.0682727E-1,1.0892364E0,3.4882262E-1,1.3204683E-1,7.640893E-1,-7.9276043E-1,1.0803531E-1,-3.08916E-1,1.2224315E0,-9.365151E-2,7.014804E-1,-1.0654677E-1,5.397373E-1,8.375623E-1,-1.3603184E-1,5.611014E-2,-8.9918464E-1,-5.9246484E-2,7.2839403E-1,6.560292E-1,-8.901761E-1,1.3560585E0,7.843339E-1,-3.4468147E-1,5.5371755E-1,8.802385E-1,-8.236404E-1,1.8241247E-2,-1.8072389E-2,3.2885533E-2,-1.3772174E-2,3.4271833E-2,5.744937E-2,-4.77999E-2,3.48974E-2,-2.5663603E-2,2.4901733E-2,-1.4939763E-2,-5.238151E-2,-2.4502207E-2,1.9351482E-2,4.367651E-2,-2.5151659E-2,-2.194333E-2,8.1919424E-2,-8.993331E-2,-9.270199E-3,6.9567665E-2,-3.9925545E-2,5.755806E-2,-1.861935E-2,3.2623124E-3,-3.576013E-2,5.743732E-2,8.3105285E-3,-9.014371E-3,5.019772E-2,6.979426E-2,-5.0729316E-2],"categories":[],"categories_nodes":[],"categories_segments":[],"categories_sizes":[],"default_left":[0,0,0,0,0,0,0,0,0,0,0,0,0,0,0,0,0,0,0,0,0,0,0,0,0,0,0,0,0,0,0,0,0,0,0,0,0,0,0,0,0,0,0,0,0,0,0,0,0,0,0,0,0,0,0,0,0,0,0,0,0,0,0],"id":5,"left_children":[1,3,5,7,9,11,13,15,17,19,21,23,25,27,29,31,33,35,37,39,41,43,45,47,49,51,53,55,57,59,61,-1,-1,-1,-1,-1,-1,-1,-1,-1,-1,-1,-1,-1,-1,-1,-1,-1,-1,-1,-1,-1,-1,-1,-1,-1,-1,-1,-1,-1,-1,-1,-1],"loss_changes":[7.002866E2,4.576795E2,1.709671E2,9.5769516E1,5.652621E2,9.791095E1,1.21091736E2,6.062243E1,2.5957779E1,1.469295E2,1.265959E2,2.6582132E1,2.694159E1,5.6236473E1,1.18424545E2,4.7424828E1,2.2302765E1,1.633522E1,2.142199E1,4.6068108E1,1.284524E2,1.85027E2,4.6742615E1,2.0080257E1,1.8459576E1,2.8882446E1,4.887803E1,3.788595E1,2.2117218E1,5.0945496E1,2.0830809E1,0E0,0E0,0E0,0E0,0E0,0E0,0E0,0E0,0E0,0E0,0E0,0E0,0E0,0E0,0E0,0E0,0E0,0E0,0E0,0E0,0E0,0E0,0E0,0E0,0E0,0E0,0E0,0E0,0E0,0E0,0E0,0E0],"parents":[2147483647,0,0,1,1,2,2,3,3,4,4,5,5,6,6,7,7,8,8,9,9,10,10,11,11,12,12,13,13,14,14,15,15,16,16,17,17,18,18,19,19,20,20,21,21,22,22,23,23,24,24,25,25,26,26,27,27,28,28,29,29,30,30],"right_children":[2,4,6,8,10,12,14,16,18,20,22,24,26,28,30,32,34,36,38,40,42,44,46,48,50,52,54,56,58,60,62,-1,-1,-1,-1,-1,-1,-1,-1,-1,-1,-1,-1,-1,-1,-1,-1,-1,-1,-1,-1,-1,-1,-1,-1,-1,-1,-1,-1,-1,-1,-1,-1],"split_conditions":[1.5E-1,6.2E-1,7.9727274E-1,1.256E0,4.15E-1,3.96E-1,4.8E-1,5.2173912E1,8.97E-1,5.3875E-2,4.95E-1,3.46E-1,-6.28E-1,1.9E-1,-4.41E-1,1.10032E-1,-7.15E-1,1.15E-1,4.85E-1,2.36E-1,7.5E-1,6.703911E1,-3.61E-1,1.5477796E-1,4.0909092E1,5.7217755E2,7.3794E-2,1.15944E-1,5.4326E-2,1.236E0,3.7205577E-2,1.8241247E-2,-1.8072389E-2,3.2885533E-2,-1.3772174E-2,3.4271833E-2,5.744937E-2,-4.77999E-2,3.48974E-2,-2.5663603E-2,2.4901733E-2,-1.4939763E-2,-5.238151E-2,-2.4502207E-2,1.9351482E-2,4.367651E-2,-2.5151659E-2,-2.194333E-2,8.1919424E-2,-8.993331E-2,-9.270199E-3,6.9567665E-2,-3.9925545E-2,5.755806E-2,-1.861935E-2,3.2623124E-3,-3.576013E-2,5.743732E-2,8.3105285E-3,-9.014371E-3,5.019772E-2,6.979426E-2,-5.0729316E-2],"split_indices":[11,6,4,105,12,25,12,10,4,45,12,73,40,11,40,93,72,11,12,65,7,2,40,63,10,67,45,93,21,98,47,0,0,0,0,0,0,0,0,0,0,0,0,0,0,0,0,0,0,0,0,0,0,0,0,0,0,0,0,0,0,0,0],"split_type":[0,0,0,0,0,0,0,0,0,0,0,0,0,0,0,0,0,0,0,0,0,0,0,0,0,0,0,0,0,0,0,0,0,0,0,0,0,0,0,0,0,0,0,0,0,0,0,0,0,0,0,0,0,0,0,0,0,0,0,0,0,0,0],"sum_hessian":[5.1520757E3,3.8547432E3,1.2973326E3,1.0114088E3,2.8433345E3,5.2273315E2,7.745995E2,6.2163257E2,3.8977625E2,1.6248396E3,1.2184948E3,4.5352085E1,4.7738107E2,3.4387695E2,4.3072253E2,3.926057E2,2.2902689E2,3.6042572E2,2.9350517E1,1.8106725E2,1.4437723E3,9.6041907E2,2.5807568E2,1.700071E1,2.8351377E1,3.6419904E2,1.1318203E2,2.4812804E2,9.57489E1,3.8591284E2,4.480967E1,1.3764204E2,2.5496365E2,2.0024106E2,2.878582E1,2.442936E2,1.1613213E2,1.4725825E1,1.4624692E1,7.905288E1,1.02014366E2,2.8680392E2,1.1569684E3,4.8863434E2,4.7178476E2,2.3112582E2,2.6949879E1,8.301482E0,8.699227E0,1.1707561E1,1.6643816E1,3.5867767E2,5.52138E0,8.5934654E1,2.724738E1,1.1819091E2,1.2993713E2,3.6988102E1,5.8760803E1,4.0267967E1,3.456449E2,3.049728E0,4.1759945E1],"tree_param":{"num_deleted":"0","num_feature":"110","num_nodes":"63","size_leaf_vector":"1"}},{"base_weights":[-3.266131E-5,-2.10403E-1,6.257079E-1,3.3329642E-1,-4.0137604E-1,4.363997E-2,8.556801E-1,5.874088E-2,6.816889E-1,-6.99432E-1,1.4378507E-1,2.6867703E-1,-9.7668535E-1,5.286817E-1,1.1805078E0,-1.4214174E-1,4.5150396E-1,1.0203698E0,5.0396395E-1,-3.877442E-1,-1.0382742E0,2.6452923E-1,-5.696199E-1,7.5780714E-1,-4.4965737E-2,-3.7964216E-1,-1.7013369E0,1.6649877E-1,1.1199856E0,6.3446176E-1,1.2700465E0,1.0767658E-2,-2.2511618E-2,-1.392101E-2,3.2450005E-2,7.214439E-2,3.653297E-2,4.0234182E-2,3.3488933E-3,2.3505997E-2,-2.4773514E-2,-1.606263E-2,-6.097714E-2,3.445538E-2,3.678639E-4,-4.0716804E-3,-6.284573E-2,1.0885663E-2,5.7092812E-2,-4.0262513E-2,2.075729E-2,-6.03814E-2,3.9159574E-2,-9.518122E-2,-1.3145307E-2,-1.9439697E-2,3.2402035E-2,5.8163792E-2,-4.3751426E-2,3.825813E-2,-5.1805515E-2,6.4741686E-2,-3.6194976E-2],"categories":[],"categories_nodes":[],"categories_segments":[],"categories_sizes":[],"default_left":[0,0,0,0,0,0,0,0,0,0,0,0,0,0,0,0,0,0,0,0,0,0,0,0,0,0,0,0,0,0,0,0,0,0,0,0,0,0,0,0,0,0,0,0,0,0,0,0,0,0,0,0,0,0,0,0,0,0,0,0,0,0,0],"id":6,"left_children":[1,3,5,7,9,11,13,15,17,19,21,23,25,27,29,31,33,35,37,39,41,43,45,47,49,51,53,55,57,59,61,-1,-1,-1,-1,-1,-1,-1,-1,-1,-1,-1,-1,-1,-1,-1,-1,-1,-1,-1,-1,-1,-1,-1,-1,-1,-1,-1,-1,-1,-1,-1,-1],"loss_changes":[6.6720056E2,3.9399112E2,1.70668E2,9.432821E1,4.5631183E2,8.342995E1,9.6464294E1,4.368334E1,2.5652542E1,1.9132587E2,8.5709885E1,4.568084E1,2.7764912E1,9.775176E1,2.1573914E1,4.0466896E1,2.7183651E1,1.7140045E1,3.767199E1,8.776582E1,1.1258234E2,9.282474E1,4.824496E1,2.3875877E1,6.408379E1,3.684985E1,8.047348E0,7.640033E1,1.6005249E1,1.5308836E1,2.0324036E1,0E0,0E0,0E0,0E0,0E0,0E0,0E0,0E0,0E0,0E0,0E0,0E0,0E0,0E0,0E0,0E0,0E0,0E0,0E0,0E0,0E0,0E0,0E0,0E0,0E0,0E0,0E0,0E0,0E0,0E0,0E0,0E0],"parents":[2147483647,0,0,1,1,2,2,3,3,4,4,5,5,6,6,7,7,8,8,9,9,10,10,11,11,12,12,13,13,14,14,15,15,16,16,17,17,18,18,19,19,20,20,21,21,22,22,23,23,24,24,25,25,26,26,27,27,28,28,29,29,30,30],"right_children":[2,4,6,8,10,12,14,16,18,20,22,24,26,28,30,32,34,36,38,40,42,44,46,48,50,52,54,56,58,60,62,-1,-1,-1,-1,-1,-1,-1,-1,-1,-1,-1,-1,-1,-1,-1,-1,-1,-1,-1,-1,-1,-1,-1,-1,-1,-1,-1,-1,-1,-1,-1,-1],"split_conditions":[1.5E-1,6.2E-1,1.196E0,1.504E0,4.25E-1,5.66E-1,1.85E-1,5.2173912E1,-1.751E0,1.9519221E-2,-4.24E-1,8.1041E-2,4.8239487E-1,7.6388885E1,5.99E-1,1.19799E-1,1.686E0,6E-1,1.68947E-1,5.3E-2,5.935E-2,5.9123E-2,5.0371E-2,1.447E0,3.29E-1,8.82E-1,-3.92E-1,2.117E0,4.46506E-1,1.4879435E-1,1.0780991E0,1.0767658E-2,-2.2511618E-2,-1.392101E-2,3.2450005E-2,7.214439E-2,3.653297E-2,4.0234182E-2,3.3488933E-3,2.3505997E-2,-2.4773514E-2,-1.606263E-2,-6.097714E-2,3.445538E-2,3.678639E-4,-4.0716804E-3,-6.284573E-2,1.0885663E-2,5.7092812E-2,-4.0262513E-2,2.075729E-2,-6.03814E-2,3.9159574E-2,-9.518122E-2,-1.3145307E-2,-1.9439697E-2,3.2402035E-2,5.8163792E-2,-4.3751426E-2,3.825813E-2,-5.1805515E-2,6.4741686E-2,-3.6194976E-2],"split_indices":[11,6,97,97,12,65,11,10,80,5,40,93,76,2,25,93,82,4,85,45,45,45,45,82,57,105,88,82,69,23,71,0,0,0,0,0,0,0,0,0,0,0,0,0,0,0,0,0,0,0,0,0,0,0,0,0,0,0,0,0,0,0,0],"split_type":[0,0,0,0,0,0,0,0,0,0,0,0,0,0,0,0,0,0,0,0,0,0,0,0,0,0,0,0,0,0,0,0,0,0,0,0,0,0,0,0,0,0,0,0,0,0,0,0,0,0,0,0,0,0,0,0,0,0,0,0,0,0,0],"sum_hessian":[5.066478E3,3.7922197E3,1.2742583E3,9.855676E2,2.806652E3,3.612106E2,9.1304767E2,5.518462E2,4.3372147E2,1.8143883E3,9.922637E2,2.965434E2,6.466722E1,4.5631296E2,4.567347E2,3.6553018E2,1.86316E2,1.4763676E2,2.860847E2,9.4617896E2,8.6820935E2,8.491704E2,1.4309329E2,1.1530599E2,1.812374E2,3.6290905E1,2.8376318E1,2.837768E2,1.7253615E2,6.5482086E1,3.9125262E2,1.6933836E2,1.9619183E2,3.9589138E1,1.4672685E2,5.8434532E1,8.920223E1,1.6896619E2,1.1711851E2,1.0518514E2,8.4099384E2,1.7575792E2,6.924514E2,3.1969308E2,5.294773E2,8.431952E1,5.8773773E1,4.856924E1,6.6736755E1,6.804699E1,1.1319041E2,2.1174942E1,1.511596E1,2.4594212E1,3.782106E0,1.3188524E2,1.5189157E2,1.6927983E2,3.2563267E0,6.1233337E1,4.248749E0,3.8679492E2,4.4577055E0],"tree_param":{"num_deleted":"0","num_feature":"110","num_nodes":"63","size_leaf_vector":"1"}},{"base_weights":[2.7969882E-3,-6.730569E-1,2.1431315E-1,-8.8221776E-1,-3.9451484E-2,1.1087366E-2,6.8886083E-1,-5.7846792E-2,-1.0702473E0,-7.686199E-1,3.9744467E-1,4.2483518E-1,-1.8509586E-1,4.6614873E-1,1.0974717E0,-3.897807E-1,3.4190962E-1,-1.1226503E0,8.337516E-1,-1.1157169E0,3.9471874E-1,-9.915086E-1,5.37144E-1,-2.5274596E-1,5.839625E-1,-4.00458E-1,3.1715825E-1,1.7025656E-1,8.762787E-1,1.2289355E-1,1.207144E0,3.2449737E-3,-4.713381E-2,-8.261495E-2,2.4316825E-2,-7.543051E-3,-5.946225E-2,-6.256956E-2,5.774765E-2,3.4612607E-2,-7.079383E-2,-9.543488E-3,7.139363E-2,-7.4574515E-2,1.1481206E-2,5.135792E-2,1.3148774E-2,-2.3013486E-4,-5.484867E-2,5.0831746E-2,2.1971902E-2,1.1277521E-2,-2.868168E-2,2.3286805E-2,-2.4452863E-2,2.6139611E-2,-1.3958874E-2,5.867396E-2,2.7953729E-2,2.8653482E-2,-4.6017557E-2,6.336718E-2,2.7964264E-3],"categories":[],"categories_nodes":[],"categories_segments":[],"categories_sizes":[],"default_left":[0,0,0,0,1,0,1,0,0,0,0,0,0,0,0,0,0,0,0,0,0,0,0,0,1,0,0,0,0,0,0,0,0,0,0,0,0,0,0,0,0,0,0,0,0,0,0,0,0,0,0,0,0,0,0,0,0,0,0,0,0,0,0],"id":7,"left_children":[1,3,5,7,9,11,13,15,17,19,21,23,25,27,29,31,33,35,37,39,41,43,45,47,49,51,53,55,57,59,61,-1,-1,-1,-1,-1,-1,-1,-1,-1,-1,-1,-1,-1,-1,-1,-1,-1,-1,-1,-1,-1,-1,-1,-1,-1,-1,-1,-1,-1,-1,-1,-1],"loss_changes":[7.2771857E2,1.6077252E2,3.739073E2,1.4133643E2,9.657587E1,2.2050803E2,1.0528113E2,2.2754585E1,7.504224E1,4.629731E1,3.7327347E1,9.436038E1,1.9946219E2,9.1371155E1,4.3606445E1,2.3593319E1,2.3231804E1,4.662744E1,1.5153882E1,4.8589294E1,1.6508411E1,1.1137526E1,2.2964798E1,3.495376E1,4.3819946E1,1.400037E2,6.654271E1,6.9754654E1,2.9117783E1,2.0497078E1,2.5421753E1,0E0,0E0,0E0,0E0,0E0,0E0,0E0,0E0,0E0,0E0,0E0,0E0,0E0,0E0,0E0,0E0,0E0,0E0,0E0,0E0,0E0,0E0,0E0,0E0,0E0,0E0,0E0,0E0,0E0,0E0,0E0,0E0],"parents":[2147483647,0,0,1,1,2,2,3,3,4,4,5,5,6,6,7,7,8,8,9,9,10,10,11,11,12,12,13,13,14,14,15,15,16,16,17,17,18,18,19,19,20,20,21,21,22,22,23,23,24,24,25,25,26,26,27,27,28,28,29,29,30,30],"right_children":[2,4,6,8,10,12,14,16,18,20,22,24,26,28,30,32,34,36,38,40,42,44,46,48,50,52,54,56,58,60,62,-1,-1,-1,-1,-1,-1,-1,-1,-1,-1,-1,-1,-1,-1,-1,-1,-1,-1,-1,-1,-1,-1,-1,-1,-1,-1,-1,-1,-1,-1,-1,-1],"split_conditions":[5.3E1,4.25E-1,1.45E-1,6.1E-1,6.074241E1,6.4E-1,7.868852E1,1E-1,1.65E-1,5.2E-1,3.75E-1,7.24E-1,4.45E-1,1.689E0,4.06E-1,1.44808E-1,5.89E-1,7.4639E-2,-2.414E-3,6.8059E-2,7.84E-1,1.219E0,7.0139E-2,1.54256E-1,1.2E-1,9.2981E-2,-5.23E-1,6.545E-2,-1.24E0,6.23E-1,4.65197E-1,3.2449737E-3,-4.713381E-2,-8.261495E-2,2.4316825E-2,-7.543051E-3,-5.946225E-2,-6.256956E-2,5.774765E-2,3.4612607E-2,-7.079383E-2,-9.543488E-3,7.139363E-2,-7.4574515E-2,1.1481206E-2,5.135792E-2,1.3148774E-2,-2.3013486E-4,-5.484867E-2,5.0831746E-2,2.1971902E-2,1.1277521E-2,-2.868168E-2,2.3286805E-2,-2.4452863E-2,2.6139611E-2,-1.3958874E-2,5.867396E-2,2.7953729E-2,2.8653482E-2,-4.6017557E-2,6.336718E-2,2.7964264E-3],"split_indices":[0,12,11,6,2,6,2,11,11,12,25,105,12,97,25,93,89,93,46,93,25,97,109,93,13,93,64,45,64,73,85,0,0,0,0,0,0,0,0,0,0,0,0,0,0,0,0,0,0,0,0,0,0,0,0,0,0,0,0,0,0,0,0],"split_type":[0,0,0,0,0,0,0,0,0,0,0,0,0,0,0,0,0,0,0,0,0,0,0,0,0,0,0,0,0,0,0,0,0,0,0,0,0,0,0,0,0,0,0,0,0,0,0,0,0,0,0,0,0,0,0,0,0,0,0,0,0,0,0],"sum_hessian":[5.0885693E3,1.2124064E3,3.8761628E3,9.112118E2,3.0119455E2,2.7146382E3,1.1615247E3,1.6947897E2,7.4173285E2,1.1256583E2,1.8862872E2,8.727836E2,1.8418546E3,7.531587E2,4.0836597E2,9.260787E1,7.687111E1,7.2226465E2,1.9468191E1,8.6729805E1,2.5836023E1,1.6681026E1,1.7194771E2,1.6587628E2,7.0690735E2,1.2892417E3,5.5261285E2,4.3833374E2,3.1482495E2,4.1520847E1,3.668451E2,5.1301823E1,4.1306046E1,4.4862175E0,7.238489E1,4.6530445E1,6.757342E2,2.2120774E0,1.7256115E1,1.2162772E1,7.456703E1,1.7010038E1,8.825984E0,1.1678125E1,5.0029006E0,6.070491E1,1.112428E2,1.2897284E2,3.690345E1,1.7549174E2,5.314156E2,2.7930093E2,1.0099408E3,4.6697595E2,8.56369E1,2.4555634E2,1.927774E2,1.611438E2,1.5368115E2,2.9319653E1,1.2201195E1,3.485194E2,1.8325705E1],"tree_param":{"num_deleted":"0","num_feature":"110","num_nodes":"63","size_leaf_vector":"1"}},{"base_weights":[-1.0446109E-2,-2.0983072E-1,5.591417E-1,3.0592224E-1,-3.9208367E-1,1.037202E0,3.121047E-1,8.751542E-2,6.4682484E-1,-6.4742684E-1,2.2446027E-1,1.2194834E0,3.2284266E-1,1.8968018E-2,7.265332E-1,-5.134142E-1,1.783894E-1,1.0134952E0,4.0487483E-1,7.541199E-4,-7.83252E-1,3.5258836E-1,-5.5393046E-1,1.2598418E0,-8.891378E-1,5.804706E-1,-1.3794553E0,-2.2116357E-1,4.9462497E-1,-4.720306E-1,9.0468943E-1,-1.1196608E-2,-7.142187E-2,-1.1109884E-2,1.6074555E-2,6.75097E-2,3.3415895E-2,4.2915363E-2,-1.0855852E-3,-1.9314727E-2,2.403402E-2,-1.7820327E-2,-5.417368E-2,3.3004142E-2,3.08945E-3,-5.3447086E-2,7.0149763E-3,5.3600874E-2,7.074748E-2,-8.036984E-2,4.2764377E-2,-2.6767367E-2,3.992602E-2,-3.8324725E-3,-8.941054E-2,1.26378555E-2,-3.8474165E-2,2.9742584E-2,-7.215492E-2,1.1066359E-2,-6.4793855E-2,4.879885E-2,-3.3491652E-2],"categories":[],"categories_nodes":[],"categories_segments":[],"categories_sizes":[],"default_left":[0,0,0,0,0,0,0,0,0,0,0,0,0,0,0,0,0,0,0,0,0,0,0,0,0,0,0,0,0,0,0,0,0,0,0,0,0,0,0,0,0,0,0,0,0,0,0,0,0,0,0,0,0,0,0,0,0,0,0,0,0,0,0],"id":8,"left_children":[1,3,5,7,9,11,13,15,17,19,21,23,25,27,29,31,33,35,37,39,41,43,45,47,49,51,53,55,57,59,61,-1,-1,-1,-1,-1,-1,-1,-1,-1,-1,-1,-1,-1,-1,-1,-1,-1,-1,-1,-1,-1,-1,-1,-1,-1,-1,-1,-1,-1,-1,-1,-1],"loss_changes":[5.7306476E2,3.5144824E2,1.5419415E2,7.264748E1,4.3499255E2,5.759439E1,1.04954865E2,3.265626E1,3.34039E1,1.719837E2,8.094721E1,3.1282898E1,4.110103E1,5.8031773E1,7.685869E1,2.0497278E1,2.9807789E1,1.6630386E1,4.4757526E1,6.3236446E1,2.065799E2,6.218123E1,4.120553E1,8.627075E0,1.0449466E1,2.001762E1,6.453106E0,8.794336E1,3.395866E1,2.7120987E1,3.5669754E1,0E0,0E0,0E0,0E0,0E0,0E0,0E0,0E0,0E0,0E0,0E0,0E0,0E0,0E0,0E0,0E0,0E0,0E0,0E0,0E0,0E0,0E0,0E0,0E0,0E0,0E0,0E0,0E0,0E0,0E0,0E0,0E0],"parents":[2147483647,0,0,1,1,2,2,3,3,4,4,5,5,6,6,7,7,8,8,9,9,10,10,11,11,12,12,13,13,14,14,15,15,16,16,17,17,18,18,19,19,20,20,21,21,22,22,23,23,24,24,25,25,26,26,27,27,28,28,29,29,30,30],"right_children":[2,4,6,8,10,12,14,16,18,20,22,24,26,28,30,32,34,36,38,40,42,44,46,48,50,52,54,56,58,60,62,-1,-1,-1,-1,-1,-1,-1,-1,-1,-1,-1,-1,-1,-1,-1,-1,-1,-1,-1,-1,-1,-1,-1,-1,-1,-1,-1,-1,-1,-1,-1,-1],"split_conditions":[1.45E-1,6.2E-1,7.6416665E-1,1.571E0,4.35E-1,-5.35E-1,1.95E-1,-4.574E-3,-1.708E0,5.697E-2,1.11125E0,5.7217755E2,1.4140743E-1,1.801E0,8.72E-1,7.581818E-1,1.66E0,1.123E0,1.63568E-1,6.46E-1,7.936364E-1,1.19818E-1,5E-1,7.494594E1,6.992308E-1,4.98E-1,-6.402E-3,6.672E-2,1.1E0,6.02E-1,3.4529233E2,-1.1196608E-2,-7.142187E-2,-1.1109884E-2,1.6074555E-2,6.75097E-2,3.3415895E-2,4.2915363E-2,-1.0855852E-3,-1.9314727E-2,2.403402E-2,-1.7820327E-2,-5.417368E-2,3.3004142E-2,3.08945E-3,-5.3447086E-2,7.0149763E-3,5.3600874E-2,7.074748E-2,-8.036984E-2,4.2764377E-2,-2.6767367E-2,3.992602E-2,-3.8324725E-3,-8.941054E-2,1.26378555E-2,-3.8474165E-2,2.9742584E-2,-7.215492E-2,1.1066359E-2,-6.4793855E-2,4.879885E-2,-3.3491652E-2],"split_indices":[11,6,4,97,12,40,11,78,80,45,4,67,20,97,97,4,82,81,93,17,4,85,12,99,4,105,86,45,6,73,9,0,0,0,0,0,0,0,0,0,0,0,0,0,0,0,0,0,0,0,0,0,0,0,0,0,0,0,0,0,0,0,0],"split_type":[0,0,0,0,0,0,0,0,0,0,0,0,0,0,0,0,0,0,0,0,0,0,0,0,0,0,0,0,0,0,0,0,0,0,0,0,0,0,0,0,0,0,0,0,0,0,0,0,0,0,0,0,0,0,0,0,0,0,0,0,0,0,0],"sum_hessian":[5.044015E3,3.736635E3,1.30738E3,9.754776E2,2.7611575E3,4.4432806E2,8.63052E2,5.953257E2,3.8015192E2,1.9524822E3,8.0867523E2,3.5343564E2,9.089242E1,5.0611127E2,3.5694073E2,7.759005E1,5.177356E2,1.4985732E2,2.302946E2,3.3843005E2,1.6140521E3,6.948462E2,1.1382907E2,3.47193E2,6.2426567E0,7.95172E1,1.1375227E1,3.366774E2,1.6943385E2,4.5976925E1,3.109638E2,5.98882E1,1.7701849E1,1.3612521E2,3.816104E2,7.438642E1,7.5470894E1,1.1114403E2,1.19150566E2,1.8745076E2,1.5097931E2,6.673799E2,9.466722E2,3.3711115E2,3.5773502E2,6.5039825E1,4.878924E1,1.6061328E2,1.8657971E2,4.477585E0,1.7650719E0,1.276094E1,6.6756256E1,3.000239E0,8.374988E0,1.808796E2,1.5579782E2,1.6176E2,7.6738505E0,2.5362732E1,2.0614193E1,2.9785822E2,1.3105586E1],"tree_param":{"num_deleted":"0","num_feature":"110","num_nodes":"63","size_leaf_vector":"1"}},{"base_weights":[7.9921115E-4,-1.890777E-1,5.644175E-1,2.9266822E-1,-3.6001083E-1,-5.1563525E-1,6.643283E-1,1.8743202E-2,6.1344E-1,-6.410721E-1,1.4973736E-1,-1.003062E0,-1.05048455E-1,1.1312245E0,4.2957282E-1,1.733768E-1,-4.2544028E-1,7.789061E-1,3.3349314E-1,1.2131283E-1,-7.690616E-1,4.5564618E-2,9.6974105E-1,-4.733867E-1,-8.988361E-2,-8.133994E-2,1.6645595E-1,1.1824642E0,-3.454081E-1,-1.1108433E-2,7.313771E-1,-1.3834792E-2,1.7739207E-2,-7.1923495E-3,-6.001388E-2,2.0352572E-2,4.5332134E-2,3.2861125E-2,-1.1875993E-2,-4.487599E-2,1.9255767E-2,-1.6553553E-2,-5.07658E-2,1.4362186E-2,-2.1355279E-2,9.18074E-3,5.913307E-2,-5.5100847E-2,5.416709E-2,3.8787115E-2,-3.2849196E-2,6.526155E-2,3.898082E-2,-6.0913086E-2,5.2016865E-2,-3.3530645E-2,1.456787E-2,-3.0610133E-2,4.071584E-2],"categories":[],"categories_nodes":[],"categories_segments":[],"categories_sizes":[],"default_left":[0,0,0,0,0,0,0,0,0,0,0,0,0,0,0,0,0,0,0,0,0,0,0,0,0,0,0,0,0,0,0,0,0,0,0,0,0,0,0,0,0,0,0,0,0,0,0,0,0,0,0,0,0,0,0,0,0,0,0],"id":9,"left_children":[1,3,5,7,9,11,13,15,17,19,21,23,25,27,29,31,33,35,37,39,41,43,45,47,-1,-1,49,51,53,55,57,-1,-1,-1,-1,-1,-1,-1,-1,-1,-1,-1,-1,-1,-1,-1,-1,-1,-1,-1,-1,-1,-1,-1,-1,-1,-1,-1,-1],"loss_changes":[5.37563E2,3.095061E2,1.3693332E2,8.65002E1,3.97491E2,2.1457047E1,1.26553894E2,3.6621162E1,2.0745956E1,1.745727E2,8.423526E1,1.98331E1,2.489411E1,2.9703217E1,1.0280017E2,3.2381393E1,2.987059E1,1.3133377E1,3.1619986E1,6.966207E1,1.648161E2,1.00244865E2,1.8389488E1,3.137943E1,0E0,0E0,2.6338333E1,1.7499939E1,1.7909182E1,6.3059177E1,5.161795E1,0E0,0E0,0E0,0E0,0E0,0E0,0E0,0E0,0E0,0E0,0E0,0E0,0E0,0E0,0E0,0E0,0E0,0E0,0E0,0E0,0E0,0E0,0E0,0E0,0E0,0E0,0E0,0E0],"parents":[2147483647,0,0,1,1,2,2,3,3,4,4,5,5,6,6,7,7,8,8,9,9,10,10,11,11,12,12,13,13,14,14,15,15,16,16,17,17,18,18,19,19,20,20,21,21,22,22,23,23,26,26,27,27,28,28,29,29,30,30],"right_children":[2,4,6,8,10,12,14,16,18,20,22,24,26,28,30,32,34,36,38,40,42,44,46,48,-1,-1,50,52,54,56,58,-1,-1,-1,-1,-1,-1,-1,-1,-1,-1,-1,-1,-1,-1,-1,-1,-1,-1,-1,-1,-1,-1,-1,-1,-1,-1,-1,-1],"split_conditions":[1.5E-1,6.2E-1,3.88E-1,1.477E0,4.25E-1,-7.43E-4,7.6416665E-1,-4.5E-1,-1.291E0,9.0595E-2,2.176E0,1.33031E-1,4.41E-1,3.70823E-1,4.65E-1,1.741E0,8.27522E0,1.729E0,1.37922E-1,2.92E-1,8.2E-1,1.27352E-1,2.25E-1,8.1744E-2,-8.988361E-2,-8.133994E-2,6.05E-1,-6.28E-1,1.96E0,6.30105E1,7.41E-1,-1.3834792E-2,1.7739207E-2,-7.1923495E-3,-6.001388E-2,2.0352572E-2,4.5332134E-2,3.2861125E-2,-1.1875993E-2,-4.487599E-2,1.9255767E-2,-1.6553553E-2,-5.07658E-2,1.4362186E-2,-2.1355279E-2,9.18074E-3,5.913307E-2,-5.5100847E-2,5.416709E-2,3.8787115E-2,-3.2849196E-2,6.526155E-2,3.898082E-2,-6.0913086E-2,5.2016865E-2,-3.3530645E-2,1.456787E-2,-3.0610133E-2,4.071584E-2],"split_indices":[11,6,25,97,12,22,4,40,72,85,97,77,97,69,12,82,43,97,77,49,7,93,65,69,0,0,73,40,97,2,97,0,0,0,0,0,0,0,0,0,0,0,0,0,0,0,0,0,0,0,0,0,0,0,0,0,0,0,0],"split_type":[0,0,0,0,0,0,0,0,0,0,0,0,0,0,0,0,0,0,0,0,0,0,0,0,0,0,0,0,0,0,0,0,0,0,0,0,0,0,0,0,0,0,0,0,0,0,0,0,0,0,0,0,0,0,0,0,0,0,0],"sum_hessian":[5.0211064E3,3.7563103E3,1.2647959E3,9.8357086E2,2.7727395E3,1.0674151E2,1.1580544E3,5.3109625E2,4.5247458E2,1.7871152E3,9.856242E2,4.8144238E1,5.8597267E1,3.8617905E2,7.7187537E2,3.944026E2,1.366937E2,2.8326492E2,1.6920967E2,2.5690182E2,1.5302135E3,8.754617E2,1.1016253E2,2.9845451E1,1.8298788E1,8.116037E0,5.048123E1,3.7342044E2,1.2758619E1,3.1414218E2,4.5773322E2,1.1315043E2,2.8125217E2,1.0112738E2,3.5566315E1,7.349625E1,2.0976868E2,1.0789107E2,6.1318596E1,5.234351E1,2.045583E2,5.5155554E2,9.7865796E2,5.795345E2,2.959272E2,2.3875147E1,8.6287384E1,2.1468317E1,8.377133E0,2.904669E1,2.143454E1,2.8448453E2,8.8935905E1,7.9021034E0,4.8565164E0,9.839091E1,2.1575127E2,2.6242178E1,4.3149103E2],"tree_param":{"num_deleted":"0","num_feature":"110","num_nodes":"59","size_leaf_vector":"1"}},{"base_weights":[-6.303156E-3,-1.8947506E-1,5.4704005E-1,3.0675468E-1,-3.8110176E-1,8.74006E-2,7.520945E-1,5.482306E-2,6.0114694E-1,-6.4606124E-1,8.832884E-2,2.1839674E-1,-1.1168549E0,1.1703954E0,5.418411E-1,3.7498572E-1,-1.9731462E-1,1.0094862E0,4.7150818E-1,-1.5422334E-1,-7.9540604E-1,-6.980059E-2,5.7184595E-1,6.063218E-1,-1.2876341E-1,-1.5198532E0,6.844654E-2,-5.3610903E-1,1.2121181E0,1.2562284E-1,8.898722E-1,-1.2776951E-2,3.2171767E-2,8.723621E-3,-2.812626E-2,-6.755627E-2,5.2606028E-2,4.8689976E-2,1.8162465E-2,-2.0746158E-2,1.4715445E-2,-5.845035E-3,-4.5731016E-2,1.75983E-2,-2.263133E-2,3.7762012E-2,-4.4239108E-2,-4.6443094E-2,3.6138456E-2,1.564396E-2,-2.644518E-2,4.0598907E-2,-8.3861545E-2,2.7275754E-2,-7.523053E-2,6.161933E-2,-6.384285E-2,1.8498618E-2,-3.276638E-2,4.9347237E-2,-3.4732127E-3],"categories":[],"categories_nodes":[],"categories_segments":[],"categories_sizes":[],"default_left":[0,0,0,0,0,0,0,0,1,0,0,0,0,0,0,0,0,0,0,0,0,0,0,0,0,0,0,0,0,0,0,0,0,0,0,0,0,0,0,0,0,0,0,0,0,0,0,0,0,0,0,0,0,0,0,0,0,0,0,0,0],"id":10,"left_children":[1,3,5,7,9,11,13,15,17,19,21,23,25,27,29,31,33,35,37,39,41,43,45,47,49,51,-1,53,55,57,59,-1,-1,-1,-1,-1,-1,-1,-1,-1,-1,-1,-1,-1,-1,-1,-1,-1,-1,-1,-1,-1,-1,-1,-1,-1,-1,-1,-1,-1,-1],"loss_changes":[5.0471317E2,3.5586285E2,1.16657104E2,7.7306175E1,3.3580148E2,6.069142E1,7.4671936E1,4.5523006E1,2.497403E1,1.2662628E2,7.456924E1,4.673158E1,3.9902966E1,2.0981384E1,8.270155E1,4.220783E1,4.2953278E1,1.2993011E1,1.9591331E1,4.726474E1,1.0694049E2,1.1890525E2,6.487056E1,2.9950157E1,3.2618484E1,1.3458366E1,0E0,8.68617E0,1.5650787E1,5.014435E1,2.9047653E1,0E0,0E0,0E0,0E0,0E0,0E0,0E0,0E0,0E0,0E0,0E0,0E0,0E0,0E0,0E0,0E0,0E0,0E0,0E0,0E0,0E0,0E0,0E0,0E0,0E0,0E0,0E0,0E0,0E0,0E0],"parents":[2147483647,0,0,1,1,2,2,3,3,4,4,5,5,6,6,7,7,8,8,9,9,10,10,11,11,12,12,13,13,14,14,15,15,16,16,17,17,18,18,19,19,20,20,21,21,22,22,23,23,24,24,25,25,27,27,28,28,29,29,30,30],"right_children":[2,4,6,8,10,12,14,16,18,20,22,24,26,28,30,32,34,36,38,40,42,44,46,48,50,52,-1,54,56,58,60,-1,-1,-1,-1,-1,-1,-1,-1,-1,-1,-1,-1,-1,-1,-1,-1,-1,-1,-1,-1,-1,-1,-1,-1,-1,-1,-1,-1,-1,-1],"split_conditions":[1.5E-1,6.3E-1,1.228E0,1.465E0,4.25E-1,1.5743025E2,7.6416665E-1,1.18839E-1,1.2E-1,1.0540926E-2,5E-1,7.2E-1,1.297E0,3.8E-1,4.8E-1,1.341E0,5.1E-1,2.89E-1,1.26692E-1,8.1357E-2,9.2154E-2,8.5E-1,-3.61E-1,-5.25E-1,8.5833E-2,1.49214E-1,6.844654E-2,-3.19E-1,8.9679974E-1,9.9666667E-1,-7.63E-1,-1.2776951E-2,3.2171767E-2,8.723621E-3,-2.812626E-2,-6.755627E-2,5.2606028E-2,4.8689976E-2,1.8162465E-2,-2.0746158E-2,1.4715445E-2,-5.845035E-3,-4.5731016E-2,1.75983E-2,-2.263133E-2,3.7762012E-2,-4.4239108E-2,-4.6443094E-2,3.6138456E-2,1.564396E-2,-2.644518E-2,4.0598907E-2,-8.3861545E-2,2.7275754E-2,-7.523053E-2,6.161933E-2,-6.384285E-2,1.8498618E-2,-3.276638E-2,4.9347237E-2,-3.4732127E-3],"split_indices":[11,6,97,97,12,67,4,93,13,5,12,6,17,25,12,90,6,25,93,37,85,6,40,24,93,77,0,104,63,4,72,0,0,0,0,0,0,0,0,0,0,0,0,0,0,0,0,0,0,0,0,0,0,0,0,0,0,0,0,0,0],"split_type":[0,0,0,0,0,0,0,0,0,0,0,0,0,0,0,0,0,0,0,0,0,0,0,0,0,0,0,0,0,0,0,0,0,0,0,0,0,0,0,0,0,0,0,0,0,0,0,0,0,0,0,0,0,0,0,0,0,0,0,0,0],"sum_hessian":[4.97754E3,3.7401157E3,1.2374241E3,1.041774E3,2.6983418E3,3.8217856E2,8.5524554E2,5.620099E2,4.797641E2,1.7245706E3,9.737711E2,3.4542288E2,3.675566E1,2.8455478E2,5.7069073E2,2.4738937E2,3.146205E2,1.1397523E2,3.6578888E2,4.021618E2,1.3224088E3,7.3443665E2,2.3933453E2,1.6278099E2,1.8264189E2,3.1962454E1,4.793206E0,6.5083256E0,2.7804645E2,2.6050632E2,3.1018445E2,7.388919E1,1.7350018E2,1.5616533E2,1.5845518E2,1.4774889E0,1.1249774E2,6.344172E1,3.0234717E2,2.5438239E2,1.4777942E2,1.979218E2,1.1244869E3,3.4948407E2,3.8495255E2,2.1299878E2,2.6335745E1,1.0984899E1,1.517961E2,8.692222E1,9.571968E1,1.7578168E0,3.0204638E1,3.280926E0,3.2273996E0,2.7630133E2,1.7451375E0,1.9882327E2,6.1683033E1,2.8165573E2,2.8528717E1],"tree_param":{"num_deleted":"0","num_feature":"110","num_nodes":"61","size_leaf_vector":"1"}},{"base_weights":[-5.609194E-3,-1.8647388E-1,5.353723E-1,2.6181003E-1,-3.474746E-1,-4.3810476E-2,7.0252454E-1,6.82399E-1,1.1300345E-1,-5.4559135E-1,1.5417165E-1,6.59616E-2,-1.3236651E0,9.146417E-1,2.4291213E-1,-1.1429604E0,7.419805E-1,-8.217513E-2,4.9406013E-1,-8.5771555E-1,-3.199956E-1,-1.3249847E-1,4.0272805E-1,5.417889E-1,-2.132226E-1,3.9379057E-1,-1.636723E0,9.691245E-1,-3.9520764E-1,-2.9398036E-1,6.5487164E-1,-8.9682184E-2,5.5364855E-2,2.1096144E-2,4.808936E-2,8.014271E-3,-1.9832348E-2,1.5150349E-2,4.42087E-2,7.874854E-3,-4.884732E-2,-2.1627694E-2,2.4681052E-2,7.7405134E-3,-2.9643213E-2,5.275006E-3,4.140353E-2,-2.2563638E-2,4.0805843E-2,-3.3440646E-2,6.5362747E-3,5.139054E-2,-1.6817437E-2,-8.7640174E-2,1.3530048E-3,6.21822E-2,3.876994E-2,-5.941507E-2,5.8126297E-2,1.54424235E-2,-3.742478E-2,3.7269663E-2,-4.603466E-2],"categories":[],"categories_nodes":[],"categories_segments":[],"categories_sizes":[],"default_left":[0,0,0,1,0,0,0,0,0,0,0,1,0,0,0,0,0,0,0,0,0,0,0,0,0,0,0,0,0,0,0,0,0,0,0,0,0,0,0,0,0,0,0,0,0,0,0,0,0,0,0,0,0,0,0,0,0,0,0,0,0,0,0],"id":11,"left_children":[1,3,5,7,9,11,13,15,17,19,21,23,25,27,29,31,33,35,37,39,41,43,45,47,49,51,53,55,57,59,61,-1,-1,-1,-1,-1,-1,-1,-1,-1,-1,-1,-1,-1,-1,-1,-1,-1,-1,-1,-1,-1,-1,-1,-1,-1,-1,-1,-1,-1,-1,-1,-1],"loss_changes":[4.8394574E2,2.6762347E2,1.20007935E2,6.1261787E1,2.7117545E2,3.9213882E1,9.354404E1,2.8682823E1,5.397177E1,1.3743085E2,5.5135742E1,3.431597E1,1.2498375E1,4.7320374E1,6.7667786E1,1.4407681E1,1.707286E1,3.669101E1,1.8048832E1,9.939636E1,1.0431834E2,4.7675007E1,5.228933E1,2.6379568E1,2.5624516E1,2.2923849E0,3.68639E0,3.2632385E1,3.4707478E1,3.6711475E1,2.5350021E1,0E0,0E0,0E0,0E0,0E0,0E0,0E0,0E0,0E0,0E0,0E0,0E0,0E0,0E0,0E0,0E0,0E0,0E0,0E0,0E0,0E0,0E0,0E0,0E0,0E0,0E0,0E0,0E0,0E0,0E0,0E0,0E0],"parents":[2147483647,0,0,1,1,2,2,3,3,4,4,5,5,6,6,7,7,8,8,9,9,10,10,11,11,12,12,13,13,14,14,15,15,16,16,17,17,18,18,19,19,20,20,21,21,22,22,23,23,24,24,25,25,26,26,27,27,28,28,29,29,30,30],"right_children":[2,4,6,8,10,12,14,16,18,20,22,24,26,28,30,32,34,36,38,40,42,44,46,48,50,52,54,56,58,60,62,-1,-1,-1,-1,-1,-1,-1,-1,-1,-1,-1,-1,-1,-1,-1,-1,-1,-1,-1,-1,-1,-1,-1,-1,-1,-1,-1,-1,-1,-1,-1,-1],"split_conditions":[1.5E-1,6.2E-1,8.95E-1,1.2E-1,4.4E-1,1.04391E-1,9.24E-1,1.101E0,1.327E0,4.47E-1,5.46E-1,7.6E-1,1.11E0,5.03222E-1,4.9E-1,-2.9E-1,1.25491495E1,1.55701E-1,1.046E0,5.8887E-2,3.321E0,1.05E-1,4.8E-1,5.66E-1,1.003E0,1.3386945E-1,1.29E0,7.3583335E-1,-3.01E-1,9.855555E-1,7.600392E-1,-8.9682184E-2,5.5364855E-2,2.1096144E-2,4.808936E-2,8.014271E-3,-1.9832348E-2,1.5150349E-2,4.42087E-2,7.874854E-3,-4.884732E-2,-2.1627694E-2,2.4681052E-2,7.7405134E-3,-2.9643213E-2,5.275006E-3,4.140353E-2,-2.2563638E-2,4.0805843E-2,-3.3440646E-2,6.5362747E-3,5.139054E-2,-1.6817437E-2,-8.7640174E-2,1.3530048E-3,6.21822E-2,3.876994E-2,-5.941507E-2,5.8126297E-2,1.54424235E-2,-3.742478E-2,3.7269663E-2,-4.603466E-2],"split_indices":[11,6,105,13,12,53,4,82,105,49,25,4,74,77,12,80,3,85,49,109,90,11,12,26,89,15,97,4,56,4,71,0,0,0,0,0,0,0,0,0,0,0,0,0,0,0,0,0,0,0,0,0,0,0,0,0,0,0,0,0,0,0,0],"split_type":[0,0,0,0,0,0,0,0,0,0,0,0,0,0,0,0,0,0,0,0,0,0,0,0,0,0,0,0,0,0,0,0,0,0,0,0,0,0,0,0,0,0,0,0,0,0,0,0,0,0,0,0,0,0,0,0,0,0,0,0,0,0,0],"sum_hessian":[4.9440522E3,3.7057693E3,1.2382831E3,9.7906744E2,2.726702E3,2.7749622E2,9.6078687E2,2.5493367E2,7.241338E2,1.9546559E3,7.72046E2,2.5644925E2,2.1046978E1,6.5671454E2,3.0407233E2,7.483504E0,2.4745018E2,4.7937866E2,2.447551E2,8.188833E2,1.1357726E3,3.5875098E2,4.1329504E2,9.4480644E1,1.619686E2,3.2051942E0,1.7841784E1,6.3073926E2,2.597529E1,1.3214227E2,1.7193005E2,5.96235E0,1.5211537E0,1.01938446E2,1.4551173E2,2.7095798E2,2.0842068E2,1.654868E2,7.926828E1,8.6031494E1,7.328518E2,9.9815326E2,1.376193E2,2.2130249E2,1.3744849E2,2.4402158E2,1.6927345E2,2.0310833E1,7.416981E1,6.9269875E1,9.269872E1,1.4973079E0,1.7078865E0,1.662815E1,1.213633E0,2.587116E2,3.7202768E2,1.7369211E1,8.60608E0,5.694111E1,7.5201164E1,1.6308705E2,8.843005E0],"tree_param":{"num_deleted":"0","num_feature":"110","num_nodes":"63","size_leaf_vector":"1"}},{"base_weights":[1.410672E-2,-6.6058075E-1,1.7762491E-1,2.7238104E-1,-7.8053755E-1,2.9262383E-3,5.3246784E-1,-4.9502128E-1,5.751919E-1,-9.493216E-1,-2.3468569E-1,2.9418567E-1,-2.1333015E-1,9.503738E-1,3.1273955E-1,8.711842E-1,-8.5615027E-1,7.1023387E-1,-7.245788E-2,-1.9814624E-1,-1.0816128E0,-6.1440617E-1,3.308246E-1,7.598006E-2,7.9342633E-1,1.8134812E-1,-5.326441E-1,9.740118E-1,-8.373322E-2,1.2260106E-1,8.855708E-1,-5.3847857E-2,7.740145E-2,-2.4593255E-4,-8.397378E-2,4.1545693E-2,-3.7023358E-2,3.4391534E-2,-3.190871E-2,-5.7442278E-2,3.4612291E-3,1.042076E-2,-4.6893045E-2,-1.310201E-2,4.496057E-2,1.2276369E-2,-1.7967766E-2,2.8746976E-2,6.6392615E-2,1.7049147E-2,-1.8910049E-2,-3.9672848E-2,-1.4081037E-3,6.388239E-2,4.254399E-2,2.0299131E-2,-1.0121173E-2,4.6338283E-2,-5.93019E-2],"categories":[],"categories_nodes":[],"categories_segments":[],"categories_sizes":[],"default_left":[0,0,0,0,0,0,0,0,0,0,0,0,0,0,1,0,0,0,0,0,0,0,0,0,0,0,0,0,0,0,0,0,0,0,0,0,0,0,0,0,0,0,0,0,0,0,0,0,0,0,0,0,0,0,0,0,0,0,0],"id":12,"left_children":[1,3,5,7,9,11,13,15,17,19,21,23,25,27,29,31,33,35,-1,37,39,41,43,45,47,49,51,53,-1,55,57,-1,-1,-1,-1,-1,-1,-1,-1,-1,-1,-1,-1,-1,-1,-1,-1,-1,-1,-1,-1,-1,-1,-1,-1,-1,-1,-1,-1],"loss_changes":[5.495643E2,1.089693E2,2.4855208E2,2.6184155E1,7.913196E1,1.693569E2,1.21166565E2,1.6569794E1,2.300323E1,6.5130615E1,4.417206E1,1.247492E2,1.9456436E2,2.9884827E1,9.447851E1,1.1162329E1,1.8123695E1,1.3925091E1,0E0,3.930318E1,4.3322144E1,3.289192E1,2.8172916E1,5.901453E1,3.9911697E1,6.1837616E1,1.1224161E2,1.5808228E1,0E0,6.024313E1,1.9554688E1,0E0,0E0,0E0,0E0,0E0,0E0,0E0,0E0,0E0,0E0,0E0,0E0,0E0,0E0,0E0,0E0,0E0,0E0,0E0,0E0,0E0,0E0,0E0,0E0,0E0,0E0,0E0,0E0],"parents":[2147483647,0,0,1,1,2,2,3,3,4,4,5,5,6,6,7,7,8,8,9,9,10,10,11,11,12,12,13,13,14,14,15,15,16,16,17,17,19,19,20,20,21,21,22,22,23,23,24,24,25,25,26,26,27,27,29,29,30,30],"right_children":[2,4,6,8,10,12,14,16,18,20,22,24,26,28,30,32,34,36,-1,38,40,42,44,46,48,50,52,54,-1,56,58,-1,-1,-1,-1,-1,-1,-1,-1,-1,-1,-1,-1,-1,-1,-1,-1,-1,-1,-1,-1,-1,-1,-1,-1,-1,-1,-1,-1],"split_conditions":[5E1,5.8046E-2,1.689E0,4.09E-1,2.2112818E-1,1.06754E-1,-1.333E0,-6.89E-1,9.8231E-2,9.0595E-2,4E-1,1.992E0,6.8E-1,1.2163669E0,5.2173912E1,4.7E1,4.9289E-2,-1.12E-1,-7.245788E-2,-5.63E-1,1E2,1.3751033E1,2.5497183E1,8.9E-1,2.1218069E-1,-4.37E-1,4.5E-1,1.4182E-1,-8.373322E-2,1.63568E-1,-2.98E-1,-5.3847857E-2,7.740145E-2,-2.4593255E-4,-8.397378E-2,4.1545693E-2,-3.7023358E-2,3.4391534E-2,-3.190871E-2,-5.7442278E-2,3.4612291E-3,1.042076E-2,-4.6893045E-2,-1.310201E-2,4.496057E-2,1.2276369E-2,-1.7967766E-2,2.8746976E-2,6.6392615E-2,1.7049147E-2,-1.8910049E-2,-3.9672848E-2,-1.4081037E-3,6.388239E-2,4.254399E-2,2.0299131E-2,-1.0121173E-2,4.6338283E-2,-5.93019E-2],"split_indices":[0,29,97,25,63,93,64,96,109,85,12,82,6,71,10,0,109,24,0,88,2,9,43,6,87,40,12,93,0,93,40,0,0,0,0,0,0,0,0,0,0,0,0,0,0,0,0,0,0,0,0,0,0,0,0,0,0,0,0],"split_type":[0,0,0,0,0,0,0,0,0,0,0,0,0,0,0,0,0,0,0,0,0,0,0,0,0,0,0,0,0,0,0,0,0,0,0,0,0,0,0,0,0,0,0,0,0,0,0,0,0,0,0,0,0,0,0,0,0,0,0],"sum_hessian":[4.9793174E3,9.707783E2,4.0085388E3,1.10453964E2,8.6032434E2,2.6867754E3,1.3217634E3,3.1072733E1,7.9381226E1,6.565668E2,2.037576E2,1.1447021E3,1.5420734E3,4.543328E2,8.674306E2,6.2010045E0,2.4871729E1,7.502552E1,4.35571E0,9.868902E1,5.5787775E2,1.2185186E2,8.190574E1,7.9735175E2,3.473503E2,6.898444E2,8.52229E2,4.5090146E2,3.4313264E0,6.521711E2,2.1525952E2,1.4464861E0,4.7545185E0,1.2723227E1,1.2148501E1,6.965808E1,5.3674364E0,3.256257E1,6.612645E1,5.270867E2,3.0791061E1,3.4484367E1,8.73675E1,4.035343E1,4.155231E1,5.7416956E2,2.231822E2,2.4802657E2,9.932375E1,5.370259E2,1.5281853E2,5.614114E2,2.9081763E2,1.2738979E2,3.2351166E2,3.4827173E2,3.0389935E2,2.1160431E2,3.6552072E0],"tree_param":{"num_deleted":"0","num_feature":"110","num_nodes":"59","size_leaf_vector":"1"}},{"base_weights":[4.0058866E-3,-6.563119E-1,1.5902431E-1,2.9565242E-1,-7.9916155E-1,5.5113856E-2,7.7714884E-1,-3.5269177E-1,7.5952935E-1,-9.915897E-1,-1.8175638E-1,-1.7007993E-1,3.4247804E-1,1.7629188E-1,9.9828374E-1,5.6272185E-1,-7.3845774E-1,1.4060221E0,3.17668E-1,-2.0969555E-1,-1.1162865E0,-7.461492E-1,2.5926676E-1,1.5709412E-1,-4.3371412E-1,-1.8149602E-1,5.008542E-1,3.633879E-1,-1.3546398E0,1.1395104E0,3.6190617E-1,6.132703E-2,-7.257302E-2,1.7732076E-2,-7.143127E-2,7.5300194E-2,-4.9673915E-3,6.35528E-2,-6.3380124E-3,-5.1744796E-2,2.0622967E-2,-6.540403E-2,-3.950715E-2,1.992095E-2,-5.1286586E-2,7.04166E-2,-7.847166E-3,1.7526587E-2,-1.6136972E-2,-4.067906E-2,-3.3906658E-4,1.4004314E-2,-2.8380139E-2,4.3706317E-2,1.6183862E-2,-1.8361265E-2,3.0260464E-2,1.0695531E-2,-8.1300005E-2,-6.643835E-2,5.7599038E-2,-4.9839363E-2,3.450008E-2],"categories":[],"categories_nodes":[],"categories_segments":[],"categories_sizes":[],"default_left":[0,0,0,0,0,0,0,0,0,0,0,0,0,0,0,0,0,0,0,0,0,0,0,0,0,0,0,0,0,0,0,0,0,0,0,0,0,0,0,0,0,0,0,0,0,0,0,0,0,0,0,0,0,0,0,0,0,0,0,0,0,0,0],"id":13,"left_children":[1,3,5,7,9,11,13,15,17,19,21,23,25,27,29,31,33,35,37,39,41,43,45,47,49,51,53,55,57,59,61,-1,-1,-1,-1,-1,-1,-1,-1,-1,-1,-1,-1,-1,-1,-1,-1,-1,-1,-1,-1,-1,-1,-1,-1,-1,-1,-1,-1,-1,-1,-1,-1],"loss_changes":[5.0906778E2,1.288201E2,2.586525E2,3.759252E1,9.75318E1,2.2325899E2,7.683017E1,1.8935184E1,2.0309696E1,6.0878662E1,4.9141766E1,1.669184E2,1.2587181E2,4.5498943E1,3.764267E1,2.3327732E1,2.8667545E1,4.5456696E0,1.8996492E1,4.5320957E1,3.2766968E1,2.8094574E1,5.3370358E1,8.029982E1,1.7376561E2,6.2987854E1,7.670978E1,2.5099546E1,7.7212734E0,1.2182617E1,3.562259E1,0E0,0E0,0E0,0E0,0E0,0E0,0E0,0E0,0E0,0E0,0E0,0E0,0E0,0E0,0E0,0E0,0E0,0E0,0E0,0E0,0E0,0E0,0E0,0E0,0E0,0E0,0E0,0E0,0E0,0E0,0E0,0E0],"parents":[2147483647,0,0,1,1,2,2,3,3,4,4,5,5,6,6,7,7,8,8,9,9,10,10,11,11,12,12,13,13,14,14,15,15,16,16,17,17,18,18,19,19,20,20,21,21,22,22,23,23,24,24,25,25,26,26,27,27,28,28,29,29,30,30],"right_children":[2,4,6,8,10,12,14,16,18,20,22,24,26,28,30,32,34,36,38,40,42,44,46,48,50,52,54,56,58,60,62,-1,-1,-1,-1,-1,-1,-1,-1,-1,-1,-1,-1,-1,-1,-1,-1,-1,-1,-1,-1,-1,-1,-1,-1,-1,-1,-1,-1,-1,-1,-1,-1],"split_conditions":[5E1,5.3589E-2,1.85E-1,6.77E-1,4.95553E1,2.272E0,6.12E-1,8.6363E-2,5.2047E-2,9.0595E-2,1.5967837E-1,1.09105E-1,1.173E0,1.4879435E-1,1.112E0,4.7E1,7E-1,-1.07E-1,4.4777E-2,1.234E0,7.577497E1,1.0801234E1,9.2119E-2,8.9E-1,8.9589E-2,1.78019E-1,-1.879E0,3.37E-1,-5.469E-3,3.89352E-2,1.137E0,6.132703E-2,-7.257302E-2,1.7732076E-2,-7.143127E-2,7.5300194E-2,-4.9673915E-3,6.35528E-2,-6.3380124E-3,-5.1744796E-2,2.0622967E-2,-6.540403E-2,-3.950715E-2,1.992095E-2,-5.1286586E-2,7.04166E-2,-7.847166E-3,1.7526587E-2,-1.6136972E-2,-4.067906E-2,-3.3906658E-4,1.4004314E-2,-2.8380139E-2,4.3706317E-2,1.6183862E-2,-1.8361265E-2,3.0260464E-2,1.0695531E-2,-8.1300005E-2,-6.643835E-2,5.7599038E-2,-4.9839363E-2,3.450008E-2],"split_indices":[0,45,11,42,67,82,25,85,109,85,44,85,97,23,73,0,6,48,45,82,2,8,45,6,69,85,80,25,30,55,105,0,0,0,0,0,0,0,0,0,0,0,0,0,0,0,0,0,0,0,0,0,0,0,0,0,0,0,0,0,0,0,0],"split_type":[0,0,0,0,0,0,0,0,0,0,0,0,0,0,0,0,0,0,0,0,0,0,0,0,0,0,0,0,0,0,0,0,0,0,0,0,0,0,0,0,0,0,0,0,0,0,0,0,0,0,0,0,0,0,0,0,0,0,0,0,0,0,0],"sum_hessian":[4.971219E3,9.445542E2,4.026665E3,1.23104416E2,8.2144977E2,3.4481067E3,5.785583E2,5.1443443E1,7.166097E1,6.257994E2,1.9565042E2,1.9334001E3,1.5147067E3,1.5612909E2,4.224292E2,1.5115648E1,3.6327793E1,2.8207783E1,4.345319E1,8.6444275E1,5.393551E2,8.551808E1,1.1013235E2,8.629143E2,1.0704858E3,3.5153543E2,1.1631711E3,1.3980595E2,1.6323132E1,3.4506158E2,7.736762E1,1.166292E1,3.4527276E0,1.4247893E1,2.2079903E1,2.64506E1,1.7571828E0,1.322434E1,3.022885E1,3.6873455E1,4.957082E1,3.3773428E2,2.016208E2,1.6705061E1,6.881302E1,2.8650597E1,8.148175E1,6.151824E2,2.4773195E2,5.6598773E2,5.0449805E2,1.6024298E2,1.9129245E2,3.73132E2,7.900392E2,3.463746E1,1.051685E2,2.4386504E0,1.3884481E1,1.2039765E0,3.438576E2,1.4652263E1,6.2715363E1],"tree_param":{"num_deleted":"0","num_feature":"110","num_nodes":"63","size_leaf_vector":"1"}},{"base_weights":[9.739164E-3,-5.623869E-1,1.8454145E-1,-7.308085E-1,-6.551969E-2,5.3914046E-1,-7.059739E-3,-9.229665E-1,-1.1640741E-1,6.13979E-1,-4.745257E-1,-6.673255E-2,7.014825E-1,2.5565258E-1,-2.0437025E-1,-2.2569962E-1,-1.0196068E0,-3.4680325E-1,8.057674E-1,-3.255843E-1,8.0640966E-1,-8.134936E-1,4.5018405E-1,3.4624603E-1,-4.8324427E-1,7.468142E-1,-4.255593E-1,7.939833E-2,8.5324556E-1,-4.9977586E-1,1.2216608E-1,-3.4363944E-2,2.5396422E-2,-5.7394344E-2,-2.4945289E-2,2.6697468E-5,-4.843694E-2,8.468386E-3,6.613632E-2,2.1211855E-2,-7.8278676E-2,6.0250826E-2,2.2758761E-2,-2.6869033E-2,-7.739804E-2,-5.15091E-2,3.9547473E-2,-4.9958024E-3,4.2887952E-2,-7.731424E-3,-5.547101E-2,2.6335774E-2,4.7385577E-2,-6.0838617E-2,3.298825E-2,1.5486933E-2,-1.2010196E-2,-3.9842136E-2,4.731794E-2,-3.3811346E-2,8.394554E-3,2.5644068E-2,-4.0931418E-3],"categories":[],"categories_nodes":[],"categories_segments":[],"categories_sizes":[],"default_left":[0,0,0,0,0,0,0,0,0,0,0,0,0,0,0,0,0,0,0,0,0,0,0,0,0,0,0,0,0,0,0,0,0,0,0,0,0,0,0,0,0,0,0,0,0,0,0,0,0,0,0,0,0,0,0,0,0,0,0,0,0,0,0],"id":14,"left_children":[1,3,5,7,9,11,13,15,17,19,21,23,25,27,29,31,33,35,37,39,41,43,45,47,49,51,53,55,57,59,61,-1,-1,-1,-1,-1,-1,-1,-1,-1,-1,-1,-1,-1,-1,-1,-1,-1,-1,-1,-1,-1,-1,-1,-1,-1,-1,-1,-1,-1,-1,-1,-1],"loss_changes":[4.9347354E2,9.658682E1,2.5678827E2,1.0170145E2,8.18424E1,1.3045236E2,1.2729235E2,4.4023865E1,4.41727E1,2.0276123E1,5.795911E1,4.8517666E1,5.3744873E1,1.1087335E2,1.353358E2,2.7855106E1,3.7935974E1,3.5858444E1,1.34613285E1,1.8822178E1,1.2354954E1,2.6507133E1,2.600246E1,3.24301E1,2.871125E1,4.396808E1,3.6072044E1,6.003497E1,3.7597916E1,8.687926E1,5.320519E1,0E0,0E0,0E0,0E0,0E0,0E0,0E0,0E0,0E0,0E0,0E0,0E0,0E0,0E0,0E0,0E0,0E0,0E0,0E0,0E0,0E0,0E0,0E0,0E0,0E0,0E0,0E0,0E0,0E0,0E0,0E0,0E0],"parents":[2147483647,0,0,1,1,2,2,3,3,4,4,5,5,6,6,7,7,8,8,9,9,10,10,11,11,12,12,13,13,14,14,15,15,16,16,17,17,18,18,19,19,20,20,21,21,22,22,23,23,24,24,25,25,26,26,27,27,28,28,29,29,30,30],"right_children":[2,4,6,8,10,12,14,16,18,20,22,24,26,28,30,32,34,36,38,40,42,44,46,48,50,52,54,56,58,60,62,-1,-1,-1,-1,-1,-1,-1,-1,-1,-1,-1,-1,-1,-1,-1,-1,-1,-1,-1,-1,-1,-1,-1,-1,-1,-1,-1,-1,-1,-1,-1,-1],"split_conditions":[5.3E1,4.25E-1,-1.558E0,8.580858E1,8.81E-1,1.01E0,1.16955E-1,8.4217E-2,3.85E-1,7.45E-1,5.15E-1,2.02636E-1,3.70823E-1,5.5877476E1,2.252E0,1.4367698E-1,2.1390018E-1,6.414286E-1,-2.26E-1,5.5552E-2,6.8812E-2,1.05279E-1,6.63E-1,4.35E-1,8.1101E-2,1.332E0,-1.958E0,9.1345E-2,6.1E-1,3.6842106E1,1.57559E-1,-3.4363944E-2,2.5396422E-2,-5.7394344E-2,-2.4945289E-2,2.6697468E-5,-4.843694E-2,8.468386E-3,6.613632E-2,2.1211855E-2,-7.8278676E-2,6.0250826E-2,2.2758761E-2,-2.6869033E-2,-7.739804E-2,-5.15091E-2,3.9547473E-2,-4.9958024E-3,4.2887952E-2,-7.731424E-3,-5.547101E-2,2.6335774E-2,4.7385577E-2,-6.0838617E-2,3.298825E-2,1.5486933E-2,-1.2010196E-2,-3.9842136E-2,4.731794E-2,-3.3811346E-2,8.394554E-3,2.5644068E-2,-4.0931418E-3],"split_indices":[0,12,72,2,4,97,85,93,12,105,12,77,69,91,82,87,63,4,16,109,21,109,105,12,45,105,80,93,26,10,85,0,0,0,0,0,0,0,0,0,0,0,0,0,0,0,0,0,0,0,0,0,0,0,0,0,0,0,0,0,0,0,0],"split_type":[0,0,0,0,0,0,0,0,0,0,0,0,0,0,0,0,0,0,0,0,0,0,0,0,0,0,0,0,0,0,0,0,0,0,0,0,0,0,0,0,0,0,0,0,0,0,0,0,0,0,0,0,0,0,0,0,0,0,0,0,0,0,0],"sum_hessian":[4.9322563E3,1.1537682E3,3.7784883E3,8.6133356E2,2.9243454E2,1.324817E3,2.4536711E3,6.557433E2,2.0559027E2,1.0969407E2,1.8274048E2,2.8008966E2,1.0447274E3,1.0522886E3,1.4013826E3,8.022796E1,5.755154E2,1.6499252E2,4.0597748E1,1.8529558E1,9.116451E1,1.3381032E2,4.893015E1,1.4072604E2,1.393636E2,1.0046556E3,4.0071774E1,8.1349036E2,2.3879823E2,7.354852E2,6.658974E2,4.9283356E1,3.0944601E1,4.6079037E2,1.14724976E2,1.0650885E2,5.8483685E1,1.8791811E1,2.1805935E1,1.195702E1,6.572539E0,4.1563908E1,4.9600605E1,9.8508896E1,3.5301426E1,8.777119E0,4.015303E1,7.559432E1,6.513172E1,9.221585E1,4.7147747E1,4.811452E2,5.2351044E2,2.3106081E1,1.6965694E1,4.7278244E2,3.4070792E2,1.2351725E1,2.2644652E2,5.817322E2,1.5375305E2,2.2791895E2,4.3797845E2],"tree_param":{"num_deleted":"0","num_feature":"110","num_nodes":"63","size_leaf_vector":"1"}},{"base_weights":[-1.3193903E-2,-4.2910275E-1,1.8450059E-1,-6.63856E-1,-6.897357E-2,-8.4364325E-2,4.1416746E-1,-8.374061E-1,1.07046284E-1,-3.6081934E-1,5.348949E-1,3.1776845E-1,-2.2850901E-1,2.6059735E-1,9.6209925E-1,7.544981E-2,-9.5759773E-1,4.6491855E-1,-3.4199208E-1,-5.785106E-1,6.8464273E-1,5.9094316E-1,-8.035822E-2,1.3275485E-2,8.125012E-1,-5.3390616E-1,5.577654E-2,4.9091855E-1,-9.576517E-2,9.991456E-1,-3.3422053E-1,-3.739769E-2,2.513516E-2,-5.1875908E-2,-1.5807645E-3,2.113806E-3,5.37808E-2,-4.3402042E-2,1.4827198E-2,2.9798452E-2,-3.4390435E-2,-2.5684262E-2,4.627826E-2,4.3205544E-2,1.02467295E-2,-3.8667858E-2,9.108661E-3,4.4230122E-2,-5.988921E-2,-4.1854676E-2,-4.8825694E-3,6.760777E-3,-5.295809E-2,1.7001856E-2,4.01994E-2,-1.473199E-2,3.6042556E-2,-5.9474736E-2,5.0925177E-2,4.7303613E-2,-5.860142E-2],"categories":[],"categories_nodes":[],"categories_segments":[],"categories_sizes":[],"default_left":[0,1,0,0,0,0,0,0,0,1,0,0,0,0,0,0,0,0,0,0,0,0,0,0,0,0,0,0,0,0,0,0,0,0,0,0,0,0,0,0,0,0,0,0,0,0,0,0,0,0,0,0,0,0,0,0,0,0,0,0,0],"id":15,"left_children":[1,3,5,7,9,11,13,15,17,19,21,23,25,27,29,31,33,35,37,39,41,43,-1,45,47,49,51,53,55,57,59,-1,-1,-1,-1,-1,-1,-1,-1,-1,-1,-1,-1,-1,-1,-1,-1,-1,-1,-1,-1,-1,-1,-1,-1,-1,-1,-1,-1,-1,-1],"loss_changes":[4.0112668E2,1.3283524E2,2.0422656E2,1.27378784E2,1.0970203E2,8.84245E1,1.4982867E2,8.528931E1,2.8396124E1,9.587224E1,2.530515E1,6.0639442E1,9.74948E1,1.145031E2,1.9067017E1,3.249296E1,5.0764282E1,2.530258E1,2.662814E1,4.5050842E1,2.1480606E1,2.0745415E1,0E0,3.338765E1,2.3289871E1,7.151486E1,5.1717827E1,3.9745117E1,8.925614E1,1.7289673E1,1.353785E1,0E0,0E0,0E0,0E0,0E0,0E0,0E0,0E0,0E0,0E0,0E0,0E0,0E0,0E0,0E0,0E0,0E0,0E0,0E0,0E0,0E0,0E0,0E0,0E0,0E0,0E0,0E0,0E0,0E0,0E0],"parents":[2147483647,0,0,1,1,2,2,3,3,4,4,5,5,6,6,7,7,8,8,9,9,10,10,11,11,12,12,13,13,14,14,15,15,16,16,17,17,18,18,19,19,20,20,21,21,23,23,24,24,25,25,26,26,27,27,28,28,29,29,30,30],"right_children":[2,4,6,8,10,12,14,16,18,20,22,24,26,28,30,32,34,36,38,40,42,44,-1,46,48,50,52,54,56,58,60,-1,-1,-1,-1,-1,-1,-1,-1,-1,-1,-1,-1,-1,-1,-1,-1,-1,-1,-1,-1,-1,-1,-1,-1,-1,-1,-1,-1,-1,-1],"split_conditions":[5.7E1,7.542857E1,1.077E0,4.7E-1,1.15E-1,8.7657E-2,1.75E-1,5.6703E-2,1.31435E-1,4.05E-1,5.96912E-1,1.529E0,7.508533E1,7.8E-1,5.42812E-1,9E-2,1.612E0,1.961E0,1.221E0,5.7E-1,6.97E-1,-5.9E-4,-8.035822E-2,5.1342E-2,7.09E-1,4.6E-1,-5.16E-1,2.12E0,4.9E-1,8.84E-1,5E-1,-3.739769E-2,2.513516E-2,-5.1875908E-2,-1.5807645E-3,2.113806E-3,5.37808E-2,-4.3402042E-2,1.4827198E-2,2.9798452E-2,-3.4390435E-2,-2.5684262E-2,4.627826E-2,4.3205544E-2,1.02467295E-2,-3.8667858E-2,9.108661E-3,4.4230122E-2,-5.988921E-2,-4.1854676E-2,-4.8825694E-3,6.760777E-3,-5.295809E-2,1.7001856E-2,4.01994E-2,-1.473199E-2,3.6042556E-2,-5.9474736E-2,5.0925177E-2,4.7303613E-2,-5.860142E-2],"split_indices":[0,2,105,12,11,93,11,109,85,12,77,90,2,6,77,11,18,74,105,7,105,30,0,69,65,12,72,97,12,82,6,0,0,0,0,0,0,0,0,0,0,0,0,0,0,0,0,0,0,0,0,0,0,0,0,0,0,0,0,0,0],"split_type":[0,0,0,0,0,0,0,0,0,0,0,0,0,0,0,0,0,0,0,0,0,0,0,0,0,0,0,0,0,0,0,0,0,0,0,0,0,0,0,0,0,0,0,0,0,0,0,0,0,0,0,0,0,0,0,0,0,0,0,0,0],"sum_hessian":[4.8765654E3,1.5707847E3,3.3057808E3,9.5040906E2,6.2037555E2,1.5232201E3,1.7825607E3,7.75694E2,1.7471506E2,4.1851328E2,2.018623E2,4.0160995E2,1.1216102E3,1.3934818E3,3.890788E2,9.029273E1,6.8540125E2,9.720765E1,7.750741E1,3.4675656E2,7.175671E1,1.9742079E2,4.4415135E0,2.4923824E2,1.5237172E2,5.403041E2,5.8130615E2,8.461972E2,5.472846E2,3.784915E2,1.0587329E1,3.0589663E1,5.970307E1,6.308343E2,5.4566963E1,5.8081024E1,3.9126625E1,4.2299854E1,3.5207554E1,2.914302E1,3.1761356E2,1.1822152E1,5.993455E1,1.148828E2,8.2537994E1,4.3422283E1,2.0581595E2,1.4763654E2,4.7351937E0,3.182256E2,2.2207848E2,5.4346326E2,3.7842857E1,5.7241315E2,2.737841E2,4.4061795E2,1.0666669E2,2.7883482E0,3.7570312E2,4.13667E0,6.450659E0],"tree_param":{"num_deleted":"0","num_feature":"110","num_nodes":"61","size_leaf_vector":"1"}},{"base_weights":[-2.0701617E-3,-1.2224566E-1,5.736192E-1,1.8953992E-1,-3.100757E-1,2.6881728E-1,9.395686E-1,1.0190818E-3,4.9204746E-1,-6.239826E-1,1.4778597E-2,-4.2273116E-1,4.1447762E-1,5.345344E-1,1.0696827E0,-1.5539913E-1,3.8025457E-1,8.030592E-1,2.7524868E-1,3.964592E-1,-6.849832E-1,1.2732448E-1,-6.4845556E-1,-9.8749E-1,6.71183E-2,5.237074E-1,-8.077289E-1,-1.1233511E0,6.744417E-1,1.1480017E0,4.471964E-1,1.7228166E-3,-2.7589237E-2,5.7220217E-2,1.2581336E-2,4.2089712E-2,-5.5134233E-2,3.3305626E-2,3.4981554E-3,-9.549191E-3,4.9556088E-2,-7.820203E-3,-4.0929865E-2,1.9809835E-2,-9.105958E-3,-3.3819247E-3,-4.6943005E-2,1.6513076E-2,-6.659588E-2,3.7960537E-2,-3.411083E-2,4.0786617E-2,2.1052693E-3,-5.4299474E-2,5.004347E-2,-8.261655E-2,1.7678967E-2,-1.3647187E-2,4.521981E-2,2.184545E-2,5.90523E-2,-2.4001082E-2,5.13116E-2],"categories":[],"categories_nodes":[],"categories_segments":[],"categories_sizes":[],"default_left":[0,0,0,0,0,0,0,0,0,0,0,0,0,0,0,0,0,0,0,0,0,0,0,0,0,0,0,0,0,0,0,0,0,0,0,0,0,0,0,0,0,0,0,0,0,0,0,0,0,0,0,0,0,0,0,0,0,0,0,0,0,0,0],"id":16,"left_children":[1,3,5,7,9,11,13,15,17,19,21,23,25,27,29,31,33,35,37,39,41,43,45,47,49,51,53,55,57,59,61,-1,-1,-1,-1,-1,-1,-1,-1,-1,-1,-1,-1,-1,-1,-1,-1,-1,-1,-1,-1,-1,-1,-1,-1,-1,-1,-1,-1,-1,-1,-1,-1],"loss_changes":[3.3459006E2,2.3436925E2,9.2909454E1,8.581671E1,2.5466072E2,4.6217484E1,1.9409088E1,5.5111195E1,3.8734024E1,7.932794E1,9.175973E1,2.2203407E1,5.089466E1,2.2603E1,1.3427734E1,4.951984E1,2.6378094E1,1.8407425E1,2.7391207E1,2.5436005E1,8.453516E1,8.7503265E1,3.0017906E1,1.733813E1,2.3226795E1,4.8859367E1,1.6893936E1,6.6034937E0,1.9304146E1,5.4374084E0,1.852973E1,0E0,0E0,0E0,0E0,0E0,0E0,0E0,0E0,0E0,0E0,0E0,0E0,0E0,0E0,0E0,0E0,0E0,0E0,0E0,0E0,0E0,0E0,0E0,0E0,0E0,0E0,0E0,0E0,0E0,0E0,0E0,0E0],"parents":[2147483647,0,0,1,1,2,2,3,3,4,4,5,5,6,6,7,7,8,8,9,9,10,10,11,11,12,12,13,13,14,14,15,15,16,16,17,17,18,18,19,19,20,20,21,21,22,22,23,23,24,24,25,25,26,26,27,27,28,28,29,29,30,30],"right_children":[2,4,6,8,10,12,14,16,18,20,22,24,26,28,30,32,34,36,38,40,42,44,46,48,50,52,54,56,58,60,62,-1,-1,-1,-1,-1,-1,-1,-1,-1,-1,-1,-1,-1,-1,-1,-1,-1,-1,-1,-1,-1,-1,-1,-1,-1,-1,-1,-1,-1,-1,-1,-1],"split_conditions":[1.7E-1,6.9E-1,8.71E-1,1.261E0,4.15E-1,3.88E-1,-3.56E-1,5.2173912E1,2.12E-1,-1.154E0,-7.15E-1,-5.51E-4,2.9870178E1,1.029E0,9.9E-1,1.24512E-1,1.1E-1,1.42728E-1,-9.83E-1,1.112E0,8.5933E-2,9.46E-1,8.8333E-2,1.58E-1,5.6E-1,9.122222E-1,8.84E-1,2.5414808E1,6.507592E1,-3.751E-3,1.65E-1,1.7228166E-3,-2.7589237E-2,5.7220217E-2,1.2581336E-2,4.2089712E-2,-5.5134233E-2,3.3305626E-2,3.4981554E-3,-9.549191E-3,4.9556088E-2,-7.820203E-3,-4.0929865E-2,1.9809835E-2,-9.105958E-3,-3.3819247E-3,-4.6943005E-2,1.6513076E-2,-6.659588E-2,3.7960537E-2,-3.411083E-2,4.0786617E-2,2.1052693E-3,-5.4299474E-2,5.004347E-2,-8.261655E-2,1.7678967E-2,-1.3647187E-2,4.521981E-2,2.184545E-2,5.90523E-2,-2.4001082E-2,5.13116E-2],"split_indices":[11,6,25,105,12,25,56,10,41,32,72,22,27,105,6,101,13,29,32,105,101,4,85,25,73,4,57,3,2,38,13,0,0,0,0,0,0,0,0,0,0,0,0,0,0,0,0,0,0,0,0,0,0,0,0,0,0,0,0,0,0,0,0],"split_type":[0,0,0,0,0,0,0,0,0,0,0,0,0,0,0,0,0,0,0,0,0,0,0,0,0,0,0,0,0,0,0,0,0,0,0,0,0,0,0,0,0,0,0,0,0,0,0,0,0,0,0,0,0,0,0,0,0,0,0,0,0,0,0],"sum_hessian":[4.8342383E3,4.0000198E3,8.342189E2,1.5038003E3,2.4962195E3,4.5608054E2,3.781383E2,9.2706335E2,5.767369E2,1.2690321E3,1.2271874E3,7.901946E1,3.7706107E2,9.318127E1,2.8495703E2,6.5676605E2,2.702973E2,2.3578459E2,3.4095227E2,7.1271736E1,1.1977604E3,1.0498446E3,1.7734277E2,3.623146E1,4.2788E1,3.4665198E2,3.0409115E1,6.7044945E0,8.647677E1,2.5236162E2,3.2595413E1,4.4468832E2,2.1207774E2,3.780559E1,2.3249171E2,2.3163481E2,4.149779E0,1.1663477E2,2.243175E2,3.6195004E1,3.5076733E1,2.421161E2,9.556442E2,5.615979E2,4.8824667E2,5.9524677E1,1.1781809E2,7.516208E0,2.8715252E1,2.2236755E1,2.0551245E1,2.1536758E2,1.3128438E2,2.6700647E1,3.7084677E0,4.849006E0,1.8554885E0,1.685387E1,6.96229E1,1.1837998E1,2.4052362E2,1.2596098E1,1.9999317E1],"tree_param":{"num_deleted":"0","num_feature":"110","num_nodes":"63","size_leaf_vector":"1"}},{"base_weights":[1.3032792E-3,-1.1026295E-1,5.3988546E-1,-3.061664E-1,1.6227064E-1,6.8299614E-2,7.7826184E-1,5.8053635E-2,-6.062022E-1,6.338323E-1,-1.0855749E-2,1.7509976E-1,-1.1322911E0,4.1195893E-1,9.5689243E-1,-3.4528837E-1,2.7294675E-1,-8.4054554E-1,-1.9991288E-1,1.0417513E0,4.6103805E-1,-2.8927624E-1,3.4711608E-1,4.9422467E-1,-1.0322836E-1,-1.529116E0,8.101135E-2,1.1016978E0,1.9598058E-1,1.0081437E0,-2.244281E-1,1.3951767E-3,-3.5537414E-2,4.101593E-2,4.714318E-3,-9.4599575E-3,-4.6299197E-2,2.100151E-3,-2.6469646E-2,-3.347473E-2,5.578788E-2,-1.2796983E-2,3.0225838E-2,-2.3028996E-2,1.8259915E-2,-9.063493E-3,3.0217508E-2,2.4362553E-3,5.228236E-2,-1.7227748E-2,3.7956778E-2,2.1443134E-2,-8.3794795E-2,6.634129E-2,-6.6035986E-2,-3.92324E-2,6.0885783E-2,3.9552066E-2,-1.1442802E-2,4.003937E-2,5.6907367E-2,5.7626035E-2,-3.387892E-2],"categories":[],"categories_nodes":[],"categories_segments":[],"categories_sizes":[],"default_left":[0,0,0,0,0,0,1,0,0,0,0,0,0,0,0,0,0,0,0,0,0,0,0,0,0,0,0,0,0,0,0,0,0,0,0,0,0,0,0,0,0,0,0,0,0,0,0,0,0,0,0,0,0,0,0,0,0,0,0,0,0,0,0],"id":17,"left_children":[1,3,5,7,9,11,13,15,17,19,21,23,25,27,29,31,33,35,37,39,41,43,45,47,49,51,53,55,57,59,61,-1,-1,-1,-1,-1,-1,-1,-1,-1,-1,-1,-1,-1,-1,-1,-1,-1,-1,-1,-1,-1,-1,-1,-1,-1,-1,-1,-1,-1,-1,-1,-1],"loss_changes":[2.895094E2,2.1314824E2,9.2890945E1,2.538336E2,1.3633362E2,3.593413E1,3.5534668E1,9.109883E1,1.2108655E2,3.112883E1,1.2193417E2,2.2860317E1,1.114991E1,2.6859241E1,2.2527344E1,4.9854683E1,6.696539E1,4.4754578E1,3.7258736E1,1.7545288E1,3.2744446E1,7.7319885E1,7.286115E1,2.9380121E1,2.8979824E1,5.69265E0,1.3266964E1,1.0393166E1,3.547913E1,8.610107E0,1.08479395E1,0E0,0E0,0E0,0E0,0E0,0E0,0E0,0E0,0E0,0E0,0E0,0E0,0E0,0E0,0E0,0E0,0E0,0E0,0E0,0E0,0E0,0E0,0E0,0E0,0E0,0E0,0E0,0E0,0E0,0E0,0E0,0E0],"parents":[2147483647,0,0,1,1,2,2,3,3,4,4,5,5,6,6,7,7,8,8,9,9,10,10,11,11,12,12,13,13,14,14,15,15,16,16,17,17,18,18,19,19,20,20,21,21,22,22,23,23,24,24,25,25,26,26,27,27,28,28,29,29,30,30],"right_children":[2,4,6,8,10,12,14,16,18,20,22,24,26,28,30,32,34,36,38,40,42,44,46,48,50,52,54,56,58,60,62,-1,-1,-1,-1,-1,-1,-1,-1,-1,-1,-1,-1,-1,-1,-1,-1,-1,-1,-1,-1,-1,-1,-1,-1,-1,-1,-1,-1,-1,-1,-1,-1],"split_conditions":[1.7E-1,2.252E0,1.038E0,1.10245E-1,1.5413E-1,2.6334092E-1,6.507592E1,1.446E0,9.8043E-2,1.16955E-1,1.344E0,5.35E-1,6.2369347E1,5.4041E-2,5.03222E-1,8.056E-2,8.3005E-2,4.66E-1,2.38E-1,1.68E0,7.55E-1,1.56462145E1,1.01457E-1,1.04E0,5.5E1,4.8839796E-2,1.034E0,6.56E-1,-1.013E0,1.95E-1,2.20103E-1,1.3951767E-3,-3.5537414E-2,4.101593E-2,4.714318E-3,-9.4599575E-3,-4.6299197E-2,2.100151E-3,-2.6469646E-2,-3.347473E-2,5.578788E-2,-1.2796983E-2,3.0225838E-2,-2.3028996E-2,1.8259915E-2,-9.063493E-3,3.0217508E-2,2.4362553E-3,5.228236E-2,-1.7227748E-2,3.7956778E-2,2.1443134E-2,-8.3794795E-2,6.634129E-2,-6.6035986E-2,-3.92324E-2,6.0885783E-2,3.9552066E-2,-1.1442802E-2,4.003937E-2,5.6907367E-2,5.7626035E-2,-3.387892E-2],"split_indices":[11,82,105,85,85,5,2,90,69,85,105,73,99,21,77,85,93,81,41,90,105,3,69,89,10,31,50,42,40,11,69,0,0,0,0,0,0,0,0,0,0,0,0,0,0,0,0,0,0,0,0,0,0,0,0,0,0,0,0,0,0,0,0],"split_type":[0,0,0,0,0,0,0,0,0,0,0,0,0,0,0,0,0,0,0,0,0,0,0,0,0,0,0,0,0,0,0,0,0,0,0,0,0,0,0,0,0,0,0,0,0,0,0,0,0,0,0,0,0,0,0,0,0,0,0,0,0,0,0],"sum_hessian":[4.8161323E3,3.9903372E3,8.2579517E2,2.3214802E3,1.668857E3,2.7770035E2,5.4809485E2,1.0489469E3,1.2725332E3,4.4744507E2,1.221412E3,2.557995E2,2.1900831E1,1.8075064E2,3.673442E2,3.6439383E2,6.845531E2,8.063629E2,4.6617035E2,1.316432E2,3.1580188E2,6.871544E2,5.342576E2,1.18804825E2,1.3699467E2,1.6307106E1,5.5937247E0,4.212408E1,1.3862656E2,3.5221027E2,1.513395E1,1.8074672E2,1.8364713E2,1.675695E2,5.169836E2,9.38795E1,7.124834E2,2.6930765E2,1.9686269E2,5.123611E0,1.265196E2,5.2528366E1,2.632735E2,5.4484235E2,1.4231203E2,1.7502763E2,3.5922998E2,6.631592E1,5.2488907E1,1.0750938E2,2.9485306E1,1.0031908E0,1.5303916E1,2.9898648E0,2.60386E0,2.106768E0,4.0017315E1,5.7385612E1,8.1240944E1,1.3848534E2,2.1372491E2,3.365164E0,1.1768785E1],"tree_param":{"num_deleted":"0","num_feature":"110","num_nodes":"63","size_leaf_vector":"1"}},{"base_weights":[-1.6141898E-3,-7.4442405E-1,1.0416444E-1,1.06200455E-2,-8.9400893E-1,3.317365E-1,-1.1426455E-1,-2.554061E-1,1.1099079E0,-1.0866464E0,-3.4769103E-1,8.912922E-2,6.4578456E-1,1.351241E-1,-3.5491273E-1,-7.038676E-1,3.649155E-1,1.3572513E0,-5.351397E-2,-6.1855197E-1,-1.225493E0,-8.540879E-1,5.9485253E-2,3.9642006E-1,-1.2024255E-1,3.6921674E-1,7.970691E-1,2.7209646E-1,-3.0986363E-1,1.2455105E-1,-6.2009805E-1,2.151014E-2,-5.295841E-2,-3.3340529E-3,7.175713E-2,7.824447E-2,-4.7251616E-2,-4.3993432E-2,8.376491E-2,-6.352908E-2,2.151132E-2,-6.924218E-2,-1.9033853E-2,-6.1149388E-3,7.137557E-2,-4.377724E-3,3.4951292E-2,-2.4721695E-2,8.151582E-3,3.726632E-2,9.645402E-4,4.368434E-2,-9.091833E-3,2.7429396E-2,2.3496298E-3,4.825982E-3,-4.144964E-2,-1.8523639E-2,2.5330946E-2,1.5651425E-2,-3.7802085E-2],"categories":[],"categories_nodes":[],"categories_segments":[],"categories_sizes":[],"default_left":[0,0,0,0,0,0,0,0,0,0,0,0,0,0,0,0,0,0,0,0,0,0,0,0,0,0,0,0,0,0,0,0,0,0,0,0,0,0,0,0,0,0,0,0,0,0,0,0,0,0,0,0,0,0,0,0,0,0,0,0,0],"id":18,"left_children":[1,3,5,7,9,11,13,15,17,19,21,23,25,27,29,31,33,35,-1,37,39,41,43,45,47,49,51,53,55,57,59,-1,-1,-1,-1,-1,-1,-1,-1,-1,-1,-1,-1,-1,-1,-1,-1,-1,-1,-1,-1,-1,-1,-1,-1,-1,-1,-1,-1,-1,-1],"loss_changes":[3.815853E2,6.8381226E1,2.1135138E2,2.9845642E1,5.2798096E1,1.585872E2,1.3027142E2,2.3125345E1,1.2175028E1,2.3490051E1,2.7513697E1,7.570167E1,3.7668915E1,6.50763E1,1.405175E2,1.9817898E1,1.6332434E1,1.0226387E1,0E0,5.3844204E1,2.1951263E1,1.44049225E1,1.8766985E1,6.988237E1,7.429423E1,4.2454647E1,4.408319E1,5.0752968E1,5.3124245E1,7.474139E1,9.047519E1,0E0,0E0,0E0,0E0,0E0,0E0,0E0,0E0,0E0,0E0,0E0,0E0,0E0,0E0,0E0,0E0,0E0,0E0,0E0,0E0,0E0,0E0,0E0,0E0,0E0,0E0,0E0,0E0,0E0,0E0],"parents":[2147483647,0,0,1,1,2,2,3,3,4,4,5,5,6,6,7,7,8,8,9,9,10,10,11,11,12,12,13,13,14,14,15,15,16,16,17,17,19,19,20,20,21,21,22,22,23,23,24,24,25,25,26,26,27,27,28,28,29,29,30,30],"right_children":[2,4,6,8,10,12,14,16,18,20,22,24,26,28,30,32,34,36,-1,38,40,42,44,46,48,50,52,54,56,58,60,-1,-1,-1,-1,-1,-1,-1,-1,-1,-1,-1,-1,-1,-1,-1,-1,-1,-1,-1,-1,-1,-1,-1,-1,-1,-1,-1,-1,-1,-1],"split_conditions":[4.4E1,6.0369E-2,-1.296E0,2.3312736E-1,2.2112818E-1,1.261E0,7.6E-1,6.952491E1,-1.92E-1,9.8446E-2,8.37E-1,6.0622E-2,1.01457E-1,-4.94E-1,5.8175E-2,4.2493E-2,2.0127541E-1,2.47399E-1,-5.351397E-2,3.9958027E1,1.11964874E2,9.816729E1,2.29E0,1.44E0,7.491487E1,7.1592E-2,5.03222E-1,1.20797E-1,1.0291E-1,7.21E-1,-1.083E0,2.151014E-2,-5.295841E-2,-3.3340529E-3,7.175713E-2,7.824447E-2,-4.7251616E-2,-4.3993432E-2,8.376491E-2,-6.352908E-2,2.151132E-2,-6.924218E-2,-1.9033853E-2,-6.1149388E-3,7.137557E-2,-4.377724E-3,3.4951292E-2,-2.4721695E-2,8.151582E-3,3.726632E-2,9.645402E-4,4.368434E-2,-9.091833E-3,2.7429396E-2,2.3496298E-3,4.825982E-3,-4.144964E-2,-1.8523639E-2,2.5330946E-2,1.5651425E-2,-3.7802085E-2],"split_indices":[0,45,72,95,63,105,6,2,104,101,17,45,69,40,45,45,63,77,0,99,2,91,105,98,2,45,77,85,77,42,40,0,0,0,0,0,0,0,0,0,0,0,0,0,0,0,0,0,0,0,0,0,0,0,0,0,0,0,0,0,0],"split_type":[0,0,0,0,0,0,0,0,0,0,0,0,0,0,0,0,0,0,0,0,0,0,0,0,0,0,0,0,0,0,0,0,0,0,0,0,0,0,0,0,0,0,0,0,0,0,0,0,0,0,0,0,0,0,0,0,0,0,0,0,0],"sum_hessian":[4.854431E3,6.043641E2,4.250067E3,1.000882E2,5.042759E2,2.081216E3,2.168851E3,8.120449E1,1.8883713E1,3.7208554E2,1.3219035E2,1.1748832E3,9.0633276E2,1.0652987E3,1.1035524E3,4.705291E1,3.415158E1,1.7298635E1,1.5850787E0,8.6367874E1,2.8571768E2,5.8427578E1,7.376278E1,4.757463E2,6.991369E2,3.2168713E2,5.846456E2,8.14863E2,2.5043567E2,3.9318726E2,7.103651E2,1.1174532E1,3.5878376E1,2.5005262E1,9.14632E0,1.6161364E1,1.1372712E0,7.808842E1,8.279452E0,2.7836972E2,7.347964E0,2.6637827E1,3.178975E1,6.591461E1,7.8481655E0,1.8329803E2,2.9244827E2,3.0090747E2,3.9822943E2,1.544983E2,1.6718884E2,5.423074E2,4.2338223E1,3.650459E2,4.4981708E2,1.409285E2,1.0950718E2,1.712886E2,2.2189865E2,9.016483E1,6.2020026E2],"tree_param":{"num_deleted":"0","num_feature":"110","num_nodes":"61","size_leaf_vector":"1"}},{"base_weights":[3.4777606E-3,-1.3631837E-1,4.083939E-1,2.9731506E-1,-2.68146E-1,7.939175E-1,2.1495914E-1,-6.200378E-2,6.039963E-1,5.2077487E-2,-5.3872657E-1,-4.1066748E-1,9.0754867E-1,-1.33853E-4,5.594658E-1,3.3109012E-1,-3.682849E-1,-1.5214866E-1,7.296897E-1,-3.2427257E-1,2.724998E-1,-7.874985E-1,-5.187201E-2,-1.2179575E0,2.0018567E-1,1.1036516E0,6.509187E-1,3.031022E-1,-5.339182E-1,3.047085E-1,8.998472E-1,-5.69819E-2,1.9654665E-2,-3.8602266E-3,-4.015444E-2,2.4990836E-2,-4.09071E-2,4.705697E-2,2.3042003E-2,1.0316404E-2,-2.8959868E-2,3.452984E-2,8.019044E-3,-4.7064308E-2,-2.1276286E-2,-3.4047507E-2,5.4305433E-3,-7.571513E-2,2.8216546E-2,6.397803E-2,-5.356207E-2,2.0657763E-2,5.9816696E-2,1.5221216E-2,5.4445118E-2,8.160784E-3,5.3354766E-2,-3.9522026E-2,1.5103835E-2,-1.3202478E-2,3.185458E-2,-2.0201177E-4,5.2615464E-2],"categories":[],"categories_nodes":[],"categories_segments":[],"categories_sizes":[],"default_left":[0,0,0,0,0,0,0,0,0,0,0,0,0,0,0,0,0,0,0,0,0,0,0,1,0,0,0,0,0,0,0,0,0,0,0,0,0,0,0,0,0,0,0,0,0,0,0,0,0,0,0,0,0,0,0,0,0,0,0,0,0,0,0],"id":19,"left_children":[1,3,5,7,9,11,13,15,17,19,21,23,25,27,29,31,33,35,37,39,41,43,45,47,49,51,53,55,57,59,61,-1,-1,-1,-1,-1,-1,-1,-1,-1,-1,-1,-1,-1,-1,-1,-1,-1,-1,-1,-1,-1,-1,-1,-1,-1,-1,-1,-1,-1,-1,-1,-1],"loss_changes":[2.722578E2,2.0446497E2,9.188129E1,9.194224E1,2.3764284E2,5.6772583E1,6.1009777E1,4.646928E1,4.2885452E1,1.0435361E2,1.7999527E2,1.8098759E1,1.8246307E1,8.236671E1,2.7167847E1,1.5869223E1,2.7382154E1,2.8622017E1,2.1514206E1,6.2975346E1,3.707091E1,5.4359924E1,5.093206E1,9.166414E0,3.0834934E1,1.3083954E1,2.4809807E1,3.4507553E1,3.9773457E1,3.4670753E1,1.8602173E1,0E0,0E0,0E0,0E0,0E0,0E0,0E0,0E0,0E0,0E0,0E0,0E0,0E0,0E0,0E0,0E0,0E0,0E0,0E0,0E0,0E0,0E0,0E0,0E0,0E0,0E0,0E0,0E0,0E0,0E0,0E0,0E0],"parents":[2147483647,0,0,1,1,2,2,3,3,4,4,5,5,6,6,7,7,8,8,9,9,10,10,11,11,12,12,13,13,14,14,15,15,16,16,17,17,18,18,19,19,20,20,21,21,22,22,23,23,24,24,25,25,26,26,27,27,28,28,29,29,30,30],"right_children":[2,4,6,8,10,12,14,16,18,20,22,24,26,28,30,32,34,36,38,40,42,44,46,48,50,52,54,56,58,60,62,-1,-1,-1,-1,-1,-1,-1,-1,-1,-1,-1,-1,-1,-1,-1,-1,-1,-1,-1,-1,-1,-1,-1,-1,-1,-1,-1,-1,-1,-1,-1,-1],"split_conditions":[1.45E-1,5.6601E-2,7.6416665E-1,1.536E0,7.790909E-1,3.65E-1,9.09E-1,8.536364E-1,2.89E-1,7.42E-1,1.5983842E1,1.151E0,6.5676E-2,6.7956E-2,2E-1,-6.16E-3,1.09105E-1,-7.57E-1,5.0371E-2,5.5E-1,-1.722E0,1.121E0,8.2E-1,1.5E-1,5.13E-1,9.391447E0,1.166E0,1.4142142E1,1.598E0,1.979E0,-4.7E-1,-5.69819E-2,1.9654665E-2,-3.8602266E-3,-4.015444E-2,2.4990836E-2,-4.09071E-2,4.705697E-2,2.3042003E-2,1.0316404E-2,-2.8959868E-2,3.452984E-2,8.019044E-3,-4.7064308E-2,-2.1276286E-2,-3.4047507E-2,5.4305433E-3,-7.571513E-2,2.8216546E-2,6.397803E-2,-5.356207E-2,2.0657763E-2,5.9816696E-2,1.5221216E-2,5.4445118E-2,8.160784E-3,5.3354766E-2,-3.9522026E-2,1.5103835E-2,-1.3202478E-2,3.185458E-2,-2.0201177E-4,5.2615464E-2],"split_indices":[11,45,4,98,4,25,25,4,25,17,51,66,53,45,11,70,85,64,45,6,80,42,26,13,73,27,17,43,18,82,24,0,0,0,0,0,0,0,0,0,0,0,0,0,0,0,0,0,0,0,0,0,0,0,0,0,0,0,0,0,0,0,0],"split_type":[0,0,0,0,0,0,0,0,0,0,0,0,0,0,0,0,0,0,0,0,0,0,0,0,0,0,0,0,0,0,0,0,0,0,0,0,0,0,0,0,0,0,0,0,0,0,0,0,0,0,0,0,0,0,0,0,0,0,0,0,0,0,0],"sum_hessian":[4.80774E3,3.5743645E3,1.2333757E3,8.330096E2,2.7413547E3,4.1104382E2,8.223319E2,3.8395352E2,4.4905606E2,1.2558748E3,1.4854801E3,3.520696E1,3.7583688E2,5.0686807E2,3.1546384E2,1.6811139E2,2.1584212E2,6.3976505E1,3.8507956E2,4.6369263E2,7.921821E2,9.827164E2,5.027637E2,1.4737E1,2.0469955E1,2.111708E2,1.6466606E2,3.2351532E2,1.8335275E2,1.8150911E2,1.3395473E2,6.0974855E0,1.620139E2,1.2999454E2,8.584758E1,3.245481E1,3.1521694E1,2.1415022E2,1.7092934E2,1.5054298E2,3.1314966E2,1.6642302E2,6.257591E2,6.885701E2,2.9414624E2,1.0153047E2,4.0123325E2,1.2764911E1,1.9720902E0,1.1067679E1,9.402277E0,2.5636068E1,1.8553474E2,9.288144E1,7.178462E1,2.7447314E2,4.904218E1,1.4034335E2,4.3009403E1,6.7024895E1,1.1448422E2,1.947408E1,1.1448064E2],"tree_param":{"num_deleted":"0","num_feature":"110","num_nodes":"63","size_leaf_vector":"1"}},{"base_weights":[-3.5001098E-3,-1.3128495E-1,3.931888E-1,3.2676196E-1,-2.3934612E-1,1.6106072E-1,7.300736E-1,1.4023949E-1,8.382041E-1,6.8498805E-2,-4.85705E-1,2.2468446E-1,-1.0604893E0,4.5581737E-1,1.0778929E0,-4.0593305E-1,2.6607084E-1,9.140017E-1,-7.463366E-1,-1.3914682E-1,3.9263603E-1,-8.030233E-1,-1.098607E-1,-7.410407E-2,4.643109E-1,9.9460196E-1,-1.4637676E0,3.4403697E-2,8.8273126E-1,1.109195E0,-6.3870296E-2,-3.410234E-2,3.0235996E-2,4.3922935E-2,7.1626427E-3,-2.997841E-2,4.8891902E-2,-8.53937E-2,5.1714193E-2,-2.5919199E-2,2.6676923E-3,4.0938254E-2,1.2580575E-2,-8.766475E-3,-4.592861E-2,2.144064E-2,-1.4383559E-2,1.1134966E-2,-3.8508747E-2,-4.104187E-3,3.1763077E-2,-3.6690824E-3,6.1803192E-2,-8.3544694E-2,1.2670268E-2,4.910151E-2,-1.042637E-2,4.757547E-2,-3.5180043E-2,-5.9273113E-3,5.687371E-2],"categories":[],"categories_nodes":[],"categories_segments":[],"categories_sizes":[],"default_left":[0,0,0,0,0,0,0,0,0,0,0,1,0,0,0,0,0,0,0,0,0,0,0,0,0,1,0,0,0,0,0,0,0,0,0,0,0,0,0,0,0,0,0,0,0,0,0,0,0,0,0,0,0,0,0,0,0,0,0,0,0],"id":20,"left_children":[1,3,5,7,9,11,13,15,17,19,21,23,25,27,29,31,33,35,37,39,41,43,45,47,49,51,53,55,57,59,-1,-1,-1,-1,-1,-1,-1,-1,-1,-1,-1,-1,-1,-1,-1,-1,-1,-1,-1,-1,-1,-1,-1,-1,-1,-1,-1,-1,-1,-1,-1],"loss_changes":[2.4155852E2,1.7847885E2,9.067668E1,6.555464E1,2.2124774E2,5.3762325E1,4.4663666E1,3.4859093E1,2.2753876E1,8.738338E1,1.9315842E2,4.6960438E1,2.9856838E1,4.7897575E1,1.6748962E1,2.6944399E1,3.08294E1,1.7575195E1,1.7072878E1,5.7817097E1,3.0255676E1,6.3550354E1,7.128233E1,6.0613274E1,3.40384E1,1.6939178E0,1.075629E1,3.1307238E1,1.5103806E1,7.279007E0,0E0,0E0,0E0,0E0,0E0,0E0,0E0,0E0,0E0,0E0,0E0,0E0,0E0,0E0,0E0,0E0,0E0,0E0,0E0,0E0,0E0,0E0,0E0,0E0,0E0,0E0,0E0,0E0,0E0,0E0,0E0],"parents":[2147483647,0,0,1,1,2,2,3,3,4,4,5,5,6,6,7,7,8,8,9,9,10,10,11,11,12,12,13,13,14,14,15,15,16,16,17,17,18,18,19,19,20,20,21,21,22,22,23,23,24,24,25,25,26,26,27,27,28,28,29,29],"right_children":[2,4,6,8,10,12,14,16,18,20,22,24,26,28,30,32,34,36,38,40,42,44,46,48,50,52,54,56,58,60,-1,-1,-1,-1,-1,-1,-1,-1,-1,-1,-1,-1,-1,-1,-1,-1,-1,-1,-1,-1,-1,-1,-1,-1,-1,-1,-1,-1,-1,-1,-1],"split_conditions":[1.5E-1,5.3875E-2,9.01E-1,7.96E-1,7.772727E-1,2.1558691E2,7.457627E1,5.4E-1,-1.77E-1,1.261E0,8.94E-1,6.7567566E1,-9.65E-1,1.95E-1,7.498278E-1,1.423E0,1.0801234E1,8.85785E-2,1.136E0,6.43E-1,1.34114E-1,9.019E-2,-1.397E0,6.7956E-2,1.3360204E-1,1.1E-1,2.736E0,7.528E-2,7.2276103E-1,8.36E-1,-6.3870296E-2,-3.410234E-2,3.0235996E-2,4.3922935E-2,7.1626427E-3,-2.997841E-2,4.8891902E-2,-8.53937E-2,5.1714193E-2,-2.5919199E-2,2.6676923E-3,4.0938254E-2,1.2580575E-2,-8.766475E-3,-4.592861E-2,2.144064E-2,-1.4383559E-2,1.1134966E-2,-3.8508747E-2,-4.104187E-3,3.1763077E-2,-3.6690824E-3,6.1803192E-2,-8.3544694E-2,1.2670268E-2,4.910151E-2,-1.042637E-2,4.757547E-2,-3.5180043E-2,-5.9273113E-3,5.687371E-2],"split_indices":[11,45,25,42,4,67,2,26,96,105,17,2,40,11,63,66,8,103,73,17,93,93,64,45,103,13,73,29,71,97,0,0,0,0,0,0,0,0,0,0,0,0,0,0,0,0,0,0,0,0,0,0,0,0,0,0,0,0,0,0,0],"split_type":[0,0,0,0,0,0,0,0,0,0,0,0,0,0,0,0,0,0,0,0,0,0,0,0,0,0,0,0,0,0,0,0,0,0,0,0,0,0,0,0,0,0,0,0,0,0,0,0,0,0,0,0,0,0,0,0,0,0,0,0,0],"sum_hessian":[4.7633115E3,3.6032656E3,1.1600459E3,6.8742065E2,2.915845E3,6.876817E2,4.7236417E2,5.046496E2,1.8277103E2,1.2964945E3,1.6193506E3,6.544131E2,3.326867E1,2.6540347E2,2.0696068E2,9.407779E1,4.105718E2,1.7483104E2,7.939989E0,7.9059924E2,5.0589523E2,8.7742255E2,7.4192804E2,2.9155988E2,3.6285318E2,5.216958E0,2.805171E1,1.3410591E2,1.3129755E2,2.0476836E2,2.19233E0,7.4146E1,1.993179E1,6.755927E1,3.4301254E2,6.7356386E0,1.680954E2,5.1823616E0,2.7576275E0,2.6562E2,5.2497925E2,1.24597466E2,3.8129776E2,1.3680061E2,7.406219E2,1.8377463E2,5.5815344E2,2.0487962E2,8.668025E1,8.659546E1,2.7625772E2,1.0903674E0,4.1265903E0,2.505635E1,2.9953592E0,2.6743267E1,1.0736265E2,1.2622503E2,5.072521E0,4.5384703E0,2.0022989E2],"tree_param":{"num_deleted":"0","num_feature":"110","num_nodes":"61","size_leaf_vector":"1"}},{"base_weights":[8.564568E-3,-3.8771048E-1,1.8985139E-1,3.245842E-1,-5.249877E-1,-1.14811406E-1,3.4084436E-1,1.1640101E-1,1.0514735E0,-8.2921296E-1,-2.5579512E-1,2.7626735E-1,-2.750971E-1,6.220677E-1,2.0689487E-1,2.9470107E-1,-5.958808E-1,1.2160522E0,-8.862881E-1,3.0436037E-2,-9.3790555E-1,8.680814E-2,-5.278147E-1,3.471292E-1,-1.529346E0,-3.977368E-1,3.1337774E-1,6.774689E-1,-4.1037244E-1,8.356475E-2,7.417661E-1,-8.00944E-2,1.9421084E-2,-7.1682404E-3,-8.9338936E-2,-5.561753E-2,6.486361E-2,-6.742889E-2,2.1257838E-2,-3.89127E-2,2.3455886E-2,-3.3575695E-2,-5.551511E-2,-1.2493893E-2,3.3722285E-2,-1.0446956E-2,-4.4210784E-2,3.0558333E-2,-6.7153065E-5,-8.071649E-3,-8.7297685E-2,-1.029745E-3,-2.8843163E-2,3.537823E-2,-4.7907284E-3,7.6442244E-3,3.848184E-2,-4.5691498E-2,3.1544354E-2,3.3689283E-2,-3.2448608E-3,4.239378E-2,-7.159736E-3],"categories":[],"categories_nodes":[],"categories_segments":[],"categories_sizes":[],"default_left":[0,0,0,0,0,0,0,0,0,0,0,1,0,0,1,0,0,0,0,0,0,0,0,0,0,1,0,0,0,0,0,0,0,0,0,0,0,0,0,0,0,0,0,0,0,0,0,0,0,0,0,0,0,0,0,0,0,0,0,0,0,0,0],"id":21,"left_children":[1,3,5,7,9,11,13,15,17,19,21,23,25,27,29,31,33,35,37,39,41,43,45,47,49,51,53,55,57,59,61,-1,-1,-1,-1,-1,-1,-1,-1,-1,-1,-1,-1,-1,-1,-1,-1,-1,-1,-1,-1,-1,-1,-1,-1,-1,-1,-1,-1,-1,-1,-1,-1],"loss_changes":[3.4128607E2,1.4597913E2,1.4998196E2,3.6432884E1,1.0220584E2,6.782909E1,8.1977264E1,2.4166994E1,1.81899E1,5.484369E1,6.2015427E1,4.0798164E1,5.5490017E1,4.04729E1,9.742881E1,2.7596943E1,2.0303762E1,1.0875687E1,3.470662E0,2.4069208E1,2.3173645E1,5.856393E1,4.1955353E1,2.7939003E1,3.2943726E0,4.2905525E1,2.1498304E1,3.2146942E1,1.9664268E1,1.0537875E2,2.6113113E1,0E0,0E0,0E0,0E0,0E0,0E0,0E0,0E0,0E0,0E0,0E0,0E0,0E0,0E0,0E0,0E0,0E0,0E0,0E0,0E0,0E0,0E0,0E0,0E0,0E0,0E0,0E0,0E0,0E0,0E0,0E0,0E0],"parents":[2147483647,0,0,1,1,2,2,3,3,4,4,5,5,6,6,7,7,8,8,9,9,10,10,11,11,12,12,13,13,14,14,15,15,16,16,17,17,18,18,19,19,20,20,21,21,22,22,23,23,24,24,25,25,26,26,27,27,28,28,29,29,30,30],"right_children":[2,4,6,8,10,12,14,16,18,20,22,24,26,28,30,32,34,36,38,40,42,44,46,48,50,52,54,56,58,60,62,-1,-1,-1,-1,-1,-1,-1,-1,-1,-1,-1,-1,-1,-1,-1,-1,-1,-1,-1,-1,-1,-1,-1,-1,-1,-1,-1,-1,-1,-1,-1,-1],"split_conditions":[5.7E1,5.3589E-2,5.29E-1,1.5357773E-1,7.7E-1,4.9692E-2,-1.282E0,1.208E-1,-1.18E-1,5.4E-1,8.0454546E-1,1.57E0,2.516E0,5.03222E-1,5.238095E1,2.55E-1,1.531E0,1.25E-1,7.6388885E1,8.64E-1,7.0214E-2,4E-1,1.16224E-1,-8.31E-1,-5.603E-3,6.1E-1,1.72624E-1,1.6008922E-1,-3.73E-1,9.1345E-2,1.33808E-1,-8.00944E-2,1.9421084E-2,-7.1682404E-3,-8.9338936E-2,-5.561753E-2,6.486361E-2,-6.742889E-2,2.1257838E-2,-3.89127E-2,2.3455886E-2,-3.3575695E-2,-5.551511E-2,-1.2493893E-2,3.3722285E-2,-1.0446956E-2,-4.4210784E-2,3.0558333E-2,-6.7153065E-5,-8.071649E-3,-8.7297685E-2,-1.029745E-3,-2.8843163E-2,3.537823E-2,-4.7907284E-3,7.6442244E-3,3.848184E-2,-4.5691498E-2,3.1544354E-2,3.3689283E-2,-3.2448608E-3,4.239378E-2,-7.159736E-3],"split_indices":[0,45,25,103,17,45,64,93,16,6,4,7,98,77,10,89,89,33,2,42,45,12,101,88,94,6,93,103,24,93,37,0,0,0,0,0,0,0,0,0,0,0,0,0,0,0,0,0,0,0,0,0,0,0,0,0,0,0,0,0,0,0,0],"split_type":[0,0,0,0,0,0,0,0,0,0,0,0,0,0,0,0,0,0,0,0,0,0,0,0,0,0,0,0,0,0,0,0,0,0,0,0,0,0,0,0,0,0,0,0,0,0,0,0,0,0,0,0,0,0,0,0,0,0,0,0,0,0,0],"sum_hessian":[4.7486533E3,1.4901638E3,3.2584893E3,2.4056618E2,1.2495977E3,1.0798617E3,2.1786277E3,1.8790872E2,5.265746E1,5.8565045E2,6.639472E2,3.1371338E2,7.6614825E2,7.01727E2,1.4769006E3,1.5075711E2,3.715162E1,4.8878532E1,3.7789245E0,6.58178E1,5.1983264E2,2.9415088E2,3.6979633E2,3.026438E2,1.1069597E1,6.3428564E2,1.3186266E2,6.66316E2,3.5411022E1,1.2011068E3,2.7579388E2,6.3411613E0,1.4441594E2,2.773376E1,9.417857E0,1.2196023E0,4.765893E1,2.773086E0,1.0058385E0,2.2874891E1,4.2942913E1,2.0616168E2,3.13671E2,1.8737148E2,1.0677942E2,1.9601024E2,1.7378609E2,1.717528E2,1.3089098E2,1.7518233E0,9.317774E0,2.0460815E2,4.2967746E2,6.67914E1,6.507125E1,9.9972E1,5.66344E2,2.395228E1,1.1458743E1,2.406897E2,9.6041705E2,2.4630328E2,2.9490604E1],"tree_param":{"num_deleted":"0","num_feature":"110","num_nodes":"63","size_leaf_vector":"1"}},{"base_weights":[-2.6079323E-3,-7.232339E-1,8.5084654E-2,7.389005E-1,-8.022873E-1,-7.410669E-4,5.6485146E-1,-5.7649016E-2,9.316146E-1,-4.1157675E-1,-1.0382831E0,1.8430738E-1,-1.974461E-1,7.664016E-1,2.0873362E-1,1.1498752E0,-6.7176485E-1,6.979942E-1,-5.436039E-1,-1.1116949E0,7.8766453E-1,-4.2804085E-2,4.008556E-1,-4.738502E-1,2.0165056E-1,4.1955125E-1,8.837399E-1,7.9136264E-1,-1.1684372E-1,4.7205817E-3,6.9524676E-2,7.747794E-3,-5.555279E-2,-6.335622E-2,5.1893212E-2,-5.281214E-2,-1.5698247E-2,-3.8890798E-2,-6.259878E-2,5.9152123E-2,-5.0041478E-2,2.0363575E-2,-1.465107E-2,-3.450409E-3,2.802868E-2,-7.433196E-3,-3.7643682E-2,-3.7537493E-2,1.4661363E-2,2.7535921E-2,-4.973303E-2,3.0382423E-2,5.3285766E-2,1.22490935E-2,5.2509494E-2,-3.1198258E-2,1.8369315E-2],"categories":[],"categories_nodes":[],"categories_segments":[],"categories_sizes":[],"default_left":[0,0,0,0,0,0,0,0,0,0,0,1,0,1,0,0,0,0,0,0,0,0,0,0,0,0,0,0,0,0,0,0,0,0,0,0,0,0,0,0,0,0,0,0,0,0,0,0,0,0,0,0,0,0,0,0,0],"id":22,"left_children":[1,3,5,7,9,11,13,-1,15,17,19,21,23,25,27,29,31,33,35,37,39,41,43,45,47,49,51,53,55,-1,-1,-1,-1,-1,-1,-1,-1,-1,-1,-1,-1,-1,-1,-1,-1,-1,-1,-1,-1,-1,-1,-1,-1,-1,-1,-1,-1],"loss_changes":[2.9736694E2,5.9600372E1,1.7274232E2,1.0811034E1,4.4274048E1,1.2960487E2,4.553218E1,0E0,9.4479885E0,2.7365746E1,4.1301758E1,9.024634E1,1.9048593E2,1.615892E1,4.3996536E1,5.5039177E0,1.4801302E0,1.4690572E1,1.911467E1,1.2624878E1,9.840551E0,1.0106759E2,7.0526306E1,9.24377E1,6.187635E1,1.994535E1,1.4554428E1,1.1494579E1,3.690431E1,0E0,0E0,0E0,0E0,0E0,0E0,0E0,0E0,0E0,0E0,0E0,0E0,0E0,0E0,0E0,0E0,0E0,0E0,0E0,0E0,0E0,0E0,0E0,0E0,0E0,0E0,0E0,0E0],"parents":[2147483647,0,0,1,1,2,2,3,3,4,4,5,5,6,6,8,8,9,9,10,10,11,11,12,12,13,13,14,14,15,15,16,16,17,17,18,18,19,19,20,20,21,21,22,22,23,23,24,24,25,25,26,26,27,27,28,28],"right_children":[2,4,6,8,10,12,14,-1,16,18,20,22,24,26,28,30,32,34,36,38,40,42,44,46,48,50,52,54,56,-1,-1,-1,-1,-1,-1,-1,-1,-1,-1,-1,-1,-1,-1,-1,-1,-1,-1,-1,-1,-1,-1,-1,-1,-1,-1,-1,-1],"split_conditions":[4.2E1,4.5602E-2,2.12E0,3.59E-1,7.1E-1,7.6E-1,-1.296E0,-5.7649016E-2,2.502E-3,6.0111E-2,2.758E0,3.95E-1,4.5E-1,6.593407E1,1.34518E-1,1.3E-1,8.114259E-2,5.2482E-2,1.5798876E-1,1.0095E-1,3.70823E-1,6.1214286E-1,4.32E-1,6.6284E-2,6.46E-1,-2.11E-1,-4.84E-1,1.464E0,9.4898E-2,4.7205817E-3,6.9524676E-2,7.747794E-3,-5.555279E-2,-6.335622E-2,5.1893212E-2,-5.281214E-2,-1.5698247E-2,-3.8890798E-2,-6.259878E-2,5.9152123E-2,-5.0041478E-2,2.0363575E-2,-1.465107E-2,-3.450409E-3,2.802868E-2,-7.433196E-3,-3.7643682E-2,-3.7537493E-2,1.4661363E-2,2.7535921E-2,-4.973303E-2,3.0382423E-2,5.3285766E-2,1.22490935E-2,5.2509494E-2,-3.1198258E-2,1.8369315E-2],"split_indices":[0,45,97,89,6,6,72,0,46,45,66,12,12,2,85,13,31,69,23,101,69,4,25,45,97,32,104,82,69,0,0,0,0,0,0,0,0,0,0,0,0,0,0,0,0,0,0,0,0,0,0,0,0,0,0,0,0],"split_type":[0,0,0,0,0,0,0,0,0,0,0,0,0,0,0,0,0,0,0,0,0,0,0,0,0,0,0,0,0,0,0,0,0,0,0,0,0,0,0,0,0,0,0,0,0,0,0,0,0,0,0,0,0,0,0,0,0],"sum_hessian":[4.7036797E3,5.0950494E2,4.194175E3,2.5706297E1,4.8379865E2,3.5585776E3,6.355972E2,1.9158151E0,2.3790482E1,1.8321506E2,3.005836E2,1.8336506E3,1.724927E3,4.051465E2,2.3045071E2,2.1188969E1,2.6015139E0,1.9026608E1,1.6418845E2,2.8934183E2,1.1241756E1,8.9538794E2,9.382627E2,1.01900385E3,7.059232E2,1.03570145E2,3.0157635E2,8.2100006E1,1.4835072E2,4.1922374E0,1.699673E1,1.1272857E0,1.4742281E0,2.4031868E0,1.662342E1,4.9681477E1,1.14506966E2,8.7538345E1,2.0180348E2,9.483737E0,1.75802E0,3.1970126E2,5.7568665E2,2.3817105E2,7.000917E2,4.7128284E2,5.47721E2,6.1291523E1,6.4463165E2,9.533818E1,8.231968E0,1.2153051E2,1.8004584E2,2.7016027E1,5.5083977E1,7.232162E1,7.60291E1],"tree_param":{"num_deleted":"0","num_feature":"110","num_nodes":"57","size_leaf_vector":"1"}},{"base_weights":[1.7771538E-3,-8.1570335E-2,6.0643464E-1,1.9252336E-1,-2.421513E-1,-1.2012386E-1,7.3849255E-1,3.827605E-1,-9.122654E-3,-5.277512E-1,3.1944003E-2,-1.1721556E0,9.746896E-2,7.7887034E-1,-7.5852644E-1,6.1845172E-2,5.350302E-1,9.035583E-2,-5.7999563E-1,8.580397E-1,-5.759763E-1,1.1539948E-1,-7.48293E-1,-8.269301E-2,-1.767606E-1,3.2529625E-1,-1.2620888E0,8.6181813E-1,2.040854E-1,-1.5179409E0,5.6897648E-2,6.6742017E-3,-4.7995325E-2,1.5732892E-2,4.1686434E-2,-1.1352771E-2,1.40447095E-2,7.5451396E-3,-4.554502E-2,6.1541365E-4,6.819143E-2,-1.0902063E-2,-3.902926E-2,-8.5310135E-3,1.8981343E-2,-2.3021156E-2,-7.7452116E-2,6.238639E-2,-6.611062E-2,-2.1972455E-2,3.0915547E-2,7.976162E-3,-7.2294414E-2,4.5416407E-2,-4.895453E-3,-1.4756105E-2,5.2990902E-2,-9.0638965E-2,2.6616348E-2],"categories":[],"categories_nodes":[],"categories_segments":[],"categories_sizes":[],"default_left":[0,0,0,0,0,0,0,0,0,0,0,0,1,0,1,0,0,0,0,0,0,0,0,0,0,0,0,0,0,0,0,0,0,0,0,0,0,0,0,0,0,0,0,0,0,0,0,0,0,0,0,0,0,0,0,0,0,0,0],"id":23,"left_children":[1,3,5,7,9,11,13,15,17,19,21,23,25,27,29,31,33,35,37,39,41,43,45,-1,47,49,51,53,55,57,-1,-1,-1,-1,-1,-1,-1,-1,-1,-1,-1,-1,-1,-1,-1,-1,-1,-1,-1,-1,-1,-1,-1,-1,-1,-1,-1,-1,-1],"loss_changes":[2.3725401E2,1.8215276E2,5.480887E1,5.8658417E1,2.0428448E2,2.039054E1,2.9770386E1,3.841452E1,4.2260708E1,8.589865E1,8.684948E1,7.0232887E0,2.3430319E1,2.2258636E1,2.0716654E1,1.874373E1,3.4853943E1,3.8396015E1,2.6845757E1,1.8538633E1,9.0318054E1,9.1099594E1,2.8996109E1,0E0,1.1595316E1,1.4713148E1,3.0712605E0,1.8430176E1,2.6222698E1,6.915331E0,0E0,0E0,0E0,0E0,0E0,0E0,0E0,0E0,0E0,0E0,0E0,0E0,0E0,0E0,0E0,0E0,0E0,0E0,0E0,0E0,0E0,0E0,0E0,0E0,0E0,0E0,0E0,0E0,0E0],"parents":[2147483647,0,0,1,1,2,2,3,3,4,4,5,5,6,6,7,7,8,8,9,9,10,10,11,11,12,12,13,13,14,14,15,15,16,16,17,17,18,18,19,19,20,20,21,21,22,22,24,24,25,25,26,26,27,27,28,28,29,29],"right_children":[2,4,6,8,10,12,14,16,18,20,22,24,26,28,30,32,34,36,38,40,42,44,46,-1,48,50,52,54,56,58,-1,-1,-1,-1,-1,-1,-1,-1,-1,-1,-1,-1,-1,-1,-1,-1,-1,-1,-1,-1,-1,-1,-1,-1,-1,-1,-1,-1,-1],"split_conditions":[1.85E-1,6.8E-1,7.4E-1,2.38E-1,4.15E-1,4.13E-1,3.4529233E2,1.11E0,-4.33E-1,-1.053E0,-6.07E-1,2.079E0,2.3205388E-1,2.20103E-1,6.4209274E1,1.10677E-1,1.075E-1,1.0526316E1,4.6933E-2,1E0,1.12226E-1,6.4209274E1,6E-1,-8.269301E-2,3.0356106E-1,4.5185E-2,2.7E-1,-1.28E-1,1.256E0,-3.63E-1,5.6897648E-2,6.6742017E-3,-4.7995325E-2,1.5732892E-2,4.1686434E-2,-1.1352771E-2,1.40447095E-2,7.5451396E-3,-4.554502E-2,6.1541365E-4,6.819143E-2,-1.0902063E-2,-3.902926E-2,-8.5310135E-3,1.8981343E-2,-2.3021156E-2,-7.7452116E-2,6.238639E-2,-6.611062E-2,-2.1972455E-2,3.0915547E-2,7.976162E-3,-7.2294414E-2,4.5416407E-2,-4.895453E-3,-1.4756105E-2,5.2990902E-2,-9.0638965E-2,2.6616348E-2],"split_indices":[11,6,105,41,12,89,9,97,40,56,72,82,5,69,2,29,69,10,53,1,93,2,65,0,71,45,49,104,17,32,0,0,0,0,0,0,0,0,0,0,0,0,0,0,0,0,0,0,0,0,0,0,0,0,0,0,0,0,0],"split_type":[0,0,0,0,0,0,0,0,0,0,0,0,0,0,0,0,0,0,0,0,0,0,0,0,0,0,0,0,0,0,0,0,0,0,0,0,0,0,0,0,0,0,0,0,0,0,0,0,0,0,0,0,0,0,0,0,0,0,0],"sum_hessian":[4.7057495E3,4.1364375E3,5.693117E2,1.5280421E3,2.6083955E3,8.757581E1,4.8173587E2,7.858018E2,7.422403E2,1.2769366E3,1.3314589E3,1.4257211E1,7.33186E1,4.695508E2,1.21850605E1,2.5332147E2,5.3248035E2,6.3281055E2,1.094298E2,4.2377945E1,1.2345587E3,1.2035746E3,1.2788429E2,9.161935E0,5.095275E0,6.3447197E1,9.871403E0,4.0989856E2,5.9652252E1,8.843447E0,3.3416142E0,2.3753627E2,1.5785206E1,3.0759662E2,2.2488376E2,2.373034E2,3.9550714E2,3.4272682E1,7.515712E1,1.624274E1,2.6135204E1,4.4978577E2,7.847729E2,5.781238E2,6.2545074E2,9.522562E1,3.2658676E1,2.2312255E0,2.8640497E0,1.7437344E1,4.6009853E1,1.1452742E0,8.726129E0,3.9100342E2,1.8895138E1,3.8088024E1,2.156423E1,7.8328743E0,1.010572E0],"tree_param":{"num_deleted":"0","num_feature":"110","num_nodes":"59","size_leaf_vector":"1"}},{"base_weights":[9.92054E-3,-3.1211936E-1,1.9480951E-1,-2.6316142E-2,-5.7029563E-1,-2.3723334E-2,3.811625E-1,-2.5140008E-1,8.339153E-1,-6.87809E-1,2.985694E-2,3.2454434E-1,-1.7425922E-1,2.7477008E-1,8.0527157E-1,1.7256795E-1,-5.789182E-1,1.0321336E0,1.2274853E-1,-1.314314E-1,-8.2766235E-1,2.2248566E-1,-1.2108748E0,3.049337E-2,7.1788263E-1,8.316685E-2,-4.006931E-1,5.137566E-1,3.902431E-2,9.816243E-1,4.731007E-1,-1.169636E-2,4.042644E-2,-4.818148E-3,-4.4233333E-2,-5.910315E-2,5.3555455E-2,-2.7984876E-2,4.2645965E-2,-2.344223E-2,2.1632796E-2,-4.4382285E-2,6.938529E-3,-1.5549945E-2,3.7331913E-2,3.5169005E-2,-7.400261E-2,-1.808375E-2,2.1034403E-2,1.4193754E-2,4.646515E-2,1.0508553E-2,-2.9830152E-2,-3.4550507E-2,-1.2791291E-3,-7.825781E-3,2.9151073E-2,3.0541012E-2,-1.05782E-2,-5.4083932E-2,5.0456848E-2,4.630054E-2,5.5450154E-3],"categories":[],"categories_nodes":[],"categories_segments":[],"categories_sizes":[],"default_left":[0,0,0,0,0,0,0,0,0,0,0,0,0,0,0,0,0,0,0,0,0,0,0,0,0,0,0,0,0,0,0,0,0,0,0,0,0,0,0,0,0,0,0,0,0,0,0,0,0,0,0,0,0,0,0,0,0,0,0,0,0,0,0],"id":24,"left_children":[1,3,5,7,9,11,13,15,17,19,21,23,25,27,29,31,33,35,37,39,41,43,45,47,49,51,53,55,57,59,61,-1,-1,-1,-1,-1,-1,-1,-1,-1,-1,-1,-1,-1,-1,-1,-1,-1,-1,-1,-1,-1,-1,-1,-1,-1,-1,-1,-1,-1,-1,-1,-1],"loss_changes":[2.791306E2,1.2614949E2,1.21291405E2,1.5753839E2,6.3373077E1,7.1968285E1,7.2311264E1,8.963511E1,2.3660805E1,5.83461E1,3.5652805E1,4.78976E1,5.5895653E1,7.2467865E1,1.839006E1,7.30366E1,5.3620773E1,1.2642899E1,1.937123E1,2.915055E1,3.4913635E1,3.6303032E1,1.1372923E1,3.658975E1,1.5994629E1,3.8916126E1,5.5526176E1,2.9749908E1,9.308999E1,1.29735565E1,1.8524557E1,0E0,0E0,0E0,0E0,0E0,0E0,0E0,0E0,0E0,0E0,0E0,0E0,0E0,0E0,0E0,0E0,0E0,0E0,0E0,0E0,0E0,0E0,0E0,0E0,0E0,0E0,0E0,0E0,0E0,0E0,0E0,0E0],"parents":[2147483647,0,0,1,1,2,2,3,3,4,4,5,5,6,6,7,7,8,8,9,9,10,10,11,11,12,12,13,13,14,14,15,15,16,16,17,17,18,18,19,19,20,20,21,21,22,22,23,23,24,24,25,25,26,26,27,27,28,28,29,29,30,30],"right_children":[2,4,6,8,10,12,14,16,18,20,22,24,26,